tree
version=v3
num_class=1
num_tree_per_iteration=1
label_index=0
max_feature_idx=18
objective=regression
feature_names=minute ret1min ret2min ret3min ret4min ret5min ret6min ret7min ret8min ret9min ret10min BOP CCI MFI STOCHRSI slowd slowk NATR stock_id
feature_infos=[0:958] [-0.12014979245623536:0.044781219613835521] [-0.18149659863945578:0.052618589268966787] [-0.1867339581831291:0.064662619082876738] [-0.18563306560779724:0.06066003143006804] [-0.1864040030654105:0.073758336053723728] [-0.19463995668651868:0.073332867165466498] [-0.19463995668651868:0.073908582089552199] [-0.19227114349065577:0.072582861668180731] [-0.19303797468354422:0.077644526445264539] [-0.19358482042014902:0.083333333333333259] [-1:1] [-466.66666666680368:466.66666666702935] [-1.4106719728256626e-10:100.00000000002321] [0:100.00000000000001] [-1.861325908218229e-12:100.00000000000404] [-2.4478197246935451e-12:100.0000000000024] [0.0041300558862628787:5.5656876401588544] -1:0:10:8:1:7:9:2:5:4:3:6:11
tree_sizes=1756 1722 1722 1710 1739 1729 1725 1710 1708 1746 1750 1739 1724 1722 1707 1736 1690 1738 1720 1710 1711 1727 1738 1736 1741 1747 1742 1759 1692 1687 1738 1728 1703 1767 1714 1726 1742 1697 1751 1718 1712 1747 1768 1734 1741 1735 1694 1694 1750 1698 1707 1737 1746 1712 1760 1743 1753 1709 1736 1757 1736 1705 1687 1710 1750 1698 1693 1714 1726 1733 1732 1716 1739 1745 1729 1721 1737 1737 1745 1732 1692 1745 1740 1744 1709 1719 1754 1713 1722 1707 1708 1760 1704 1749 1713 1749 1694 1763 1728 1746 1747 1699 1739 1714 1743 1728 1771 1719 1756 1745 1738 1728 1701 1743 1711 1700 1725 1691 1724 1745 1717 1731 1746 1757 1742 1746 1725 1722 1681 1749 1739 1756 1692 1760 1743 1741 1755 1743 1722 1711 1771 1682 1725 1673 1738 1746 1710 1729 1728 1702 1752 1746 1697 1701 1740 1739 1726 1770 1713 1766 1699 1736 1703 1717 1716 1752 1728 1730 1701 1733 1695 1714 1736 1715 1720 1735 1741 1765 1772 1751 1725 1738 1742 1726 1705 1718 1728 1737 1734 1701 1724 1745 1696 1685 1735 1740 1726 1747 1724 1714 1753 1718 1737 1671 1733 1686 1722 1693 1714 1713 1764 1719 1722 1713 1717 1733 1740 1723 1751 1720 1718 1745 1739 1700 1748 1732 1739 1708 1743 1757 1751 1767 1736 1751 1734 1699 1726 1694 1726 1739 1738 1710 1742 1735 1710 1747 1760 1742 1713 1769

Tree=0
num_leaves=16
num_cat=1
split_feature=1 11 4 12 7 5 5 5 3 16 6 18 17 17 8
split_gain=7.42171e-05 0.000259828 6.60294e-05 4.80717e-05 5.2501e-05 5.02984e-05 4.74668e-05 4.52048e-05 4.0799e-05 8.86966e-05 6.35159e-05 5.12815e-05 5.55789e-05 3.89356e-05 3.08752e-05
threshold=-0.0024804291529531559 -0.58666666666677159 0.00064530812948415683 6.1245564874197127 -0.0067813200887553706 -0.0057127806468709177 -8.0218198131976046e-05 -0.0057127806468709177 -0.0044264494865406947 19.602687971415111 -0.006244144347388624 0 0.25565648074349084 0.31549207654403438 0.0036896274229428765
decision_type=2 2 10 2 8 8 8 8 10 2 8 1 2 2 8
left_child=1 2 3 4 -1 -6 -5 8 11 13 -11 -2 -13 -10 -9
right_child=7 -3 -4 6 5 -7 -8 14 9 10 -12 12 -14 -15 -16
leaf_value=-1.9959658942045249e-05 -1.3070158315148766e-05 -6.9182109489589571e-05 1.7835169981342445e-05 -4.4763268618660347e-05 2.4847624556855351e-05 -5.2397225060973928e-06 -5.6304085569474458e-06 -3.2376509250975673e-06 -4.1783581109998957e-06 4.8479203733287193e-05 9.9819714757535301e-07 1.148554276491241e-06 3.2045686451908658e-05 -3.0165812554779466e-05 -5.9121391409184512e-06
leaf_weight=1999 591 743 920 735 673 3186 536 566200 2460 509 631 964 1470 753 46727
leaf_count=1999 591 743 920 735 673 3186 536 566200 2460 509 631 964 1470 753 46727
internal_value=-3.47719e-06 -1.26005e-05 -7.37746e-06 -1.06312e-05 -6.80619e-06 7.43597e-09 -2.82603e-05 -3.34788e-06 4.43293e-06 -1.7661e-06 2.21981e-05 1.33534e-05 1.97134e-05 -1.02688e-05 -3.44154e-06
internal_weight=0 8792 8049 7129 5858 3859 1271 620305 7378 4353 1140 3025 2434 3213 612927
internal_count=629097 8792 8049 7129 5858 3859 1271 620305 7378 4353 1140 3025 2434 3213 612927
cat_boundaries=0 1
cat_threshold=680
is_linear=0
shrinkage=1


Tree=1
num_leaves=16
num_cat=0
split_feature=1 16 4 0 10 8 5 14 3 15 15 8 17 5 1
split_gain=6.01156e-05 4.87372e-05 0.000131642 5.44874e-05 4.07571e-05 5.36871e-05 3.66025e-05 3.33006e-05 5.22498e-05 4.01384e-05 3.13198e-05 3.44326e-05 3.4463e-05 3.09989e-05 2.75446e-05
threshold=-0.0024804291529531559 40.000000000002807 -0.0050945844693698885 443.50000000000006 -0.00010458610079333573 -0.0013900280605052549 -0.0057127806468709177 11.111678877785273 -0.0044264494865406947 5.5310724209292239 14.909353158371415 -0.0037477970540222279 0.31549207654403438 0.00087041614720906335 0.0015187239865344095
decision_type=2 2 8 2 10 10 8 2 10 2 2 8 2 10 2
left_child=1 3 -3 10 5 -4 7 8 9 -2 -1 12 -12 -6 -9
right_child=6 2 4 -5 13 -7 -8 14 -10 -11 11 -13 -14 -15 -16
leaf_value=-2.0537745388673422e-05 3.8347234148969295e-05 -5.7456437526943129e-05 -1.0692328214645387e-05 1.6691141899642508e-05 -3.1511478058919949e-05 2.6618297357393264e-05 3.2085050475923622e-08 2.1997508760444072e-05 -7.3247787034622709e-06 6.365866900400119e-06 -4.7114792316972278e-06 -1.7082774482820775e-05 2.6560252377395725e-05 -4.6925972705327916e-06 -4.0764965977220855e-06
leaf_weight=1232 502 651 1070 1240 933 603 612927 1956 2611 1798 829 820 613 801 511
leaf_count=1232 502 651 1070 1240 933 603 612927 1956 2611 1798 829 820 613 801 511
internal_value=0 -8.21097e-06 -1.62526e-05 -1.31765e-06 -8.37949e-06 2.75555e-06 1.16364e-07 7.11781e-06 2.35617e-06 1.33461e-05 -7.70886e-06 -7.21599e-07 8.58226e-06 -1.91228e-05 1.65967e-05
internal_weight=0 8792 4058 4734 3407 1673 620305 7378 4911 2300 3494 2262 1442 1734 2467
internal_count=629097 8792 4058 4734 3407 1673 620305 7378 4911 2300 3494 2262 1442 1734 2467
is_linear=0
shrinkage=0.1


Tree=2
num_leaves=16
num_cat=2
split_feature=1 11 0 18 0 14 13 5 5 2 2 13 1 18 10
split_gain=4.89007e-05 0.000178293 9.95501e-05 4.47178e-05 4.44714e-05 4.9034e-05 5.79981e-05 4.0433e-05 3.93414e-05 6.00718e-05 4.58785e-05 3.5628e-05 5.54691e-05 3.86213e-05 3.43967e-05
threshold=-0.0018521597168345558 -0.58666666666677159 335.50000000000006 0 368.50000000000006 51.233179417357171 50.048733707012538 0.0015930648582846987 -0.0057127806468709177 0.00036584919701543322 -0.00030514273310622281 35.463275635519963 -0.0010345647717690529 1 0.0019046827778612665
decision_type=2 2 2 1 2 2 2 8 8 10 10 2 2 1 10
left_child=1 4 -3 -4 7 -6 -7 14 9 10 11 13 -13 -2 -1
right_child=8 2 3 -5 5 6 -8 -9 -10 -11 -12 12 -14 -15 -16
leaf_value=-9.0680831546604529e-06 1.7380445340238776e-05 -6.8558708804438974e-05 -3.7957376429323126e-05 2.9467142486044403e-06 -3.486537422163416e-07 4.5899952256999845e-05 2.7059441064597385e-06 7.7769336569691913e-06 6.5601371498203844e-08 3.1825591564339182e-05 -2.2436385046938632e-05 4.2310970023347826e-05 6.8034435341363093e-06 -8.2586188075004696e-06 -3.4105563768742071e-05
leaf_weight=4713 836 608 532 532 7737 535 742 1285 605359 904 586 609 1585 1913 621
leaf_count=4713 836 608 532 532 7737 535 742 1285 605359 904 586 609 1585 1913 621
internal_value=0 -5.24223e-06 -3.62796e-05 -1.78344e-05 -1.92268e-06 2.64774e-06 2.08021e-05 -8.14686e-06 1.48267e-07 7.92725e-06 4.01983e-06 7.15626e-06 1.66595e-05 -4.28326e-07 -1.1983e-05
internal_weight=0 17305 1672 1064 15633 9014 1277 6619 611792 6433 5529 4943 2194 2749 5334
internal_count=629097 17305 1672 1064 15633 9014 1277 6619 611792 6433 5529 4943 2194 2749 5334
cat_boundaries=0 1 2
cat_threshold=1155 3604
is_linear=0
shrinkage=0.1


Tree=3
num_leaves=16
num_cat=0
split_feature=1 11 15 4 2 8 14 16 15 1 3 9 14 14 13
split_gain=4.05491e-05 0.000187935 0.000232119 4.15947e-05 2.86929e-05 3.90866e-05 5.58247e-05 3.01951e-05 4.30621e-05 4.37487e-05 2.71606e-05 2.41368e-05 5.03267e-05 3.87857e-05 3.43687e-05
threshold=-0.0024804291529531559 -0.64285714285720541 51.433722439120764 0.00064530812948415683 0.0035862904500837405 0.0069638289866000855 97.780173874437125 95.784769249240341 67.606464200446695 0.0025120575032780983 0.00031265657894108406 0.0019639016521975088 48.110360660494642 21.103415603896625 51.686680670218969
decision_type=2 2 2 10 10 10 2 2 2 2 10 10 2 2 2
left_child=1 3 -3 11 -2 10 -7 8 -8 -10 -6 12 13 14 -1
right_child=4 2 -4 -5 5 6 7 -9 9 -11 -12 -13 -14 -15 -16
leaf_value=-6.3139605525610146e-06 1.8059576080860043e-07 -3.5024354873661556e-06 -9.5349530659852525e-05 1.9552221848890707e-05 1.0338815258599765e-05 3.0223070178896235e-05 1.339003276876774e-05 1.7456268526126292e-05 4.0061300066586754e-07 -3.959778383248995e-05 -1.1516586346826659e-05 -2.2251985662430379e-05 2.6707809578770789e-05 -2.3628367445461073e-05 1.2854275080355835e-05
leaf_weight=3424 610750 606 504 859 627 651 534 535 506 595 6107 642 560 910 1287
leaf_count=3424 610750 606 504 859 627 651 534 535 506 595 6107 642 560 910 1287
internal_value=0 -6.74364e-06 -4.5206e-05 -1.18607e-06 9.55274e-08 -5.34199e-06 4.53975e-06 -3.16525e-06 -9.91296e-06 -2.12152e-05 -9.48164e-06 -3.79698e-06 -1.88011e-06 -4.72823e-06 -1.07738e-06
internal_weight=0 8792 1110 7682 620305 9555 2821 2170 1635 1101 6734 6823 6181 5621 4711
internal_count=629097 8792 1110 7682 620305 9555 2821 2170 1635 1101 6734 6823 6181 5621 4711
is_linear=0
shrinkage=0.1


Tree=4
num_leaves=16
num_cat=2
split_feature=8 14 7 5 10 17 11 16 14 12 17 18 14 3 18
split_gain=2.83291e-05 6.64906e-05 5.21624e-05 6.02484e-05 3.47434e-05 5.42613e-05 9.29502e-05 5.43476e-05 3.88525e-05 2.991e-05 3.58921e-05 7.90062e-05 2.28174e-05 1.609e-05 3.89789e-05
threshold=0.0036896274229428765 43.336440630615492 0.0048671133068921577 0.00051824659997334887 0.00031940378051653623 0.37145732721731151 0.64869084130110144 86.585365853658814 97.780173874437125 185.00006747863202 0.20701975501978476 0 54.387717225268155 -0.0012149877422134578 1
decision_type=10 2 10 10 8 2 2 2 2 2 2 1 2 10 1
left_child=13 2 3 -2 -3 8 7 -7 12 -10 -11 -12 -6 14 -1
right_child=1 4 -4 -5 5 6 -8 -9 9 10 11 -13 -14 -15 -16
leaf_value=4.9332104909468822e-06 -3.2065840105893697e-05 -2.2004222340528216e-05 -4.838931154381062e-05 1.3990083179142251e-05 1.624643542134709e-05 -1.503242349040142e-05 4.3226511786795325e-05 1.9415962482419085e-05 -3.1352441269583219e-06 -7.237795526339576e-06 -5.7036796999909714e-05 -4.6561005016249301e-06 3.3677394252590595e-07 -6.2813485509962824e-08 2.5012196915018303e-07
leaf_weight=23072 598 827 521 541 959 993 720 850 13966 3405 502 677 15023 489148 77295
leaf_count=23072 598 827 521 541 959 993 720 850 13966 3405 502 677 15023 489148 77295
internal_value=0 -2.58979e-06 -2.21793e-05 -1.01903e-05 -1.73228e-06 -1.28033e-06 1.27583e-05 8.55329e-07 -2.32229e-06 -5.43575e-06 -1.24446e-05 -2.74823e-05 1.29143e-06 1.73836e-07 1.32717e-06
internal_weight=0 39582 1660 1139 37922 37095 2563 1843 34532 18550 4584 1179 15982 589515 100367
internal_count=629097 39582 1660 1139 37922 37095 2563 1843 34532 18550 4584 1179 15982 589515 100367
cat_boundaries=0 1 2
cat_threshold=274 2128
is_linear=0
shrinkage=0.1


Tree=5
num_leaves=16
num_cat=1
split_feature=8 4 13 0 12 18 0 17 13 0 0 12 0 14 5
split_gain=2.29755e-05 6.08547e-05 4.1081e-05 3.00026e-05 2.34153e-05 3.4857e-05 3.08308e-05 4.41649e-05 2.33892e-05 6.38287e-05 6.00999e-05 3.30746e-05 2.75712e-05 2.06984e-05 2.50626e-05
threshold=0.0036896274229428765 -0.0030773270619256494 24.900858537345385 459.50000000000006 211.96111496278414 0 722.50000000000011 0.28104470649087887 75.461271248143774 427.50000000000006 295.50000000000006 169.51273995068809 335.50000000000006 97.780173874437125 0.0010408332253842858
decision_type=10 10 2 2 2 1 2 2 2 2 2 2 2 2 10
left_child=-1 -2 -3 8 6 -6 7 -5 13 10 -10 12 -12 14 -4
right_child=1 2 3 4 5 -7 -8 -9 9 -11 11 -13 -14 -15 -16
leaf_value=1.5646055360773667e-07 -3.2078674250453179e-05 -2.8369954899959396e-05 -6.9522064190693904e-06 -3.6093746473890111e-06 -3.4807446081248112e-05 -1.922406181948418e-06 1.4982901146096817e-05 -3.1485849985190286e-05 2.8535213106620672e-05 3.2306651598844101e-05 1.8754376816929917e-05 -1.8395978056514605e-05 -1.5244805004737345e-06 -5.1339393278391887e-06 5.1702306016279619e-06
leaf_weight=589515 676 574 2306 12242 613 683 830 596 763 796 818 949 3717 7470 6549
leaf_count=589515 676 574 2306 12242 613 683 830 596 763 796 818 949 3717 7470 6549
internal_value=0 -2.33237e-06 -1.81552e-06 -1.41788e-06 -4.91399e-06 -1.77602e-05 -3.69591e-06 -4.90353e-06 8.209e-07 5.63755e-06 2.23934e-06 -1.41926e-06 2.13332e-06 -1.25712e-06 2.01333e-06
internal_weight=0 39582 38906 38332 14964 1296 13668 12838 23368 7043 6247 5484 4535 16325 8855
internal_count=629097 39582 38906 38332 14964 1296 13668 12838 23368 7043 6247 5484 4535 16325 8855
cat_boundaries=0 1
cat_threshold=1330
is_linear=0
shrinkage=0.1


Tree=6
num_leaves=16
num_cat=0
split_feature=8 2 10 17 5 0 11 12 10 0 2 7 17 12 12
split_gain=1.86256e-05 8.51042e-05 3.56059e-05 4.83189e-05 7.30652e-05 8.63182e-05 5.63858e-05 2.76036e-05 8.73422e-05 3.68798e-05 1.64552e-05 3.86923e-05 5.17656e-05 2.52497e-05 2.58288e-05
threshold=0.0036896274229428765 -0.0035597458762686713 -0.00066298060782921098 0.37145732721731151 0.0034057832180943719 385.50000000000006 0.41176470588238495 211.96111496278414 0.0077603693106631519 377.50000000000006 0.0035862904500837405 -0.0035002023471775718 0.37145732721731151 -13.082473311014828 120.38295511455244
decision_type=10 10 8 2 10 2 2 2 10 2 10 8 2 2 2
left_child=10 -2 -3 7 -5 6 -6 -4 9 -9 -1 -12 13 -13 -15
right_child=1 2 3 4 5 -7 -8 8 -10 -11 11 12 -14 14 -16
leaf_value=1.8714084928709655e-07 -3.8797923414653527e-05 -2.6894886492016737e-05 -1.3558110812289933e-06 -1.3548841431218002e-05 -1.0017895405311072e-05 5.7463027075257057e-05 3.0285856510523621e-05 1.950711722608616e-05 -4.9300459479909448e-05 -1.091893027311593e-05 1.9740372460028034e-05 -2.0957748535034245e-05 -3.6824230431689658e-05 8.3661855467808588e-06 -1.159381836162059e-05
leaf_weight=585017 622 545 33135 804 718 513 672 539 507 1527 521 733 581 1547 1116
leaf_count=585017 622 545 33135 804 718 513 672 539 507 1527 521 733 581 1547 1116
internal_value=0 -2.10006e-06 -1.51417e-06 -1.15409e-06 1.17268e-05 2.24056e-05 9.46708e-06 -2.13059e-06 -1.21081e-05 -2.98106e-06 1.40814e-07 -5.88448e-06 -9.24142e-06 -4.52245e-06 1.42236e-09
internal_weight=0 39582 38960 38415 2707 1903 1390 35708 2573 2066 589515 4498 3977 3396 2663
internal_count=629097 39582 38960 38415 2707 1903 1390 35708 2573 2066 589515 4498 3977 3396 2663
is_linear=0
shrinkage=0.1


Tree=7
num_leaves=16
num_cat=0
split_feature=1 11 0 0 14 16 4 0 17 2 4 17 5 13 12
split_gain=3.32085e-05 0.000125976 7.702e-05 3.48017e-05 3.83305e-05 4.70491e-05 3.40434e-05 3.18403e-05 9.92365e-05 3.17418e-05 7.54752e-05 3.67748e-05 3.08975e-05 5.11826e-05 6.36944e-05
threshold=-0.0018521597168345558 -0.58666666666677159 335.50000000000006 368.50000000000006 51.233179417357171 73.333333333338217 -0.0023303610447414354 626.50000000000011 0.22059209922280251 -1.0000000180025095e-35 0.00078387404604429733 0.18626291968114769 -0.0057127806468709177 35.463275635519963 -111.50978831413232
decision_type=2 2 2 2 2 2 10 2 2 10 10 2 8 2 2
left_child=1 3 -3 9 7 -6 -4 -5 -9 10 11 -1 13 14 -2
right_child=12 2 6 4 5 -7 -8 8 -10 -11 -12 -13 -14 -15 -16
leaf_value=6.500609065728463e-06 5.0385914877191323e-06 -5.8801760252735177e-05 -3.1772322067044088e-05 3.4551200774337885e-06 3.8793972993562042e-05 3.5171008979280793e-07 4.0074744442990672e-06 4.4934204020480328e-06 -4.5007923928399884e-05 -2.8312738404766445e-05 2.8371272851295719e-05 -1.3125940634022117e-05 4.8774931756428129e-08 1.6439284472174844e-05 -3.0460472792857192e-05
leaf_weight=1242 2775 608 541 5891 605 672 523 1246 600 634 616 4127 605359 3040 618
leaf_count=1242 2775 608 541 5891 605 672 523 1246 600 634 616 4127 605359 3040 618
internal_value=0 -4.32014e-06 -3.04093e-05 -1.52982e-06 2.5133e-06 1.85644e-05 -1.41851e-05 -1.35949e-07 -1.15959e-05 -7.03589e-06 -4.782e-06 -8.58577e-06 1.22034e-07 7.01585e-06 -1.4272e-06
internal_weight=0 17305 1672 15633 9014 1277 1064 7737 1846 6619 5985 5369 611792 6433 3393
internal_count=629097 17305 1672 15633 9014 1277 1064 7737 1846 6619 5985 5369 611792 6433 3393
is_linear=0
shrinkage=0.1


Tree=8
num_leaves=16
num_cat=0
split_feature=2 3 13 17 13 17 10 13 11 12 10 16 3 6 15
split_gain=1.46436e-05 4.74068e-05 2.8012e-05 6.68242e-05 3.46187e-05 3.054e-05 4.23597e-05 2.86917e-05 2.02723e-05 2.85515e-05 1.58852e-05 7.92916e-05 4.5173e-05 2.9114e-05 2.62923e-05
threshold=0.0035862904500837405 0.00031265657894108406 66.211227709331837 0.37145732721731151 89.485680049318177 0.31549207654403438 -0.00010458610079333573 55.052767968889285 0.25000000000000644 211.96111496278414 -0.0080893531370588839 30.952380952379617 -0.0032594419323784258 -0.002075965664897927 19.0235079379956
decision_type=10 10 2 2 2 2 10 2 2 2 8 2 10 10 2
left_child=10 -2 5 4 -4 8 -7 -8 -3 -10 11 12 14 -14 -1
right_child=1 2 3 -5 -6 6 7 -9 9 -11 -12 -13 13 -15 -16
leaf_value=1.8213834136120223e-06 2.1260753965440875e-05 1.0392918251454832e-05 3.7999179582827784e-07 2.9953439301307052e-05 -2.5922203918112404e-05 -3.9878057566623343e-05 4.7696796195028938e-06 -2.6647963946616746e-05 -3.6563147085556397e-06 -2.9038040207431885e-05 1.2403736615863047e-07 -3.7172876107512549e-05 -1.1755837002822979e-05 9.1025533358658613e-06 2.0812454196513421e-05
leaf_weight=3360 697 700 2269 654 642 711 664 517 2265 551 609719 669 3942 806 931
leaf_count=3360 697 700 2269 654 642 711 664 517 2265 551 609719 669 3942 806 931
internal_value=0 -3.86156e-06 -5.81299e-06 1.06864e-06 -5.42077e-06 -1.03494e-05 -2.05937e-05 -8.98385e-06 -4.83688e-06 -8.6227e-06 6.01373e-08 -3.95316e-06 -1.49448e-06 -8.21501e-06 5.9418e-06
internal_weight=0 9670 8973 3565 2911 5408 1892 1181 3516 2816 619427 9708 9039 4748 4291
internal_count=629097 9670 8973 3565 2911 5408 1892 1181 3516 2816 619427 9708 9039 4748 4291
is_linear=0
shrinkage=0.1


Tree=9
num_leaves=16
num_cat=1
split_feature=1 0 0 13 3 2 4 18 9 3 5 9 7 0 3
split_gain=2.67561e-05 5.39573e-05 4.69588e-05 8.51096e-05 6.07893e-05 4.4856e-05 8.66796e-05 4.351e-05 3.94127e-05 3.5975e-05 6.36547e-05 4.77561e-05 3.5657e-05 2.78659e-05 2.65822e-05
threshold=-0.0018521597168345558 360.50000000000006 642.50000000000011 34.354829401316834 -0.002682041202494156 -0.00057562196994331838 0.00078387404604429733 0 -0.00016533230032689247 -0.0044264494865406947 -0.0029753807015465701 -0.0076177883109342917 -0.00079802363344005911 602.50000000000011 -0.002682041202494156
decision_type=2 2 2 2 10 10 10 1 8 8 10 8 10 2 10
left_child=1 5 13 -4 -5 6 7 8 -1 11 -11 -9 -7 -3 -2
right_child=14 2 3 4 -6 12 -8 9 -10 10 -12 -13 -14 -15 -16
leaf_value=-1.2198424446083739e-05 3.3987952332952671e-06 2.3320527568491685e-06 1.8134207668202444e-05 -4.9897291658124633e-05 -8.6029624182950049e-06 -1.0742439133849047e-05 2.9620523891048277e-05 -5.1122206525924884e-05 1.6612981756640766e-05 8.1202834495343266e-06 -2.755123395936798e-05 -1.3300922146705199e-05 -4.7268640487023819e-05 2.3645035747293456e-05 -2.2544000585025139e-08
leaf_weight=1057 23621 7642 626 614 850 519 574 624 862 1000 1001 718 551 667 588171
leaf_count=1057 23621 7642 626 614 850 519 574 624 862 1000 1001 718 551 667 588171
internal_value=0 -3.87778e-06 6.72694e-07 -1.2726e-05 -2.59218e-05 -1.07298e-05 -7.27896e-06 -1.13041e-05 7.39583e-07 -1.81655e-05 -9.72439e-06 -3.0887e-05 -2.95517e-05 4.04294e-06 1.09552e-07
internal_weight=0 17305 10399 2090 1464 6906 5836 5262 1919 3343 2001 1342 1070 8309 611792
internal_count=629097 17305 10399 2090 1464 6906 5836 5262 1919 3343 2001 1342 1070 8309 611792
cat_boundaries=0 1
cat_threshold=2268
is_linear=0
shrinkage=0.1


Tree=10
num_leaves=16
num_cat=1
split_feature=1 11 18 5 11 10 13 10 5 11 5 2 2 13 3
split_gain=2.16724e-05 9.71227e-05 8.83157e-05 2.92788e-05 2.85479e-05 3.92201e-05 3.3773e-05 3.27481e-05 2.78159e-05 2.65881e-05 2.41623e-05 5.20899e-05 3.61068e-05 2.7907e-05 2.48414e-05
threshold=-0.0018521597168345558 -0.58666666666677159 0 0.0029329036974320437 -0.66666666666674324 -0.0024373915667736386 15.307370614019195 -0.0080893531370588839 -0.0057127806468709177 -0.87499999999991063 -0.0057127806468709177 0.00036584919701543322 -0.00030514273310622281 53.35057224431344 -0.0044264494865406947
decision_type=2 2 1 10 2 8 2 8 8 2 8 10 10 2 10
left_child=1 3 -3 4 6 -6 -1 -8 9 -9 11 12 13 14 -2
right_child=10 2 -4 -5 5 -7 7 8 -10 -11 -12 -13 -14 -15 -16
leaf_value=1.7502590859803758e-05 1.0319090030762082e-05 -5.2262776938890463e-05 -5.8351080440984458e-06 1.6521602848222137e-05 3.370471502053021e-07 -3.5771774330893567e-05 -1.4850311034492084e-05 6.0392277581351149e-07 -1.913133813942868e-06 3.0220919280334694e-05 3.3813034318753371e-08 2.8448944485878195e-05 -2.0913899766516462e-05 2.1630559121649798e-05 -5.3427799771349277e-06
leaf_weight=939 1878 728 944 895 632 574 1750 665 9621 557 605359 904 586 867 2198
leaf_count=939 1878 728 944 895 632 574 1750 665 9621 557 605359 904 586 867 2198
internal_value=0 -3.49e-06 -2.63975e-05 -1.03997e-06 -2.10644e-06 -1.68491e-05 -7.92544e-07 -2.15673e-06 -1.08051e-07 1.41037e-05 9.8597e-08 6.1949e-06 2.55633e-06 5.33877e-06 1.87336e-06
internal_weight=0 17305 1672 15633 14738 1206 13532 12593 10843 1222 611792 6433 5529 4943 4076
internal_count=629097 17305 1672 15633 14738 1206 13532 12593 10843 1222 611792 6433 5529 4943 4076
cat_boundaries=0 1
cat_threshold=1043
is_linear=0
shrinkage=0.1


Tree=11
num_leaves=16
num_cat=0
split_feature=1 11 15 3 5 2 17 2 5 13 12 9 3 3 8
split_gain=1.75912e-05 7.89092e-05 7.09174e-05 2.91067e-05 2.46853e-05 4.02109e-05 2.90046e-05 5.16572e-05 3.03381e-05 5.5613e-05 4.09933e-05 3.14997e-05 2.92366e-05 1.9966e-05 2.66875e-05
threshold=-0.0018521597168345558 -0.58666666666677159 65.899520675940906 -0.002682041202494156 0.0015930648582846987 -0.00034371151175327514 0.25565648074349084 -0.00075388339715698461 -0.0057127806468709177 50.048733707012538 -100.56903455171827 0.0016530950736245444 -0.001612547843805878 -0.002682041202494156 1.0000000180025095e-35
decision_type=2 2 2 8 10 8 2 8 10 2 2 8 8 10 10
left_child=1 4 3 -3 6 -6 12 8 9 -8 -10 -12 -1 14 -2
right_child=13 2 -4 -5 5 -7 7 -9 10 -11 11 -13 -14 -15 -16
leaf_value=4.9654067135335732e-06 4.1199990913334622e-06 5.4835352278777109e-06 -5.3408202894647197e-05 -2.6741188177999188e-05 2.2412316369016489e-05 -1.1310359847961245e-05 -1.2583621432029565e-05 1.8950531111014163e-05 -3.7738999176728698e-05 2.5848216273516301e-05 -1.5870217155657618e-06 -2.9905359583103239e-05 -7.5252504123030615e-06 -2.5745535867685458e-08 -6.6305113388706547e-06
leaf_weight=6209 21027 604 545 523 1039 536 1423 616 803 512 1235 576 2684 588171 2594
leaf_count=6209 21027 604 545 523 1039 536 1423 616 803 512 1235 576 2684 588171 2594
internal_value=0 -3.14436e-06 -2.37925e-05 -9.4708e-06 -9.35973e-07 1.09359e-05 -2.26605e-06 -8.22624e-06 -1.19064e-05 -2.41458e-06 -1.89326e-05 -1.05938e-05 1.1956e-06 8.87375e-08 2.9394e-06
internal_weight=0 17305 1672 1127 15633 1575 14058 5165 4549 1935 2614 1811 8893 611792 23621
internal_count=629097 17305 1672 1127 15633 1575 14058 5165 4549 1935 2614 1811 8893 611792 23621
is_linear=0
shrinkage=0.1


Tree=12
num_leaves=16
num_cat=1
split_feature=1 11 15 18 6 12 7 12 10 15 16 13 13 7 4
split_gain=1.47447e-05 0.000105883 0.00017501 3.11269e-05 4.4819e-05 4.74044e-05 5.1284e-05 2.34596e-05 2.26849e-05 2.81991e-05 4.71732e-05 2.20678e-05 1.51801e-05 1.44585e-05 3.33971e-05
threshold=-0.0024804291529531559 -0.64285714285720541 51.433722439120764 0 0.0013504961087270619 -210.09584466135911 -0.0067813200887553706 1.0000000180025095e-35 0.0041308412584273322 57.116024428594237 27.516503267973018 34.354829401316834 51.686680670218969 -0.0027410266007932833 0.0030625121735987641
decision_type=2 2 2 1 8 2 8 2 8 2 2 2 2 8 10
left_child=1 3 -3 4 5 -1 -7 12 9 10 11 -5 -8 14 -2
right_child=13 2 -4 8 -6 6 7 -9 -10 -11 -12 -13 -14 -15 -16
leaf_value=2.937963853887266e-05 1.8500695294496447e-06 3.2751247933804498e-06 -7.647676950058206e-05 1.2489925142117065e-05 2.7977125833074202e-05 -2.3258840565079004e-05 3.5662106497789978e-06 -1.2655411510861567e-05 -2.4238367133037703e-05 1.2723773084824381e-05 -3.577854472496256e-05 -1.4887617626369625e-05 2.3049034518450031e-05 -9.4743035948639272e-08 -2.1214239944623212e-05
leaf_weight=511 55441 606 504 672 736 930 1176 601 649 765 512 524 606 564229 635
leaf_count=511 55441 606 504 672 736 930 1176 601 649 765 512 524 606 564229 635
internal_value=0 -4.06665e-06 -3.29365e-05 1.04869e-07 5.36742e-06 1.0298e-06 -3.34291e-06 4.42957e-06 -7.57456e-06 -3.23203e-06 -1.03785e-05 4.95082e-07 1.01917e-05 5.74587e-08 1.58889e-06
internal_weight=0 8792 1110 7682 4560 3824 3313 2383 3122 2473 1708 1196 1782 620305 56076
internal_count=629097 8792 1110 7682 4560 3824 3313 2383 3122 2473 1708 1196 1782 620305 56076
cat_boundaries=0 1
cat_threshold=406
is_linear=0
shrinkage=0.1


Tree=13
num_leaves=16
num_cat=3
split_feature=8 2 10 17 5 13 18 14 1 9 18 18 3 5 15
split_gain=1.3012e-05 6.29518e-05 2.74589e-05 3.89002e-05 5.61451e-05 3.14554e-05 6.74606e-05 2.02236e-05 2.53655e-05 3.19459e-05 3.69773e-05 2.21533e-05 2.11672e-05 1.834e-05 1.85467e-05
threshold=0.0036896274229428765 -0.0035597458762686713 -0.00066298060782921098 0.37145732721731151 0.0034057832180943719 77.25890603226145 0 97.780173874437125 0.0018398925508978927 0.0073558164596457818 1 2 0.0043737532141395761 0.0023056337425639843 65.899520675940906
decision_type=10 10 8 2 10 2 1 2 2 8 1 1 10 10 2
left_child=-1 -2 -3 7 -5 6 -6 13 -9 11 -11 12 -10 -4 -15
right_child=1 2 3 4 5 -7 -8 8 9 10 -12 -13 -14 14 -16
leaf_value=1.176858394572882e-07 -3.3317650054428742e-05 -2.354006890160536e-05 -2.7972714689946735e-06 -1.1534280831744868e-05 5.2570611355459143e-05 3.2225893320221649e-07 7.2251650779469999e-06 -2.1696021091862048e-06 -4.9756923321854648e-06 -4.9090649691039238e-07 -3.3413419342503593e-05 -1.5050499760167023e-05 2.0701560378074649e-05 1.5498677412332222e-05 2.0179248627336423e-06
leaf_weight=589515 622 545 8041 804 609 570 724 14671 897 522 1016 1035 500 1173 7853
leaf_count=589515 622 545 8041 804 609 570 724 14671 897 522 1016 1035 500 1173 7853
internal_value=0 -1.7553e-06 -1.2514e-06 -9.35189e-07 1.06223e-05 1.99833e-05 2.83905e-05 -1.81136e-06 -4.0885e-06 -1.11797e-05 -2.24599e-05 -4.04613e-06 4.18449e-06 6.75798e-07 3.76986e-06
internal_weight=0 39582 38960 38415 2707 1903 1333 35708 18641 3970 1538 2432 1397 17067 9026
internal_count=629097 39582 38960 38415 2707 1903 1333 35708 18641 3970 1538 2432 1397 17067 9026
cat_boundaries=0 1 2 3
cat_threshold=1154 1601 3972
is_linear=0
shrinkage=0.1


Tree=14
num_leaves=16
num_cat=1
split_feature=2 0 3 16 15 16 12 14 15 0 0 5 18 16 8
split_gain=1.12096e-05 6.22139e-05 5.66984e-05 4.44895e-05 2.40716e-05 3.69926e-05 4.88482e-05 4.82616e-05 3.88917e-05 6.48914e-05 3.26106e-05 2.03966e-05 1.92616e-05 1.62509e-05 1.43037e-05
threshold=0.0035862904500837405 295.50000000000006 0.0011261261261262814 95.784769249240341 86.675297910110189 51.629491468116264 104.39414188123361 87.342441299572798 31.524720298385635 343.50000000000006 577.50000000000011 0.0041475443479894744 0 80.994911521227564 0.00065383652575956585
decision_type=10 2 8 2 2 2 2 2 2 2 2 10 1 2 10
left_child=-1 -2 -3 4 5 8 -7 -8 9 -4 11 -9 -13 -14 -11
right_child=1 2 3 -5 -6 6 7 10 -10 14 -12 12 13 -15 -16
leaf_value=5.2615165216337298e-08 2.0698359503418473e-05 2.5116453713748495e-05 -3.8846573054264618e-05 1.5486807055559206e-05 -2.6467285861930894e-05 2.0060440303651972e-05 -3.607941241386792e-05 7.0263638028461545e-06 -4.0711808083271959e-05 -8.2287275859181042e-06 1.9285584832730793e-05 -2.89909586824111e-05 -1.8438561466174852e-05 5.5320378035911093e-06 1.3039727814796686e-05
leaf_weight=619427 966 547 580 726 833 769 514 655 584 691 542 548 552 580 583
leaf_count=619427 966 547 580 726 833 769 514 655 584 691 542 548 552 580 583
internal_value=0 -3.37858e-06 -6.05072e-06 -8.14076e-06 -1.04491e-05 -8.42685e-06 -2.69465e-06 -7.85498e-06 -1.82078e-05 -1.11191e-05 -2.81244e-06 -7.94184e-06 -1.37777e-05 -6.10289e-06 1.50401e-06
internal_weight=0 9670 8704 8157 7431 6598 4160 3391 2438 1854 2877 2335 1680 1132 1274
internal_count=629097 9670 8704 8157 7431 6598 4160 3391 2438 1854 2877 2335 1680 1132 1274
cat_boundaries=0 1
cat_threshold=586
is_linear=0
shrinkage=0.1


Tree=15
num_leaves=16
num_cat=2
split_feature=1 11 5 11 18 13 8 8 18 10 17 11 5 13 12
split_gain=1.2064e-05 5.81671e-05 3.1307e-05 3.08671e-05 5.24528e-05 2.91899e-05 2.81064e-05 2.60736e-05 3.21029e-05 2.47462e-05 1.98596e-05 1.78432e-05 1.68949e-05 3.82856e-05 5.06064e-05
threshold=-0.0018521597168345558 -0.46666666666678674 0.0041475443479894744 -0.66666666666674324 0 15.307370614019195 -0.0032882946282891674 -0.0072103088191411971 1 0.0032661378317434546 0.37145732721731151 -0.87499999999991063 -0.0057127806468709177 35.463275635519963 -111.50978831413232
decision_type=2 2 10 2 1 2 10 8 1 10 2 2 8 2 2
left_child=1 2 3 5 6 -1 -5 8 11 10 -9 -7 13 14 -2
right_child=12 -3 -4 4 -6 7 -8 9 -10 -11 -12 -13 -14 -15 -16
leaf_value=1.6344772622503154e-05 3.6323060457770889e-06 -3.2382316272514223e-05 1.9801904605869879e-05 1.1348546550218617e-05 -3.4877411153648093e-05 -1.3898374341732384e-05 -1.6475838808702734e-05 4.3883825872785823e-07 -2.8462671555947356e-05 -1.4471098619878403e-05 1.9371600628708744e-05 1.1327664746638779e-05 1.9317475898210853e-08 1.332136054100518e-05 -2.8010071624480311e-05
leaf_weight=946 2775 632 664 744 738 588 709 9335 758 1066 589 536 605359 3040 618
leaf_count=946 2775 632 664 744 738 588 709 9335 758 1066 589 536 605359 3040 618
internal_value=0 -2.60393e-06 -1.47517e-06 -2.35767e-06 -1.33849e-05 -6.09173e-07 -2.2133e-06 -1.85517e-06 -1.27311e-05 7.30089e-09 1.56252e-06 -1.85239e-06 7.34896e-08 5.1712e-06 -2.13103e-06
internal_weight=0 17305 16673 16009 2191 13818 1453 12872 1882 10990 9924 1124 611792 6433 3393
internal_count=629097 17305 16673 16009 2191 13818 1453 12872 1882 10990 9924 1124 611792 6433 3393
cat_boundaries=0 1 2
cat_threshold=1988 2450
is_linear=0
shrinkage=0.1


Tree=16
num_leaves=16
num_cat=4
split_feature=1 11 15 0 18 0 0 10 8 18 13 11 18 3 18
split_gain=1.01632e-05 7.71643e-05 0.00013918 3.73499e-05 4.66444e-05 3.00962e-05 2.44453e-05 1.86964e-05 3.72595e-05 2.86599e-05 2.72653e-05 3.07603e-05 2.59369e-05 1.21687e-05 5.15707e-05
threshold=-0.0024804291529531559 -0.64285714285720541 51.433722439120764 427.50000000000006 0 650.50000000000011 295.50000000000006 0.0036404107168318549 -0.00094953761662641678 1 52.520019305183553 -0.90632063122520634 2 -0.002682041202494156 3
decision_type=2 2 2 2 1 2 2 10 8 1 2 2 1 10 1
left_child=1 3 -3 6 -5 -6 -1 8 9 -8 11 -11 -10 14 -2
right_child=13 2 -4 4 5 -7 7 -9 12 10 -12 -13 -14 -15 -16
leaf_value=1.5478296276486881e-05 -5.6647065844209156e-06 4.2708830181017474e-06 -6.6850302876749395e-05 -8.6157630908135805e-06 1.0938714025477537e-05 4.1114662080767686e-05 5.5357550547743933e-06 -2.4263149570095155e-05 2.7245176531274927e-05 -6.6620769252727084e-06 2.3098233177915071e-06 -3.3922629081750523e-05 -1.9740981909603112e-06 -4.6681702563862062e-08 4.5864230090812802e-06
leaf_weight=565 6448 606 504 770 901 522 854 528 514 715 603 983 727 593412 20445
leaf_count=565 6448 606 504 770 901 522 854 528 514 715 603 983 727 593412 20445
internal_value=0 -3.37634e-06 -2.8022e-05 1.84793e-07 1.12163e-05 2.18546e-05 -4.22258e-06 -6.48314e-06 -4.3476e-06 -1.01216e-05 -1.58877e-05 -2.24437e-05 1.03316e-05 4.76074e-08 2.12816e-06
internal_weight=0 8792 1110 7682 2193 1423 5489 4924 4396 3155 2301 1698 1241 620305 26893
internal_count=629097 8792 1110 7682 2193 1423 5489 4924 4396 3155 2301 1698 1241 620305 26893
cat_boundaries=0 1 2 3 4
cat_threshold=3140 3089 916 169
is_linear=0
shrinkage=0.1


Tree=17
num_leaves=16
num_cat=1
split_feature=13 1 3 1 5 14 15 16 3 0 14 18 17 10 16
split_gain=8.97182e-06 2.75942e-05 1.34859e-05 2.52778e-05 1.20694e-05 4.56724e-05 4.67445e-05 5.40949e-05 3.65436e-05 5.13149e-05 2.23859e-05 2.22753e-05 2.19218e-05 2.03443e-05 2.57313e-05
threshold=15.307370614019195 0.0015187239865344095 0.00040515403820384771 0.00050142343360337638 -0.0057127806468709177 40.201720941700088 62.435081733602466 30.952380952379617 -0.0044264494865406947 602.50000000000011 11.111678877785273 0 0.28104470649087887 -0.0080893531370588839 9.9036265523644698
decision_type=2 2 10 2 8 2 2 2 10 2 2 1 2 8 2
left_child=1 2 -1 -4 5 6 7 8 9 11 12 -2 -10 14 -6
right_child=4 -3 3 -5 13 -7 -8 -9 10 -11 -12 -13 -14 -15 -16
leaf_value=-4.1040814068776853e-07 2.0916204461280037e-05 -2.2648300325113632e-05 -2.7479590109037985e-06 -2.6267464822362388e-05 1.4199133432215726e-06 2.7479210262180577e-05 -2.7555144354938393e-05 2.766507911829926e-05 -6.258059008475519e-06 3.6221797215855787e-05 5.5590500699874667e-06 -2.4699054421332297e-06 -2.8259193204576149e-05 6.815341286075009e-08 -1.3701414129460284e-05
leaf_weight=17678 500 630 1992 593 2105 745 515 828 1549 540 970 2017 640 595377 2418
leaf_count=17678 500 630 1992 593 2105 745 515 828 1549 540 970 2017 640 595377 2418
internal_value=0 -2.03772e-06 -1.39692e-06 -8.14334e-06 6.9807e-08 3.85609e-06 1.52785e-06 3.65416e-06 4.55791e-07 8.25009e-06 -7.08684e-06 2.24901e-06 -1.26906e-05 1.7396e-08 -6.66396e-06
internal_weight=0 20893 20263 2585 608204 8304 7559 7044 6216 3057 3159 2517 2189 599900 4523
internal_count=629097 20893 20263 2585 608204 8304 7559 7044 6216 3057 3159 2517 2189 599900 4523
cat_boundaries=0 1
cat_threshold=1044
is_linear=0
shrinkage=0.1


Tree=18
num_leaves=16
num_cat=2
split_feature=8 14 0 14 18 0 7 13 14 18 13 17 17 13 1
split_gain=9.24357e-06 4.66944e-05 3.20552e-05 3.44777e-05 1.84759e-05 2.70741e-05 2.58686e-05 1.7542e-05 1.6756e-05 2.61505e-05 3.10936e-05 3.09989e-05 2.18765e-05 5.09331e-05 1.73699e-05
threshold=0.0036896274229428765 22.682343094666219 642.50000000000011 71.676067272984014 0 714.50000000000011 0.0048671133068921577 24.900858537345385 74.825351423321266 1 57.649407382513679 0.31549207654403438 0.37145732721731151 58.530265857475278 -0.0007084438821558513
decision_type=10 2 2 2 1 2 10 2 2 1 2 2 2 2 2
left_child=-1 -2 7 -4 5 -5 -6 -3 9 14 -11 -12 -10 -14 -9
right_child=1 2 3 4 6 -7 -8 8 12 10 11 -13 13 -15 -16
leaf_value=9.9187039634895169e-08 -3.1753539507671691e-05 -1.8100039039683957e-05 -2.8067222129460171e-05 -6.2920553669014391e-06 -4.4841194909829395e-06 1.4450152247515788e-05 -2.8114029513156102e-05 2.3140963822153946e-05 -1.4213954375525606e-06 1.2942738629458272e-05 -9.1555091864568994e-07 -2.8351207461958779e-05 -1.4513260430248921e-05 2.2916519024662579e-05 6.2981859001918371e-06
leaf_weight=589515 503 521 743 2025 1427 913 686 995 25016 1155 1835 531 544 1096 1592
leaf_count=589515 503 521 743 2025 1427 913 686 995 25016 1155 1835 531 544 1096 1592
internal_value=0 -1.47945e-06 -1.08978e-06 -7.95434e-06 -4.99574e-06 1.53181e-07 -1.20985e-05 1.05148e-07 3.9464e-07 5.11891e-06 -5.05711e-07 -7.07292e-06 -6.87888e-07 1.05008e-05 1.2727e-05
internal_weight=0 39582 39079 5794 5051 2938 2113 33285 32764 6108 3521 2366 26656 1640 2587
internal_count=629097 39582 39079 5794 5051 2938 2113 33285 32764 6108 3521 2366 26656 1640 2587
cat_boundaries=0 1 2
cat_threshold=3778 401
is_linear=0
shrinkage=0.1


Tree=19
num_leaves=16
num_cat=3
split_feature=1 11 7 0 11 18 13 8 13 18 18 8 13 7 0
split_gain=9.1044e-06 0.000132572 0.000202786 3.74582e-05 2.24443e-05 3.3756e-05 3.06229e-05 3.03716e-05 2.92595e-05 3.06189e-05 2.73791e-05 2.40098e-05 1.98323e-05 2.06046e-05 5.99249e-05
threshold=-0.0013112529744414567 -0.43749999999991013 -0.0027410266007932833 360.50000000000006 -0.78571428571421531 0 64.09668990699079 -0.0005179268098846056 75.461271248143774 1 2 0.0013172980760651767 15.307370614019195 -0.0067813200887553706 586.50000000000011
decision_type=2 2 10 2 2 1 2 8 2 1 1 8 2 8 2
left_child=1 3 -3 4 8 -6 7 10 9 -1 -7 -11 -5 14 -14
right_child=-2 2 -4 12 5 6 -8 -9 -10 11 -12 -13 13 -15 -16
leaf_value=6.5848619494755219e-06 9.1727027975077439e-08 9.2558248229978379e-06 -7.2787601372492337e-05 1.6145609405574565e-05 1.3215178874887382e-05 -3.5790975456812277e-05 -3.0827150420946073e-05 5.763355227209866e-06 2.0046368498649256e-05 -4.6899294362039192e-06 -9.0276017295104555e-06 -2.4478766278362627e-05 3.4825304746838185e-06 2.0415612534734766e-06 -3.6844375340965653e-05
leaf_weight=1808 594443 570 639 922 500 522 866 907 570 2457 1446 817 1151 20937 542
leaf_count=1808 594443 570 639 922 500 522 866 907 570 2457 1446 817 1151 20937 542
internal_value=0 -1.57572e-06 -3.41071e-05 -3.9975e-07 -5.56341e-06 -1.10621e-05 -1.43039e-05 -9.37656e-06 -1.43747e-06 -3.84711e-06 -1.63542e-05 -9.59875e-06 1.76924e-06 1.18351e-06 -9.4278e-06
internal_weight=0 34654 1209 33445 9893 4241 3741 2875 5652 5082 1968 3274 23552 22630 1693
internal_count=629097 34654 1209 33445 9893 4241 3741 2875 5652 5082 1968 3274 23552 22630 1693
cat_boundaries=0 1 2 3
cat_threshold=2624 284 169
is_linear=0
shrinkage=0.1


Tree=20
num_leaves=16
num_cat=2
split_feature=2 0 3 18 10 0 0 11 6 7 11 11 4 18 3
split_gain=8.51868e-06 5.01605e-05 4.57029e-05 4.07763e-05 5.93804e-05 6.2203e-05 3.17119e-05 3.92574e-05 2.47362e-05 2.11993e-05 1.87361e-05 2.92596e-05 3.2696e-05 1.7775e-05 1.1926e-05
threshold=0.0035862904500837405 295.50000000000006 0.0011261261261262814 0 0.0077603693106631519 368.50000000000006 634.50000000000011 0.21428571428572338 0.0015976250872647981 0.00046601037031202003 0.59090909090907628 0.84210526315767975 0.0050453453102300436 1 0.0043737532141395761
decision_type=10 2 8 1 10 2 2 2 8 10 2 2 10 1 8
left_child=14 -2 -3 4 9 -6 7 -5 -9 -4 -10 13 -13 -12 -1
right_child=1 2 3 6 5 -7 -8 8 10 -11 11 12 -14 -15 -16
leaf_value=8.4106057202703258e-11 1.8673836450983325e-05 2.263764652016639e-05 -2.2376378001093568e-05 1.1901989014296262e-05 -2.2114111630294103e-06 4.6172471200638002e-05 -3.5069597184397506e-05 4.4002142410887328e-06 -3.3667739940415561e-05 -1.6763758756003272e-06 1.082901110609275e-05 -6.5422132175568248e-06 -4.0571396031482207e-05 -1.4432803953328452e-05 4.2549821735994829e-06
leaf_weight=612768 966 547 698 672 562 504 586 575 623 1699 524 513 628 573 6659
leaf_count=612768 966 547 698 672 562 504 586 575 623 1699 524 513 628 573 6659
internal_value=0 -2.94531e-06 -5.34468e-06 -7.22115e-06 1.02541e-06 2.06643e-05 -1.32789e-05 -1.02029e-05 -1.4526e-05 -7.70416e-06 -1.83298e-05 -1.40602e-05 -2.52717e-05 -2.39894e-06 4.58254e-08
internal_weight=0 9670 8704 8157 3463 1066 4694 4108 3436 2397 2861 2238 1141 1097 619427
internal_count=629097 9670 8704 8157 3463 1066 4694 4108 3436 2397 2861 2238 1141 1097 619427
cat_boundaries=0 1 2
cat_threshold=1760 257
is_linear=0
shrinkage=0.1


Tree=21
num_leaves=16
num_cat=2
split_feature=2 12 6 13 14 4 18 6 5 7 17 15 13 18 12
split_gain=8.12362e-06 4.38159e-05 6.26877e-05 6.65963e-05 8.3252e-05 3.11329e-05 3.00104e-05 2.74662e-05 2.31299e-05 2.27604e-05 5.04464e-05 6.42045e-05 3.31249e-05 3.69093e-05 2.95394e-05
threshold=0.0013120502992752805 -106.06060606061162 -0.002540201610389647 41.397157227528375 43.336440630615492 -0.00021489983728539827 0 0.0061389243814922176 -0.0023271724316933913 0.0066347929341309406 0.37145732721731151 77.176047722369802 75.461271248143774 1 169.51273995068809
decision_type=10 2 8 2 2 10 1 10 10 10 2 2 2 1 2
left_child=-1 -2 3 4 -3 -5 7 8 -4 -8 12 -12 13 -11 -15
right_child=1 2 6 5 -6 -7 9 -9 -10 10 11 -13 -14 14 -16
leaf_value=1.2484412851383763e-07 2.04414568579057e-05 -9.7942449842932935e-06 -2.2999660463651995e-05 -1.4607835057652884e-05 -6.0503354234398054e-05 1.5624286756638164e-05 -1.7911734526632903e-07 -1.9507140884279565e-05 -2.515331461895191e-06 1.0812338049098907e-05 5.186858799551492e-05 5.3997290089478438e-06 1.196122246627674e-05 -4.9375234679742296e-06 -3.4463445498809194e-05
leaf_weight=561205 937 725 572 753 585 622 42316 1114 15178 773 506 721 1659 880 551
leaf_count=561205 937 725 572 753 585 622 42316 1114 15178 773 506 721 1659 880 551
internal_value=0 -1.0333e-06 -1.33383e-06 -1.63042e-05 -3.24392e-05 -9.31922e-07 -7.08417e-07 -4.33e-06 -3.25927e-06 5.80701e-07 6.89864e-06 2.45629e-05 1.28795e-06 -6.74606e-06 -1.61932e-05
internal_weight=0 67892 66955 2685 1310 1375 64270 16864 15750 47406 5090 1227 3863 2204 1431
internal_count=629097 67892 66955 2685 1310 1375 64270 16864 15750 47406 5090 1227 3863 2204 1431
cat_boundaries=0 1 2
cat_threshold=2108 1664
is_linear=0
shrinkage=0.1


Tree=22
num_leaves=16
num_cat=3
split_feature=3 8 5 18 7 13 6 14 18 5 3 4 13 18 17
split_gain=7.70677e-06 8.52432e-05 4.02055e-05 2.50691e-05 2.21856e-05 5.21007e-05 1.88466e-05 6.8048e-05 5.5319e-05 5.43035e-05 3.51886e-05 2.19981e-05 2.65681e-05 2.0245e-05 2.33801e-05
threshold=-0.0012149877422134578 0.0069638289866000855 0.0029329036974320437 0 0.0066347929341309406 44.938391010598821 -0.002540201610389647 41.771463236694593 1 0.00028561908000157571 0.0032355312835211651 0.00052424955485885782 53.35057224431344 2 0.28104470649087887
decision_type=10 10 10 1 8 2 10 2 1 10 10 8 2 1 2
left_child=1 2 3 4 -1 -6 7 11 -9 10 -10 13 -13 -2 -15
right_child=6 -3 -4 -5 5 -7 -8 8 9 -11 -12 12 -14 14 -16
leaf_value=3.0175426570934823e-06 3.0940308048569008e-06 -3.2912036716537992e-05 2.2785691157743461e-05 -3.8812372881002563e-09 4.1581659639131526e-05 -7.346008101784187e-07 -2.7933022906422268e-08 1.1897257350589316e-06 -9.9207043719626204e-06 -5.0864283516548528e-05 -3.7821767141972548e-05 1.7037111426025759e-06 2.9984652873804674e-05 -2.3833909827881417e-06 -1.8898406831884337e-05
leaf_weight=22112 6800 745 843 78005 501 694 503537 1815 2362 502 559 926 518 8221 957
leaf_count=22112 6800 745 843 78005 501 694 503537 1815 2362 502 559 926 518 8221 957
internal_value=0 7.91376e-07 1.03717e-06 8.56204e-07 3.73318e-06 1.70064e-05 -1.5489e-07 -2.97605e-06 -1.29702e-05 -2.04221e-05 -1.52602e-05 2.87225e-08 1.18488e-05 -1.03951e-06 -4.10096e-06
internal_weight=0 102900 102155 101312 23307 1195 526197 22660 5238 3423 2921 17422 1444 15978 9178
internal_count=629097 102900 102155 101312 23307 1195 526197 22660 5238 3423 2921 17422 1444 15978 9178
cat_boundaries=0 1 2 3
cat_threshold=2128 1081 2984
is_linear=0
shrinkage=0.1


Tree=23
num_leaves=16
num_cat=2
split_feature=1 2 18 8 5 12 0 18 9 6 4 8 9 6 12
split_gain=7.8123e-06 4.26198e-05 8.53614e-05 5.95695e-05 4.7676e-05 3.58872e-05 3.13511e-05 3.48754e-05 3.37429e-05 3.75123e-05 3.00955e-05 2.55805e-05 2.38127e-05 2.71806e-05 2.11116e-05
threshold=-0.0013112529744414567 -0.00022592811816724009 0 -0.0005179268098846056 0.0041475443479894744 -43.471915336762592 343.50000000000006 1 -0.0076177883109342917 -0.003262460729900551 0.00035491720816271949 -0.0018196055275117582 0.0045249861432219438 0.0025156369736760724 94.485277940112738
decision_type=2 8 1 10 10 2 2 1 8 8 10 8 8 8 2
left_child=1 4 3 -3 6 -4 7 11 -9 -10 -7 -1 13 -8 -12
right_child=-2 2 5 -5 -6 10 12 8 9 -11 14 -13 -14 -15 -16
leaf_value=-7.5470356387086225e-06 8.4991113559900408e-08 -6.0610319348052143e-05 1.4874064163661406e-05 -1.3376874841073526e-05 2.7770321660985553e-05 -2.4404325323741781e-05 9.1195433484897144e-07 -2.9583020476434124e-05 7.5184077438740606e-06 -1.4463297547018391e-05 1.3783469938444846e-05 2.204115714408372e-05 -1.5498078682994398e-05 2.2889422438393122e-05 -1.0119363254790379e-05
leaf_weight=560 594443 500 862 573 600 823 22761 842 1151 2385 608 611 859 577 942
leaf_count=560 594443 500 862 573 600 823 22761 842 1151 2385 608 611 859 577 942
internal_value=0 -1.45961e-06 -1.07673e-05 -3.50601e-05 -1.38267e-07 -2.59335e-06 -7.01205e-07 -7.48051e-06 -1.15657e-05 -7.30805e-06 -8.94937e-06 7.82456e-06 8.53467e-07 1.45532e-06 -7.43284e-07
internal_weight=0 34654 4308 1073 30346 3235 29746 5549 4378 3536 2373 1171 24197 23338 1550
internal_count=629097 34654 4308 1073 30346 3235 29746 5549 4378 3536 2373 1171 24197 23338 1550
cat_boundaries=0 1 2
cat_threshold=1088 2244
is_linear=0
shrinkage=0.1


Tree=24
num_leaves=16
num_cat=0
split_feature=7 10 4 6 10 5 17 6 17 16 10 16 12 17 2
split_gain=7.37619e-06 2.56852e-05 2.04057e-05 3.98864e-05 3.83183e-05 3.10012e-05 2.88498e-05 1.83357e-05 3.2625e-05 1.75964e-05 4.62678e-05 2.82543e-05 5.12757e-05 4.81904e-05 2.73546e-05
threshold=-0.0027410266007932833 0.0026915701630390036 -0.0030773270619256494 0.00024916426164678379 0.00081970946023623991 -0.0057127806468709177 0.25565648074349084 -0.002075965664897927 0.31549207654403438 7.2847682119192525 -0.0080893531370588839 34.444839576422922 -90.443111919287631 0.37145732721731151 -0.0004293469972974639
decision_type=8 10 8 8 10 10 2 10 2 2 10 2 2 2 10
left_child=1 7 3 5 -5 -2 -7 9 -9 -1 11 12 13 14 -11
right_child=2 -3 -4 4 -6 6 -8 8 -10 10 -12 -13 -14 -15 -16
leaf_value=2.6001503330535912e-06 2.0038783550262451e-05 1.9158950656228358e-05 -3.8193967345748013e-08 -7.7497013663304256e-06 -3.876899300059859e-05 2.9337190340806014e-07 -1.5684971747947345e-05 3.0187541893997034e-06 2.3424654447157448e-05 -1.4076030100884376e-05 2.6509939988257705e-07 -3.2142834131723001e-05 -2.7585612790244157e-05 2.0595764780932283e-05 1.0208315242679391e-05
leaf_weight=18189 610 773 559767 1169 604 4638 1494 7720 872 1926 28452 529 991 752 611
leaf_count=18189 610 773 559767 1169 604 4638 1494 7720 872 1926 28452 529 991 752 611
internal_value=0 1.04664e-06 -1.121e-07 -4.97063e-06 -1.83169e-05 -1.46085e-06 -3.59959e-06 8.1346e-07 5.08974e-06 9.93334e-08 -1.26826e-06 -1.03402e-05 -7.64544e-06 -1.63732e-06 -8.22749e-06
internal_weight=0 60815 568282 8515 1773 6742 6132 60042 8592 51450 33261 4809 4280 3289 2537
internal_count=629097 60815 568282 8515 1773 6742 6132 60042 8592 51450 33261 4809 4280 3289 2537
is_linear=0
shrinkage=0.1


Tree=25
num_leaves=16
num_cat=2
split_feature=3 9 4 0 14 18 18 0 0 2 3 5 5 3 6
split_gain=6.50227e-06 3.98795e-05 2.93263e-05 2.28651e-05 3.7546e-05 5.73882e-05 3.54025e-05 2.63221e-05 3.17068e-05 2.15534e-05 2.03479e-05 1.96735e-05 1.93587e-05 3.3337e-05 3.00011e-05
threshold=-0.0011117287381880445 0.0073558164596457818 0.0018708936803257805 360.50000000000006 77.909330750243953 0 1 377.50000000000006 368.50000000000006 0.0005987683132838707 -0.0020160589547802972 -0.0034734490313354511 -0.0057127806468709177 0.00040515403820384771 -0.002540201610389647
decision_type=10 10 10 2 2 1 1 2 2 8 8 8 8 10 10
left_child=1 2 3 4 6 -6 10 8 -5 -7 11 -1 13 -2 -14
right_child=12 -3 -4 7 5 9 -8 -9 -10 -11 -12 -13 14 -15 -16
leaf_value=1.4150247801406143e-05 -2.1857192763307877e-06 -2.0386795403580072e-05 2.0150867406316962e-05 7.9569859392657955e-07 3.9661093549593614e-05 1.5923531304141229e-05 -3.9960990324509693e-06 1.0361618465344695e-06 1.5437508189991466e-05 -1.1222766211470792e-05 2.2475721783230587e-05 -9.8604263049547622e-06 -3.9679270400499965e-06 3.2217652612598612e-05 -2.5759861186312506e-08
leaf_weight=683 645 891 782 3027 524 505 22674 79154 2892 695 771 682 20089 500 494583
leaf_count=683 645 891 782 3027 524 505 22674 79154 2892 695 771 682 20089 500 494583
internal_value=0 6.85957e-07 8.53018e-07 7.17803e-07 -1.84512e-06 1.24249e-05 -2.83672e-06 1.51717e-06 7.94963e-06 1.99637e-07 9.44482e-06 2.15371e-06 -1.50738e-07 1.28376e-05 -1.79633e-07
internal_weight=0 113280 112389 111607 26534 1724 24810 85073 5919 1200 2136 1365 515817 1145 514672
internal_count=629097 113280 112389 111607 26534 1724 24810 85073 5919 1200 2136 1365 515817 1145 514672
cat_boundaries=0 1 2
cat_threshold=610 2064
is_linear=0
shrinkage=0.1


Tree=26
num_leaves=16
num_cat=1
split_feature=13 1 2 5 6 0 4 16 18 13 3 15 5 2 0
split_gain=7.27446e-06 2.10355e-05 1.97096e-05 1.79512e-05 6.10743e-05 1.25747e-05 1.31723e-05 4.19264e-05 2.40782e-05 2.76936e-05 1.0214e-05 1.26203e-05 9.92524e-06 5.15591e-05 5.25022e-05
threshold=15.307370614019195 0.0015187239865344095 0.0018455654347374619 0.00057949360143949591 -8.600485963244918e-05 239.50000000000003 -0.0030773270619256494 18.128654970757008 0 10.641175937472381 -0.0020160589547802972 10.953796175946108 -0.0057127806468709177 0.00041199402004110658 682.50000000000011
decision_type=2 2 8 8 10 2 8 2 1 2 10 2 8 10 2
left_child=1 2 3 5 -5 -1 7 8 -7 -10 11 -8 13 14 -2
right_child=12 -3 -4 4 -6 6 10 -9 9 -11 -12 -13 -14 -15 -16
leaf_value=-8.7994258858729595e-06 3.3243935341239967e-06 -1.9829960332976446e-05 1.7923143229334691e-05 -4.0579092080127119e-05 -8.9981981099382126e-08 1.1284729068714857e-05 8.8952857355102078e-07 -3.2180058116339683e-05 -2.1440099521896629e-05 7.0910783059981819e-06 5.4076793702265085e-07 2.1552952530601876e-05 1.5486106832293913e-08 2.6574558868462857e-05 -2.7227495637168533e-05
leaf_weight=1771 6824 630 521 511 1375 999 653 506 784 601 12002 540 599900 867 613
leaf_count=1771 6824 630 521 511 1375 999 653 506 784 601 12002 540 599900 867 613
internal_value=0 -1.83472e-06 -1.27522e-06 -1.78188e-06 -1.10603e-05 -8.01868e-07 7.86842e-08 -6.03603e-06 -4.87e-07 -8.99448e-06 1.41794e-06 1.02426e-05 6.30142e-08 3.49655e-06 8.06132e-07
internal_weight=0 20893 20263 19742 1886 17856 16085 2890 2384 1385 13195 1193 608204 8304 7437
internal_count=629097 20893 20263 19742 1886 17856 16085 2890 2384 1385 13195 1193 608204 8304 7437
cat_boundaries=0 1
cat_threshold=3724
is_linear=0
shrinkage=0.1


Tree=27
num_leaves=16
num_cat=1
split_feature=7 4 4 17 4 12 1 17 6 4 7 6 17 18 16
split_gain=6.04346e-06 2.22292e-05 3.79505e-05 4.80316e-05 3.70457e-05 1.94306e-05 2.83194e-05 1.71393e-05 1.66705e-05 3.98643e-05 8.43728e-05 1.68615e-05 4.20665e-05 1.48434e-05 2.02151e-05
threshold=-0.0027410266007932833 0.0030625121735987641 0.00064530812948415683 0.31549207654403438 0.0014233137395299746 6.1245564874197127 0.0025120575032780983 0.18626291968114769 -0.006244144347388624 -0.0050945844693698885 -0.001302631043565927 -0.0028521500231759029 0.28104470649087887 0 57.407407407404158
decision_type=8 10 10 2 10 2 2 2 8 8 10 8 2 1 2
left_child=1 2 5 4 7 6 13 -4 -2 10 -10 12 -11 -1 -15
right_child=8 -3 3 -5 -6 -7 -8 -9 9 11 -12 -13 -14 14 -16
leaf_value=2.3664177989584897e-06 1.7299945381554692e-05 -1.7221631935319384e-05 4.4782863796589474e-06 3.8367911224315994e-05 -1.1272916200164803e-05 1.6710658915285599e-05 -2.0357337026915675e-05 2.866032385888199e-05 3.832652329426415e-06 -1.8443666978324448e-06 -4.1012990442174524e-05 -6.8631852573326305e-09 -2.3517312648695269e-05 -5.0462132599562991e-07 -1.869608838106638e-05
leaf_weight=26596 550 666 573 581 780 741 649 600 981 6952 733 558038 1028 29005 624
leaf_count=26596 550 666 573 581 780 741 649 600 981 6952 733 558038 1028 29005 624
internal_value=0 9.47467e-07 1.14864e-06 1.31259e-05 5.61668e-06 6.21864e-07 4.12246e-07 1.68476e-05 -1.01385e-07 -1.18243e-07 -1.53458e-05 -7.21315e-08 -4.63632e-06 6.51988e-07 -8.87442e-07
internal_weight=0 60815 60149 2534 1953 57615 56874 1173 568282 567732 1714 566018 7980 56225 29629
internal_count=629097 60815 60149 2534 1953 57615 56874 1173 568282 567732 1714 566018 7980 56225 29629
cat_boundaries=0 1
cat_threshold=2424
is_linear=0
shrinkage=0.1


Tree=28
num_leaves=16
num_cat=0
split_feature=2 0 3 16 1 16 14 13 16 16 10 13 6 9 3
split_gain=6.11319e-06 4.12783e-05 3.73438e-05 3.29009e-05 2.35392e-05 5.50333e-05 4.59761e-05 3.75665e-05 3.06997e-05 2.73643e-05 3.44076e-05 2.2206e-05 2.4301e-05 1.55141e-05 9.64115e-06
threshold=0.0035862904500837405 295.50000000000006 0.0011261261261262814 95.784769249240341 0.0025120575032780983 89.124458391925842 95.86875409389036 52.520019305183553 61.1126001369975 86.585365853658814 0.0058033524553826607 68.531579444093254 0.0037184226641312494 0.0010587167683558942 0.0043737532141395761
decision_type=10 2 8 2 2 2 2 2 2 2 10 2 8 8 8
left_child=14 -2 -3 4 9 6 7 -6 -8 10 11 12 13 -4 -1
right_child=1 2 3 -5 5 -7 8 -9 -10 -11 -12 -13 -14 -15 -16
leaf_value=-2.1674574234245128e-09 1.7116931909415681e-05 2.0622729377117063e-05 -8.3154040947131889e-06 1.3950900707646278e-05 -5.6432568213357679e-06 -4.457628250351761e-05 -1.4470532966451517e-05 -4.2565730834405753e-05 1.3244350490902987e-05 1.129912705687415e-05 -2.8828470886145146e-05 1.5454435516603109e-05 -2.0259571027518083e-05 1.4833121515929382e-05 3.8234978793422491e-06
leaf_weight=612768 966 547 658 726 530 519 691 574 948 974 628 533 859 517 6659
leaf_count=612768 966 547 658 726 530 519 691 574 948 974 628 533 859 517 6659
internal_value=0 -2.49491e-06 -4.6715e-06 -6.36771e-06 -8.35281e-06 -1.47156e-05 -9.06568e-06 -2.48403e-05 1.5598e-06 -3.37431e-06 -7.84753e-06 -2.71467e-06 -7.4758e-06 1.86995e-06 3.89594e-08
internal_weight=0 9670 8704 8157 7431 3262 2743 1104 1639 4169 3195 2567 2034 1175 619427
internal_count=629097 9670 8704 8157 7431 3262 2743 1104 1639 4169 3195 2567 2034 1175 619427
is_linear=0
shrinkage=0.1


Tree=29
num_leaves=16
num_cat=5
split_feature=13 17 18 18 3 17 6 18 18 7 15 12 17 18 4
split_gain=6.0559e-06 2.16513e-05 6.90802e-05 1.49361e-05 2.46386e-05 1.91237e-05 2.67737e-05 2.23111e-05 1.04413e-05 9.50183e-06 2.57634e-05 3.00147e-05 4.98445e-05 4.35518e-05 3.07445e-05
threshold=15.307370614019195 0.28104470649087887 0 1 0.00050620978356896728 0.16995284115802459 -0.003262460729900551 2 3 -0.0027410266007932833 47.667724678063522 -183.94243403170753 0.31549207654403438 4 -0.0050945844693698885
decision_type=2 2 1 1 8 2 8 1 1 8 2 2 2 1 10
left_child=1 3 -3 4 -1 -5 7 -7 -8 10 -2 -12 14 -14 -13
right_child=9 2 -4 5 -6 6 8 -9 -10 -11 11 12 13 -15 -16
leaf_value=-2.4858333003068471e-06 5.2618400828976028e-07 -4.2913392235895674e-05 2.3655320190013784e-06 -6.0187170255797465e-07 -2.2019401317807542e-05 1.1159554028048793e-05 9.7430069779694393e-06 -1.631617534396734e-05 2.9224158206963714e-05 -6.6086082731778147e-08 -1.2990691918389879e-05 2.703156903249408e-05 4.4688346301407014e-05 6.3322939266407776e-06 1.693603874975739e-06
leaf_weight=6113 47817 505 979 10234 722 646 563 528 603 554027 654 545 660 554 3947
leaf_count=6113 47817 505 979 10234 722 646 563 528 603 554027 654 545 660 554 3947
internal_value=0 -1.67399e-06 -1.3316e-05 -7.8385e-07 -4.54257e-06 1.26193e-06 9.41868e-06 -1.24143e-06 2.01519e-05 5.75146e-08 1.32149e-06 7.30087e-06 9.62662e-06 2.76051e-05 4.76778e-06
internal_weight=0 20893 1484 19409 6835 12574 2340 1174 1166 608204 54177 6360 5706 1214 4492
internal_count=629097 20893 1484 19409 6835 12574 2340 1174 1166 608204 54177 6360 5706 1214 4492
cat_boundaries=0 1 2 3 4 5
cat_threshold=2102 257 3248 1164 1392
is_linear=0
shrinkage=0.1


Tree=30
num_leaves=16
num_cat=1
split_feature=1 11 12 0 0 2 12 13 3 1 14 5 17 11 18
split_gain=6.26397e-06 0.00010374 0.000193473 2.5265e-05 2.52507e-05 3.26842e-05 5.02796e-05 7.02317e-05 1.96747e-05 3.53933e-05 1.93471e-05 3.43054e-05 5.07559e-05 2.18415e-05 4.82976e-05
threshold=-0.0013112529744414567 -0.43749999999991013 -37.638687003602634 427.50000000000006 553.50000000000011 -0.0026258205689277943 -75.39501742858819 36.51507435678564 -0.0022959872765962448 -0.0018521597168345558 79.483920673420741 0.0015930648582846987 0.31549207654403438 -0.55555555555561986 0
decision_type=2 2 2 2 2 10 2 2 10 2 2 10 2 2 1
left_child=1 3 -3 10 -5 6 7 -6 9 -7 11 13 -13 -1 -15
right_child=-2 2 -4 4 5 8 -8 -9 -10 -11 -12 12 -14 14 -16
leaf_value=-2.4836023837638226e-06 7.6267269855067214e-08 1.0418742711825837e-05 -6.9594177591699645e-05 7.1508107299143251e-06 -1.3722440735469239e-06 3.3576555098548079e-05 1.3992416264135128e-05 -4.3448830905110871e-05 -3.6398515753124072e-07 7.6376876861164958e-07 -1.7004032875180688e-05 -1.1163444915166555e-06 3.4254026210423813e-05 3.9832577969505754e-06 -3.6623571167177301e-05
leaf_weight=14312 594443 597 612 7003 866 528 568 732 4692 871 909 1181 618 579 586
leaf_count=14312 594443 597 612 7003 866 528 568 732 4692 871 909 1181 618 579 586
internal_value=0 -1.30683e-06 -3.00841e-05 -2.66562e-07 2.7338e-06 -1.0124e-06 -1.15629e-05 -2.06464e-05 2.73943e-06 1.31477e-05 -2.78432e-06 -2.03613e-06 1.10342e-05 -3.55539e-06 -1.67223e-05
internal_weight=0 34654 1209 33445 15260 8257 2166 1598 6091 1399 18185 17276 1799 15477 1165
internal_count=629097 34654 1209 33445 15260 8257 2166 1598 6091 1399 18185 17276 1799 15477 1165
cat_boundaries=0 1
cat_threshold=1796
is_linear=0
shrinkage=0.1


Tree=31
num_leaves=16
num_cat=0
split_feature=2 0 10 12 6 13 14 0 1 8 17 0 17 12 1
split_gain=5.61789e-06 4.3205e-05 4.21868e-05 4.10401e-05 5.59887e-05 4.05578e-05 6.25475e-05 3.58775e-05 1.92543e-05 1.75503e-05 4.45901e-05 7.84831e-05 3.28189e-05 3.03445e-05 4.30081e-05
threshold=0.0013120502992752805 295.50000000000006 0.0058033524553826607 -106.06060606061162 -0.002540201610389647 41.397157227528375 43.336440630615492 343.50000000000006 -0.0015248042787723846 -9.647387992156585e-05 0.37145732721731151 401.50000000000006 0.31549207654403438 109.5175866985691 0.0025120575032780983
decision_type=10 2 10 2 10 2 2 2 2 10 2 2 2 2 2
left_child=-1 2 -2 -3 5 6 -5 -7 -6 12 13 -12 -10 -11 -15
right_child=1 3 -4 4 8 7 -8 -9 9 10 11 -13 -14 14 -16
leaf_value=1.0395779884286893e-07 4.8488459566441265e-06 2.1730226966698308e-05 3.411761125287425e-05 -5.8256846221576619e-06 -1.9402010539315407e-05 -1.920249652527868e-05 -4.750463784276792e-05 8.9626905214499663e-06 -2.7415661339567589e-06 2.665567649472263e-06 2.612539682333314e-06 4.7513132269747534e-05 -2.0936905607554097e-05 -1.5135052307565797e-06 -1.5024233726078265e-05
leaf_weight=561205 4433 747 554 704 572 876 737 935 9868 16377 1474 529 1102 26397 2587
leaf_count=561205 4433 747 554 704 572 876 737 935 9868 16377 1474 529 1102 26397 2587
internal_value=0 -8.59151e-07 8.10028e-06 -1.56944e-06 -1.84945e-06 -1.46228e-05 -2.71424e-05 -4.66111e-06 -1.14427e-06 -9.65245e-07 -1.30486e-07 1.4471e-05 -4.56939e-06 -7.75241e-07 -2.71942e-06
internal_weight=0 67892 4987 62905 62158 3252 1441 1811 58906 58334 47364 2003 10970 45361 28984
internal_count=629097 67892 4987 62905 62158 3252 1441 1811 58906 58334 47364 2003 10970 45361 28984
is_linear=0
shrinkage=0.1


Tree=32
num_leaves=16
num_cat=0
split_feature=1 11 5 11 11 3 10 0 14 0 0 3 0 17 15
split_gain=5.25525e-06 2.73849e-05 2.4152e-05 3.6109e-05 2.41604e-05 4.1457e-05 4.09055e-05 1.51989e-05 2.60102e-05 2.05925e-05 3.722e-05 2.55485e-05 1.94216e-05 1.38825e-05 1.37157e-05
threshold=-0.0018521597168345558 -0.46666666666678674 0.0029329036974320437 -0.78571428571421531 -0.66666666666674324 -0.0044264494865406947 -0.0024373915667736386 419.50000000000006 48.110360660494642 634.50000000000011 690.50000000000011 -0.002682041202494156 511.50000000000006 0.12953516130940637 26.57085214665959
decision_type=2 2 10 2 2 10 8 2 2 2 2 10 2 2 2
left_child=1 2 4 -4 7 -6 -7 13 9 11 -11 12 -9 -1 -15
right_child=-2 -3 3 -5 5 6 -8 8 -10 10 -12 -13 -14 14 -16
leaf_value=1.2071807580367102e-05 4.8627081179595633e-08 -2.2150837754406319e-05 -4.2587358239438205e-06 3.309766492951083e-05 -3.1729487893291008e-05 1.6950914813649087e-05 -1.7377974304044076e-05 5.1385157060392083e-06 2.1410339023181703e-05 -2.5800290391701256e-05 5.1861009766196888e-06 -3.7507274340555198e-06 2.6652072529614193e-05 -1.0225088179494925e-05 -1.1772398507427895e-06
leaf_weight=554 611792 632 534 502 702 630 773 1041 716 691 883 1578 703 2577 4789
leaf_count=554 611792 632 534 502 702 630 773 1041 716 691 883 1578 703 2577 4789
internal_value=0 -1.7185e-06 -9.44001e-07 1.38425e-05 -1.92365e-06 -1.18899e-05 -1.96301e-06 -3.73336e-07 3.608e-06 1.00455e-06 -8.4172e-06 5.46868e-06 1.38106e-05 -3.19445e-06 -4.34264e-06
internal_weight=0 17305 16673 1036 15637 2105 1403 13532 5612 4896 1574 3322 1744 7920 7366
internal_count=629097 17305 16673 1036 15637 2105 1403 13532 5612 4896 1574 3322 1744 7920 7366
is_linear=0
shrinkage=0.1


Tree=33
num_leaves=16
num_cat=1
split_feature=3 2 8 3 4 18 0 14 17 0 0 0 4 17 15
split_gain=5.45342e-06 2.29497e-05 2.62772e-05 6.61231e-05 2.1801e-05 2.10739e-05 2.11894e-05 1.94928e-05 1.94332e-05 2.56363e-05 1.70878e-05 3.92699e-05 2.71625e-05 2.05889e-05 4.46939e-05
threshold=-0.00032169135453508074 0.002633842635633266 0.0069638289866000855 -0.0017947409568251358 0.0026309632133819654 0 419.50000000000006 82.586859070280369 0.1777018582089194 658.50000000000011 368.50000000000006 377.50000000000006 -0.00042700721652461077 0.37145732721731151 55.218551180882748
decision_type=10 10 10 10 10 1 2 2 2 2 2 2 10 2 2
left_child=1 2 4 -4 5 6 7 -1 -8 -10 13 12 -12 -7 -15
right_child=-2 -3 3 -5 -6 10 8 -9 9 -11 11 -13 -14 14 -16
leaf_value=5.0298359702431776e-06 -2.2763976046750053e-07 1.5612897382774937e-05 -3.9943426317714773e-05 8.5473853274025722e-06 1.6727151448726289e-05 -1.3707838295237992e-06 1.6313888854424116e-06 2.4168345180035223e-05 -2.0177703708046494e-06 -2.7394224747695263e-05 1.5615741756779177e-05 1.3516026622237575e-07 -5.8404944948111941e-06 -2.5962860866509378e-06 -3.5187047660499042e-05
leaf_weight=11092 393710 985 545 581 814 41822 31167 559 1647 525 2700 140070 755 1547 578
leaf_count=11092 393710 985 545 581 814 41822 31167 559 1647 525 2700 140070 755 1547 578
internal_value=0 3.80795e-07 3.16787e-07 -1.49229e-05 3.90347e-07 3.33141e-07 2.27647e-06 5.94808e-06 9.94039e-07 -8.15158e-06 -1.33339e-07 3.94947e-07 1.0927e-05 -1.85868e-06 -1.1461e-05
internal_weight=0 235387 234402 1126 233276 232462 44990 11651 33339 2172 187472 143525 3455 43947 2125
internal_count=629097 235387 234402 1126 233276 232462 44990 11651 33339 2172 187472 143525 3455 43947 2125
cat_boundaries=0 1
cat_threshold=2128
is_linear=0
shrinkage=0.1


Tree=34
num_leaves=16
num_cat=2
split_feature=5 2 13 18 9 15 2 18 0 15 0 15 11 4 17
split_gain=5.54664e-06 4.69979e-05 4.40442e-05 5.16192e-05 4.53382e-05 6.43139e-05 1.853e-05 2.19497e-05 3.42722e-05 2.19121e-05 2.14687e-05 1.51912e-05 1.41968e-05 1.10379e-05 4.78416e-05
threshold=-0.0057127806468709177 0.00036584919701543322 54.200946189937298 0 -0.0005437959047783213 43.99470899470581 -0.00052510759987856026 1 360.50000000000006 5.5310724209292239 561.50000000000011 12.254901960785725 -0.69869841269842314 -0.0030773270619256494 0.25565648074349084
decision_type=8 10 2 1 8 2 10 1 2 2 2 2 2 8 2
left_child=1 2 4 -4 5 6 7 11 12 -10 -11 -1 -9 14 -2
right_child=13 -3 3 -5 -6 -7 -8 8 9 10 -12 -13 -14 -15 -16
leaf_value=2.9011376346380198e-07 3.7299825120018965e-07 2.3041434255183528e-05 3.1120366563371732e-05 -5.5315005277816261e-06 2.286714110483646e-05 -3.4681652973899068e-05 -1.9701192446019617e-05 -2.9307984223646155e-05 1.7486207229438228e-05 3.9654297318873828e-06 -2.010661643468533e-05 1.9543521251877018e-05 -8.9948862455963129e-06 4.2308774281294407e-08 -1.0724357819267235e-05
leaf_weight=888 16324 988 880 677 614 680 554 557 705 1210 534 761 900 597727 5098
leaf_count=888 16324 988 880 677 614 680 554 557 705 1210 534 761 900 597727 5098
internal_value=0 2.34255e-06 6.01266e-08 1.53481e-05 -3.15524e-06 -5.50872e-06 -2.26144e-06 -5.22177e-07 -4.60443e-06 2.60883e-06 -3.40525e-06 9.1201e-06 -1.67604e-05 -3.7624e-08 -2.26795e-06
internal_weight=0 9948 8960 1557 7403 6789 6109 5555 3906 2449 1744 1649 1457 619149 21422
internal_count=629097 9948 8960 1557 7403 6789 6109 5555 3906 2449 1744 1649 1457 619149 21422
cat_boundaries=0 1 2
cat_threshold=3378 1153
is_linear=0
shrinkage=0.1


Tree=35
num_leaves=16
num_cat=0
split_feature=3 7 8 8 12 10 0 1 17 6 11 15 11 2 17
split_gain=6.06542e-06 2.32286e-05 2.17827e-05 2.44233e-05 2.68375e-05 1.5799e-05 2.63886e-05 1.72009e-05 2.25214e-05 1.91546e-05 2.20879e-05 2.01304e-05 1.50048e-05 2.27883e-05 2.98598e-05
threshold=-0.002682041202494156 0.0040216303408721074 0.0029255018796120473 9.4864609562761451e-05 -13.082473311014828 -0.0080893531370588839 642.50000000000011 0.0015187239865344095 0.37145732721731151 -0.0022924652935715768 -0.14285714285702669 8.3229720625941432 0.38095238095249379 -0.0016315138813883243 0.20701975501978476
decision_type=10 10 10 10 2 8 2 2 2 10 2 2 2 10 2
left_child=1 2 3 12 -5 6 7 8 9 10 11 -2 -1 14 -14
right_child=5 -3 -4 4 -6 -7 -8 -9 -10 -11 -12 -13 13 -15 -16
leaf_value=2.8007844752638445e-06 -5.5472728183050154e-06 -1.7122116252155363e-05 1.8977287121221321e-05 -2.2278726061547791e-05 3.0367795573622158e-07 -2.7064502797866762e-08 -2.5936320788686217e-05 -1.8825808916310505e-05 1.7179773797181027e-05 1.19583094595507e-05 2.8621661370096619e-06 -3.113949893014629e-05 -1.1164408931934757e-06 3.1787641506551492e-06 -3.4003181727399411e-05
leaf_weight=26323 674 668 715 887 1294 592106 576 589 605 588 982 565 612 1410 503
leaf_count=26323 674 668 715 887 1294 592106 576 589 605 588 982 565 612 1410 503
internal_value=0 1.33232e-06 1.72066e-06 1.32302e-06 -8.88045e-06 -7.23155e-08 -5.92367e-06 -3.04401e-06 -3.2126e-07 -4.09062e-06 -8.3395e-06 -1.72177e-05 2.09443e-06 -5.26923e-06 -1.59523e-05
internal_weight=0 32412 31744 31029 2181 596685 4579 4003 3414 2809 2221 1239 28848 2525 1115
internal_count=629097 32412 31744 31029 2181 596685 4579 4003 3414 2809 2221 1239 28848 2525 1115
is_linear=0
shrinkage=0.1


Tree=36
num_leaves=16
num_cat=1
split_feature=3 18 14 7 2 14 3 10 2 11 12 16 9 7 14
split_gain=4.91299e-06 2.69178e-05 3.46366e-05 5.60137e-05 3.07389e-05 2.58884e-05 2.47072e-05 2.03663e-05 1.92637e-05 1.59141e-05 2.15213e-05 1.63286e-05 4.12477e-05 2.4469e-05 1.47177e-05
threshold=-0.002682041202494156 0 60.678102549027315 0.00224663313633422 0.00018534421510507662 1.9588196258787305 -0.0044264494865406947 -0.0080893531370588839 -0.0010703009332863054 -0.37500000000004452 -183.94243403170753 15.238095238097241 -0.0046292933667400607 -0.0067813200887553706 33.82036827521808
decision_type=10 1 2 10 8 2 8 10 10 2 2 2 8 8 2
left_child=1 2 3 -1 -4 8 7 -7 9 11 -11 13 -13 -3 -8
right_child=-2 5 4 -5 -6 6 14 -9 -10 10 -12 12 -14 -15 -16
leaf_value=3.2528016064770741e-06 -6.5084093137797499e-08 2.0661012060628643e-05 3.0471742319028993e-05 -2.8973248625582875e-05 1.2812826864310745e-06 -3.5403824457720322e-06 -9.3516592468821606e-06 -2.8585358517411422e-05 -1.6562571702350288e-05 -7.7185226948397932e-07 2.4461113974862973e-05 -3.0067223387787931e-05 1.8421869311778882e-06 -3.9603953089776565e-07 2.4946026682291658e-06
leaf_weight=18024 596685 789 857 556 623 522 2199 859 533 628 732 530 1719 1836 2005
leaf_count=18024 596685 789 857 556 623 522 2199 859 533 628 732 530 1719 1836 2005
internal_value=0 1.19909e-06 3.45949e-06 2.28845e-06 1.81841e-05 -2.47266e-06 -7.51397e-06 -1.91187e-05 1.68442e-06 3.24452e-06 1.28094e-05 5.75605e-07 -5.67759e-06 5.93311e-06 -3.70186e-06
internal_weight=0 32412 20060 18580 1480 12352 5585 1381 6767 6234 1360 4874 2249 2625 4204
internal_count=629097 32412 20060 18580 1480 12352 5585 1381 6767 6234 1360 4874 2249 2625 4204
cat_boundaries=0 1
cat_threshold=2390
is_linear=0
shrinkage=0.1


Tree=37
num_leaves=16
num_cat=4
split_feature=8 12 18 14 7 13 18 17 11 18 16 18 5 14 1
split_gain=4.85969e-06 1.94026e-05 4.18845e-05 2.29201e-05 4.42938e-05 4.05196e-05 4.48397e-05 4.03198e-05 4.26634e-05 4.59602e-05 4.85423e-05 3.15532e-05 2.48867e-05 1.70948e-05 1.33611e-05
threshold=0.0032619512441955938 -183.94243403170753 0 48.110360660494642 0.0048671133068921577 72.406339838236747 1 0.37145732721731151 0.72917854427979101 2 86.585365853658814 3 -1.0000000180025095e-35 52.794807150935384 0.0011497881268435208
decision_type=8 2 1 2 10 2 1 2 2 1 2 1 10 2 2
left_child=-1 2 -2 4 5 11 -7 13 9 -9 -11 -3 -13 -5 -15
right_child=1 3 -4 7 -6 6 -8 8 -10 10 -12 12 -14 14 -16
leaf_value=8.9094481624948255e-08 3.1051085329752614e-05 -2.4243273008864926e-05 -4.5622134842952481e-06 1.2359104039602e-05 -3.0055185118333893e-05 3.2382292350842458e-05 -6.8791974577785322e-06 -1.9152682501914849e-05 3.3523702566355513e-05 -1.9276915053725299e-06 3.2054278131913966e-05 -8.9939638035085195e-06 1.1128076034350032e-05 -4.3654019170518698e-07 -4.2885086734489598e-06
leaf_weight=570528 577 958 755 918 732 570 582 599 649 963 746 2269 843 35322 12086
leaf_count=570528 577 958 755 918 732 570 582 599 649 963 746 2269 843 35322 12086
internal_value=0 -8.67418e-07 1.10637e-05 -1.14508e-06 -7.01797e-06 -3.7887e-06 1.27684e-05 -4.63228e-07 1.08722e-05 4.50266e-06 1.28308e-05 -8.47514e-06 -3.53182e-06 -1.15683e-06 -1.41855e-06
internal_weight=0 58569 1332 57237 5954 5222 1152 51283 2957 2308 1709 4070 3112 48326 47408
internal_count=629097 58569 1332 57237 5954 5222 1152 51283 2957 2308 1709 4070 3112 48326 47408
cat_boundaries=0 1 2 3 4
cat_threshold=2332 215 15 580
is_linear=0
shrinkage=0.1


Tree=38
num_leaves=16
num_cat=0
split_feature=0 4 8 0 17 13 10 12 17 17 16 1 0 0 1
split_gain=4.97913e-06 4.59837e-05 4.36779e-05 4.08988e-05 2.92528e-05 5.80536e-05 2.34007e-05 0.000195607 2.67105e-05 2.19304e-05 1.32631e-05 1.54699e-05 1.20987e-05 1.90739e-05 1.51668e-05
threshold=610.50000000000011 0.0050453453102300436 0.0069638289866000855 682.50000000000011 0.37145732721731151 38.593172733560046 -0.0029525158558429405 -48.983264297330187 0.25565648074349084 0.28104470649087887 29.207124364310758 0.00029394806167615256 674.50000000000011 650.50000000000011 0.00054333629387870463
decision_type=2 10 10 2 2 2 10 2 2 2 2 2 2 2 2
left_child=-1 2 4 -3 6 -6 7 8 10 12 11 -2 13 -8 -14
right_child=1 3 -4 -5 5 -7 9 -9 -10 -11 -12 -13 14 -15 -16
leaf_value=-1.9465220577624782e-07 2.5311745620000087e-06 -3.8956152819592854e-05 -2.6715148297444722e-05 -2.2180924854904144e-06 4.0707251103508824e-05 -2.8462350372396506e-07 4.5596395559338609e-07 -6.2715165116589643e-05 -1.9119058583665237e-05 1.6494132157436201e-05 -1.3526494848585723e-05 -7.0949830736509429e-06 4.8964799182414301e-07 3.7972493457534333e-06 -3.1157087035594657e-06
leaf_weight=425359 9576 556 587 666 541 956 45044 536 772 885 679 2022 100187 27525 13206
leaf_count=425359 9576 556 587 666 541 956 45044 536 772 885 679 2022 100187 27525 13206
internal_value=0 4.06551e-07 5.23252e-07 -1.89336e-05 6.02433e-07 1.45294e-05 4.98414e-07 -3.50882e-06 -1.07686e-06 7.89766e-07 5.76673e-08 8.52946e-07 7.15028e-07 1.72329e-06 6.97602e-08
internal_weight=0 203738 202516 1222 201929 1497 200432 13585 13049 186847 12277 11598 185962 72569 113393
internal_count=629097 203738 202516 1222 201929 1497 200432 13585 13049 186847 12277 11598 185962 72569 113393
is_linear=0
shrinkage=0.1


Tree=39
num_leaves=16
num_cat=3
split_feature=3 8 4 18 0 11 18 17 7 4 4 3 16 9 18
split_gain=4.32363e-06 4.37608e-05 3.6774e-05 1.70184e-05 1.61243e-05 2.54476e-05 6.46038e-05 5.33459e-05 3.23312e-05 4.44151e-05 3.10107e-05 5.81078e-05 2.1781e-05 1.81101e-05 1.76353e-05
threshold=-0.0013306413150649397 0.0069638289866000855 0.0013094354912730479 0 343.50000000000006 -0.40312805474092078 1 0.31549207654403438 -0.0067813200887553706 -0.0030773270619256494 -0.0050945844693698885 -0.0022959872765962448 25.83078094300928 -0.0025461840696911482 2
decision_type=10 10 10 1 2 2 1 2 8 8 10 8 2 8 1
left_child=1 2 3 -1 5 7 10 14 -8 13 11 -7 -9 -10 -5
right_child=-2 -3 -4 4 -6 6 8 12 9 -11 -12 -13 -14 -15 -16
leaf_value=4.0530521969223223e-06 -1.0903034455303016e-07 -2.4189367784675976e-05 2.0269319870588593e-05 9.8814955258387192e-06 7.9760037585642017e-07 5.1480336149776351e-05 1.7364604448631855e-05 -1.3710537025177046e-05 -1.1989883306340116e-05 -2.0298802257896985e-06 3.1484433372975358e-06 6.3461545339929382e-06 -4.3212611053604633e-05 -3.723890667055926e-05 -5.626395184864854e-06
leaf_weight=12423 536261 705 962 830 62636 532 633 501 591 4534 994 615 500 547 5833
leaf_count=12423 536261 705 962 830 62636 532 633 501 591 4534 994 615 500 547 5833
internal_value=0 6.30126e-07 8.20049e-07 6.14823e-07 7.18832e-08 -2.74967e-06 1.0363e-06 -6.92195e-06 -4.06451e-06 -6.46318e-06 1.60018e-05 2.72802e-05 -2.84468e-05 -2.41263e-05 -3.68821e-06
internal_weight=0 92836 92131 91169 78746 16110 8446 7664 6305 5672 2141 1147 1001 1138 6663
internal_count=629097 92836 92131 91169 78746 16110 8446 7664 6305 5672 2141 1147 1001 1138 6663
cat_boundaries=0 1 2 3
cat_threshold=2064 70 648
is_linear=0
shrinkage=0.1


Tree=40
num_leaves=16
num_cat=4
split_feature=13 17 18 18 2 17 8 15 2 7 9 18 16 15 18
split_gain=4.77617e-06 1.58662e-05 5.4633e-05 1.22085e-05 2.44754e-05 1.43124e-05 8.76719e-06 1.8975e-05 7.61829e-06 7.47568e-06 2.83145e-05 2.60938e-05 1.71818e-05 2.04902e-05 2.54633e-05
threshold=15.307370614019195 0.28104470649087887 0 1 0.00070859566516956473 0.22059209922280251 -0.0015224883808676035 12.254901960785725 -0.0014488170868906523 -0.0027410266007932833 0.0006903153863203616 2 64.748355923951024 49.537037037039383 3
decision_type=2 2 1 1 10 2 8 2 10 8 10 1 2 2 1
left_child=1 3 -3 4 6 -5 7 8 -1 10 12 -12 13 -2 -15
right_child=9 2 -4 5 -6 -7 -8 -9 -10 -11 11 -13 -14 14 -16
leaf_value=9.1051093955272744e-06 4.3968019722600348e-07 -3.7774583426512127e-05 2.4856405374589326e-06 2.7785192519639609e-07 -2.4212621397742552e-05 1.3407457862070085e-05 8.4551978439990286e-07 -1.8137674254567194e-05 -4.6089407465504175e-06 -5.8508622867400189e-08 2.233472639693298e-06 3.2604343638976224e-05 -1.5296259797835277e-05 1.5298090928920285e-05 6.5822313382735651e-08
leaf_weight=548 47994 505 979 11005 549 898 3918 938 1553 554027 606 534 652 2155 2236
leaf_count=548 47994 505 979 11005 549 898 3918 938 1553 554027 606 534 652 2155 2236
internal_value=0 -1.48658e-06 -1.14526e-05 -7.24589e-07 -3.87988e-06 1.26733e-06 -2.28094e-06 -6.31169e-06 -1.03193e-06 5.11248e-08 1.17226e-06 1.67654e-05 8.37096e-07 1.0379e-06 7.57645e-06
internal_weight=0 20893 1484 19409 7506 11903 6957 3039 2101 608204 54177 1140 53037 52385 4391
internal_count=629097 20893 1484 19409 7506 11903 6957 3039 2101 608204 54177 1140 53037 52385 4391
cat_boundaries=0 1 2 3 4
cat_threshold=2102 2305 2466 1360
is_linear=0
shrinkage=0.1


Tree=41
num_leaves=16
num_cat=1
split_feature=4 13 6 13 18 16 8 13 8 8 15 3 15 3 10
split_gain=4.81724e-06 4.42719e-05 3.82901e-05 2.53103e-05 1.93078e-05 2.32175e-05 3.88367e-05 1.98636e-05 1.74306e-05 3.17173e-05 3.38716e-05 1.68036e-05 2.58983e-05 1.38664e-05 2.12771e-05
threshold=-0.0030773270619256494 79.273114693365386 0.00049448414714226019 58.530265857475278 0 24.242424242427024 -0.0021738324505709001 45.795616525912678 0.0020163647485277329 -0.00085390614653424446 55.218551180882748 -0.0044264494865406947 13.564785043862289 -0.002682041202494156 -0.0049016460314702517
decision_type=8 2 8 2 1 2 10 2 8 8 2 10 2 10 10
left_child=1 2 4 -4 5 11 7 -7 9 13 -11 12 -1 14 -6
right_child=-2 -3 3 -5 8 6 -8 -9 -10 10 -12 -13 -14 -15 -16
leaf_value=-7.4332326395496581e-06 6.2257691490327049e-08 2.4285390973091127e-05 -7.9992499873556477e-06 -3.5077190936512664e-05 -4.3511608713070014e-07 -4.0745358620326791e-05 5.6009366049454328e-07 -1.3892768587826638e-05 1.5418533945585703e-05 -3.1872043813036521e-05 -1.9265764459367129e-06 -5.0956889906387385e-06 2.1698183364311891e-05 -2.739092210740915e-06 7.9337778244703517e-06
leaf_weight=564 598856 665 1023 521 7227 546 929 556 762 617 974 3862 665 6089 5241
leaf_count=564 598856 665 1023 521 7227 546 929 556 762 617 974 3862 665 6089 5241
internal_value=0 -1.23134e-06 -1.80507e-06 -1.71363e-05 -9.60624e-07 -5.4534e-06 -1.45007e-05 -2.71972e-05 5.7196e-07 1.07443e-08 -1.35396e-05 -1.85476e-06 8.32949e-06 1.1725e-06 3.0828e-06
internal_weight=0 30241 29576 1544 28032 7122 2031 1102 20910 20148 1591 5091 1229 18557 12468
internal_count=629097 30241 29576 1544 28032 7122 2031 1102 20910 20148 1591 5091 1229 18557 12468
cat_boundaries=0 1
cat_threshold=141
is_linear=0
shrinkage=0.1


Tree=42
num_leaves=16
num_cat=1
split_feature=0 4 8 0 17 18 10 12 2 17 3 0 5 17 9
split_gain=3.96568e-06 3.71569e-05 3.41862e-05 3.34e-05 2.34645e-05 6.50538e-05 1.95783e-05 0.000158087 3.23839e-05 3.5158e-05 1.78074e-05 3.34894e-05 1.27538e-05 1.61261e-05 1.17731e-05
threshold=610.50000000000011 0.0050453453102300436 0.0069638289866000855 714.50000000000011 0.37145732721731151 0 -0.0029525158558429405 -48.983264297330187 -0.0018528368024514073 0.22059209922280251 -0.0022959872765962448 642.50000000000011 0.0041475443479894744 0.28104470649087887 0.0054738379774609278
decision_type=2 10 10 2 2 1 10 2 10 2 10 2 10 2 10
left_child=14 2 4 -3 6 -6 7 8 9 -2 11 -8 13 -12 -1
right_child=1 3 -4 -5 5 -7 10 -9 -10 -11 12 -13 -14 -15 -16
leaf_value=-2.8076567529095643e-07 -4.9277772485222324e-06 -3.1954222715101352e-05 -2.3629972663608077e-05 1.2822869277893412e-06 3.3073804074318758e-05 -8.4626653265805514e-06 2.887441638993345e-05 -5.6446864325709557e-05 1.5504764095485041e-06 -3.2889498809797574e-05 6.0128034363957406e-07 2.8961400890834583e-06 -9.2487121723034485e-06 1.6404640642397199e-05 2.4113643789161725e-06
leaf_weight=408442 2203 673 587 549 768 729 629 536 10281 565 181910 2351 1309 648 16917
leaf_count=408442 2203 673 587 549 768 729 629 536 10281 565 181910 2351 1309 648 16917
internal_value=0 3.62845e-07 4.67749e-07 -1.70223e-05 5.378e-07 1.3011e-05 4.44639e-07 -3.22072e-06 -1.03441e-06 -1.06353e-05 7.11135e-07 8.37947e-06 5.86851e-07 6.57375e-07 -1.73697e-07
internal_weight=0 203738 202516 1222 201929 1497 200432 13585 13049 2768 186847 2980 183867 182558 425359
internal_count=629097 203738 202516 1222 201929 1497 200432 13585 13049 2768 186847 2980 183867 182558 425359
cat_boundaries=0 1
cat_threshold=385
is_linear=0
shrinkage=0.1


Tree=43
num_leaves=16
num_cat=2
split_feature=18 2 13 7 2 11 13 17 8 7 17 8 1 18 5
split_gain=3.84659e-06 9.04615e-06 9.26663e-06 5.83311e-06 5.12003e-06 1.2915e-05 9.25362e-06 8.7692e-06 6.49359e-06 5.36948e-06 8.8776e-06 4.59682e-06 2.64673e-05 4.39333e-05 2.61865e-05
threshold=0 0.0013120502992752805 73.875966877504482 0.0040216303408721074 -0.0013038234636884025 -0.90632063122520634 49.218354416712209 0.14617096342965311 -0.0023851122457181901 -0.0027410266007932833 0.16308600137563986 9.4864609562761451e-05 0.0025120575032780983 1 -0.001011393256316939
decision_type=1 10 2 10 8 2 2 2 8 8 2 10 2 1 8
left_child=1 4 3 -3 5 8 7 -7 -1 10 -6 12 -2 -14 -15
right_child=11 2 -4 -5 9 6 -8 -9 -10 -11 -12 -13 13 14 -16
leaf_value=-1.0302254060447655e-05 -2.3619877547511853e-07 -3.1501833031805913e-06 -1.4211070591778452e-05 8.6511382367461931e-06 2.4004974369186116e-06 7.8766247800861795e-06 2.257498769611909e-06 2.4222249122133024e-05 3.417423453684511e-06 6.9810159330022203e-07 1.7546418643228815e-05 2.3763125797175357e-07 6.1154070159142472e-06 -3.7580505526482555e-05 -1.0863402342308581e-05
leaf_weight=595 314104 2580 670 500 1678 732 945 595 821 22622 503 280210 982 590 970
leaf_count=595 314104 2580 670 500 1678 732 945 595 821 22622 503 280210 982 590 970
internal_value=0 1.06385e-06 -3.55289e-06 -1.23438e-06 1.67188e-06 5.14835e-06 9.8201e-06 1.52057e-05 -2.34755e-06 1.15495e-06 5.89357e-06 -5.73794e-08 -3.18446e-07 -1.04813e-05 -2.08344e-05
internal_weight=0 32241 3750 3080 28491 3688 2272 1327 1416 24803 2181 596856 316646 2542 1560
internal_count=629097 32241 3750 3080 28491 3688 2272 1327 1416 24803 2181 596856 316646 2542 1560
cat_boundaries=0 1 2
cat_threshold=2048 1633
is_linear=0
shrinkage=0.1


Tree=44
num_leaves=16
num_cat=0
split_feature=14 7 10 7 0 0 1 5 11 11 17 1 10 7 2
split_gain=4.10395e-06 3.2834e-05 2.25994e-05 3.40716e-05 2.64105e-05 2.02693e-05 3.50346e-05 1.84866e-05 2.2943e-05 1.71978e-05 1.61425e-05 1.95495e-05 1.52818e-05 1.49638e-05 3.35262e-05
threshold=62.293920099180845 0.0066347929341309406 0.0041308412584273322 -0.0017010690733885168 335.50000000000006 268.50000000000006 -0.00042510683503238495 -0.00068003375719322124 -0.14285714285702669 -0.24999999999995548 0.1332087606690249 0.0013040928561615097 0.0058033524553826607 -0.0022358430505699518 -0.0014488170868906523
decision_type=2 10 10 8 2 2 2 10 2 2 2 2 8 10 8
left_child=1 2 -1 -4 -5 6 -2 9 -9 -6 11 -8 -12 14 -7
right_child=5 -3 3 4 7 13 10 8 -10 -11 12 -13 -14 -15 -16
leaf_value=1.7101094420784458e-07 -1.5219765434896824e-05 -1.8970217932476088e-05 3.16472971635197e-05 2.3439046078058965e-05 2.1625002670400548e-06 1.5470959714113785e-05 1.9498485401440458e-06 -3.6679571893781112e-06 1.549510166051431e-05 -2.2641663070543963e-05 4.6896567944880222e-06 2.1916317573683982e-05 2.059839415573791e-05 -4.5818568396184256e-07 -9.7904488579669482e-06
leaf_weight=364152 1040 890 506 610 583 609 16940 1274 1226 537 1497 505 1012 233890 3826
leaf_count=364152 1040 890 506 610 583 609 16940 1274 1226 537 1497 505 1012 233890 3826
internal_value=0 2.13988e-07 2.60273e-07 7.12363e-06 4.19007e-06 -3.04898e-07 2.67389e-06 9.46459e-07 5.72961e-06 -9.73021e-06 3.6065e-06 2.52784e-06 1.11064e-05 -5.67299e-07 -6.32163e-06
internal_weight=0 369778 368888 4736 4230 259319 20994 3620 2500 1120 19954 17445 2509 238325 4435
internal_count=629097 369778 368888 4736 4230 259319 20994 3620 2500 1120 19954 17445 2509 238325 4435
is_linear=0
shrinkage=0.1


Tree=45
num_leaves=16
num_cat=2
split_feature=4 13 6 10 2 13 18 1 17 17 2 10 15 18 1
split_gain=3.77757e-06 3.58631e-05 3.12186e-05 2.18965e-05 1.75586e-05 2.269e-05 2.3619e-05 2.71212e-05 6.48381e-05 4.63155e-05 2.28632e-05 2.63387e-05 2.16663e-05 1.87931e-05 2.9279e-05
threshold=-0.0030773270619256494 79.273114693365386 0.00049448414714226019 -0.0036911491050683472 0.0018455654347374619 10.641175937472381 0 -0.0018521597168345558 0.37145732721731151 0.37145732721731151 -0.0010703009332863054 -0.001562927824463489 45.818606874063939 1 -0.0013112529744414567
decision_type=8 2 8 10 10 2 1 2 2 2 10 8 2 1 2
left_child=1 2 4 -4 5 13 7 8 12 -9 -8 -12 -7 -1 -15
right_child=-2 -3 3 -5 -6 6 10 9 -10 -11 11 -13 -14 14 -16
leaf_value=-2.7756567968256411e-05 5.515506746193786e-08 2.1875598152777309e-05 -4.3616425882272672e-06 -2.8239662718090182e-05 1.7342352596131259e-05 -5.4502674537016217e-06 -9.203420761318779e-07 3.585514539566672e-06 -3.7221980970458125e-05 3.2122649679907035e-05 -5.3143820439378964e-06 -2.5733706405495245e-05 1.5467895654017467e-05 1.172076712118789e-05 -1.914617632739028e-05
leaf_weight=528 598856 665 827 717 521 1446 10591 8406 531 610 2566 838 753 558 684
leaf_count=528 598856 665 827 717 521 1446 10591 8406 531 610 2566 838 753 558 684
internal_value=0 -1.09037e-06 -1.60675e-06 -1.54501e-05 -8.44262e-07 -1.18868e-06 -4.35604e-07 2.86969e-06 -5.86031e-06 5.51627e-06 -3.20949e-06 -1.03412e-05 1.71271e-06 -1.21406e-05 -5.23626e-06
internal_weight=0 30241 29576 1544 28032 27511 25741 11746 2730 9016 13995 3404 2199 1770 1242
internal_count=629097 30241 29576 1544 28032 27511 25741 11746 2730 9016 13995 3404 2199 1770 1242
cat_boundaries=0 1 2
cat_threshold=2674 146
is_linear=0
shrinkage=0.1


Tree=46
num_leaves=16
num_cat=3
split_feature=5 15 15 18 17 0 0 18 2 16 17 13 3 18 2
split_gain=3.97608e-06 4.04007e-05 4.76553e-05 0.000112196 5.45084e-05 4.441e-05 3.18911e-05 6.15649e-05 3.57957e-05 3.52839e-05 2.75405e-05 2.33176e-05 1.70406e-05 4.91763e-05 4.1148e-05
threshold=-0.0057127806468709177 64.178943992068227 25.004320173509459 0 0.31549207654403438 351.50000000000006 393.50000000000006 1 -0.0008967813349231023 7.2847682119192525 0.22059209922280251 20.906022734018453 -0.0044264494865406947 2 -0.0026258205689277943
decision_type=8 2 2 1 2 2 2 1 10 2 2 2 8 1 10
left_child=1 2 6 4 -4 -5 7 -1 9 10 -8 -9 13 -2 -15
right_child=12 -3 3 5 -6 -7 8 11 -10 -11 -12 -13 -14 14 -16
leaf_value=-2.1869758315440596e-05 -1.4293899074673323e-05 -2.2139113932024282e-05 1.7369535013502782e-05 1.4556718858165676e-05 5.9544719998464371e-05 -1.8166684322358811e-05 -1.5343689311935893e-06 1.8235559843832006e-05 3.0890759228852751e-05 -1.9599851777167184e-05 2.6987780879159841e-05 -3.2416320135628873e-06 1.4880793855126257e-08 -4.2737051333505202e-06 2.5877782093784225e-05
leaf_weight=1589 2867 649 646 786 583 878 838 744 525 565 568 1577 614279 1312 691
leaf_count=1589 2867 649 646 786 583 878 838 744 525 565 568 1577 614279 1312 691
internal_value=0 1.98338e-06 3.66695e-06 1.43196e-05 3.70745e-05 -2.69341e-06 -1.14386e-06 -6.78121e-06 7.6871e-06 1.50652e-06 9.98809e-06 3.62729e-06 -3.1831e-08 -5.92384e-06 6.09759e-06
internal_weight=0 9948 9299 2893 1229 1664 6406 3910 2496 1971 1406 2321 619149 4870 2003
internal_count=629097 9948 9299 2893 1229 1664 6406 3910 2496 1971 1406 2321 619149 4870 2003
cat_boundaries=0 1 2 3
cat_threshold=274 778 3520
is_linear=0
shrinkage=0.1


Tree=47
num_leaves=16
num_cat=4
split_feature=16 18 12 9 16 9 18 5 16 18 12 2 2 9 18
split_gain=3.8243e-06 5.00986e-06 4.41116e-06 3.25653e-05 3.8783e-05 2.6011e-05 3.07962e-05 1.31708e-05 3.0689e-05 4.20488e-05 1.98158e-05 2.62377e-05 2.38084e-05 1.73441e-05 1.9325e-05
threshold=1.0000000180025095e-35 0 -183.94243403170753 -0.0076177883109342917 9.9036265523644698 -0.0001018991719601292 1 -0.0057127806468709177 29.207124364310758 2 -90.443111919287631 0.00036584919701543322 -0.00052510759987856026 -0.0046292933667400607 3
decision_type=2 1 2 8 2 8 1 8 2 1 2 10 10 8 1
left_child=1 -1 3 4 -2 -5 -7 8 10 -10 11 12 13 14 -4
right_child=2 -3 7 5 -6 6 -8 -9 9 -11 -12 -13 -14 -15 -16
leaf_value=1.2847556931197428e-06 2.3695501887405481e-06 -1.2108603540820463e-05 1.3387044625953024e-05 1.4350119365426522e-06 -3.2702378751858028e-05 3.348654814129859e-05 3.360199706466392e-06 -9.0542581310666229e-08 3.1139543364767468e-05 -3.4479854809657562e-07 -1.8057124042155636e-05 2.281829361679407e-05 -1.864951100257155e-05 1.7067263285268598e-05 -4.2890147391837004e-06
leaf_weight=529 672 586 796 17876 594 560 861 599897 869 829 515 567 595 702 2649
leaf_count=529 672 586 796 17876 594 560 861 599897 869 829 515 567 595 702 2649
internal_value=0 -5.85134e-06 1.0364e-08 1.45083e-06 -1.4086e-05 2.47014e-06 1.5492e-05 -3.84003e-08 4.12007e-06 1.59496e-05 6.71151e-07 2.48789e-06 5.6986e-08 2.74094e-06 -1.78384e-07
internal_weight=0 1115 627982 20563 1266 19297 1421 607419 7522 1698 5824 5309 4742 4147 3445
internal_count=629097 1115 627982 20563 1266 19297 1421 607419 7522 1698 5824 5309 4742 4147 3445
cat_boundaries=0 1 2 3 4
cat_threshold=133 2588 1298 1152
is_linear=0
shrinkage=0.1


Tree=48
num_leaves=16
num_cat=1
split_feature=18 16 10 3 7 12 1 17 9 11 3 15 17 17 1
split_gain=3.64662e-06 1.04847e-05 1.71261e-05 2.01666e-05 2.62566e-05 2.99179e-05 9.56123e-06 1.43005e-05 8.65716e-06 1.37942e-05 1.05525e-05 7.61859e-06 1.76514e-05 1.26621e-05 6.56728e-06
threshold=0 92.936615689268095 0.0058033524553826607 0.0043737532141395761 -0.0015605393227136053 94.485277940112738 0.00077034858296998198 0.31549207654403438 -0.0007161529843409119 0.61904761904754757 -0.000582767015850305 75.69058368856939 0.20701975501978476 0.14617096342965311 -0.0013112529744414567
decision_type=1 2 8 8 10 2 2 2 10 2 10 2 2 2 2
left_child=1 2 6 4 -4 -6 -1 8 9 -8 -11 12 -10 -13 -2
right_child=14 -3 3 -5 5 -7 7 -9 11 10 -12 13 -14 -15 -16
leaf_value=1.0677985694999351e-06 -1.5449163834228279e-06 -3.4625769483045934e-06 -9.7604411114249085e-06 1.9674308427190734e-05 2.2529905472612339e-05 -3.6966728317930574e-06 -2.0753230428558659e-05 -1.7843389495171327e-05 -9.4840697991319856e-08 9.6879737629067332e-06 -6.6957841166101702e-06 1.2773843347580318e-06 1.6375645978402573e-05 -1.7865904818464148e-05 -9.0416918600713799e-09
leaf_weight=60047 29413 5786 1006 1003 949 803 522 561 3950 525 1565 969 779 537 520682
leaf_count=60047 29413 5786 1006 1003 949 803 522 561 3950 525 1565 969 779 537 520682
internal_value=0 6.35349e-07 9.5928e-07 7.53171e-06 3.11583e-06 1.05094e-05 6.03381e-07 -2.36078e-06 -1.37901e-06 -6.21206e-06 -2.58025e-06 6.45678e-07 2.61831e-06 -5.54861e-06 -9.11616e-08
internal_weight=0 79002 73216 3761 2758 1752 69455 9408 8847 2612 2090 6235 4729 1506 550095
internal_count=629097 79002 73216 3761 2758 1752 69455 9408 8847 2612 2090 6235 4729 1506 550095
cat_boundaries=0 1
cat_threshold=2176
is_linear=0
shrinkage=0.1


Tree=49
num_leaves=16
num_cat=2
split_feature=2 18 3 9 16 16 10 1 4 18 17 16 14 17 16
split_gain=3.55328e-06 4.04025e-05 3.79525e-05 4.29253e-05 3.1283e-05 7.88973e-05 4.99384e-05 2.72399e-05 2.70869e-05 3.02842e-05 2.56768e-05 2.4207e-05 2.40817e-05 6.05254e-05 1.23242e-05
threshold=0.0035862904500837405 0 0.0013416693589531905 0.0054738379774609278 49.76374575872137 73.333333333338217 0.0047827672707159161 0.0025120575032780983 0.0050453453102300436 1 0.23681788148774244 30.952380952379617 59.07137964460513 0.31549207654403438 68.226280639896274
decision_type=10 1 10 10 2 2 10 2 10 1 2 2 2 2 2
left_child=-1 2 -2 12 11 10 -7 -8 -5 -10 -6 -3 -4 14 -14
right_child=1 4 3 8 5 6 7 -9 9 -11 -12 -13 13 -15 -16
leaf_value=2.9768332847805619e-08 2.861093280703894e-05 -6.615812771238096e-06 1.1079136802013531e-05 -6.9798663839377387e-06 2.5890224148513785e-06 1.1201374309507202e-05 -1.2565327997871504e-05 -3.9948996961765676e-05 3.2819473277289834e-05 4.4055899119562673e-06 3.3961224276916126e-05 -3.3777311659588293e-05 4.5643279023618816e-06 -4.1011717980024342e-05 -1.3972912876160024e-05
leaf_weight=619427 560 587 559 558 503 534 835 643 754 761 542 744 982 543 565
leaf_count=619427 560 587 559 558 503 534 835 643 754 761 542 744 982 543 565
internal_value=0 -1.90204e-06 3.98894e-06 1.07738e-06 -8.98187e-06 -3.43096e-06 -1.50088e-05 -2.44785e-05 1.18553e-05 1.87926e-05 1.88605e-05 -2.17985e-05 -7.35698e-06 -1.2288e-05 -2.2059e-06
internal_weight=0 9670 5282 4722 4388 3057 2012 1478 2073 1515 1045 1331 2649 2090 1547
internal_count=629097 9670 5282 4722 4388 3057 2012 1478 2073 1515 1045 1331 2649 2090 1547
cat_boundaries=0 1 2
cat_threshold=996 192
is_linear=0
shrinkage=0.1


Tree=50
num_leaves=16
num_cat=0
split_feature=15 3 2 15 0 3 16 10 7 10 11 16 6 6 13
split_gain=3.67353e-06 5.2876e-05 8.24151e-06 5.12992e-05 3.98215e-05 2.98912e-05 1.84254e-05 3.58897e-05 2.13086e-05 2.65112e-05 2.10872e-05 4.11394e-05 4.3225e-05 3.19813e-05 3.65503e-05
threshold=96.23925114973936 0.0043737532141395761 0.0035862904500837405 91.666666666670025 295.50000000000006 0.0011261261261262814 51.629491468116264 0.0032661378317434546 -0.00063282265010666794 -0.00033042766789181938 0.59090909090907628 86.585365853658814 0.0061389243814922176 0.0045278058942287433 71.03123633603127
decision_type=2 8 10 2 2 8 2 8 10 10 2 2 8 10 2
left_child=2 -2 -1 4 -4 -6 7 8 -7 -10 11 12 -8 -12 -15
right_child=1 -3 3 -5 5 6 10 -9 9 -11 13 -13 -14 14 -16
leaf_value=1.3988456777592547e-08 2.3581256075861522e-07 3.3038826587265876e-05 1.9430155427627053e-05 -2.9594815957049531e-05 1.9600894984335454e-05 9.8024438511856725e-06 -4.2605446424512789e-06 -3.2850197768172531e-05 -2.9214323581030492e-05 8.3370099603126279e-07 1.7051081116864792e-05 1.402062912869153e-05 -4.2063861424520935e-05 -1.4439213377215123e-05 1.3866691527844261e-05
leaf_weight=609292 9922 517 866 672 537 640 737 614 539 645 1134 506 513 1242 721
leaf_count=609292 9922 517 866 672 537 640 737 614 539 645 1134 506 513 1242 721
internal_value=0 1.86041e-06 -3.1264e-08 -2.9751e-06 -9.17539e-07 -3.16857e-06 -4.8456e-06 -1.19382e-05 -4.89869e-06 -1.28453e-05 -1.28251e-06 -1.00366e-05 -1.9775e-05 3.68108e-06 -4.0426e-06
internal_weight=0 10439 618658 9366 8694 7828 7291 2438 1824 1184 4853 1756 1250 3097 1963
internal_count=629097 10439 618658 9366 8694 7828 7291 2438 1824 1184 4853 1756 1250 3097 1963
is_linear=0
shrinkage=0.1


Tree=51
num_leaves=16
num_cat=1
split_feature=7 9 18 15 3 15 16 17 16 16 14 16 7 8 1
split_gain=3.50934e-06 1.70363e-05 2.22214e-05 1.56215e-05 3.24189e-05 1.67127e-05 2.90093e-05 2.35522e-05 0.000126753 7.16715e-05 3.89349e-05 2.82352e-05 6.9193e-05 2.17805e-05 1.39246e-05
threshold=-0.0027410266007932833 0.0006903153863203616 0 64.178943992068227 -0.0044264494865406947 49.537037037039383 41.954022988507226 0.37145732721731151 21.132121582925809 13.82113821138322 1.0000000180025095e-35 22.629354081011076 -0.0067813200887553706 -0.0053093040125335991 -0.0010345647717690529
decision_type=8 10 1 2 10 2 2 2 2 2 2 2 10 8 2
left_child=1 3 -3 5 -5 6 7 11 9 10 -9 -1 -13 -7 -6
right_child=-2 2 -4 4 14 13 -8 8 -10 -11 -12 12 -14 -15 -16
leaf_value=1.0505823818488948e-06 -7.7150804912818334e-08 2.4772103178528326e-05 -2.9078172107956391e-06 -2.8577679850915399e-05 1.1794373452383863e-05 2.4221737381526296e-05 -2.0346853505826322e-05 -1.2406045552453278e-05 4.2842080548085685e-05 -3.4504049039946007e-05 1.9795794943234644e-05 -3.6460477158539277e-05 -2.5740482292120219e-06 3.7322486033921545e-06 -9.3808307276054543e-06
leaf_weight=43712 568282 651 520 563 573 638 669 613 815 553 969 665 6419 2777 678
leaf_count=43712 568282 651 520 563 573 638 669 613 815 553 969 665 6419 2777 678
internal_value=0 7.22102e-07 1.26671e-05 4.87583e-07 -8.65009e-06 7.74212e-07 3.48337e-07 6.05939e-07 9.29247e-06 -3.51453e-06 7.31809e-06 1.01465e-07 -5.75509e-06 7.56015e-06 3.18124e-07
internal_weight=0 60815 1171 59644 1814 57830 54415 53746 2950 2135 1582 50796 7084 3415 1251
internal_count=629097 60815 1171 59644 1814 57830 54415 53746 2950 2135 1582 50796 7084 3415 1251
cat_boundaries=0 1
cat_threshold=1873
is_linear=0
shrinkage=0.1


Tree=52
num_leaves=16
num_cat=0
split_feature=8 3 11 0 11 1 1 0 5 16 10 1 10 17 16
split_gain=3.59817e-06 3.10081e-05 2.54605e-05 2.50247e-05 3.27113e-05 5.24246e-05 4.49373e-05 7.1948e-05 4.45674e-05 3.8143e-05 2.48591e-05 2.44872e-05 2.25534e-05 2.09378e-05 5.63383e-05
threshold=-9.647387992156585e-05 -0.0044264494865406947 -0.5238095238096625 335.50000000000006 0.59090909090907628 0.0025120575032780983 0.0011497881268435208 322.50000000000006 0.00051824659997334887 76.539409439571742 0.0058033524553826607 0.0025120575032780983 0.0041308412584273322 0.28104470649087887 95.784769249240341
decision_type=10 10 2 2 2 2 2 2 10 2 10 2 10 2 2
left_child=11 2 -2 4 6 -6 7 10 -9 -10 -3 12 -1 -5 -15
right_child=1 3 -4 13 5 -7 -8 8 9 -11 -12 -13 -14 14 -16
leaf_value=-2.0993300466038417e-07 -1.2797680765448718e-06 -7.1061584367593642e-07 -3.2755377300703322e-05 -2.16771291193673e-07 5.0450848715827189e-06 2.9199548347247145e-05 -2.5828701962037106e-05 -3.725415011021224e-06 4.9494114692707735e-05 1.5316912831815172e-05 1.6107019302226104e-05 -9.9447487307370493e-06 1.6356866469932269e-05 2.4026451922322866e-06 3.252419752254515e-05
leaf_weight=299794 511 23555 517 274016 10934 979 622 550 576 754 913 2582 824 11313 657
leaf_count=299794 511 23555 517 274016 10934 979 622 550 576 754 913 2582 824 11313 657
internal_value=0 2.30815e-07 -1.71094e-05 2.85685e-07 2.66594e-06 7.03008e-06 7.38238e-07 1.36541e-06 2.02173e-05 3.01185e-05 -8.30819e-08 -2.4781e-07 -1.64523e-07 -3.79364e-08 4.05593e-06
internal_weight=0 325897 1028 324869 38883 11913 26970 26348 1880 1330 24468 303200 300618 285986 11970
internal_count=629097 325897 1028 324869 38883 11913 26970 26348 1880 1330 24468 303200 300618 285986 11970
is_linear=0
shrinkage=0.1


Tree=53
num_leaves=16
num_cat=3
split_feature=8 15 9 18 3 14 12 17 8 17 13 7 14 18 18
split_gain=4.00392e-06 1.23827e-05 3.57822e-05 4.36384e-05 2.74202e-05 2.0093e-05 1.93071e-05 5.50183e-05 2.84226e-05 2.11384e-05 4.36045e-05 4.35766e-05 3.83693e-05 5.83094e-05 3.99973e-05
threshold=0.0032619512441955938 69.311279943783418 0.0054738379774609278 0 0.0043737532141395761 25.881756316074657 211.96111496278414 0.20701975501978476 0.0069638289866000855 0.28104470649087887 84.83876641245736 0.0048671133068921577 81.029403447991214 1 2
decision_type=8 2 10 1 10 2 2 2 8 2 2 8 2 1 1
left_child=-1 2 -2 4 -4 -3 9 8 -8 -7 11 -11 13 -13 -14
right_child=1 5 3 -5 -6 6 7 -9 -10 10 -12 12 14 -15 -16
leaf_value=8.0954161870540494e-08 -4.3050169031861471e-07 -1.6026267956598688e-05 1.1055707863985889e-05 -4.9514246971479483e-07 4.1229204804289577e-05 -1.7672413745893348e-06 -9.3492453163736955e-06 -3.7237041756326772e-05 1.7025919677196039e-05 1.5955870921964618e-05 2.6213948163518146e-05 5.6547956507492664e-06 1.0630014632164834e-05 -3.8481213067105747e-05 -1.8480631618409846e-05
leaf_weight=570528 13499 954 593 1250 612 33228 1469 567 566 1441 815 536 1730 671 638
leaf_count=570528 13499 954 593 1250 612 33228 1469 567 566 1441 815 536 1730 671 638
internal_value=0 -7.87264e-07 1.58914e-06 1.26943e-05 2.61632e-05 -1.67693e-06 -1.34834e-06 -9.689e-06 -2.01345e-06 -7.92712e-07 4.76065e-06 1.27492e-06 -4.64263e-06 -1.91534e-05 2.75371e-06
internal_weight=0 58569 15954 2455 1205 42615 41661 2602 2035 39059 5831 5016 3575 1207 2368
internal_count=629097 58569 15954 2455 1205 42615 41661 2602 2035 39059 5831 5016 3575 1207 2368
cat_boundaries=0 1 2 3
cat_threshold=706 401 1858
is_linear=0
shrinkage=0.1


Tree=54
num_leaves=16
num_cat=1
split_feature=0 0 4 14 15 8 3 8 17 13 18 5 10 16 6
split_gain=3.87261e-06 3.1056e-05 2.79325e-05 5.03464e-05 3.97331e-05 1.73024e-05 1.73035e-05 1.52597e-05 1.72516e-05 6.69397e-05 1.29115e-05 1.10979e-05 1.09462e-05 5.46793e-05 4.21035e-05
threshold=511.50000000000006 477.50000000000006 0.0050453453102300436 99.999999999999872 75.69058368856939 -0.0053093040125335991 0.00067583590239528324 0.0069638289866000855 0.37145732721731151 38.593172733560046 0 -0.0042461443704037141 -0.0042172020427126413 18.128654970757008 -0.002075965664897927
decision_type=2 2 8 2 2 10 10 10 2 2 1 10 8 2 10
left_child=1 -1 7 -4 -5 11 -7 8 12 -10 -8 -3 13 -2 -15
right_child=2 5 3 4 -6 6 10 -9 9 -11 -12 -13 -14 14 -16
leaf_value=1.4843544783841237e-07 1.9126488604244977e-07 -4.8157270744587616e-06 -3.4918694291263817e-05 2.0888978282787969e-05 -1.7308987062871713e-05 -1.2511073563966498e-06 -1.1678122506011926e-05 -1.248398054671544e-05 3.7872152055163375e-05 -5.0359643026542144e-06 -3.78663251489601e-06 -2.5243036956949669e-05 4.0221639281101652e-07 -3.3045590618731446e-05 -8.5753285942923874e-07
leaf_weight=261413 9210 515 632 511 583 30486 2866 930 577 983 7567 550 310607 965 702
leaf_count=261413 9210 515 632 511 583 30486 2866 930 577 983 7567 550 310607 965 702
internal_value=0 -2.57022e-07 2.39509e-07 -1.24481e-05 5.33024e-07 -2.7816e-06 -2.45409e-06 3.07104e-07 3.43927e-07 1.08345e-05 -5.96929e-06 -1.5365e-05 2.93022e-07 -2.82518e-06 -1.94907e-05
internal_weight=0 303397 325700 1726 1094 41984 40919 323974 323044 1560 10433 1065 321484 10877 1667
internal_count=629097 303397 325700 1726 1094 41984 40919 323974 323044 1560 10433 1065 321484 10877 1667
cat_boundaries=0 1
cat_threshold=388
is_linear=0
shrinkage=0.1


Tree=55
num_leaves=16
num_cat=1
split_feature=14 2 18 10 0 17 17 5 2 4 13 1 16 0 11
split_gain=3.45194e-06 1.922e-05 1.52235e-05 1.31777e-05 1.63392e-05 4.82932e-05 1.55988e-05 2.18291e-05 1.36934e-05 3.25536e-05 1.30481e-05 1.2513e-05 6.42686e-05 4.42219e-05 2.39953e-05
threshold=90.625722119881431 -0.0035597458762686713 0 0.0041308412584273322 401.50000000000006 0.23681788148774244 0.25565648074349084 0.0029329036974320437 0.0035862904500837405 0.0050453453102300436 81.645568184763533 0.0025120575032780983 90.391936834447719 351.50000000000006 0.87499999999987399
decision_type=2 10 1 10 2 2 2 8 10 10 2 2 2 2 2
left_child=-1 -2 11 6 8 -6 -4 -8 9 10 -5 -3 13 -13 -15
right_child=1 2 3 4 5 -7 7 -9 -10 -11 -12 12 -14 14 -16
leaf_value=1.1820566979548641e-07 1.7527584144104961e-05 4.6749303190916742e-07 -6.5448595858822609e-07 -1.4144561856510324e-05 -3.8901976887326324e-06 2.7745121097998599e-05 3.5879697003149006e-06 -2.1935729757778155e-05 -1.9623420373221823e-05 1.4727305326806871e-05 2.4246293678257821e-06 3.6844992368863789e-05 -2.1618942081616191e-05 1.8577672878508363e-05 -9.4735296443104744e-06
leaf_weight=501443 591 46324 65468 2301 6385 522 571 811 991 608 599 688 573 637 585
leaf_count=501443 591 46324 65468 2301 6385 522 571 811 991 608 599 688 573 637 585
internal_value=0 -4.64249e-07 -5.47933e-07 -1.41226e-06 -4.55399e-06 -1.49934e-06 -8.76425e-07 -1.13901e-05 -9.24359e-06 -6.31131e-06 -1.07222e-05 8.38024e-07 7.75419e-06 1.65661e-05 5.14891e-06
internal_weight=0 127654 127063 78256 11406 6907 66850 1382 4499 3508 2900 48807 2483 1910 1222
internal_count=629097 127654 127063 78256 11406 6907 66850 1382 4499 3508 2900 48807 2483 1910 1222
cat_boundaries=0 1
cat_threshold=3330
is_linear=0
shrinkage=0.1


Tree=56
num_leaves=16
num_cat=1
split_feature=8 3 0 6 13 13 15 0 6 1 18 16 4 3 10
split_gain=3.55432e-06 2.96946e-05 1.9038e-05 2.39904e-05 6.84137e-05 5.82793e-05 3.1568e-05 2.21564e-05 3.71233e-05 1.75861e-05 3.31087e-05 2.36862e-05 2.17421e-05 2.39414e-05 1.6328e-05
threshold=0.00057429757424465333 -0.0044264494865406947 335.50000000000006 0.0045278058942287433 89.485680049318177 75.461271248143774 67.606464200446695 322.50000000000006 0.0017398105030413948 0.0025120575032780983 0 27.516503267973018 0.0050453453102300436 0.0043737532141395761 0.0041308412584273322
decision_type=10 10 2 10 2 2 2 2 10 2 1 2 10 10 10
left_child=9 -2 3 7 5 6 -5 -3 -9 12 -11 -12 14 -14 -1
right_child=1 2 -4 4 -6 -7 -8 8 -10 10 11 -13 13 -15 -16
