tree
version=v3
num_class=1
num_tree_per_iteration=1
label_index=0
max_feature_idx=18
objective=regression
feature_names=minute ret1min ret2min ret3min ret4min ret5min ret6min ret7min ret8min ret9min ret10min BOP CCI MFI STOCHRSI slowd slowk NATR stock_id
feature_infos=[0:958] [-0.10312713690062536:0.086395557733137451] [-0.10744724111579451:0.087994766110565781] [-0.10553578792341667:0.088484352628349416] [-0.10559467625799557:0.089643310536877019] [-0.10516678453559636:0.094234852196635632] [-0.10534977384191468:0.09584560026169453] [-0.10569074058033767:0.11056671566225718] [-0.10566285306427903:0.11718112036583372] [-0.10512024989512569:0.1188256460582271] [-0.14546513886191492:0.11932910615667836] [-1:1] [-466.66666666676281:466.66666666672796] [-8.239189403480663e-11:100.00000000000145] [0:100.00000000000001] [-1.9652427833231436e-12:100.00000000000387] [-2.2595258997171186e-12:100.00000000000246] [0.0047187651012456392:2.5815725594969532] -1:0:8:10:1:7:2:9:5:3:4:6:11
tree_sizes=1745 1731 1741 1737 1718 1740 1734 1726 1704 1770 1756 1730 1730 1725 1751 1737 1737 1710 1711 1695 1742 1730 1736 1745 1730 1702 1761 1717 1709 1729 1716 1727 1751 1740 1749 1732 1714 1720 1708 1713 1741 1745 1734 1742 1732 1760 1730 1723 1735 1768 1723 1744 1738 1708 1737 1738 1762 1717 1737 1725 1733 1725 1731 1738 1734 1736 1717 1756 1742 1745 1744 1735 1709 1718 1710 1719 1699 1700 1732 1725 1738 1744 1726 1741 1735 1732 1731 1736 1757 1737 1727 1733 1712 1735 1703 1723 1725 1718 1710 1734 1744 1731 1728 1715 1747 1740 1724 1746 1713 1709 1738 1727 1738 1742 1757 1758 1734 1719 1706 1762 1730 1739 1718 1739 1734 1736 1751 1737 1734 1766 1736 1721 1755 1749 1714 1722 1732 1749 1743 1723 1741 1738 1711 1724 1723 1728 1716 1728 1702 1736 1744 1749 1740 1722 1709 1728 1737 1747 1705 1754 1722 1722 1710 1723 1729 1750 1715 1736 1725 1722 1712 1721 1731 1719 1753 1706 1759 1755 1747 1731 1723 1733 1728 1747 1708 1738 1711 1742 1747 1724 1731 1707 1724 1739 1740 1743 1708 1732 1721 1749 1750 1744 1733 1743 1757 1724 1721 1722 1733 1750 1723 1719 1726 1742 1716 1728 1738 1719 1706 1738 1712 1717 1714 1753 1744 1748 1734 1700 1741 1696 1710 1722 1727 1731 1709 1714 1747 1729 1748 1729 1738 1725 1730 1734 1729 1732 1738 1739 1733 1726

Tree=0
num_leaves=16
num_cat=2
split_feature=3 10 16 16 18 6 16 1 17 12 15 6 18 11 17
split_gain=3.87802e-05 6.45976e-05 6.2056e-05 9.59556e-05 6.96162e-05 5.76436e-05 9.59312e-05 6.3136e-05 9.46907e-05 0.000120472 6.5144e-05 6.4099e-05 5.07981e-05 5.0781e-05 5.04695e-05
threshold=0.0025284925002179164 0.0053898359470478949 86.409636121973037 60.519795028667026 0 0.0068578809390509319 80.763171266779423 -0.0019837942530409043 0.24736246171410597 -210.46078395460864 45.353937587836192 -0.0027959536348228782 1 0.10000000000005735 0.34943057102015079
decision_type=10 8 2 2 1 10 2 2 2 2 2 8 1 2 2
left_child=5 -2 3 4 -3 7 -7 8 11 -10 -11 -1 -12 -4 -15
right_child=1 2 13 -5 -6 6 -8 -9 9 10 12 -13 -14 14 -16
leaf_value=8.2311318067849889e-06 -3.07962593881916e-06 2.9562964287694808e-05 -1.8772525583117507e-05 -2.8693056924241137e-05 -1.5750470431034175e-05 4.1757713336797495e-05 -3.249670536860972e-07 -2.874597487052845e-06 -6.3141811230398107e-05 -4.5419132011534667e-06 -1.2390220255995474e-06 -9.2262191356047946e-06 -2.8205733572912215e-05 -6.2150694750001486e-06 1.611264227780327e-05
leaf_weight=3769 24371 545 2560 3742 863 759 1892 568467 517 4145 900 4759 3191 5810 1226
leaf_count=3769 24371 545 2560 3742 863 759 1892 568467 517 4145 900 4759 3191 5810 1226
internal_value=-3.19172e-06 -6.24064e-06 -1.14649e-05 -2.03201e-05 1.93261e-06 -2.98903e-06 1.17236e-05 -3.05561e-06 -9.0102e-06 -1.63168e-05 -1.33774e-05 -1.51084e-06 -2.23296e-05 -6.7125e-06 -2.32454e-06
internal_weight=0 39117 14746 5150 1408 588399 2651 585748 17281 8753 8236 8528 4091 9596 7036
internal_count=627516 39117 14746 5150 1408 588399 2651 585748 17281 8753 8236 8528 4091 9596 7036
cat_boundaries=0 1 2
cat_threshold=171 692
is_linear=0
shrinkage=1


Tree=1
num_leaves=16
num_cat=0
split_feature=0 5 1 1 1 17 9 10 16 10 6 0 9 8 15
split_gain=4.32444e-05 9.44077e-05 0.000149951 8.75408e-05 8.017e-05 0.000149808 6.65682e-05 5.90082e-05 5.73928e-05 5.3137e-05 4.98852e-05 5.16508e-05 0.000129496 4.4729e-05 4.11847e-05
threshold=339.50000000000006 0.0062743278306747205 0.0028251438083999329 -0.001637651853119426 0.0028251438083999329 0.24736246171410597 -0.00808320188427669 -0.00241884620506938 87.719298245615519 0.008663199819916036 -0.0022716935366822173 719.50000000000011 -0.00808320188427669 0.00030015775374647729 60.118097308984822
decision_type=2 10 2 2 2 2 8 10 2 10 8 2 10 8 2
left_child=1 3 -3 6 10 -6 -1 -7 9 -9 11 -2 -13 -5 -8
right_child=4 2 -4 13 5 7 14 8 -10 -11 -12 12 -14 -15 -16
leaf_value=-4.1325513098780798e-05 3.2413746738193853e-06 -6.5115070011496958e-06 -6.3281128507581197e-05 -3.0180692912854324e-06 -1.3216274623085276e-05 4.5011674875530439e-05 -1.0694134207642883e-06 1.5953336106500275e-05 3.9126138566697631e-05 -1.8452766260742089e-05 -1.7651114489017541e-07 -5.5115520954132084e-05 -2.674396185571715e-07 1.8055331716266272e-06 -2.2149389282515139e-05
leaf_weight=789 67233 1726 637 40636 1736 857 2330 2184 813 565 467165 530 2292 36484 1539
leaf_count=789 67233 1726 637 40636 1736 857 2330 2184 813 565 467165 530 2292 36484 1539
internal_value=0 -2.1096e-06 -2.1815e-05 -1.5402e-06 3.26663e-07 1.16746e-05 -1.4853e-05 2.1453e-05 1.57849e-05 8.88187e-06 1.96648e-07 2.68508e-06 -1.05685e-05 -7.36115e-07 -9.45455e-06
internal_weight=0 84141 2363 81778 543375 6155 4658 4419 3562 2749 537220 70055 2822 77120 3869
internal_count=627516 84141 2363 81778 543375 6155 4658 4419 3562 2749 537220 70055 2822 77120 3869
is_linear=0
shrinkage=0.1


Tree=2
num_leaves=16
num_cat=2
split_feature=0 5 1 8 18 1 17 0 7 0 17 18 1 11 3
split_gain=3.50279e-05 7.64702e-05 0.00012146 7.54147e-05 7.29937e-05 6.49378e-05 0.000121345 4.79061e-05 4.2601e-05 7.64087e-05 0.000185121 4.24664e-05 4.24444e-05 4.45107e-05 4.22438e-05
threshold=339.50000000000006 0.0062743278306747205 0.0028251438083999329 -0.0013676636053384648 0 0.0028251438083999329 0.24736246171410597 625.50000000000011 -0.0030137346760017998 719.50000000000011 0.31253527580973245 1 -0.0019837942530409043 -0.80000000000023486 0.0012080978948377787
decision_type=2 10 2 8 1 2 2 2 8 2 2 1 2 2 10
left_child=1 3 11 4 14 8 -7 -8 9 -2 -11 -3 13 -6 -1
right_child=5 2 -4 -5 12 6 7 -9 -10 10 -12 -13 -14 -15 -16
leaf_value=-1.4730961767158338e-05 3.6756634865285457e-06 -2.2152301677963877e-05 -5.6953019399657921e-05 2.4381505143010164e-07 -3.1347138291708685e-06 -1.1894640765981192e-05 1.5026775940824004e-05 4.4631517688264266e-05 -1.159546575691314e-07 3.7335816443903954e-06 -5.9957522329296184e-05 9.0981883947539851e-06 -2.0415819124926107e-06 -4.2769447951526434e-05 -4.3912447512046689e-05
leaf_weight=3500 50294 822 637 63487 589 1736 3780 639 484762 1510 654 904 13078 546 578
leaf_count=3500 50294 822 637 63487 589 1736 3780 639 484762 1510 654 904 13078 546 578
internal_value=0 -1.89863e-06 -1.96335e-05 -1.38618e-06 -7.04379e-06 2.93997e-07 1.05072e-05 1.93077e-05 1.76983e-07 2.88401e-06 -1.5515e-05 -5.86035e-06 -3.6489e-06 -2.22013e-05 -1.88209e-05
internal_weight=0 84141 2363 81778 18291 543375 6155 4419 537220 52458 2164 1726 14213 1135 4078
internal_count=627516 84141 2363 81778 18291 543375 6155 4419 537220 52458 2164 1726 14213 1135 4078
cat_boundaries=0 1 2
cat_threshold=150 786
is_linear=0
shrinkage=0.1


Tree=3
num_leaves=16
num_cat=0
split_feature=3 10 13 16 15 6 16 1 15 10 4 9 3 3 11
split_gain=3.05618e-05 4.91219e-05 6.62267e-05 9.42298e-05 7.98879e-05 4.83355e-05 7.93693e-05 4.43596e-05 6.02361e-05 9.25333e-05 6.15101e-05 4.86383e-05 5.37994e-05 5.27181e-05 4.84371e-05
threshold=0.0025284925002179164 0.0053898359470478949 46.57170167613711 60.519795028667026 75.242854111655532 0.0068578809390509319 80.763171266779423 -0.0019837942530409043 50.918491109414148 -0.0084714168314424226 -0.0054704460898137844 0.0027822290803355414 0.00019510107258180478 -0.0047690330573888487 -0.62500000000017919
decision_type=10 8 2 2 2 10 2 2 2 10 8 8 10 8 2
left_child=5 -2 3 -3 -5 7 -7 8 11 -10 -11 12 13 -1 -12
right_child=1 2 -4 4 -6 6 -8 -9 9 10 14 -13 -14 -15 -16
leaf_value=-1.0876283295296978e-05 4.9820969480527283e-08 8.8396025382104027e-06 -4.7928007549261874e-06 -6.5227881664369622e-05 -1.3789534732176547e-05 4.0971174742903793e-05 2.6931284767345195e-06 2.7066911498604968e-07 -4.9257375299930577e-05 1.7538957591420913e-05 -8.5306586611782278e-06 2.9664670382294987e-05 -3.0724571433038209e-05 5.9368554048441491e-06 -3.6290717807646879e-05
leaf_weight=2729 24371 551 12983 642 570 759 1892 568467 600 812 5420 534 585 5890 711
leaf_count=2729 24371 551 12983 642 570 759 1892 568467 600 812 5420 534 585 5890 711
internal_value=0 -2.70666e-06 -7.26235e-06 -2.54485e-05 -4.10366e-05 1.79914e-07 1.36524e-05 1.18939e-07 -4.87228e-06 -1.15805e-05 -8.32453e-06 3.23861e-07 -1.37844e-06 6.13378e-07 -1.17499e-05
internal_weight=0 39117 14746 1763 1212 588399 2651 585748 17281 7543 6943 9738 9204 8619 6131
internal_count=627516 39117 14746 1763 1212 588399 2651 585748 17281 7543 6943 9738 9204 8619 6131
is_linear=0
shrinkage=0.1


Tree=4
num_leaves=16
num_cat=1
split_feature=3 17 13 6 13 4 12 17 6 18 17 13 16 16 10
split_gain=2.4755e-05 4.3455e-05 7.64115e-05 6.35204e-05 0.000142476 5.49515e-05 7.73139e-05 6.19112e-05 3.91518e-05 7.37532e-05 6.41499e-05 3.30854e-05 3.27249e-05 4.77495e-05 4.11728e-05
threshold=0.0025284925002179164 0.34943057102015079 35.607051476330888 0.0068578809390509319 48.246679693920299 0.0034102972648065726 80.183643527421779 0.41542543904176726 0.0068578809390509319 0 0.31253527580973245 89.549956658716397 92.922816728706565 86.409636121973037 0.008663199819916036
decision_type=10 2 2 10 2 8 2 2 10 1 2 2 2 2 8
left_child=8 3 -3 -2 -5 7 -7 -4 -1 10 -10 -6 13 14 -8
right_child=1 2 5 4 11 6 12 -9 9 -11 -12 -13 -14 -15 -16
leaf_value=1.070459554598725e-07 -2.1276797625042252e-06 -2.3317635686761887e-05 1.2884557614204845e-05 -6.1918912184629466e-05 -4.3466414477842959e-06 4.0638719421961361e-05 1.7720776884003434e-05 -2.9616830023852261e-05 7.7557191802702084e-06 -1.2163663524444456e-06 5.7418134210257326e-05 -3.01399025810908e-05 -8.6395047985246614e-06 3.4295242791965287e-05 -1.774420775389366e-05
leaf_weight=585748 28507 809 713 564 3350 944 796 660 508 1610 533 584 861 773 556
leaf_count=585748 28507 809 713 564 3350 944 796 660 508 1610 533 584 861 773 556
internal_value=0 -2.436e-06 5.30925e-06 -3.87029e-06 -1.49145e-05 9.67643e-06 1.56933e-05 -7.54583e-06 1.61923e-07 1.22872e-05 3.28675e-05 -8.17564e-06 7.80696e-06 1.44707e-05 3.13606e-06
internal_weight=0 39117 6112 33005 4498 5303 3930 1373 588399 2651 1041 3934 2986 2125 1352
internal_count=627516 39117 6112 33005 4498 5303 3930 1373 588399 2651 1041 3934 2986 2125 1352
cat_boundaries=0 1
cat_threshold=146
is_linear=0
shrinkage=0.1


Tree=5
num_leaves=16
num_cat=2
split_feature=0 8 16 7 11 0 0 5 9 18 16 3 17 14 18
split_gain=2.81701e-05 4.42687e-05 6.63954e-05 4.12762e-05 6.66342e-05 6.26972e-05 4.49162e-05 3.02902e-05 2.68829e-05 3.84895e-05 3.88261e-05 3.75939e-05 9.88671e-05 5.6552e-05 4.27369e-05
threshold=380.50000000000006 -0.0041191635794320383 49.074074074075178 -0.0072104384624999676 0.33333333333334214 712.50000000000011 593.50000000000011 -0.0061821932251904235 0.0062438736066408049 0 72.946946520486478 0.0049365115212359765 0.41542543904176726 72.859123157267845 1
decision_type=2 8 2 10 2 2 2 10 10 1 2 10 2 2 1
left_child=8 2 3 4 5 6 -2 -3 11 -10 -11 14 13 -13 -1
right_child=1 7 -4 -5 -6 -7 -8 -9 9 10 -12 12 -14 -15 -16
leaf_value=-5.1000886343175609e-06 8.482739831853718e-06 -2.1904986501218421e-05 -2.9409756120952819e-05 3.3555387616789763e-06 4.5396295076204556e-05 -2.2001340194539814e-05 3.8446480604419073e-05 1.5971165784354962e-07 -1.4289984490967727e-05 1.9600451299456802e-05 -4.7202096228932815e-06 2.439072054317769e-05 4.6217745964766732e-05 -9.3676878245846221e-06 -2.9965440240297655e-07
leaf_weight=22652 2386 623 568 20906 590 548 633 464951 3741 783 4060 714 607 1627 102127
leaf_count=22652 2386 623 568 20906 590 548 633 464951 3741 783 4060 714 607 1627 102127
internal_value=0 3.5293e-07 4.39896e-06 5.16516e-06 1.42659e-05 9.11682e-06 1.47653e-05 1.30186e-07 -1.27191e-06 -6.68903e-06 -7.86503e-07 -9.07843e-07 1.02537e-05 9.28555e-07 -1.17154e-06
internal_weight=0 491205 25631 25063 4157 3567 3019 465574 136311 8584 4843 127727 2948 2341 124779
internal_count=627516 491205 25631 25063 4157 3567 3019 465574 136311 8584 4843 127727 2948 2341 124779
cat_boundaries=0 1 2
cat_threshold=1928 90
is_linear=0
shrinkage=0.1


Tree=6
num_leaves=16
num_cat=0
split_feature=0 17 2 5 8 15 5 8 13 0 15 17 4 12 12
split_gain=2.423e-05 5.53049e-05 8.19316e-05 4.90153e-05 6.12655e-05 5.89371e-05 4.37404e-05 3.90262e-05 3.69921e-05 5.06694e-05 6.98743e-05 3.45195e-05 3.97315e-05 3.43545e-05 4.40976e-05
threshold=339.50000000000006 0.23254436912502288 0.0040074772020415326 -0.0038245517581176332 -0.0023657040510987599 14.729337703098397 -0.0020736885013948876 -0.0041191635794320383 28.343267573537194 719.50000000000011 24.579522857993091 0.34943057102015079 -0.0054704460898137844 6.1693424725771893 61.244434636303062
decision_type=2 2 10 8 8 2 10 10 2 2 2 2 10 2 2
left_child=1 2 -1 4 5 -3 -5 8 11 -10 -11 -2 -13 -8 -15
right_child=7 3 -4 6 -6 -7 13 -9 9 10 -12 12 -14 14 -16
leaf_value=-1.8757337316203548e-07 1.0842886945012809e-06 -8.2905167333725421e-06 -2.885398212691325e-05 8.1285005686579868e-06 2.6341320979112835e-06 -4.3601693253811092e-05 -1.916315232799636e-05 2.1256647939904885e-08 6.9950116072230367e-06 9.0807031657653397e-06 -4.2132228443194146e-05 -3.2291638294743347e-05 2.162394161390635e-07 1.3316856057170315e-05 -9.8274357148912107e-06
leaf_weight=72111 11416 794 1011 2113 865 1168 2037 508125 21256 559 509 707 803 1151 2891
leaf_count=72111 11416 794 1011 2113 865 1168 2037 508125 21256 559 509 707 803 1151 2891
internal_value=0 -1.57915e-06 -5.83921e-07 -8.18352e-06 -1.95369e-05 -2.93116e-05 -4.26553e-06 2.44471e-07 3.46208e-06 5.92711e-06 -1.5327e-05 -7.95165e-07 -1.50043e-05 -8.57357e-06 -3.23687e-06
internal_weight=0 84141 73122 11019 2827 1962 8192 543375 35250 22324 1068 12926 1510 6079 4042
internal_count=627516 84141 73122 11019 2827 1962 8192 543375 35250 22324 1068 12926 1510 6079 4042
is_linear=0
shrinkage=0.1


Tree=7
num_leaves=16
num_cat=0
split_feature=11 17 3 4 2 13 3 12 9 16 0 9 1 3 0
split_gain=2.20866e-05 4.07271e-05 0.000109139 8.01242e-05 4.77858e-05 4.61222e-05 4.60585e-05 6.76595e-05 7.00585e-05 3.32765e-05 6.71328e-05 3.45914e-05 3.83025e-05 3.15232e-05 4.3459e-05
threshold=0.061519538272188166 0.41542543904176726 0.0012080978948377787 0.0016894077431475198 0.0040074772020415326 50.720065525936811 0.0049365115212359765 212.25663082023354 0.0083007475255192382 80.763171266779423 446.50000000000006 0.0051248149425755516 0.0020846646874141954 0.0049365115212359765 372.50000000000006
decision_type=2 2 10 8 10 2 8 2 8 2 2 8 2 8 2
left_child=13 6 5 -4 -5 -3 -2 9 -9 10 11 12 -8 14 -1
right_child=1 2 3 4 -6 -7 7 8 -10 -11 -12 -13 -14 -15 -16
leaf_value=-2.7222743680208552e-06 7.5318787135670335e-07 4.3895208973407262e-05 -3.8034248017209521e-05 2.4664237601112348e-05 -5.9155623305944021e-06 1.1360309148669397e-05 -9.2330836504026171e-06 -4.7188284770994996e-05 -4.7228692733135419e-06 7.2658750236146765e-06 -3.8139765940140938e-05 -1.4739187256282795e-05 2.7408939491533024e-05 7.9323790523390108e-06 -3.6436182436029646e-08
leaf_weight=76363 250457 984 514 833 1322 782 520 778 776 2155 625 973 632 4379 285423
leaf_count=76363 250457 984 514 833 1322 782 520 778 776 2155 625 973 632 4379 285423
internal_value=0 7.02183e-07 1.02034e-05 -2.55701e-06 5.90484e-06 2.94885e-05 5.3817e-07 -7.79947e-06 -2.59829e-05 -2.03861e-06 -9.32994e-06 -8.56463e-07 1.08691e-05 -5.01263e-07 -6.03342e-07
internal_weight=0 261351 4435 2669 2155 1766 256916 6459 1554 4905 2750 2125 1152 366165 361786
internal_count=627516 261351 4435 2669 2155 1766 256916 6459 1554 4905 2750 2125 1152 366165 361786
is_linear=0
shrinkage=0.1


Tree=8
num_leaves=16
num_cat=0
split_feature=7 6 17 2 16 6 13 13 6 12 15 15 2 16 11
split_gain=1.83136e-05 6.71218e-05 4.16755e-05 5.43049e-05 7.90863e-05 0.000120914 4.82771e-05 6.20606e-05 6.64233e-05 0.000109284 3.62734e-05 5.75353e-05 3.48711e-05 2.5506e-05 6.09836e-05
threshold=0.0033912310683912321 0.0068578809390509319 0.34943057102015079 0.0040074772020415326 80.763171266779423 0.0068578809390509319 35.607051476330888 75.45000402884061 0.0068578809390509319 70.853494289117023 85.159429942979116 60.118097308984822 0.00090092988928180972 92.922816728706565 0.78260869565240709
decision_type=10 10 2 10 2 10 2 2 10 2 2 2 10 2 2
left_child=1 -1 3 -2 5 -5 -4 8 9 -8 11 -10 -11 14 -6
right_child=2 -3 6 4 13 -7 7 -9 10 12 -12 -13 -14 -15 -16
leaf_value=1.2483294020508066e-07 -1.8805967965644959e-06 3.6068750688662898e-05 -2.371118554705485e-05 -1.258748200755352e-05 -1.2581682527243389e-05 -6.8682785669382476e-05 2.8872740386999445e-05 -1.0647625138942343e-05 9.4556851796942321e-06 4.7469803832729226e-06 9.0323522579755719e-06 5.0449657531897492e-05 -2.715840386727704e-05 -1.3551139163439264e-05 3.4126466771615952e-05
leaf_weight=578020 38603 520 519 1286 594 548 918 1370 546 549 834 918 911 852 528
leaf_count=578020 38603 520 519 1286 594 548 918 1370 546 549 834 918 911 852 528
internal_value=0 1.5714e-07 -1.85678e-06 -3.00447e-06 -1.43976e-05 -2.93488e-05 5.55753e-06 8.07001e-06 1.3554e-05 1.83766e-06 2.56782e-05 3.51609e-05 -1.51611e-05 -5.06745e-07 9.39862e-06
internal_weight=0 578540 48976 42411 3808 1834 6565 6046 4676 2378 2298 1464 1460 1974 1122
internal_count=627516 578540 48976 42411 3808 1834 6565 6046 4676 2378 2298 1464 1460 1974 1122
is_linear=0
shrinkage=0.1


Tree=9
num_leaves=16
num_cat=1
split_feature=0 5 9 3 2 18 1 3 2 7 2 15 1 9 3
split_gain=1.7113e-05 2.78895e-05 3.1408e-05 8.26073e-05 5.86846e-05 4.99844e-05 4.85936e-05 3.08456e-05 2.99985e-05 4.35796e-05 2.99001e-05 4.74862e-05 2.78223e-05 2.4962e-05 2.65561e-05
threshold=544.50000000000011 -0.0022905655161621348 0.0083007475255192382 0.0049365115212359765 0.0024028394059553153 0 0.0028251438083999329 -0.0035837179300972628 0.00038945463093909011 -0.0044745751800230873 -0.0039068614842231999 31.174846078954985 4.432383184782563e-05 0.0062438736066408049 -0.0029405660534200235
decision_type=2 10 10 10 10 1 2 10 10 10 10 2 2 10 10
left_child=13 8 3 6 -4 -5 7 -3 10 -10 11 -2 -11 -1 -15
right_child=1 2 4 5 -6 -7 -8 -9 9 12 -12 -13 -14 14 -16
leaf_value=-2.9551697364817419e-07 4.0261687755728791e-05 -2.0893617548016055e-05 -4.2628721654597229e-06 -7.3401167304896703e-06 3.0469895954943299e-05 -4.7411242220756823e-05 2.3896558516061131e-05 2.9321759296894833e-07 4.0277034828537394e-05 2.5300044275007433e-05 1.7996371868094515e-06 2.4416991709218848e-06 -4.2328415466568631e-06 1.7449754007904319e-05 -5.3283649040924649e-06
leaf_weight=327835 538 689 982 723 964 555 871 258097 532 503 18777 867 872 531 14180
leaf_count=327835 538 689 982 723 964 555 871 258097 532 503 18777 867 872 531 14180
internal_value=0 5.72509e-07 2.85741e-07 1.91347e-07 1.29429e-05 -2.51703e-05 3.16174e-07 2.36809e-07 3.98532e-06 1.59739e-05 2.85252e-06 1.69237e-05 6.57083e-06 -4.76348e-07 -4.50618e-06
internal_weight=0 284970 262881 260935 1946 1278 259657 258786 22089 1907 20182 1405 1375 342546 14711
internal_count=627516 284970 262881 260935 1946 1278 259657 258786 22089 1907 20182 1405 1375 342546 14711
cat_boundaries=0 1
cat_threshold=834
is_linear=0
shrinkage=0.1


Tree=10
num_leaves=16
num_cat=2
split_feature=11 18 3 13 2 1 6 0 0 10 18 10 3 6 4
split_gain=1.89882e-05 3.69676e-05 3.68568e-05 4.43538e-05 6.46488e-05 3.98003e-05 5.8599e-05 8.48061e-05 5.52606e-05 6.2561e-05 5.39832e-05 3.72739e-05 4.10201e-05 3.69854e-05 3.62045e-05
threshold=0.061519538272188166 0 0.0049365115212359765 79.313629989293403 0.0015917786250683188 -0.0026772996728818828 0.0031442771580849631 372.50000000000006 705.50000000000011 -0.0053539442259319938 1 0.0065485574439921876 0.0025284925002179164 0.0051290208613227204 -0.0054704460898137844
decision_type=2 1 8 2 10 2 10 2 2 10 1 8 10 10 8
left_child=1 -1 5 4 -4 6 7 10 9 -9 -3 -7 -13 -6 -2
right_child=14 2 3 -5 13 11 -8 8 -10 -11 -12 12 -14 -15 -16
leaf_value=1.2745490640200651e-06 1.5385609904757164e-05 4.2198964377001444e-06 1.3008669648543197e-06 -1.7236662819230741e-05 1.4707626310052865e-05 -7.4919745360163727e-07 2.0011331521926968e-05 2.3854730064612021e-05 -3.0195802959608168e-05 -6.0698860708679748e-06 -2.8458577165401908e-05 -4.334641711570072e-06 -2.2812695876433263e-05 5.0481570971444482e-05 5.5697604093936169e-07
leaf_weight=91609 1657 624 1532 516 577 255286 665 1109 524 1888 2731 7078 1447 579 259694
leaf_count=91609 1657 624 1532 516 577 255286 665 1109 524 1888 2731 7078 1447 579 259694
internal_value=0 -4.64853e-07 -1.04523e-06 9.61733e-06 1.47723e-05 -1.17117e-06 -8.33439e-06 -1.10758e-05 -2.35061e-07 5.00332e-06 -2.24529e-05 -9.66412e-07 -7.47103e-06 3.26255e-05 6.50992e-07
internal_weight=0 366165 274556 3204 2688 271352 7541 6876 3521 2997 3355 263811 8525 1156 261351
internal_count=627516 366165 274556 3204 2688 271352 7541 6876 3521 2997 3355 263811 8525 1156 261351
cat_boundaries=0 1 2
cat_threshold=2100 648
is_linear=0
shrinkage=0.1


Tree=11
num_leaves=16
num_cat=0
split_feature=9 15 10 15 12 12 15 8 13 17 17 1 4 4 2
split_gain=1.67955e-05 7.3122e-05 4.25955e-05 5.85018e-05 4.95054e-05 6.3181e-05 3.79114e-05 3.70948e-05 3.18825e-05 4.29531e-05 4.05682e-05 6.87735e-05 2.26399e-05 2.01757e-05 2.07145e-05
threshold=-0.00808320188427669 43.524735450944753 -0.0064236214145921835 14.729337703098397 -100.72515639736669 -183.9290203599825 23.066188799611009 -0.0041191635794320383 28.343267573537194 0.31253527580973245 0.41542543904176726 -0.00073381134023536843 -0.00064358437932893187 -0.0054704460898137844 -0.00040433310320281407
decision_type=8 2 10 2 2 2 2 8 2 2 2 2 10 10 10
left_child=1 2 3 12 5 -5 -7 8 9 -2 13 -12 -1 -10 -15
right_child=7 -3 -4 4 -6 6 -8 -9 10 -11 11 -13 -14 14 -16
leaf_value=-7.9853436136377702e-07 8.1259632837989627e-07 -3.7814812340999509e-05 2.2766489024269774e-05 -3.5941431273921727e-05 -3.746438951266906e-05 -1.0442758257698825e-05 2.5972839838896806e-05 -1.1089981333916277e-07 1.4046132276877474e-05 -2.3668219813102268e-05 -1.4022903672406975e-06 4.9186169971116222e-05 1.8199866726601259e-05 9.6092697373008871e-07 8.2420844073754746e-06
leaf_weight=5962 10007 602 653 523 790 635 520 586272 2072 772 521 555 701 10813 6118
leaf_count=5962 10007 602 653 523 790 635 520 586272 2072 772 521 555 701 10813 6118
internal_value=0 -3.98809e-06 -1.90676e-06 -3.67126e-06 -1.68231e-05 -7.10527e-06 5.95214e-06 6.697e-08 3.44632e-06 -9.40738e-07 5.80143e-06 2.46912e-05 1.20025e-06 4.73184e-06 3.59197e-06
internal_weight=0 10386 9784 9131 2468 1678 1155 617130 30858 10779 20079 1076 6663 19003 16931
internal_count=627516 10386 9784 9131 2468 1678 1155 617130 30858 10779 20079 1076 6663 19003 16931
is_linear=0
shrinkage=0.1


Tree=12
num_leaves=16
num_cat=3
split_feature=11 18 1 15 3 16 14 1 9 18 3 14 6 4 18
split_gain=1.50536e-05 2.9815e-05 3.05759e-05 3.87394e-05 2.99497e-05 4.11637e-05 5.40489e-05 8.03814e-05 4.07614e-05 3.23219e-05 3.87379e-05 3.55289e-05 3.38224e-05 2.8163e-05 7.753e-05
threshold=0.061519538272188166 0 -0.0026772996728818828 45.353937587836192 0.0049365115212359765 90.338164251207374 50.795531995980703 -0.00067008222480358082 0.0062438736066408049 1 0.00058714355797406814 60.204568356832951 0.0068578809390509319 -0.0054704460898137844 2
decision_type=2 1 2 2 8 2 2 2 10 1 10 2 10 8 1
left_child=1 2 3 -1 8 6 -6 -8 -3 10 -10 -11 -13 14 -2
right_child=13 4 -4 -5 5 -7 7 -9 9 11 -12 12 -14 -15 -16
leaf_value=3.4121094745675194e-05 -1.1343264486640693e-05 -8.8134086848300429e-07 9.2935762972132816e-07 -4.5507557206976232e-07 -5.1645067692938126e-06 -1.3856722439252061e-05 5.7261186401482749e-05 9.9653900581554209e-06 1.6608494910348242e-05 -4.0145948280771618e-05 -1.2357923202216626e-05 -4.6053951039562863e-06 -3.0575416120393735e-05 4.9669090092447375e-07 3.2175411785068286e-05
leaf_weight=632 713 266387 90312 665 911 647 530 1116 824 521 1050 1887 683 259694 944
leaf_count=632 713 266387 90312 665 911 647 530 1116 824 521 1050 1887 683 259694 944
internal_value=0 -4.13922e-07 1.14817e-06 1.63931e-05 -9.35141e-07 8.67654e-06 1.43782e-05 2.51943e-05 -1.04867e-06 -1.00262e-05 3.76635e-07 -1.62817e-05 -1.15072e-05 5.79611e-07 1.35752e-05
internal_weight=0 366165 91609 1297 274556 3204 2557 1646 271352 4965 1874 3091 2570 261351 1657
internal_count=627516 366165 91609 1297 274556 3204 2557 1646 271352 4965 1874 3091 2570 261351 1657
cat_boundaries=0 1 2 3
cat_threshold=2100 130 2449
is_linear=0
shrinkage=0.1


Tree=13
num_leaves=16
num_cat=3
split_feature=3 2 18 1 9 1 2 16 5 18 18 11 11 14 8
split_gain=1.48426e-05 4.44132e-05 7.54673e-05 3.76555e-05 3.37743e-05 6.36133e-05 5.06495e-05 5.49098e-05 8.24534e-05 6.00039e-05 5.78308e-05 4.36491e-05 3.44331e-05 3.44321e-05 4.57343e-05
threshold=0.0025284925002179164 0.0040074772020415326 0 -0.0019837942530409043 0.0051248149425755516 -0.001092568341222566 0.0040074772020415326 86.409636121973037 0.0062743278306747205 1 2 0.78260869565240709 0.69999999999987528 50.795531995980703 0.00078083864211886411
decision_type=10 10 1 2 8 2 10 2 10 1 1 2 2 2 10
left_child=1 -1 -3 -2 13 -6 -7 8 11 -9 -10 -8 -11 14 -5
right_child=3 2 -4 4 5 6 7 9 10 12 -12 -13 -14 -15 -16
leaf_value=8.1215445683759157e-08 1.9225295286224718e-05 3.4894183082725902e-05 -1.0752289885810267e-05 -1.8712347148200919e-05 -4.0936831517417444e-05 -6.7218944310948433e-07 -2.1820464212800095e-05 -1.9168803985091308e-05 -6.3031913477971108e-05 -6.3091745729554576e-06 -1.8469754801875908e-05 1.692951720792289e-05 2.7836729627335786e-05 1.3825733202823359e-06 1.0441857520290601e-05
leaf_weight=586887 827 922 590 1944 506 9547 676 1093 630 518 587 510 687 20848 744
leaf_count=586887 827 922 590 1944 506 9547 676 1093 630 518 587 510 687 20848 744
internal_value=0 1.25313e-07 1.72421e-05 -1.88632e-06 -2.3423e-06 -6.09342e-06 -4.856e-06 -1.33527e-05 -2.39215e-05 -2.30092e-06 -4.22078e-05 -5.15732e-06 1.30499e-05 9.17011e-09 -1.06429e-05
internal_weight=0 588399 1512 39117 38290 14754 14248 4701 2403 2298 1217 1186 1205 23536 2688
internal_count=627516 588399 1512 39117 38290 14754 14248 4701 2403 2298 1217 1186 1205 23536 2688
cat_boundaries=0 1 2 3
cat_threshold=450 3234 1349
is_linear=0
shrinkage=0.1


Tree=14
num_leaves=16
num_cat=2
split_feature=0 5 18 6 10 3 3 10 12 11 3 18 2 2 10
split_gain=1.36111e-05 2.23709e-05 2.41447e-05 6.26004e-05 5.93753e-05 2.2372e-05 1.75012e-05 1.49838e-05 6.43603e-05 7.16935e-05 5.92568e-05 3.87785e-05 3.68129e-05 1.38676e-05 1.24433e-05
threshold=544.50000000000011 -0.0022905655161621348 0 -0.0067054685676224959 -0.0084714168314424226 -0.0035837179300972628 -0.0047690330573888487 0.008663199819916036 149.05006385808193 0.10000000000005735 0.0049365115212359765 1 0.0040074772020415326 0.00043208589741350339 0.00067471008552499889
decision_type=2 10 1 10 10 10 10 10 2 2 10 1 10 10 10
left_child=-1 2 4 -4 -2 -3 -6 10 9 -9 12 -12 -7 -5 -8
right_child=1 5 3 13 6 7 14 8 -10 -11 11 -13 -14 -15 -16
leaf_value=-4.2498881754656335e-07 -2.994723091694399e-05 -1.7109405551407789e-05 3.1468169611008443e-05 3.4125751315879576e-06 1.949704754489855e-05 2.8241020360978182e-07 1.6718467598353546e-06 -3.2830923833750218e-05 3.4855448874434453e-05 1.5056761416996408e-05 -3.900785572402872e-05 -4.6933805979129893e-06 2.2925659173375204e-05 1.5866232071681212e-05 -1.4183428079658887e-05
leaf_weight=342546 637 740 915 11575 521 258128 6939 514 646 798 613 722 720 969 533
leaf_count=342546 637 740 915 11575 521 258128 6939 514 646 798 613 722 720 969 533
internal_value=0 5.10418e-07 3.56698e-06 6.21192e-06 -5.64496e-07 2.53586e-07 1.77645e-06 3.026e-07 9.01778e-06 -3.70412e-06 2.37014e-07 -2.07771e-05 3.45394e-07 4.3746e-06 5.40843e-07
internal_weight=0 284970 22089 13459 8630 262881 7993 262141 1958 1312 260183 1335 258848 12544 7472
internal_count=627516 284970 22089 13459 8630 262881 7993 262141 1958 1312 260183 1335 258848 12544 7472
cat_boundaries=0 1 2
cat_threshold=448 1051
is_linear=0
shrinkage=0.1


Tree=15
num_leaves=16
num_cat=1
split_feature=9 0 0 18 1 12 11 0 8 13 0 17 17 1 7
split_gain=1.41819e-05 6.56138e-05 5.95473e-05 4.95364e-05 5.55033e-05 3.46232e-05 3.928e-05 4.81326e-05 2.84684e-05 2.57391e-05 3.80631e-05 3.48053e-05 2.89298e-05 5.65634e-05 2.82858e-05
threshold=-0.00808320188427669 719.50000000000011 348.50000000000006 0 -0.0012314116577751275 -80.386314181249546 -0.44872501625538719 544.50000000000011 -0.0041191635794320383 28.343267573537194 276.50000000000006 0.31253527580973245 0.41542543904176726 -0.00073381134023536843 -0.0015384615384615439
decision_type=8 2 2 1 2 2 2 2 8 2 2 2 2 2 10
left_child=1 2 3 4 -1 6 7 -4 9 11 -11 -2 14 -14 -12
right_child=8 -3 5 -5 -6 -7 -8 -9 -10 10 12 -13 13 -15 -16
leaf_value=-4.4822110949086641e-05 6.5838298914380591e-07 -3.3956685142455172e-05 3.8696334026123261e-06 -4.5916394982967853e-07 -7.8863281714545806e-06 2.7026578119759725e-05 -6.8905144027360105e-06 3.7383901685274939e-05 -9.4396988236013956e-08 -1.6418735009589705e-05 5.849824294748615e-06 -2.1378556507702318e-05 -1.6187042220422071e-06 4.4467301708961105e-05 -1.5100528531664668e-05
leaf_weight=753 10007 669 2481 1733 885 598 2749 518 586272 787 17557 772 519 547 669
leaf_count=753 10007 669 2481 1733 885 598 2749 518 586272 787 17557 772 519 547 669
internal_value=0 -3.66479e-06 -1.57924e-06 -1.232e-05 -2.47151e-05 4.12627e-06 1.74381e-06 9.65836e-06 6.14246e-08 3.02188e-06 5.13796e-06 -9.19919e-07 6.01734e-06 2.20296e-05 5.08082e-06
internal_weight=0 10386 9717 3371 1638 6346 5748 2999 617130 30858 20079 10779 19292 1066 18226
internal_count=627516 10386 9717 3371 1638 6346 5748 2999 617130 30858 20079 10779 19292 1066 18226
cat_boundaries=0 1
cat_threshold=786
is_linear=0
shrinkage=0.1


Tree=16
num_leaves=16
num_cat=1
split_feature=1 6 18 0 0 16 9 8 1 16 13 14 1 6 8
split_gain=1.26212e-05 6.83811e-05 7.34549e-05 7.37532e-05 6.69401e-05 5.31106e-05 4.91133e-05 5.51771e-05 5.41815e-05 5.04383e-05 4.54022e-05 3.38197e-05 3.00414e-05 2.98196e-05 2.92125e-05
threshold=-0.001637651853119426 0.0068578809390509319 0 372.50000000000006 705.50000000000011 74.544017762827238 -0.0022939444117948122 -9.701640289350165e-05 -0.0026772996728818828 13.675213675213998 51.537264568456159 61.809973294593114 -0.0026772996728818828 0.0010189810998952888 0.0029038310883389156
decision_type=2 10 1 2 2 2 8 10 2 2 2 2 2 10 8
left_child=1 2 3 6 10 11 8 12 -1 -10 -5 -4 -8 -9 -7
right_child=-2 -3 5 4 -6 14 7 13 9 -11 -12 -13 -14 -15 -16
leaf_value=-3.6494731342233396e-05 9.5458661860389951e-08 2.8049636408279505e-05 5.3358942397130332e-06 5.8114493799774019e-06 -2.6837676475299755e-05 -3.8777019487310007e-07 2.5577787436595579e-05 -3.5184847254866086e-05 1.0975868771931838e-05 -2.6991252816699948e-05 -8.3125271883882718e-06 3.1333570193092963e-05 -5.4599070225152225e-06 -5.8195523651399096e-06 -2.6797161264835474e-05
leaf_weight=1727 600196 732 7948 5960 994 917 588 662 630 787 3682 534 664 724 771
leaf_count=1727 600196 732 7948 5960 994 917 588 662 630 787 3682 534 664 724 771
internal_value=0 -2.10228e-06 -2.9324e-06 -7.06673e-06 -2.12929e-06 3.74515e-06 -1.61614e-05 -6.09983e-06 -2.46036e-05 -1.0111e-05 4.17913e-07 6.97263e-06 9.1169e-06 -1.98454e-05 -1.24504e-05
internal_weight=0 27320 26588 16418 10636 10170 5782 2638 3144 1417 9642 8482 1252 1386 1688
internal_count=627516 27320 26588 16418 10636 10170 5782 2638 3144 1417 9642 8482 1252 1386 1688
cat_boundaries=0 1
cat_threshold=1378
is_linear=0
shrinkage=0.1


Tree=17
num_leaves=16
num_cat=0
split_feature=3 6 17 11 15 1 16 16 5 6 13 0 6 0 17
split_gain=1.23314e-05 3.47402e-05 3.84556e-05 4.91784e-05 6.24801e-05 8.58938e-05 8.29526e-05 5.95814e-05 5.26708e-05 3.99585e-05 0.000109461 4.65849e-05 3.13287e-05 5.75198e-05 7.65506e-05
threshold=0.0025284925002179164 -0.003139454150923648 0.34943057102015079 0.87499999999985378 73.663279646694477 -4.5432861612237911e-05 87.719298245615519 92.922816728706565 0.0046741170500975713 0.0068578809390509319 48.246679693920299 633.50000000000011 0.0068578809390509319 364.50000000000006 0.31253527580973245
decision_type=10 8 2 2 2 2 2 2 8 10 2 2 10 2 2
left_child=12 -2 9 4 5 -4 -6 -8 -7 -3 -11 -12 -1 14 -14
right_child=1 2 3 -5 6 8 7 -9 -10 10 11 -13 13 -15 -16
leaf_value=6.5008326457747259e-08 -2.2022502327507193e-05 -1.2070140370625994e-06 4.2222334038732313e-05 2.8016318426500253e-05 -4.6497766121835296e-05 -1.470708086251064e-05 2.2569404349529317e-05 -1.7786689640798724e-05 1.6644034580482109e-05 -5.2559105613341568e-05 -1.0104965406278508e-05 1.999922828932349e-05 -2.0192215396534829e-06 -3.719611384002562e-06 4.6615745249730525e-05
leaf_weight=585748 825 28086 700 881 501 1012 672 803 1139 564 3326 608 567 1330 754
leaf_count=585748 825 28086 700 881 501 1012 672 803 1139 564 3326 608 567 1330 754
internal_value=0 -1.71949e-06 -1.28206e-06 6.28951e-06 2.32405e-06 1.17957e-05 -1.13418e-05 5.99273e-07 1.894e-06 -2.60843e-06 -1.1359e-05 -5.45236e-06 1.14097e-07 1.09605e-05 2.57406e-05
internal_weight=0 39117 38292 5708 4827 2851 1976 1475 2151 32584 4498 3934 588399 2651 1321
internal_count=627516 39117 38292 5708 4827 2851 1976 1475 2151 32584 4498 3934 588399 2651 1321
is_linear=0
shrinkage=0.1


Tree=18
num_leaves=16
num_cat=3
split_feature=13 17 5 18 18 16 5 16 16 8 0 1 18 9 7
split_gain=1.14572e-05 5.55582e-05 5.96163e-05 5.62294e-05 4.59595e-05 3.45389e-05 5.73258e-05 2.7945e-05 2.13437e-05 1.93209e-05 4.85803e-05 4.18511e-05 8.20148e-05 7.806e-05 3.5296e-05
threshold=28.343267573537194 0.28578069667321915 0.0002412157288249617 0 1 8.5504972584063896 -0.0046282315562043977 16.400802733122756 4.3895048007196182 -0.0041191635794320383 276.50000000000006 -0.0026772996728818828 2 -0.00808320188427669 -0.00095147478591811596
decision_type=2 2 8 1 1 2 8 2 2 8 2 2 1 8 10
left_child=1 -1 4 -4 5 8 -7 -8 -3 10 -2 12 13 -12 -13
right_child=9 2 3 -5 -6 6 7 -9 -10 -11 11 14 -14 -15 -16
leaf_value=-3.9184693205967516e-07 -1.9056637893112784e-05 -1.1894031601930354e-05 -1.0390130495715911e-05 -5.2666799024807223e-05 1.6568283614072001e-05 -3.8407787838961753e-05 -2.1046937415358833e-05 1.0074988770630324e-05 1.1359891883460931e-05 3.4970433887691234e-08 -4.9371306450312377e-05 5.7895891333947291e-06 1.3299485944319988e-05 -3.1951385415551891e-06 -2.0075760968276965e-05
leaf_weight=77062 972 708 725 570 795 847 533 629 892 519468 655 21269 1020 830 541
leaf_count=77062 972 708 725 570 795 847 533 629 892 519468 655 21269 1020 830 541
internal_value=0 -1.09644e-06 -1.0624e-05 -2.94853e-05 -5.07782e-06 -9.86466e-06 -1.86223e-05 -4.20039e-06 1.07003e-06 1.66367e-07 2.86562e-06 3.74197e-06 -8.49968e-06 -2.34048e-05 5.148e-06
internal_weight=0 82761 5699 1295 4404 3609 2009 1162 1600 544755 25287 24315 2505 1485 21810
internal_count=627516 82761 5699 1295 4404 3609 2009 1162 1600 544755 25287 24315 2505 1485 21810
cat_boundaries=0 1 2 3
cat_threshold=1484 466 322
is_linear=0
shrinkage=0.1


Tree=19
num_leaves=16
num_cat=4
split_feature=11 17 0 18 16 0 2 7 16 0 0 18 18 18 13
split_gain=1.22498e-05 2.43001e-05 7.04025e-05 4.70403e-05 2.98642e-05 5.77928e-05 2.56386e-05 2.90582e-05 7.14107e-05 8.02575e-05 4.33007e-05 3.84233e-05 3.69345e-05 3.22885e-05 3.04484e-05
threshold=0.061519538272188166 0.41542543904176726 609.50000000000011 0 76.190476190477384 356.50000000000006 0.0024028394059553153 0.0045337188139474857 77.777777777779093 438.50000000000006 633.50000000000011 1 2 3 77.256293062164318
decision_type=2 2 2 1 2 2 8 8 2 2 2 1 1 1 2
left_child=-1 6 3 4 5 -3 -2 11 9 12 13 -8 -9 14 -10
right_child=1 2 -4 -5 -6 -7 7 8 10 -11 -12 -13 -14 -15 -16
leaf_value=-3.7348841029771127e-07 6.9965653341985076e-07 1.9037942242612965e-05 3.5589525905331634e-05 1.9424328529204186e-05 -2.0783755643429011e-05 -1.7456557384603161e-05 8.3029301163528351e-06 4.2862290498411778e-06 -4.9462196269175798e-06 -5.000626242272329e-05 1.7922985509048814e-05 -3.5014694791937569e-06 -2.2554967759078191e-05 -1.3759735127474261e-05 1.7546126645142108e-05
leaf_weight=366165 235194 940 759 1093 837 806 3968 917 1859 696 988 8977 1153 2274 890
leaf_count=366165 235194 940 759 1093 837 806 3968 917 1859 696 988 8977 1153 2274 890
internal_value=0 5.22756e-07 7.86182e-06 2.13675e-06 -5.23345e-06 2.19111e-06 3.96066e-07 -2.89105e-06 -7.33289e-06 -2.063e-05 -1.21416e-06 1.20614e-07 -1.07527e-05 -4.97834e-06 2.3273e-06
internal_weight=0 261351 4435 3676 2583 1746 256916 21722 8777 2766 6011 12945 2070 5023 2749
internal_count=627516 261351 4435 3676 2583 1746 256916 21722 8777 2766 6011 12945 2070 5023 2749
cat_boundaries=0 1 2 3 4
cat_threshold=1746 261 1698 2389
is_linear=0
shrinkage=0.1


Tree=20
num_leaves=16
num_cat=2
split_feature=6 8 0 18 0 8 0 2 10 15 2 0 18 13 7
split_gain=1.09562e-05 3.8491e-05 3.13861e-05 2.78091e-05 5.65742e-05 7.64801e-05 4.71553e-05 5.21913e-05 4.27856e-05 3.76526e-05 2.63006e-05 2.56362e-05 2.92153e-05 2.21036e-05 2.06754e-05
threshold=-0.001708591304360074 -0.0076558374883459726 245.50000000000003 0 719.50000000000011 -0.0047787782490682487 372.50000000000006 -0.0039068614842231999 -0.0053539442259319938 61.938932462098258 -0.0039068614842231999 206.50000000000003 1 29.758614757522299 -0.0072104384624999676
decision_type=8 8 2 1 2 10 2 10 8 2 10 2 1 2 8
left_child=2 -2 11 4 6 -6 7 8 13 -9 -8 -1 -13 -4 -5
right_child=1 -3 3 14 5 -7 10 9 -10 -11 -12 12 -14 -15 -16
leaf_value=-2.660838853407606e-06 -2.7388106458462203e-05 -1.6754728061793549e-07 -2.032410290410417e-05 8.6662755267355074e-06 -5.1212751580725407e-05 -4.3749301232096249e-06 1.4799047386589077e-05 6.9619023471109839e-07 -2.5275872863886009e-06 -2.4962572069992261e-05 9.949502110325624e-07 -3.4457330320216118e-05 -4.2800244108516856e-06 -4.9182744942047736e-05 1.9478359703832833e-06
leaf_weight=4057 520 514961 521 4921 513 1088 1459 4556 655 654 25563 612 686 541 66209
leaf_count=4057 520 514961 521 4921 513 1088 1459 4556 655 654 25563 612 686 541 66209
internal_value=0 -1.95006e-07 8.9608e-07 1.27108e-06 -1.01272e-06 -1.93829e-05 -1.46698e-07 -7.50772e-06 -2.2628e-05 -2.5247e-06 1.74028e-06 -6.57449e-06 -1.88069e-05 -3.50252e-05 2.4123e-06
internal_weight=0 515481 112035 106680 35550 1601 33949 6927 1717 5210 27022 5355 1298 1062 71130
internal_count=627516 515481 112035 106680 35550 1601 33949 6927 1717 5210 27022 5355 1298 1062 71130
cat_boundaries=0 1 2
cat_threshold=194 1154
is_linear=0
shrinkage=0.1


Tree=21
num_leaves=16
num_cat=3
split_feature=12 17 13 4 18 2 17 13 18 18 5 4 17 13 6
split_gain=1.05453e-05 3.48288e-05 1.56381e-05 3.57079e-05 4.49353e-05 2.74756e-05 2.76475e-05 4.6934e-05 5.99191e-05 5.16859e-05 3.55204e-05 2.47723e-05 2.31821e-05 5.23079e-05 7.59771e-05
threshold=-145.68506876405098 0.41542543904176726 28.343267573537194 0.0029215817884371558 0 0.0029394028473705984 0.26432279666373992 21.215080458568185 1 2 -0.0032839058292581376 -0.0034106899608103976 0.34943057102015079 75.45000402884061 0.0068578809390509319
decision_type=2 2 2 8 1 8 2 2 1 1 8 10 2 2 8
left_child=1 -1 3 5 -5 6 -2 9 11 -8 -11 -9 -4 14 -14
right_child=2 -3 12 4 -6 -7 7 8 -10 10 -12 -13 13 -15 -16
leaf_value=1.6661253966741546e-06 -7.9767107272717365e-07 -2.0010472136609099e-05 -5.9036731145116449e-08 2.0097692604612942e-06 -2.7927491691703282e-05 1.7572022933580311e-05 -1.7786547455384775e-05 -4.6673229108547379e-05 8.9171247951426861e-06 2.547928258967483e-05 -5.1378559391220328e-06 -2.051365701962314e-05 2.3478498018568106e-06 -1.1146978737370483e-05 2.0792927726423949e-05
leaf_weight=51788 59038 752 492025 908 1118 774 935 542 557 859 678 1090 11628 2060 2764
leaf_count=51788 59038 752 492025 908 1118 774 935 542 557 859 678 1090 11628 2060 2764
internal_value=0 1.35587e-06 -1.24167e-07 -1.56627e-06 -1.46383e-05 -1.15549e-06 -1.38305e-06 -8.79764e-06 -1.94613e-05 6.45206e-07 1.18961e-05 -2.90236e-05 6.44319e-08 3.75697e-06 5.89025e-06
internal_weight=0 52540 574976 66499 2026 64473 63699 4661 2189 2472 1537 1632 508477 16452 14392
internal_count=627516 52540 574976 66499 2026 64473 63699 4661 2189 2472 1537 1632 508477 16452 14392
cat_boundaries=0 1 2 3
cat_threshold=387 1411 216
is_linear=0
shrinkage=0.1


Tree=22
num_leaves=16
num_cat=2
split_feature=7 1 11 17 3 18 18 3 6 16 15 10 16 10 14
split_gain=1.04747e-05 2.22033e-05 6.6181e-05 0.00011868 4.59147e-05 3.78152e-05 1.62244e-05 2.65874e-05 3.75173e-05 2.3921e-05 6.22552e-05 2.59473e-05 2.00201e-05 7.90704e-05 8.14139e-05
threshold=0.0027163939501076988 0.0028251438083999329 0.75000000000017886 0.34943057102015079 0.0022159248380655421 0 1 0.00019510107258180478 0.0051290208613227204 50.938967136143411 43.524735450944753 0.00058353270722899541 77.777777777779093 0.0053898359470478949 92.283147335510805
decision_type=10 2 2 2 8 1 1 10 10 2 2 10 2 10 2
left_child=1 -1 4 5 -3 -4 7 8 -2 11 -11 -9 13 -8 -15
right_child=6 2 3 -5 -6 -7 12 9 -10 10 -12 -13 -14 14 -16
leaf_value=9.1709503832858714e-08 3.3123384469203885e-06 8.1946715139425723e-06 1.6128091028284959e-05 5.3524247529666602e-05 -3.2122614556978964e-05 -1.261870015041771e-05 -2.4840073695554747e-06 -2.2171741161661542e-06 2.5857771909950577e-05 -3.3767586150989315e-05 -7.2934352617268468e-07 2.304812512677583e-05 -1.0500779577480788e-06 -4.9122153613758796e-06 -4.8970553970630118e-05
leaf_weight=555354 4062 559 1076 656 571 782 9801 785 902 589 18013 843 31842 878 803
leaf_count=555354 4062 559 1076 656 571 782 9801 785 902 589 18013 843 31842 878 803
internal_value=0 1.42761e-07 7.92311e-06 1.69582e-05 -1.2178e-05 4.04795e-06 -1.16725e-06 8.50688e-07 7.40903e-06 -7.58165e-07 -1.77544e-06 1.08655e-05 -2.34039e-06 -5.92075e-06 -2.59585e-05
internal_weight=0 558998 3644 2514 1130 1858 68518 25194 4964 20230 18602 1628 43324 11482 1681
internal_count=627516 558998 3644 2514 1130 1858 68518 25194 4964 20230 18602 1628 43324 11482 1681
cat_boundaries=0 1 2
cat_threshold=1419 194
is_linear=0
shrinkage=0.1


Tree=23
num_leaves=16
num_cat=1
split_feature=1 6 18 0 0 10 16 10 5 5 9 16 2 14 13
split_gain=9.7183e-06 4.66474e-05 5.52214e-05 5.19748e-05 5.16087e-05 5.03989e-05 4.17281e-05 3.48695e-05 4.36294e-05 4.29487e-05 3.66075e-05 4.80198e-05 3.34055e-05 2.80276e-05 2.72152e-05
threshold=-0.001637651853119426 0.0068578809390509319 0 372.50000000000006 712.50000000000011 -0.0053539442259319938 74.544017762827238 0.0015770765865289473 -0.00064200954846843617 -1.0000000180025095e-35 -0.0022939444117948122 23.896559626610035 -0.0039068614842231999 61.809973294593114 51.537264568456159
decision_type=2 10 1 2 2 8 2 8 10 10 10 2 8 2 2
left_child=1 2 3 7 5 -5 13 8 10 -9 11 12 -1 -4 -7
right_child=-2 -3 6 4 -6 14 -8 9 -10 -11 -12 -13 -14 -15 -16
leaf_value=-2.3287652443009628e-05 8.37158576277013e-08 2.3058732676375759e-05 4.6300683899484757e-06 1.2283972288727412e-05 -2.7462236353001494e-05 1.5466003063026739e-06 -1.1096227863335639e-05 -1.4690449137272558e-05 -4.1057858884848913e-05 1.8985506060885578e-05 6.4972133155790287e-06 -3.6856092658319569e-05 3.8531358595239502e-06 2.8297012793475742e-05 -1.0583714408049959e-05
leaf_weight=886 600196 732 7948 2477 739 3911 1688 934 712 637 703 981 929 534 3509
leaf_count=886 600196 732 7948 2477 739 3911 1688 934 712 637 703 981 929 534 3509
internal_value=0 -1.84479e-06 -2.53041e-06 -6.11508e-06 -1.97035e-06 -6.68991e-08 3.25933e-06 -1.37499e-05 -1.84932e-05 -1.03572e-06 -1.39016e-05 -1.90304e-05 -9.39576e-06 6.12006e-06 -4.18996e-06
internal_weight=0 27320 26588 16418 10636 9897 10170 5782 4211 1571 3499 2796 1815 8482 7420
internal_count=627516 27320 26588 16418 10636 9897 10170 5782 4211 1571 3499 2796 1815 8482 7420
cat_boundaries=0 1
cat_threshold=1378
is_linear=0
shrinkage=0.1


Tree=24
num_leaves=16
num_cat=0
split_feature=11 2 17 3 13 10 16 14 17 5 14 15 1 2 16
split_gain=9.9921e-06 2.20743e-05 2.46672e-05 2.01801e-05 3.27242e-05 3.9401e-05 3.05533e-05 2.46016e-05 4.94633e-05 2.31703e-05 1.84138e-05 1.83011e-05 1.45087e-05 1.43299e-05 2.80374e-05
threshold=0.061519538272188166 -0.0023822481502822064 0.31253527580973245 0.0049365115212359765 35.607051476330888 0.0040609923931742573 90.338164251207374 44.322904323546389 0.26432279666373992 0.0062743278306747205 10.915011518651681 86.525250293192201 0.00010695759162104858 0.0010741297999169455 14.987836625261361
decision_type=2 8 2 8 2 8 2 2 2 10 2 2 2 8 2
left_child=3 2 10 9 -5 -6 7 -7 -9 12 -2 -11 -1 -3 -15
right_child=1 13 -4 4 5 6 -8 8 -10 11 -12 -13 -14 14 -16
leaf_value=-3.3151420740308164e-07 -1.0173395825749652e-05 8.6010266746424041e-07 2.2607848966666412e-05 -1.0975657062055673e-05 3.4872892801403053e-05 -2.0894415118138993e-06 -1.1613404654900288e-05 5.1395308855300112e-06 4.3652209332557746e-05 -1.5290080202350103e-06 1.170212331265813e-05 -2.0570762620624065e-05 -1.4995430151241544e-05 -9.601357238740163e-06 -3.5591085637747033e-07
leaf_weight=359091 685 183139 941 868 566 799 734 872 540 1004 878 1015 676 3436 72272
leaf_count=359091 685 183139 941 868 566 799 734 872 540 1004 878 1015 676 3436 72272
internal_value=0 4.72106e-07 9.81616e-06 -3.37345e-07 6.41045e-06 1.07087e-05 6.06457e-06 1.19332e-05 1.98682e-05 -4.19019e-07 2.11496e-06 -1.11018e-05 -3.59068e-07 3.81715e-07 -7.75515e-07
internal_weight=0 261351 2504 366165 4379 3511 2945 2211 1412 361786 1563 2019 359767 258847 75708
internal_count=627516 261351 2504 366165 4379 3511 2945 2211 1412 361786 1563 2019 359767 258847 75708
is_linear=0
shrinkage=0.1


Tree=25
num_leaves=16
num_cat=0
split_feature=0 3 1 14 0 0 5 0 1 9 11 0 1 0 0
split_gain=9.30069e-06 1.9854e-05 6.17382e-05 4.75585e-05 3.56649e-05 5.15858e-05 0.000101877 5.8473e-05 6.40269e-05 4.29118e-05 4.86507e-05 2.21504e-05 2.04336e-05 3.30315e-05 1.96847e-05
threshold=544.50000000000011 0.002967898243488754 0.0028251438083999329 55.441655769772993 617.50000000000011 697.50000000000011 0.0062743278306747205 764.50000000000011 0.0014486328183692667 0.0025381451140429338 0.69999999999987528 673.50000000000011 0.001268655401870489 665.50000000000011 609.50000000000011
decision_type=2 10 2 2 2 2 10 2 2 10 2 2 2 2 2
left_child=-1 2 12 -3 9 6 11 8 -7 -5 -11 -6 -2 14 -14
right_child=1 3 -4 4 5 7 -8 -9 -10 10 -12 -13 13 -15 -16
leaf_value=-3.5134259997670562e-07 3.38148022543549e-07 -3.1821807174679098e-05 3.2209655860575237e-05 8.6590033081802928e-06 -5.2586578826426732e-06 -4.2562995943063433e-06 4.5934728348217964e-05 1.655854861964932e-05 -4.6966362509270964e-05 -4.0372101315684729e-05 -3.2563098379920078e-06 1.6252600099029398e-05 4.5329799274293586e-06 -1.9352418266819412e-06 1.728917213435305e-05
leaf_weight=342546 268240 592 615 610 1664 924 641 597 566 757 662 672 2492 3587 2351
leaf_count=342546 268240 592 615 610 1664 924 641 597 566 757 662 672 2492 3587 2351
internal_value=0 4.21891e-07 5.60849e-07 -4.59189e-06 -2.31922e-06 2.16927e-06 1.06199e-05 -9.88516e-06 -2.04804e-05 -1.35216e-05 -2.30566e-05 9.29512e-07 4.90498e-07 5.33823e-06 1.07254e-05
internal_weight=0 284970 277285 7685 7093 5064 2977 2087 1490 2029 1419 2336 276670 8430 4843
internal_count=627516 284970 277285 7685 7093 5064 2977 2087 1490 2029 1419 2336 276670 8430 4843
is_linear=0
shrinkage=0.1


Tree=26
num_leaves=16
num_cat=1
split_feature=6 0 8 16 18 3 2 0 11 2 13 10 8 2 2
split_gain=9.16111e-06 2.90417e-05 2.22555e-05 3.7701e-05 1.97802e-05 2.89517e-05 2.7813e-05 2.41699e-05 3.24624e-05 4.06643e-05 2.99056e-05 2.73743e-05 6.29269e-05 4.41482e-05 2.9399e-05
threshold=-0.0011803117906937219 245.50000000000003 -0.0057752326469920892 22.290121810259105 0 0.002967898243488754 0.0029394028473705984 372.50000000000006 -0.66292134831459948 0.0015917786250683188 21.215080458568185 -0.0084714168314424226 -0.0041191635794320383 -0.0039068614842231999 -0.00036019626326022619
decision_type=8 2 8 2 1 10 10 2 2 10 2 10 8 10 10
left_child=1 -1 3 -2 5 6 7 8 10 11 -3 13 14 -10 -13
right_child=2 4 -4 -5 -6 -7 -8 -9 9 -11 -12 12 -14 -15 -16
leaf_value=-5.1225504508525339e-06 -3.3516896248659532e-05 7.1387988173906105e-06 -1.8524345777188149e-07 4.780687694437802e-06 2.132812340543184e-06 -1.7562657319606608e-05 2.038469384039255e-05 6.9618543056130532e-07 -3.3845739849543167e-05 -2.6459155149037252e-05 -1.6708266091369611e-05 1.0341328837330236e-05 -3.1630567030329572e-06 -8.6083992608099686e-08 3.6013327331691072e-05
leaf_weight=8185 529 644 473453 500 74670 948 665 56644 531 579 2867 1394 3819 1432 656
leaf_count=8185 529 644 473453 500 74670 948 665 56644 531 579 2867 1394 3819 1432 656
internal_value=0 6.72608e-07 -2.17172e-07 -1.49078e-05 1.00008e-06 -2.05423e-07 3.2225e-08 -1.65167e-07 -4.25764e-06 -8.86264e-07 -1.23342e-05 1.00427e-06 4.42338e-06 -9.21822e-06 1.85564e-05
internal_weight=0 153034 474482 1029 144849 70179 69231 68566 11922 8411 3511 7832 5869 1963 2050
internal_count=627516 153034 474482 1029 144849 70179 69231 68566 11922 8411 3511 7832 5869 1963 2050
cat_boundaries=0 1
cat_threshold=1222
is_linear=0
shrinkage=0.1


Tree=27
num_leaves=16
num_cat=3
split_feature=13 7 0 1 18 12 12 15 0 3 17 18 1 3 18
split_gain=8.66201e-06 4.45956e-05 0.000101958 5.38908e-05 7.23342e-05 4.86708e-05 4.58889e-05 3.9552e-05 3.87517e-05 2.85643e-05 9.39831e-05 6.38458e-05 2.28744e-05 7.33417e-05 4.86336e-05
threshold=54.070501727332037 0.0055233633639687483 617.50000000000011 0.0028251438083999329 0 99.450506423437886 75.563630250668226 23.066188799611009 396.50000000000006 -0.0047690330573888487 0.31253527580973245 1 -0.0019837942530409043 0.0015918640284993126 2
decision_type=2 10 2 2 1 2 2 2 2 8 2 1 2 10 1
left_child=1 3 5 -1 7 6 -3 -5 -6 10 -2 -12 13 14 -11
right_child=9 2 -4 4 8 -7 -8 -9 -10 12 11 -13 -14 -15 -16
leaf_value=-3.0661418746237084e-07 -6.4594064972931536e-06 -3.7755414898279829e-06 -4.7119805908416127e-05 1.0987559712393041e-05 -1.3821531510056586e-05 -1.3868556637821269e-05 3.0363555681141259e-05 4.4593820548077915e-05 1.9364068280389782e-05 -1.564146330390567e-06 2.5215383098160818e-06 4.7985725001655996e-05 4.5901548518457512e-07 2.3209506530804985e-05 -2.2095307121635975e-05
leaf_weight=352829 1518 1085 641 631 980 2216 618 787 549 2599 521 780 258949 737 2076
leaf_count=352829 1518 1085 641 631 980 2216 618 787 549 2599 521 780 258949 737 2076
internal_value=0 -3.2008e-07 -1.01466e-05 -1.94134e-07 1.32726e-05 -4.09913e-06 8.61316e-06 2.94317e-05 -1.89359e-06 4.31311e-07 1.04442e-05 3.01673e-05 3.24539e-07 -6.1098e-06 -1.07319e-05
internal_weight=0 360336 4560 355776 2947 3919 1703 1418 1529 267180 2819 1301 264361 5412 4675
internal_count=627516 360336 4560 355776 2947 3919 1703 1418 1529 267180 2819 1301 264361 5412 4675
cat_boundaries=0 1 2 3
cat_threshold=771 2078 1206
is_linear=0
shrinkage=0.1


Tree=28
num_leaves=16
num_cat=0
split_feature=2 9 16 0 0 0 12 5 12 0 6 6 6 13 5
split_gain=1.00174e-05 3.42433e-05 0.000144096 5.45251e-05 3.41482e-05 5.21332e-05 2.8816e-05 2.6891e-05 4.26632e-05 2.87327e-05 2.38768e-05 2.35497e-05 3.42632e-05 2.02676e-05 1.74541e-05
threshold=-0.0029086275438757743 -0.00808320188427669 25.528631613553799 487.50000000000006 625.50000000000011 601.50000000000011 -183.9290203599825 -0.00064200954846843617 -85.309451434059355 681.50000000000011 0.0031442771580849631 0.0014628000774664642 1.0000000180025095e-35 28.343267573537194 -0.0022905655161621348
decision_type=10 8 2 2 2 2 2 10 2 2 10 10 10 2 10
left_child=1 2 3 6 5 10 -1 8 9 -6 11 12 14 -8 -3
right_child=-2 4 -4 -5 7 -7 13 -9 -10 -11 -12 -13 -14 -15 -16
leaf_value=-2.0440307192932378e-05 -7.5228202520316122e-08 3.6846694321623598e-06 -5.0537560901800809e-05 2.9586179333491109e-05 2.8545980084122294e-05 -2.9398222029725516e-05 1.122486045210884e-05 -6.2218273570575562e-06 4.1447754097025612e-05 -3.0247040075092272e-07 2.0341077616301628e-05 -1.7914178852811018e-05 2.2066342815529014e-05 -8.9642115551566691e-06 -5.7915153080406292e-06
leaf_weight=766 606086 9665 620 588 546 505 1130 502 625 939 777 552 894 888 2433
leaf_count=766 606086 9665 620 588 546 505 1130 502 625 939 777 552 894 888 2433
internal_value=0 2.12472e-06 -6.22996e-06 1.91675e-06 4.03732e-06 2.1799e-06 -3.92723e-06 1.45802e-05 1.95294e-05 1.03044e-05 3.29343e-06 2.31544e-06 3.17494e-06 2.34087e-06 1.77894e-06
internal_weight=0 21430 3992 3372 17438 14826 2784 2612 2110 1485 14321 13544 12992 2018 12098
internal_count=627516 21430 3992 3372 17438 14826 2784 2612 2110 1485 14321 13544 12992 2018 12098
is_linear=0
shrinkage=0.1


Tree=29
num_leaves=16
num_cat=1
split_feature=10 4 13 15 13 15 1 18 17 12 12 13 0 16 16
split_gain=8.27031e-06 3.77141e-05 5.09694e-05 3.4391e-05 3.05763e-05 3.12856e-05 3.58142e-05 2.13464e-05 1.76159e-05 4.10378e-05 3.15835e-05 1.94206e-05 2.58144e-05 2.88937e-05 4.46817e-05
threshold=-0.0040572393495186812 0.0025622833130179994 34.564135317915408 61.938932462098258 69.531710769189445 52.740540998961812 0.0028251438083999329 0 0.31253527580973245 -183.9290203599825 -155.56703577476631 21.215080458568185 396.50000000000006 13.675213675213998 23.896559626610035
decision_type=8 10 2 2 2 2 2 1 2 2 2 2 2 2 2
left_child=1 3 -3 4 5 6 7 -1 -9 -10 -11 -12 13 -13 -15
right_child=-2 2 -4 -5 -6 -7 -8 8 9 10 11 12 -14 14 -16
leaf_value=4.0204315429879665e-06 -1.077422080960526e-07 -7.7856568049003853e-06 3.0254178721685355e-05 -2.0726277007084647e-05 -1.6869424409238033e-05 2.1820929687237369e-05 2.5878770854130079e-05 4.9276300025802329e-07 -3.125682579429817e-05 1.7499278880020964e-05 6.7169223965213966e-06 -2.5314130450378159e-05 3.8130620227445628e-06 1.1995337196811549e-05 -2.3064240626670697e-05
leaf_weight=14159 576796 548 986 735 932 740 576 25972 561 669 1002 1256 1126 767 691
leaf_count=14159 576796 548 986 735 932 740 576 25972 561 669 1002 1256 1126 767 691
internal_value=0 1.22416e-06 1.6665e-05 7.42597e-07 1.06828e-06 1.42009e-06 1.09737e-06 7.8843e-07 -6.40721e-07 -5.49007e-06 -2.86711e-06 -5.68105e-06 -8.91615e-06 -1.41973e-05 -4.62069e-06
internal_weight=0 50720 1534 49186 48451 47519 46779 46203 32044 6072 5511 4842 3840 2714 1458
internal_count=627516 50720 1534 49186 48451 47519 46779 46203 32044 6072 5511 4842 3840 2714 1458
cat_boundaries=0 1
cat_threshold=3128
is_linear=0
shrinkage=0.1


Tree=30
num_leaves=16
num_cat=2
split_feature=2 0 0 1 0 2 18 11 13 17 0 7 18 7 16
split_gain=8.61205e-06 2.16026e-05 6.78258e-05 5.37712e-05 4.66611e-05 3.21691e-05 2.28347e-05 4.01531e-05 5.56212e-05 5.80172e-05 3.24207e-05 2.27439e-05 1.79755e-05 1.62814e-05 1.81989e-05
threshold=-0.0029086275438757743 625.50000000000011 712.50000000000011 -0.00098112907681213702 601.50000000000011 -0.0039068614842231999 0 -0.48571428571421466 39.549387558349146 0.28578069667321915 339.50000000000006 -0.0033896646146626681 1 0.0027163939501076988 2.6377118644062629
decision_type=10 2 2 2 2 10 1 2 2 2 2 8 1 10 2
left_child=1 4 5 -4 6 -3 7 10 -9 -10 11 -1 -7 14 -8
right_child=-2 2 3 -5 -6 12 13 8 9 -11 -12 -13 -14 -15 -16
leaf_value=-3.9353148364631779e-05 -6.9733875176287042e-08 4.0441886836309529e-05 -3.0259945038642708e-05 1.1235269383658787e-05 -2.69994571394587e-05 -1.3682979135220732e-06 -1.1050184439227452e-05 -1.1125719692615229e-05 1.0996726604209679e-06 4.2912952988325493e-05 -4.0195825613972366e-06 -9.6314856695644353e-06 2.3133264026934014e-05 -1.0724413908854889e-05 6.2083855226404437e-06
leaf_weight=521 606086 622 588 666 590 537 650 961 718 617 2908 509 677 685 10181
leaf_count=521 606086 622 588 666 590 537 650 961 718 617 2908 509 677 685 10181
internal_value=0 1.97007e-06 9.70511e-06 -8.22182e-06 6.66834e-07 2.19493e-05 1.58645e-06 -3.28625e-06 7.21909e-06 2.04246e-05 -9.41959e-06 -2.46655e-05 1.24745e-05 4.22338e-06 5.17265e-06
internal_weight=0 21430 3090 1254 18340 1836 17750 6234 2296 1335 3938 1030 1214 11516 10831
internal_count=627516 21430 3090 1254 18340 1836 17750 6234 2296 1335 3938 1030 1214 11516 10831
cat_boundaries=0 1 2
cat_threshold=1546 480
is_linear=0
shrinkage=0.1


Tree=31
num_leaves=16
num_cat=0
split_feature=13 17 5 2 16 2 10 1 0 2 11 4 8 0 0
split_gain=8.11087e-06 3.69533e-05 4.63731e-05 5.22067e-05 5.47016e-05 4.54542e-05 3.43006e-05 3.27081e-05 2.75448e-05 1.99929e-05 2.2206e-05 1.50666e-05 1.50314e-05 3.23887e-05 2.58082e-05
threshold=28.343267573537194 0.28578069667321915 -0.0005024297611335159 0.00082753814939573467 8.5504972584063896 -0.0020314319471285143 0.0022342665284390555 -0.0019837942530409043 364.50000000000006 -0.0029086275438757743 -0.38518518518510081 -0.0054704460898137844 -0.0041191635794320383 276.50000000000006 719.50000000000011
decision_type=2 2 8 10 2 10 8 2 2 8 2 10 8 2 2
left_child=1 9 3 4 11 7 8 -6 -4 10 -1 -3 13 -2 -15
right_child=12 2 6 -5 5 -7 -8 -9 -10 -11 -12 -13 -14 14 -16
leaf_value=1.2767761033866176e-05 -1.5379014629664653e-05 -3.2063142619398166e-06 -2.9427994647967439e-05 2.453647390502986e-05 -2.3932279316040705e-05 -3.925542828012577e-05 -4.4804012618098129e-05 1.1722982116043568e-05 2.3427222110237006e-06 -6.6816445137708183e-07 -7.3382518027751334e-06 1.5501260689480913e-05 2.4203169862491721e-08 3.9347973579872004e-06 -1.1963364920532681e-05
leaf_weight=2201 972 1007 535 587 530 729 502 500 557 74129 732 752 519468 23247 1068
leaf_count=2201 972 1007 535 587 530 729 502 500 557 74129 732 752 519468 23247 1068
internal_value=0 -9.2241e-07 -8.69265e-06 -3.07155e-06 -7.67812e-06 -2.01477e-05 -2.31686e-05 -6.6239e-06 -1.32226e-05 -3.47773e-07 7.74983e-06 4.79147e-06 1.40099e-07 2.52094e-06 3.23649e-06
internal_weight=0 82761 5699 4105 3518 1759 1594 1030 1092 77062 2933 1759 544755 25287 24315
internal_count=627516 82761 5699 4105 3518 1759 1594 1030 1092 77062 2933 1759 544755 25287 24315
is_linear=0
shrinkage=0.1


Tree=32
num_leaves=16
num_cat=0
split_feature=11 9 6 1 1 12 8 17 0 0 10 7 1 9 8
split_gain=7.52106e-06 1.85654e-05 5.16559e-05 6.00804e-05 2.65165e-05 2.83326e-05 2.45495e-05 1.60781e-05 5.74991e-05 9.21094e-05 3.48159e-05 2.7835e-05 3.36619e-05 3.92019e-05 4.3939e-05
threshold=0.061519538272188166 0.0021262491727187531 0.0042134810660926511 -0.00088645309740775769 6.738771529601896e-05 1.0000000180025095e-35 0.0012912018061971289 0.31253527580973245 719.50000000000011 609.50000000000011 0.0026645327523913136 -0.00051085213506429905 -0.00031750636699390261 -0.0010749547913154187 -0.0041191635794320383
decision_type=2 10 10 2 2 2 10 2 2 2 10 10 2 8 10
left_child=1 2 7 -4 5 -3 -5 -1 9 10 11 12 13 14 -9
right_child=-2 4 3 6 -6 -7 -8 8 -10 -11 -12 -13 -14 -15 -16
leaf_value=1.5174273746567867e-08 4.0975399254777817e-07 -1.9146029351829313e-05 4.4025032486090457e-05 -9.7827144613689635e-06 -2.44752691166854e-05 -1.5612887356288653e-06 1.8764363679413995e-05 1.8881632863125259e-06 -2.8478065417612236e-05 3.9304559500816217e-05 2.1403479498349929e-05 -1.7714024469210573e-05 -1.6776047674077614e-05 2.0342707875138039e-05 -1.9398814247608926e-05
leaf_weight=308211 261351 936 562 605 528 43423 600 4360 873 519 515 1515 1433 838 1247
leaf_count=308211 261351 936 562 605 528 43423 600 4360 873 519 515 1515 1433 838 1247
internal_value=0 -2.92512e-07 -2.63573e-08 1.70244e-05 -2.19751e-06 -1.93234e-06 4.4316e-06 -1.20654e-07 -3.8254e-06 -1.76136e-06 -3.91247e-06 -5.3005e-06 -2.91328e-06 1.69008e-07 -2.84607e-06
internal_weight=0 366165 321278 1767 44887 44359 1205 319511 11300 10427 9908 9393 7878 6445 5607
internal_count=627516 366165 321278 1767 44887 44359 1205 319511 11300 10427 9908 9393 7878 6445 5607
is_linear=0
shrinkage=0.1


Tree=33
num_leaves=16
num_cat=1
split_feature=7 2 1 2 2 0 3 8 13 11 18 15 1 0 17
split_gain=7.32396e-06 2.16081e-05 2.43909e-05 2.01093e-05 1.88051e-05 7.53023e-05 4.38921e-05 4.53493e-05 7.48636e-05 4.91994e-05 2.99407e-05 2.98571e-05 2.95868e-05 3.59908e-05 2.65416e-05
threshold=0.0027163939501076988 -0.0039068614842231999 -0.0026772996728818828 -0.0029086275438757743 0.0040074772020415326 330.50000000000006 0.002967898243488754 0.0041503417449052513 46.57170167613711 0.7272727272727123 0 27.788621924216869 0.0028251438083999329 364.50000000000006 0.31253527580973245
decision_type=10 10 2 10 10 2 10 10 2 2 1 2 2 2 2
left_child=-1 -2 -3 -4 11 -6 -7 -8 -9 14 -11 -5 -13 -14 -10
right_child=1 2 3 4 5 6 7 8 9 10 -12 12 13 -15 -16
leaf_value=1.1958163628164213e-07 -1.8996323638331367e-05 1.6394529971608356e-05 1.8191877442675466e-05 -1.8407929583014488e-05 -4.1356776013604499e-05 2.458887628435437e-05 1.3786914207056579e-05 -4.1301795266316223e-05 -2.9364988220039941e-06 -8.7955266387914034e-06 1.6770620493764948e-05 -7.2291141620759063e-07 -4.5660513876393398e-06 2.5085159665155708e-05 -2.7733369503614199e-05
leaf_weight=558998 659 815 541 929 560 526 973 653 781 755 1140 57537 702 982 965
leaf_count=558998 659 815 541 929 560 526 973 653 781 755 1140 57537 702 982 965
internal_value=0 -9.75831e-07 -8.00829e-07 -1.00986e-06 -1.16606e-06 -6.3403e-06 -2.95531e-06 -5.70607e-06 -1.01231e-05 -4.5313e-06 6.62672e-06 -6.19565e-07 -3.40519e-07 1.27246e-05 -1.66415e-05
internal_weight=0 68518 67859 67044 66503 6353 5793 5267 4294 3641 1895 60150 59221 1684 1746
internal_count=627516 68518 67859 67044 66503 6353 5793 5267 4294 3641 1895 60150 59221 1684 1746
cat_boundaries=0 1
cat_threshold=2277
is_linear=0
shrinkage=0.1


Tree=34
num_leaves=16
num_cat=1
split_feature=13 7 0 12 2 2 5 18 10 17 7 0 0 8 4
split_gain=7.30194e-06 3.10934e-05 8.2838e-05 3.8267e-05 3.75998e-05 2.79509e-05 5.34726e-05 3.91149e-05 3.11098e-05 1.58866e-05 6.82633e-05 7.91125e-05 4.98636e-05 4.681e-05 6.44245e-05
threshold=54.070501727332037 0.0055233633639687483 617.50000000000011 99.450506423437886 0.00082753814939573467 0.0040074772020415326 -0.0012971029914977115 0 9.954706309256435e-05 0.31253527580973245 0.0008130894809279533 719.50000000000011 479.50000000000006 -0.00016561089975203333 0.0034102972648065726
decision_type=2 10 2 2 10 10 10 1 10 2 10 2 2 10 10
left_child=1 5 3 4 -3 9 -7 8 -8 -1 11 12 -11 -12 -15
right_child=-2 2 -4 -5 -6 6 7 -9 -10 10 13 -13 -14 14 -16
leaf_value=-1.310722845610725e-07 3.9613862598702641e-07 -5.7781690539598072e-06 -4.1825483537129418e-05 -1.1710503049504133e-05 2.3991968767594236e-05 3.7200391708135718e-05 -2.9416504238825359e-06 -1.5708488350154189e-05 2.6264575751269314e-05 -6.7929208407553298e-06 3.7316145500008953e-05 -3.9608055569077406e-05 1.8522563623264434e-05 -6.3368973777158567e-06 3.3897748614397033e-05
leaf_weight=339040 267180 902 641 2216 801 567 697 748 765 9821 538 695 845 1521 539
leaf_count=339040 267180 902 641 2216 801 567 697 748 765 9821 538 695 845 1521 539
internal_value=0 -2.93745e-07 -8.49889e-06 -3.04792e-06 8.22411e-06 -1.88579e-07 9.8047e-06 2.77603e-06 1.22568e-05 -2.67195e-07 -3.57338e-06 -6.91746e-06 -4.78733e-06 1.10503e-05 4.19052e-06
internal_weight=0 360336 4560 3919 1703 355776 2777 2210 1462 352999 13959 11361 10666 2598 2060
internal_count=627516 360336 4560 3919 1703 355776 2777 2210 1462 352999 13959 11361 10666 2598 2060
cat_boundaries=0 1
cat_threshold=450
is_linear=0
shrinkage=0.1


Tree=35
num_leaves=16
num_cat=0
split_feature=12 1 17 1 3 12 8 6 0 10 15 17 15 6 3
split_gain=7.64121e-06 2.25213e-05 5.05089e-05 1.18343e-05 5.71272e-05 5.5347e-05 3.28031e-05 3.06814e-05 3.4584e-05 3.35625e-05 2.97363e-05 3.43492e-05 2.60849e-05 2.75668e-05 2.3205e-05
threshold=-145.68506876405098 0.0014486328183692667 0.41542543904176726 -0.001637651853119426 0.0049365115212359765 133.5285497235437 0.005889085828630237 0.0035979554984976185 372.50000000000006 -0.0029281567174422869 47.222222222215173 0.34943057102015079 67.138361095191058 -0.0027959536348228782 -0.0010852407261246475
decision_type=2 2 2 2 8 2 8 8 2 8 2 2 2 10 10
left_child=1 2 -1 4 5 6 7 8 9 -2 11 -10 -12 -14 -8
right_child=3 -3 -4 -5 -6 -7 14 -9 10 -11 12 -13 13 -15 -16
leaf_value=1.2802799318015102e-06 -1.6561983926397449e-05 1.9412619554656916e-05 -2.6074829593039397e-05 -1.8398161095892526e-08 2.9903332476562027e-05 -3.3449578984653127e-05 -3.8525802418102632e-06 1.8946640129321699e-05 3.9171503882220196e-06 -1.5097792523071736e-06 -1.1571612090716909e-05 2.8763364257731432e-05 2.2693905172649621e-05 -1.5253592415542102e-06 -2.8227238284475301e-05
leaf_weight=51189 2650 667 684 554527 531 592 765 726 3974 3359 2329 647 542 3536 798
leaf_count=51189 2650 667 684 554527 531 592 765 726 3974 3359 2329 647 542 3536 798
internal_value=0 1.15434e-06 9.19574e-07 -1.05519e-07 -2.46802e-06 -3.33102e-06 -2.40842e-06 -1.18632e-06 -2.04425e-06 -8.14788e-06 1.28154e-06 7.39594e-06 -3.12843e-06 1.69358e-06 -1.62972e-05
internal_weight=0 52540 51873 574976 20449 19918 19326 17763 17037 6009 11028 4621 6407 4078 1563
internal_count=627516 52540 51873 574976 20449 19918 19326 17763 17037 6009 11028 4621 6407 4078 1563
is_linear=0
shrinkage=0.1


Tree=36
num_leaves=16
num_cat=3
split_feature=2 9 16 18 15 4 10 6 18 18 8 4 6 15 11
split_gain=7.93929e-06 2.02634e-05 0.00011228 2.50215e-05 3.17813e-05 2.21883e-05 2.2632e-05 1.80395e-05 3.4105e-05 2.60012e-05 4.18808e-05 2.90005e-05 2.66577e-05 2.24436e-05 3.3843e-05
threshold=-0.0029086275438757743 -0.00808320188427669 25.528631613553799 0 20.138888888888058 -0.0054704460898137844 -0.0040572393495186812 -0.0050278207782814546 1 2 0.0021894794569793379 -0.0029419525726779301 0.0031442771580849631 50.918491109414148 -0.2128571428570579
decision_type=10 8 2 1 2 8 8 8 1 1 8 10 10 2 2
left_child=1 2 3 4 -1 6 -3 8 -7 10 -9 -12 13 -11 -15
right_child=-2 5 -4 -5 -6 7 -8 9 -10 12 11 -13 -14 14 -16
leaf_value=-8.2369974566370774e-06 -6.6914967868832148e-08 1.9330576577651427e-05 -4.3646644769450499e-05 1.7439208477830831e-05 1.9030057816603863e-05 -2.399391427814485e-05 2.8075807347171026e-06 3.2866233896659115e-06 3.0556808958209838e-06 1.2467792171474476e-05 -4.2286215303092344e-06 -3.2239667737098085e-05 2.9054316886079812e-05 -7.151432171521108e-06 1.4462542299798095e-05
leaf_weight=1982 606086 1590 620 845 545 742 1732 4241 1226 2600 873 641 525 2184 1084
leaf_count=1982 606086 1590 620 845 545 742 1732 4241 1226 2600 873 641 525 2184 1084
internal_value=0 1.89159e-06 -4.53526e-06 2.65604e-06 -2.347e-06 3.36286e-06 1.07159e-05 1.63242e-06 -7.24929e-06 3.07127e-06 -1.80722e-06 -1.6088e-05 7.45408e-06 5.53424e-06 1.79523e-08
internal_weight=0 21430 3992 3372 2527 17438 3322 14116 1968 12148 5755 1514 6393 5868 3268
internal_count=627516 21430 3992 3372 2527 17438 3322 14116 1968 12148 5755 1514 6393 5868 3268
cat_boundaries=0 1 2 3
cat_threshold=1458 2658 1417
is_linear=0
shrinkage=0.1


Tree=37
num_leaves=16
num_cat=3
split_feature=10 8 15 18 13 16 18 1 15 3 18 1 11 10 17
split_gain=6.85509e-06 3.85728e-05 3.28153e-05 3.23632e-05 3.17751e-05 4.43122e-05 3.90209e-05 2.73838e-05 2.89766e-05 2.41325e-05 1.91719e-05 1.49454e-05 2.85269e-05 2.55834e-05 1.89006e-05
threshold=-0.0040572393495186812 -1.0000000180025095e-35 61.938932462098258 0 69.531710769189445 37.745098039215335 1 0.0028251438083999329 45.353937587836192 0.0025284925002179164 2 0.001268655401870489 0.59259259259253738 -0.0064236214145921835 0.31253527580973245
decision_type=8 8 2 1 2 2 1 2 2 10 1 2 2 10 2
left_child=1 2 4 -3 5 7 -7 8 9 10 -1 14 -13 -14 -12
right_child=-2 3 -4 -5 -6 6 -8 -9 -10 -11 11 12 13 -15 -16
leaf_value=3.6418875340584297e-06 -9.8043872986213497e-08 3.7981211150740733e-05 -2.0918392759100127e-05 4.366890942810708e-06 -1.7422777020409949e-05 3.8100836162387063e-05 5.5382005977209683e-06 2.0574116998275065e-05 2.1257661018246087e-05 -1.5452364840943718e-05 -2.6773811876364964e-07 2.7052055483158586e-05 -1.715614797213321e-05 1.2000156513809148e-05 -7.134394051653964e-06
leaf_weight=13622 576796 500 693 677 919 583 1002 689 662 966 23810 546 524 707 4820
leaf_count=13622 576796 500 693 677 919 583 1002 689 662 966 23810 546 524 707 4820
internal_value=0 1.11456e-06 6.89501e-07 1.90063e-05 9.96036e-07 1.34919e-06 1.77908e-05 7.86895e-07 4.88291e-07 1.82716e-07 5.25751e-07 -8.71155e-07 8.02741e-06 -4.10813e-07 -1.42377e-06
internal_weight=0 50720 49543 1177 48850 47931 1585 46346 45657 44995 44029 30407 1777 1231 28630
internal_count=627516 50720 49543 1177 48850 47931 1585 46346 45657 44995 44029 30407 1777 1231 28630
cat_boundaries=0 1 2 3
cat_threshold=488 732 3128
is_linear=0
shrinkage=0.1


Tree=38
num_leaves=16
num_cat=0
split_feature=0 17 11 0 13 15 17 13 1 16 13 6 17 0 0
split_gain=7.03366e-06 6.70196e-05 7.41468e-05 0.000101662 0.000135728 0.000107786 6.66288e-05 6.63448e-05 3.21567e-05 3.10491e-05 4.30634e-05 2.42897e-05 1.08057e-05 0.000114307 2.01737e-05
threshold=609.50000000000011 0.26432279666373992 0.10000000000005735 719.50000000000011 53.223831959760723 75.242854111655532 0.31253527580973245 35.607051476330888 0.0028251438083999329 82.202915120121631 50.720065525936811 -0.0067054685676224959 0.19200645818849529 601.50000000000011 339.50000000000006
decision_type=2 2 2 2 2 2 2 2 2 2 2 10 2 2 2
left_child=12 8 3 5 7 6 -3 -5 11 10 -4 -2 -1 14 -14
right_child=1 2 9 4 -6 -7 -8 -9 -10 -11 -12 -13 13 -15 -16
leaf_value=3.9300311423994542e-08 1.9518437168736889e-05 1.2685252730734647e-05 3.2432855270848207e-05 -1.3976335451200149e-05 1.3556007585738924e-05 -1.7539062454099102e-05 5.9478939471618727e-05 -6.5159696867024525e-05 -2.1375907118689654e-05 4.1034619566308313e-05 2.1510187608118244e-06 1.7020599039942802e-07 -4.07878434930571e-06 -4.0535885291021383e-05 -1.992962308838973e-07
leaf_weight=329037 651 625 906 506 914 560 593 507 691 730 975 195893 16185 732 78011
leaf_count=329037 651 625 906 506 914 560 593 507 691 730 975 195893 16185 732 78011
internal_value=0 4.8329e-07 1.06232e-05 1.52756e-06 -1.43839e-05 1.87725e-05 3.54674e-05 -3.95933e-05 1.58582e-07 2.35299e-05 1.67365e-05 2.34292e-07 -2.31867e-07 -1.17178e-06 -8.6588e-07
internal_weight=0 203551 6316 3705 1927 1778 1218 1013 197235 2611 1881 196544 423965 94928 94196
internal_count=627516 203551 6316 3705 1927 1778 1218 1013 197235 2611 1881 196544 423965 94928 94196
is_linear=0
shrinkage=0.1


Tree=39
num_leaves=16
num_cat=2
split_feature=2 16 6 0 12 16 18 0 0 0 18 7 11 6 12
split_gain=7.15056e-06 2.54961e-05 4.53353e-05 3.35598e-05 3.59522e-05 9.62274e-05 4.99064e-05 2.23062e-05 2.12205e-05 3.18462e-05 2.83812e-05 6.23342e-05 4.19455e-05 2.76447e-05 4.96795e-05
threshold=-0.0029086275438757743 82.202915120121631 0.0031442771580849631 633.50000000000011 -80.386314181249546 32.393836257455355 0 585.50000000000011 372.50000000000006 388.50000000000006 1 -0.0033896646146626681 -0.66292134831459948 -0.004145219617462669 -210.46078395460864
decision_type=8 2 10 2 2 2 1 2 2 2 1 8 2 8 2
left_child=1 2 3 7 5 6 -5 8 10 -10 11 -1 -13 14 -12
right_child=-2 -3 -4 4 -6 -7 -8 -9 9 -11 13 12 -14 -15 -16
leaf_value=-2.0913619677706675e-05 -6.1339471470235137e-08 -1.4960880931963236e-05 2.9595088596713682e-05 -1.2647385141035022e-06 2.9316034994272185e-05 -3.1735395298825262e-05 3.6987412222179192e-05 -1.4762661983023836e-05 1.9399681824121155e-05 1.7899666634050146e-06 -1.7697553662858772e-05 -1.2806671444454677e-05 2.2282524732872846e-05 -5.0260818461567922e-06 1.7572588553173883e-05
leaf_weight=1983 607394 863 603 670 832 531 693 964 1263 5495 507 611 770 2456 1881
leaf_count=1983 607394 863 603 670 832 531 693 964 1263 5495 507 611 770 2456 1881
internal_value=0 1.85473e-06 2.60824e-06 1.73597e-06 1.19888e-05 4.37731e-06 1.84462e-05 -1.85348e-08 9.31174e-07 5.08104e-06 -2.48559e-06 -9.5255e-06 6.75791e-06 2.41807e-06 1.00843e-05
internal_weight=0 20122 19259 18656 2726 1894 1363 15930 14966 6758 8208 3364 1381 4844 2388
internal_count=627516 20122 19259 18656 2726 1894 1363 15930 14966 6758 8208 3364 1381 4844 2388
cat_boundaries=0 1 2
cat_threshold=1444 594
is_linear=0
shrinkage=0.1


Tree=40
num_leaves=16
num_cat=2
split_feature=13 7 12 18 2 3 17 17 2 18 4 13 5 14 7
split_gain=6.77631e-06 2.50446e-05 4.40828e-05 4.64674e-05 4.19713e-05 2.3214e-05 8.47486e-05 2.66838e-05 2.22821e-05 4.34802e-05 3.28533e-05 1.94488e-05 1.81051e-05 3.25076e-05 3.59469e-05
threshold=54.070501727332037 0.0055233633639687483 99.450506423437886 0 0.00075985582230853066 -0.0047690330573888487 0.41542543904176726 0.28578069667321915 0.0040074772020415326 1 0.0029215817884371558 48.246679693920299 -0.0046282315562043977 14.22268815405001 -0.003853318082022605
decision_type=2 10 2 1 10 8 2 2 10 1 10 2 8 2 8
left_child=1 8 4 -4 -3 6 7 -2 -1 10 -10 -5 13 -7 -15
right_child=5 2 3 11 -6 12 -8 -9 9 -11 -12 -13 -14 14 -16
leaf_value=-2.5862534964008982e-07 -9.3956078365261789e-06 -1.0338115462791321e-05 -3.4585091595761976e-05 -1.5114940582780891e-05 1.9029796455550055e-05 2.2213800432931248e-06 4.3512234827809182e-05 1.2518973778440717e-05 3.5557902603020481e-05 -6.1545677244034339e-06 6.8748582166646914e-06 6.5772641444759894e-06 3.6914130959324527e-07 -1.3938678943730417e-06 -3.5798244716494849e-05
leaf_weight=352999 1219 1016 888 1033 934 1450 579 1021 705 1151 921 689 261689 564 658
leaf_count=352999 1219 1016 888 1033 934 1450 579 1021 705 1151 921 689 261689 564 658
internal_value=0 -2.82817e-07 -7.64673e-06 -1.61454e-05 3.72836e-06 3.81773e-07 9.40838e-06 5.93137e-07 -1.88433e-07 8.73411e-06 1.91932e-05 -6.39838e-06 2.85518e-07 -7.90434e-06 -1.99193e-05
internal_weight=0 360336 4560 2610 1950 267180 2819 2240 355776 2777 1626 1722 264361 2672 1222
internal_count=627516 360336 4560 2610 1950 267180 2819 2240 355776 2777 1626 1722 264361 2672 1222
cat_boundaries=0 1 2
cat_threshold=1681 331
is_linear=0
shrinkage=0.1


Tree=41
num_leaves=16
num_cat=2
split_feature=6 0 0 10 7 18 9 4 18 9 16 9 11 3 2
split_gain=6.21404e-06 2.24091e-05 2.04489e-05 2.99873e-05 1.98911e-05 5.10122e-05 1.67441e-05 4.4412e-05 1.5928e-05 2.72357e-05 4.9304e-05 2.43721e-05 1.93327e-05 1.72803e-05 1.69486e-05
threshold=-0.0010752251904416752 245.50000000000003 206.50000000000003 -0.0029281567174422869 0.0017165160194014819 0 -0.0061225033057464842 0.00075170965300719328 1 0.0023234709951440728 66.070971678455592 0.0019479901097202437 0.2682926829268682 -0.0017507314379381909 -0.0039068614842231999
decision_type=8 2 2 8 10 1 8 10 1 10 2 8 2 10 10
left_child=1 2 -1 -4 8 -6 7 -2 11 14 -11 -3 13 -13 -10
right_child=6 4 3 -5 5 -7 -8 -9 9 10 -12 12 -14 -15 -16
leaf_value=-1.5931723301797737e-06 -2.5681669966729582e-05 -1.584379228429861e-07 -3.1752328306262984e-05 -5.5668987206196135e-06 3.6108060005822902e-05 -7.9061601762686401e-06 -1.5192214928455951e-07 8.8756377567768194e-06 8.8231783840639256e-06 3.539912493455429e-05 -4.4989694954686562e-06 6.0430617575252128e-06 -2.8164919052620001e-05 -1.545486334507764e-05 1.1024231423102662e-06
leaf_weight=6671 857 59493 601 1606 526 516 463126 657 2939 646 595 688 510 819 87266
leaf_count=6671 857 59493 601 1606 526 516 463126 657 2939 646 595 688 510 819 87266
internal_value=0 5.3157e-07 -4.35364e-06 -1.26976e-05 8.13203e-07 1.45828e-05 -1.86245e-07 -1.06855e-05 7.19399e-07 1.55623e-06 1.62699e-05 -5.24869e-07 -1.13357e-05 -5.64028e-06 1.35398e-06
internal_weight=0 162876 8878 2207 153998 1042 464640 1514 152956 91446 1241 61510 2017 1507 90205
internal_count=627516 162876 8878 2207 153998 1042 464640 1514 152956 91446 1241 61510 2017 1507 90205
cat_boundaries=0 1 2
cat_threshold=898 1218
is_linear=0
shrinkage=0.1


Tree=42
num_leaves=16
num_cat=1
split_feature=13 17 0 5 4 16 8 0 10 16 5 13 7 2 18
split_gain=6.31017e-06 2.40385e-05 4.08607e-05 4.82473e-05 4.10006e-05 5.54835e-05 2.6398e-05 2.42621e-05 1.8152e-05 1.77118e-05 1.53165e-05 2.67105e-05 1.90996e-05 2.18263e-05 1.73581e-05
threshold=28.343267573537194 0.28578069667321915 429.50000000000006 -0.0015635734396986509 -0.0016731388524694466 12.361744324108114 0.00030015775374647729 356.50000000000006 -0.0053539442259319938 5.8817777838272614 -0.0061821932251904235 15.560396392049975 -0.0072104384624999676 -0.00019960743892494245 0
decision_type=2 2 2 8 10 2 10 2 8 2 8 2 10 10 1
left_child=1 10 3 4 5 7 8 -3 -5 -9 11 -1 13 14 -12
right_child=-2 2 -4 6 -6 -7 -8 9 -10 -11 12 -13 -14 -15 -16
leaf_value=2.2870947326372003e-05 1.2370715967022398e-07 1.354102984364199e-05 1.3919103081958017e-05 -2.0066630811645436e-05 2.2445007467213005e-05 -2.9988369889924206e-05 -6.6165624229387274e-06 3.2115303029350148e-06 -4.5946832484949889e-05 -2.2513281606438929e-05 -3.9652511216785784e-06 -2.205297996548294e-06 -2.9196353151642453e-07 5.4106188018232494e-06 -2.6032926597878833e-05
leaf_weight=767 544755 855 797 520 514 827 547 562 566 511 642 952 73222 646 833
leaf_count=767 544755 855 797 520 514 827 547 562 566 511 642 952 73222 646 833
internal_value=0 -8.13465e-07 -7.0805e-06 -1.04948e-05 -3.48286e-06 -8.32022e-06 -2.45314e-05 9.74156e-07 -3.35548e-05 -9.03952e-06 -3.49996e-07 8.98346e-06 -5.62945e-07 -9.91789e-06 -1.66313e-05
internal_weight=0 82761 5699 4902 3269 2755 1633 1928 1086 1073 77062 1719 75343 2121 1475
internal_count=627516 82761 5699 4902 3269 2755 1633 1928 1086 1073 77062 1719 75343 2121 1475
cat_boundaries=0 1
cat_threshold=2339
is_linear=0
shrinkage=0.1


Tree=43
num_leaves=16
num_cat=1
split_feature=1 2 18 2 14 17 5 1 0 0 4 1 0 17 7
split_gain=5.70267e-06 2.23396e-05 5.43985e-05 1.41818e-05 2.85082e-05 3.87917e-05 7.05482e-05 0.000102232 4.29395e-05 8.05029e-05 4.812e-05 2.55696e-05 3.5837e-05 2.81191e-05 3.47727e-05
threshold=0.0003232488211862839 -0.0023822481502822064 0 0.0010741297999169455 52.352631920500045 0.24736246171410597 0.0062743278306747205 0.0020846646874141954 625.50000000000011 681.50000000000011 -1.0000000180025095e-35 0.0028251438083999329 339.50000000000006 0.31253527580973245 0.0038770251109029323
decision_type=2 8 1 8 2 2 10 2 2 2 10 2 2 2 8
left_child=-1 2 -2 -3 -5 6 -6 -8 10 -10 -7 13 -13 -12 -15
right_child=1 3 -4 4 5 8 7 -9 9 -11 11 12 -14 14 -16
leaf_value=-1.8211289763198071e-07 -4.9620874990303551e-06 1.1400512641708202e-06 2.9050582011091934e-05 -5.459314258920554e-06 -3.7620730685381755e-07 2.4002750303981273e-05 8.3205443100225408e-07 -4.7989392734929265e-05 4.9499494931202347e-05 8.0417663639309467e-08 3.1097659034610095e-06 -1.3527020937748278e-05 1.3094152785315177e-05 4.2878717337686992e-06 -1.9538646651304157e-05
leaf_weight=459672 982 98640 892 10765 43321 996 962 774 597 736 3290 626 2631 970 1662
leaf_count=459672 982 98640 892 10765 43321 996 962 774 597 736 3290 626 2631 970 1662
internal_value=0 4.9893e-07 1.1356e-05 3.7634e-07 -7.42514e-07 1.55149e-07 -1.16832e-06 -2.09351e-05 5.3369e-06 2.22133e-05 3.12596e-06 8.60653e-07 7.97753e-06 -3.05351e-06 -1.07576e-05
internal_weight=0 167844 1874 165970 67330 56565 45057 1736 11508 1333 10175 9179 3257 5922 2632
internal_count=627516 167844 1874 165970 67330 56565 45057 1736 11508 1333 10175 9179 3257 5922 2632
cat_boundaries=0 1
cat_threshold=3312
is_linear=0
shrinkage=0.1


Tree=44
num_leaves=16
num_cat=0
split_feature=16 10 10 0 0 17 7 5 4 7 7 0 0 11 11
split_gain=5.39327e-06 3.74086e-05 2.70542e-05 2.38003e-05 3.83551e-05 4.06383e-05 3.02182e-05 2.18588e-05 2.59302e-05 2.14284e-05 2.06363e-05 3.53617e-05 2.55005e-05 2.53388e-05 3.53198e-05
threshold=34.135341809468521 -0.0084714168314424226 -0.0046064019588972762 245.50000000000003 206.50000000000003 0.11390632725211704 -0.0015384615384615439 -0.0046282315562043977 0.00027045328446162481 -0.0072104384624999676 -0.0072104384624999676 577.50000000000011 657.50000000000011 0.69999999999987528 0.39999999999977082
decision_type=2 8 8 2 2 2 8 10 10 8 10 2 2 2 2
left_child=3 -2 7 4 -1 -6 -7 -3 -9 -4 11 13 -13 14 -5
right_child=1 2 9 10 5 6 -8 8 -10 -11 -12 12 -14 -15 -16
leaf_value=-1.2527970938922728e-06 -2.5537197989267738e-05 2.9092464088038966e-05 -2.0267629226826409e-05 1.5943141923530793e-06 -6.5947288562342328e-06 -4.7218141844496131e-05 -1.322689464899128e-05 -4.836904213994914e-06 2.0686372115311439e-05 2.2343244453619733e-07 -3.3568705455252797e-07 3.6048740961945268e-05 8.2110671930769012e-06 -1.600130298914573e-05 2.5487284234432518e-05
leaf_weight=11711 563 528 511 7800 2960 502 546 964 678 396220 201756 541 840 724 672
leaf_count=11711 563 528 511 7800 2960 502 546 964 678 396220 201756 541 840 724 672
internal_value=0 2.21591e-07 2.57946e-07 -3.87922e-07 -4.14259e-06 -1.25863e-05 -2.9509e-05 1.13933e-05 5.70194e-06 1.97039e-07 -1.09964e-07 4.19569e-06 1.91163e-05 1.955e-06 3.48951e-06
internal_weight=0 399464 398901 228052 15719 4008 1048 2170 1642 396731 212333 10577 1381 9196 8472
internal_count=627516 399464 398901 228052 15719 4008 1048 2170 1642 396731 212333 10577 1381 9196 8472
is_linear=0
shrinkage=0.1


Tree=45
num_leaves=16
num_cat=1
split_feature=18 3 6 7 15 15 1 6 0 5 1 3 5 14 10
split_gain=5.85794e-06 2.45665e-05 6.34896e-05 6.17472e-05 5.39222e-05 3.09208e-05 7.56831e-05 3.44504e-05 7.42621e-05 4.36996e-05 3.10021e-05 2.26799e-05 4.30155e-05 4.81396e-05 4.14323e-05
threshold=0 0.002967898243488754 0.0068578809390509319 -0.0018509373573331043 81.111612408818289 72.082680204943657 -0.00055954905447180836 0.0068578809390509319 356.50000000000006 0.0062743278306747205 -4.5432861612237911e-05 0.0036257915336158635 0.0062743278306747205 95.970956307142075 0.0040609923931742573
decision_type=1 10 10 8 2 2 2 10 2 10 2 8 10 2 8
left_child=11 2 -2 -3 -4 6 -5 9 -9 -8 -7 12 -1 -14 -13
right_child=1 3 4 5 -6 10 7 8 -10 -11 -12 14 13 -15 -16
leaf_value=-4.5359868114174399e-07 3.3500869712538403e-07 -2.8087719041361206e-05 4.4078308780104744e-05 3.3131697411550072e-05 7.3842733490608656e-06 -2.0971862785224148e-05 -5.5670586895866766e-07 9.1233564565184623e-06 -4.2800689708609768e-05 2.7259626403087526e-05 -3.8470630061392275e-06 1.4547962084957484e-05 -3.5326271005374873e-05 3.2644636110254221e-06 -1.9535174187285679e-07
leaf_weight=241970 355785 956 582 716 1284 1267 6916 543 559 615 6383 2844 745 571 5780
leaf_count=241970 355785 956 582 716 1284 1267 6916 543 559 615 6383 2844 745 571 5780
internal_value=0 2.50288e-07 4.31499e-07 -3.35917e-06 1.8829e-05 -1.96847e-06 1.88953e-06 -7.01623e-07 -1.72156e-05 1.71484e-06 -6.68329e-06 -3.73e-07 -5.51661e-07 -1.85821e-05 4.66666e-06
internal_weight=0 375606 357651 17955 1866 16999 9349 8633 1102 7531 7650 251910 243286 1316 8624
internal_count=627516 375606 357651 17955 1866 16999 9349 8633 1102 7531 7650 251910 243286 1316 8624
cat_boundaries=0 1
cat_threshold=844
is_linear=0
shrinkage=0.1


Tree=46
num_leaves=16
num_cat=3
split_feature=6 18 1 1 9 17 18 9 0 8 8 15 18 16 13
split_gain=5.61491e-06 1.52324e-05 3.23069e-05 1.87426e-05 4.97956e-05 3.34408e-05 3.86939e-05 2.52454e-05 2.40179e-05 1.85617e-05 2.03798e-05 3.8055e-05 2.54343e-05 3.20934e-05 3.08358e-05
threshold=-0.0010752251904416752 0 -0.0026772996728818828 -0.0026772996728818828 -0.00066326992131193741 0.41542543904176726 1 -0.0061225033057464842 364.50000000000006 1.0000000180025095e-35 -0.0057752326469920892 39.887235358359 2 22.290121810259105 45.723562980270231
decision_type=8 1 2 2 8 2 1 10 2 10 8 2 1 2 2
left_child=1 2 -1 4 5 6 8 -8 -3 10 11 12 13 -5 -14
right_child=-2 3 -4 9 -6 -7 7 -9 -10 -11 -12 -13 14 -15 -16
leaf_value=1.9412143477078142e-05 -1.7703822146717722e-07 -2.5070985295979966e-05 1.4271402806355763e-06 -2.2247467576147587e-07 1.8614226784317279e-05 -2.6992126543802223e-05 2.5937767963413991e-05 -4.5915211999183442e-06 -4.5710752984613485e-06 4.8692778355171563e-06 -9.9516938033003253e-07 2.3010610763313919e-05 3.7605881867950503e-06 -2.6231216212061052e-05 2.4935568661731383e-05
leaf_weight=1015 464640 952 62538 6311 699 927 522 563 1430 7370 74041 912 4263 513 820
leaf_count=1015 464640 952 62538 6311 699 927 522 563 1430 7370 74041 912 4263 513 820
internal_value=0 5.05296e-07 1.71411e-06 -2.68322e-07 -6.17712e-06 -1.01209e-05 -5.60996e-06 1.00041e-05 -1.27108e-05 5.10116e-08 -3.57814e-07 3.32347e-06 1.81556e-06 -2.17452e-06 7.16249e-06
internal_weight=0 162876 63553 99323 5093 4394 3467 1085 2382 94230 86860 12819 11907 6824 5083
internal_count=627516 162876 63553 99323 5093 4394 3467 1085 2382 94230 86860 12819 11907 6824 5083
cat_boundaries=0 1 2 3
cat_threshold=2617 1282 194
is_linear=0
shrinkage=0.1


Tree=47
num_leaves=16
num_cat=3
split_feature=13 7 12 18 2 1 18 15 9 16 17 1 18 15 6
split_gain=5.33155e-06 2.04129e-05 3.38683e-05 3.79261e-05 3.40304e-05 3.07446e-05 5.20682e-05 3.45853e-05 3.40534e-05 1.60591e-05 2.53986e-05 1.26724e-05 3.45497e-05 1.85873e-05 1.68727e-05
threshold=54.070501727332037 0.0055233633639687483 99.450506423437886 0 0.00075985582230853066 0.0028251438083999329 1 23.066188799611009 0.00017064970137459226 87.719298245615519 0.31253527580973245 0.0020846646874141954 2 31.174846078954985 -0.00070184492176639235
decision_type=2 10 2 1 10 2 1 2 8 2 2 2 1 2 10
left_child=1 5 4 -4 -3 11 7 -7 -8 10 -5 -1 13 -13 -14
right_child=-2 2 3 9 -6 6 8 -9 -10 -11 -12 12 14 -15 -16
leaf_value=-1.9015081673648865e-07 3.385654262246348e-07 -9.5947338753988559e-06 -3.7012482626909199e-05 -2.4001472789928296e-06 1.6849482510781327e-05 6.4430730406301195e-06 1.2524512065568242e-05 3.7868556605292229e-05 -1.7336981187410286e-05 2.1840386251185804e-06 -3.2308532645900364e-05 -2.3976721458121128e-05 -9.9038766433402678e-06 -4.1348629636248287e-06 1.1629517655395942e-05
leaf_weight=349266 267180 1016 567 639 934 631 741 787 788 893 511 1083 544 837 1099
leaf_count=349266 267180 1016 567 639 934 631 741 787 788 893 511 1083 544 837 1099
internal_value=0 -2.50934e-07 -6.89913e-06 -1.43484e-05 3.07137e-06 -1.65724e-07 1.00059e-05 2.37172e-05 -2.84657e-06 -7.83878e-06 -1.56899e-05 -2.50682e-07 -6.18427e-06 -1.52475e-05 4.47255e-06
internal_weight=0 360336 4560 2610 1950 355776 2947 1418 1529 2043 1150 352829 3563 1920 1643
internal_count=627516 360336 4560 2610 1950 355776 2947 1418 1529 2043 1150 352829 3563 1920 1643
cat_boundaries=0 1 2 3
cat_threshold=1664 771 2520
is_linear=0
shrinkage=0.1


Tree=48
num_leaves=16
num_cat=1
split_feature=1 15 14 17 9 17 5 13 13 8 18 10 13 7 7
split_gain=5.16006e-06 3.16162e-05 5.61245e-05 4.08107e-05 5.92344e-05 4.43376e-05 4.19931e-05 3.91993e-05 5.02672e-05 3.08908e-05 3.00793e-05 3.62815e-05 3.53187e-05 2.5197e-05 3.79817e-05
threshold=-0.001637651853119426 50.918491109414148 69.743301296322613 0.24736246171410597 -0.0050832368461178881 0.34943057102015079 -0.0032839058292581376 49.074307831545006 63.989814196406073 0.0048484304062423886 0 0.00041385222745504718 54.932487567561161 0.0020499725772870074 -0.00085546525773866333
decision_type=2 2 2 2 10 2 8 2 2 10 1 8 2 10 8
left_child=1 2 10 6 -5 9 -3 -7 -9 13 12 -12 -1 14 -6
right_child=-2 3 -4 4 5 7 -8 8 -10 -11 11 -13 -14 -15 -16
leaf_value=-2.6355052558656208e-06 6.1174523889879534e-08 1.9186390976932262e-05 3.1565054836175822e-05 -3.777131276505935e-05 -2.4881281440931236e-06 -2.0372830440040231e-05 -3.0956462590050812e-06 2.9277884861147856e-05 -6.3170294465504157e-06 -3.5775035124384618e-05 2.0720766749755875e-06 2.5292487623558283e-05 -2.8513887613603043e-05 9.0577222391727951e-06 -3.2433232515216756e-05
leaf_weight=4523 600196 992 606 737 937 514 5739 790 797 596 8465 731 597 523 773
leaf_count=4523 600196 992 606 737 937 514 5739 790 797 596 8465 731 597 523 773
internal_value=0 -1.34407e-06 1.75675e-06 -5.07616e-06 -1.1329e-05 -7.37602e-06 1.88231e-07 3.62838e-06 1.14019e-05 -1.55486e-05 4.94954e-07 3.91364e-06 -5.64195e-06 -1.01501e-05 -1.60247e-05
internal_weight=0 27320 14922 12398 5667 4930 6731 2101 1587 2829 14316 9196 5120 2233 1710
internal_count=627516 27320 14922 12398 5667 4930 6731 2101 1587 2829 14316 9196 5120 2233 1710
cat_boundaries=0 1
cat_threshold=1824
is_linear=0
shrinkage=0.1


Tree=49
num_leaves=16
num_cat=1
split_feature=2 3 18 8 10 9 1 1 3 14 14 6 8 16 6
split_gain=5.08983e-06 3.53078e-05 1.91274e-05 2.00941e-05 5.57233e-05 2.02473e-05 1.42294e-05 1.53253e-05 1.40847e-05 2.1251e-05 1.86983e-05 1.68011e-05 1.17855e-05 2.35149e-05 5.2775e-05
threshold=-0.00095769456803579389 -0.0047690330573888487 0 0.0078993475854612933 0.008663199819916036 0.0062438736066408049 -0.0026772996728818828 -0.0019837942530409043 0.00085663638894817329 85.521968417032483 49.127066847377257 0.0028005697711247506 -0.0047787782490682487 30.651340996167573 -0.00054856907086336937
decision_type=10 8 1 10 10 10 2 2 10 2 2 8 8 2 10
left_child=2 -2 6 4 5 8 -1 -8 9 -4 -10 -12 13 14 -3
right_child=1 12 3 -5 -6 -7 7 -9 10 -11 11 -13 -14 -15 -16
leaf_value=1.4943617264103352e-05 -1.9086200162905073e-05 3.3956746948898533e-06 -3.4286670796693503e-07 -1.4183271250767795e-05 3.1643936397145975e-05 -1.5930666650954331e-05 -9.054332278495612e-06 3.1722141800694254e-06 1.8491788087167631e-05 1.5974022405021004e-05 8.8099954394862973e-06 -1.3525047882770499e-05 -1.691661924597071e-07 1.7497746456425333e-05 -2.7122401606993513e-05
leaf_weight=974 981 9914 82344 998 556 802 1075 22121 950 806 895 540 502931 1028 601
leaf_count=974 981 9914 82344 998 556 802 1075 22121 950 806 895 540 502931 1028 601
internal_value=0 -1.32797e-07 6.10807e-07 -7.4477e-08 8.75594e-08 -1.1566e-07 3.1015e-06 2.60558e-06 3.2626e-08 -1.84702e-07 7.60948e-06 4.05171e-07 -9.66562e-08 3.06262e-06 1.65137e-06
internal_weight=0 515455 112061 87891 86893 86337 24170 23196 85535 83150 2385 1435 514474 11543 10515
internal_count=627516 515455 112061 87891 86893 86337 24170 23196 85535 83150 2385 1435 514474 11543 10515
cat_boundaries=0 1
cat_threshold=2608
is_linear=0
shrinkage=0.1


Tree=50
num_leaves=16
num_cat=0
split_feature=0 9 3 0 0 15 2 2 16 15 3 11 16 10 10
split_gain=5.02193e-06 1.54048e-05 5.37213e-05 4.73327e-05 4.8074e-05 3.77869e-05 3.25189e-05 1.15104e-05 8.02515e-05 2.88464e-05 1.49503e-05 2.01686e-05 2.34351e-05 2.91346e-05 2.90186e-05
threshold=544.50000000000011 0.0083007475255192382 0.0049365115212359765 641.50000000000011 689.50000000000011 54.575192356369421 0.0040074772020415326 -0.0039068614842231999 25.528631613553799 65.454325731015317 -0.0029405660534200235 -0.59999999999988418 8.5504972584063896 -0.0040572393495186812 -0.0012635347388199045
decision_type=2 10 10 2 2 2 10 10 2 2 10 2 2 10 10
left_child=-1 2 6 -3 -5 -4 7 8 -2 -10 11 -9 -13 -14 -15
right_child=1 3 5 4 -6 -7 -8 10 9 -11 -12 12 13 14 -16
leaf_value=-2.5803012605563023e-07 3.4928934728249177e-05 -1.4386674563866111e-05 -3.7084536625858746e-05 3.9288657935005482e-05 1.962530634543252e-06 -3.2162802173479033e-06 2.0513605966771415e-05 1.111395362706691e-06 -2.3639559612243147e-05 8.6068386652864541e-06 3.4060707363103838e-07 3.3527883562377588e-06 -3.6391229541213427e-05 5.3026456950831567e-06 -2.2412605490506432e-05
leaf_weight=342546 694 600 649 642 746 669 797 2895 587 526 273266 843 540 715 801
leaf_count=342546 694 600 649 642 746 669 797 2895 587 526 273266 843 540 715 801
internal_value=0 3.10154e-07 2.48529e-07 9.08217e-06 1.92272e-05 -1.98934e-05 3.4278e-07 2.85542e-07 8.24098e-06 -8.40002e-06 2.34028e-07 -4.79263e-06 -1.06885e-05 -1.64457e-05 -9.3411e-06
internal_weight=0 284970 282982 1988 1388 1318 281664 280867 1807 1113 279060 5794 2899 2056 1516
internal_count=627516 284970 282982 1988 1388 1318 281664 280867 1807 1113 279060 5794 2899 2056 1516
is_linear=0
shrinkage=0.1


Tree=51
num_leaves=16
num_cat=2
split_feature=3 7 3 2 0 5 17 14 4 18 0 8 2 18 3
split_gain=4.86377e-06 3.48615e-05 3.93127e-05 3.0265e-05 2.83678e-05 5.50527e-05 4.98005e-05 2.476e-05 2.74807e-05 4.77363e-05 1.97904e-05 5.09258e-05 1.88501e-05 5.43622e-05 4.21665e-05
threshold=0.0011085489733626554 0.0074176894277275815 -0.0013053198549443643 0.00019357648695972343 712.50000000000011 0.0062743278306747205 0.28578069667321915 14.22268815405001 -0.0015254909539963444 0 697.50000000000011 0.0032307027363911449 0.0029394028473705984 1 -0.00024009603841529389
decision_type=10 10 10 10 2 10 2 2 8 1 2 10 10 1 10
left_child=1 12 -3 -4 7 6 -6 -2 9 -9 -10 -12 -1 14 -14
right_child=4 2 3 -5 5 -7 -8 8 10 -11 11 -13 13 -15 -16
leaf_value=4.7202913215147293e-08 2.0310969151015503e-05 3.6534964797736534e-05 -9.8128596724817796e-06 2.1271616635520172e-05 5.3058349655849599e-06 -2.5040813037830085e-05 3.5257240815079044e-05 -3.2836981179944532e-05 -6.5419886176742553e-07 6.4995327884717306e-06 -1.8214855684005064e-06 -3.0047899007869754e-05 4.6371234506052618e-05 -8.688659296172705e-06 6.1087946079554323e-06
leaf_weight=506092 544 542 688 575 5881 542 613 701 105201 545 2874 822 501 854 541
leaf_count=506092 544 542 688 575 5881 542 613 701 105201 545 2874 822 501 854 541
internal_value=0 1.33781e-07 1.40066e-05 4.33882e-06 -5.79353e-07 5.57763e-06 8.13309e-06 -9.70732e-07 -1.07584e-06 -1.58426e-05 -9.06882e-07 -8.09911e-06 8.44879e-08 1.00368e-05 2.52251e-05
internal_weight=0 509793 1805 1263 117723 7036 6494 110687 110143 1246 108897 3696 507988 1896 1042
internal_count=627516 509793 1805 1263 117723 7036 6494 110687 110143 1246 108897 3696 507988 1896 1042
cat_boundaries=0 1 2
cat_threshold=2946 1218
is_linear=0
shrinkage=0.1


Tree=52
num_leaves=16
num_cat=0
split_feature=11 3 13 13 17 9 2 6 17 0 13 11 7 2 2
split_gain=5.08906e-06 1.67035e-05 2.40698e-05 3.2941e-05 3.20378e-05 1.54696e-05 3.78769e-05 2.84926e-05 2.1181e-05 4.3538e-05 2.94346e-05 4.84844e-05 3.61019e-05 2.8209e-05 3.91728e-05
threshold=0.061519538272188166 0.0049365115212359765 81.747870930695328 35.607051476330888 0.31253527580973245 0.0021262491727187531 0.0029394028473705984 0.0042134810660926511 0.31253527580973245 719.50000000000011 26.819125943922188 -0.5383647096362929 -0.001053499166860483 0.00047958835908734626 -0.00095769456803579389
decision_type=2 8 2 2 2 8 8 8 2 2 2 2 10 10 10
left_child=1 5 3 -3 -5 6 7 8 -1 10 11 -10 13 14 -12
right_child=-2 2 -4 4 -6 -7 -8 -9 9 -11 12 -13 -14 -15 -16
leaf_value=-2.3268066460180779e-08 3.3702029382716631e-07 -8.2628665736571721e-06 -1.2798320987269659e-05 7.2222523510081577e-06 3.0311162956278891e-05 -1.9798046806746869e-06 1.9580762418590106e-05 1.6140182904926869e-05 1.6901310392847612e-06 -2.7025387460800741e-05 5.6118311567886945e-06 -2.9702795470524948e-05 -1.2014311882433533e-05 2.396097707898337e-05 -1.7655938214566092e-05
leaf_weight=301090 261351 868 595 2069 847 48353 979 1074 1008 801 4158 961 1853 633 876
leaf_count=301090 261351 868 595 2069 847 48353 979 1074 1008 801 4158 961 1853 633 876
internal_value=0 -2.40651e-07 5.89843e-06 8.83833e-06 1.39288e-05 -3.14957e-07 -5.81227e-08 -1.19656e-07 -1.75739e-07 -4.63711e-06 -2.74724e-06 -1.36317e-05 1.02682e-07 4.06471e-06 1.56285e-06
internal_weight=0 366165 4379 3784 2916 361786 313433 312454 311380 10290 9489 1969 7520 5667 5034
internal_count=627516 366165 4379 3784 2916 361786 313433 312454 311380 10290 9489 1969 7520 5667 5034
is_linear=0
shrinkage=0.1


Tree=53
num_leaves=16
num_cat=3
split_feature=10 8 18 15 13 15 18 8 1 0 13 12 3 18 17
split_gain=4.87015e-06 2.9716e-05 2.64357e-05 2.45239e-05 2.60433e-05 2.88713e-05 3.84217e-05 4.79787e-05 1.83641e-05 2.44423e-05 1.99216e-05 1.58241e-05 2.90477e-05 4.02517e-05 2.82332e-05
threshold=-0.0040572393495186812 -1.0000000180025095e-35 0 61.938932462098258 69.531710769189445 45.353937587836192 1 -0.0047787782490682487 0.0028251438083999329 736.50000000000011 62.982196347830715 -183.9290203599825 -0.0047690330573888487 2 0.31253527580973245
decision_type=8 10 1 2 2 2 1 10 2 2 2 2 10 1 2
left_child=1 3 -3 4 5 8 -7 -8 9 10 11 14 13 -13 -1
right_child=-2 2 -4 -5 -6 6 7 -9 -10 -11 -12 12 -14 -15 -16
leaf_value=-2.1176218012815047e-06 -8.2664308454804187e-08 3.3790204998142288e-05 3.4297340711527217e-06 -1.8113356980558657e-05 -1.5843703621295127e-05 -7.6218262044591471e-06 4.5700118381966345e-05 4.0628842976150118e-06 1.6566613636134165e-05 -1.5184686458919067e-05 1.7029278965347142e-05 -9.0410379644740246e-06 4.2838241930345534e-07 1.8619197301749827e-05 -2.5980661542123418e-05
leaf_weight=4154 576796 500 677 693 919 546 555 552 717 980 742 715 36455 1952 563
leaf_count=4154 576796 500 677 693 919 546 555 552 717 980 742 715 36455 1952 563
internal_value=0 9.39411e-07 1.66434e-05 5.6633e-07 8.31326e-07 1.15104e-06 1.4137e-05 2.47147e-05 6.87196e-07 4.373e-07 7.80709e-07 5.05693e-07 1.1654e-06 1.12396e-05 -4.96581e-06
internal_weight=0 50720 1177 49543 48850 47931 1653 1107 46278 45561 44581 43839 39122 2667 4717
internal_count=627516 50720 1177 49543 48850 47931 1653 1107 46278 45561 44581 43839 39122 2667 4717
cat_boundaries=0 1 2 3
cat_threshold=488 2051 596
is_linear=0
shrinkage=0.1


Tree=54
num_leaves=16
num_cat=3
split_feature=16 10 10 18 0 0 17 18 7 7 0 18 13 5 4
split_gain=5.04523e-06 2.9736e-05 2.09374e-05 3.30917e-05 1.85408e-05 3.10001e-05 3.30437e-05 3.09484e-05 1.80537e-05 1.56942e-05 2.88422e-05 5.43157e-05 2.62203e-05 3.56905e-05 2.44048e-05
threshold=34.135341809468521 -0.0084714168314424226 -0.0046064019588972762 0 245.50000000000003 206.50000000000003 0.11390632725211704 1 -0.0072104384624999676 -0.0072104384624999676 577.50000000000011 2 28.343267573537194 -0.0061821932251904235 0.00031919987322348581
decision_type=2 8 8 1 2 2 2 1 8 10 2 1 2 8 8
left_child=4 -2 3 -3 5 -1 -7 -8 -4 10 12 -12 13 -6 -14
right_child=1 2 8 -5 9 6 7 -9 -10 -11 11 -13 14 -15 -16
leaf_value=-1.0912146545872721e-06 -2.2751499185765406e-05 -4.5896726618490422e-06 -1.8591098414475203e-05 2.0405524053477085e-05 4.0191960602602467e-06 -5.8774947309929481e-06 -4.3804030394441266e-05 -8.9988207153910819e-06 2.1731531016252563e-07 -3.2677732893021705e-07 -7.6922159559731174e-06 3.2816717391685572e-05 3.2751648252578603e-06 -1.5084289269560179e-05 2.1947774362510805e-05
leaf_weight=11711 563 906 511 1264 2181 2960 513 535 396220 201756 542 839 4410 1773 832
leaf_count=11711 563 906 511 1264 2181 2960 513 535 396220 201756 542 839 4410 1773 832
internal_value=0 2.14257e-07 2.46671e-07 1.00426e-05 -3.75261e-07 -3.6892e-06 -1.12803e-05 -2.65399e-05 1.9309e-07 -1.29931e-07 3.62492e-06 1.71001e-05 1.60129e-06 -4.54693e-06 6.23884e-06
internal_weight=0 399464 398901 2170 228052 15719 4008 1048 396731 212333 10577 1381 9196 3954 5242
internal_count=627516 399464 398901 2170 228052 15719 4008 1048 396731 212333 10577 1381 9196 3954 5242
cat_boundaries=0 1 2 3
cat_threshold=3075 195 2433
is_linear=0
shrinkage=0.1


Tree=55
num_leaves=16
num_cat=1
split_feature=1 6 17 15 10 10 18 17 0 4 15 0 5 10 0
split_gain=4.81827e-06 3.62954e-05 3.91128e-05 5.69763e-05 8.85571e-05 8.02697e-05 5.38364e-05 4.85533e-05 4.40851e-05 3.37142e-05 6.14492e-05 6.73351e-05 3.44674e-05 3.12157e-05 5.07457e-05
threshold=-0.001637651853119426 0.0068578809390509319 0.24736246171410597 43.524735450944753 -0.0084714168314424226 -0.0010192453338184746 0 0.31253527580973245 339.50000000000006 -0.0054704460898137844 70.460704607044093 364.50000000000006 -0.0005024297611335159 -0.0084714168314424226 413.50000000000006
decision_type=2 10 2 2 10 8 1 2 2 10 2 2 8 10 2
left_child=1 2 -1 5 -5 8 9 -8 -4 -6 11 -11 -12 14 -10
right_child=-2 -3 3 4 6 -7 7 -9 13 10 12 -13 -14 -15 -16
leaf_value=1.4526193611683053e-06 5.9113020375278557e-08 2.0668289211929822e-05 -2.5386629681930909e-05 -5.2951194447814487e-05 4.9788328748540719e-06 3.5140443821124158e-05 -9.0037455896002253e-06 3.1722293221461244e-05 4.9294103620114689e-07 -6.3979807051201305e-05 -2.3030735306917498e-05 -1.8696372946125983e-05 3.6324326650461501e-06 -7.0479794899405798e-06 3.7388224290682939e-05
leaf_weight=15058 600196 732 766 512 714 609 645 536 1440 507 834 932 1158 2374 503
leaf_count=15058 600196 732 766 512 714 609 645 536 1440 507 834 932 1158 2374 503
internal_value=0 -1.2988e-06 -1.90358e-06 -6.28672e-06 -1.32279e-05 8.32498e-07 -9.40921e-06 9.40028e-06 -3.27798e-06 -1.47555e-05 -1.89053e-05 -3.4651e-05 -7.53076e-06 6.44941e-07 1.00443e-05
internal_weight=0 27320 26588 11530 5838 5692 5326 1181 5083 4145 3431 1439 1992 4317 1943
internal_count=627516 27320 26588 11530 5838 5692 5326 1181 5083 4145 3431 1439 1992 4317 1943
cat_boundaries=0 1
cat_threshold=3395
is_linear=0
shrinkage=0.1


Tree=56
num_leaves=16
num_cat=1
split_feature=3 4 18 0 5 10 1 9 10 8 5 11 1 15 10
split_gain=4.834e-06 2.31917e-05 4.49896e-05 2.53936e-05 4.77986e-05 3.02298e-05 3.82583e-05 2.39715e-05 2.27008e-05 4.55335e-05 6.90704e-05 2.66637e-05 1.75581e-05 3.70058e-05 4.67601e-05
threshold=0.0011085489733626554 -0.0015254909539963444 0 712.50000000000011 0.0062743278306747205 0.0029319274778139008 0.00046959584321604192 -0.00808320188427669 0.008663199819916036 0.0048484304062423886 0.00092733608447759252 -0.10526315789478498 0.001268655401870489 81.111612408818289 0.0053898359470478949
decision_type=10 8 1 2 10 10 2 8 10 10 10 2 2 2 8
left_child=8 2 -2 7 5 -5 -7 -3 12 -10 -11 -12 -1 14 -14
right_child=1 3 -4 4 -6 6 -8 -9 9 10 11 -13 13 -15 -16
