tree
version=v3
num_class=1
num_tree_per_iteration=1
label_index=0
max_feature_idx=18
objective=regression
feature_names=minute ret1min ret2min ret3min ret4min ret5min ret6min ret7min ret8min ret9min ret10min BOP CCI MFI STOCHRSI slowd slowk NATR stock_id
feature_infos=[0:958] [-0.047800418967815617:0.052000000000000046] [-0.10447761194029848:0.076678098971092679] [-0.16766084954082627:0.078263002944062743] [-0.1815331687151458:0.078748210267948426] [-0.1815331687151458:0.094234852196635632] [-0.1815331687151458:0.09584560026169453] [-0.18271228702036291:0.11056671566225718] [-0.18223651383267725:0.11718112036583372] [-0.18025953816656015:0.1188256460582271] [-0.18060107771790457:0.11932910615667836] [-1:1] [-466.66666666683017:466.66666666681698] [-3.761970349517039e-12:100.00000000000118] [0:100.00000000000001] [-1.9652427833231436e-12:100.00000000000371] [-2.2239987629291136e-12:100.00000000000257] [0.004588294973584932:2.4218143378272776] -1:0:8:10:1:7:2:9:5:3:4:6:11
tree_sizes=1751 1732 1737 1740 1755 1722 1730 1748 1737 1712 1713 1722 1731 1738 1753 1720 1713 1709 1713 1713 1723 1724 1733 1734 1712 1739 1751 1747 1725 1718 1740 1704 1726 1722 1716 1734 1711 1747 1697 1723 1737 1723 1726 1718 1743 1721 1720 1752 1733 1748 1741 1735 1728 1738 1755 1758 1730 1725 1727 1707 1714 1703 1721 1719 1729 1730 1725 1748 1737 1718 1745 1728 1753 1755 1670 1736 1764 1709 1731 1681 1738 1713 1707 1739 1737 1742 1739 1712 1729 1721 1715 1714 1726 1731 1735 1725 1711 1715 1766 1760 1739 1726 1729 1710 1720 1738 1758 1713 1688 1718 1753 1695 1748 1753 1725 1742 1673 1728 1724 1763 1731 1729 1682 1735 1732 1751 1709 1706 1724 1730 1736 1724 1751 1729 1711 1750 1703 1727 1717 1708 1716 1735 1714 1773 1743 1741 1723 1708 1735 1717 1738 1719 1725 1708 1735 1720 1736 1755 1754 1748 1707 1740 1744 1741 1680 1730 1724 1722 1729 1735 1696 1760 1730 1707 1711 1707 1711 1728 1741 1684 1755 1743 1707 1708 1730 1731 1726 1721 1729 1719 1750 1693 1750 1712 1717 1702 1745 1769 1719 1731 1709 1759 1695 1678 1769 1729 1749 1710 1692 1753 1752 1740 1728 1723 1716 1731 1738 1699 1714 1720 1743 1704 1740 1747 1701 1736 1727 1748 1770 1751 1695 1752 1731 1726 1716 1703 1731 1709 1760 1744 1727 1727 1722 1736 1726 1746 1746 1755 1704 1751

Tree=0
num_leaves=16
num_cat=3
split_feature=1 6 18 16 8 10 1 3 8 16 10 18 12 18 4
split_gain=4.63398e-05 9.44599e-05 7.43029e-05 6.3155e-05 5.65706e-05 4.8821e-05 5.3478e-05 4.45523e-05 6.35514e-05 0.000118174 0.000107103 9.70725e-05 6.32185e-05 5.35987e-05 4.79605e-05
threshold=-0.0020131703663579521 0.0068202980576451697 0 74.744383483209816 -0.0041095203900478041 0.0020237389046696701 0.0027377882603067953 0.0029462920503721128 0.0040681421262644965 86.441002248355332 0.0053259636957483378 1 185.34590434114736 2 0.0041560077202393861
decision_type=2 10 1 2 8 8 2 10 10 2 8 1 2 1 10
left_child=1 2 3 -1 5 6 -2 -6 14 10 -10 -12 -13 -11 -9
right_child=4 -3 -4 -5 7 -7 -8 8 9 13 11 12 -14 -15 -16
leaf_value=7.3480738727690738e-06 1.8664203384701396e-06 3.384185341823976e-05 -1.263769215105355e-05 -2.3960944795550058e-05 -2.1314869499572758e-06 -2.236655308839839e-05 2.9346771430446374e-05 -5.4037406450093957e-06 -7.9938052195665947e-06 6.6818311024035194e-06 -1.5814757556683818e-05 -3.7645518064603501e-05 -7.9939207413607931e-05 -9.5621047298582231e-06 7.3566131763931295e-06
leaf_weight=3894 32365 541 12418 772 546170 811 724 9221 2667 3174 1328 941 566 5602 4328
leaf_count=3894 32365 541 12418 772 546170 811 724 9221 2667 3174 1328 941 566 5602 4328
internal_value=-2.24247e-06 -7.29729e-06 -8.60005e-06 2.1585e-06 -2.09591e-06 1.87358e-06 2.4677e-06 -2.33035e-06 -6.23346e-06 -1.08888e-05 -2.23786e-05 -3.5911e-05 -5.31921e-05 -3.68536e-06 -1.32766e-06
internal_weight=0 17625 17084 4666 607897 33900 33089 573997 27827 14278 5502 2835 1507 8776 13549
internal_count=625522 17625 17084 4666 607897 33900 33089 573997 27827 14278 5502 2835 1507 8776 13549
cat_boundaries=0 1 2 3
cat_threshold=2204 2234 324
is_linear=0
shrinkage=1


Tree=1
num_leaves=16
num_cat=0
split_feature=0 9 16 5 1 1 17 6 8 0 17 8 17 0 3
split_gain=5.51939e-05 0.000110316 0.000133523 9.28855e-05 0.000121937 8.63147e-05 0.00012561 6.407e-05 5.80063e-05 9.80995e-05 0.00023276 4.58068e-05 4.48579e-05 4.47831e-05 9.11213e-05
threshold=338.50000000000006 -0.0060780760374353196 22.580276376610723 0.006325996942302071 0.0027377882603067953 0.0027377882603067953 0.24633525396527595 0.0068202980576451697 -0.0041095203900478041 718.50000000000011 0.31265655080172911 -0.0010080306452697194 0.23172216189997644 402.50000000000006 0.0035930229944985963
decision_type=2 8 2 10 2 2 2 10 8 2 2 8 2 2 10
left_child=1 2 -1 7 -5 8 -7 11 9 -2 -11 12 -3 -8 -15
right_child=5 3 -4 4 -6 6 13 -9 -10 10 -12 -13 -14 14 -16
leaf_value=-8.9974741777356427e-06 5.3476680700801624e-06 -4.0881393535884429e-06 -5.6819873253985988e-05 -7.2457961894347191e-06 -6.0361198722624274e-05 -9.9351993624484965e-06 1.3144121411100667e-05 3.1272364663507285e-05 -4.844463380807728e-08 9.8554577049847476e-06 -6.9902292713649417e-05 1.5092919731484239e-08 -2.0709494258245542e-05 6.0072454747798842e-05 1.3261297640721661e-05
leaf_weight=2367 32959 16663 775 1526 603 1924 3084 606 502272 966 589 57692 1799 729 968
leaf_count=2367 32959 16663 775 1526 603 1924 3084 606 502272 966 589 57692 1799 729 968
internal_value=0 -2.4179e-06 -2.07933e-05 -1.68604e-06 -2.22898e-05 3.64901e-07 1.16407e-05 -1.11458e-06 2.24055e-07 4.18965e-06 -2.0355e-05 -1.3723e-06 -5.70778e-06 2.03234e-05 3.33705e-05
internal_weight=0 82031 3142 78889 2129 543491 6705 76760 536786 34514 1555 76154 18462 4781 1697
internal_count=625522 82031 3142 78889 2129 543491 6705 76760 536786 34514 1555 76154 18462 4781 1697
is_linear=0
shrinkage=0.1


Tree=2
num_leaves=16
num_cat=3
split_feature=0 1 5 1 6 11 1 17 17 18 6 8 18 18 0
split_gain=4.4707e-05 8.4187e-05 8.27614e-05 9.60454e-05 7.92402e-05 0.000123017 6.99149e-05 0.000101744 6.96856e-05 5.55821e-05 5.03954e-05 4.68161e-05 4.43826e-05 4.05688e-05 4.05109e-05
threshold=338.50000000000006 -0.0016528790628883014 0.006325996942302071 0.0027377882603067953 -8.6419219795741395e-05 -0.80952380952376712 0.0027377882603067953 0.24633525396527595 0.26403304325789595 0 -0.002243247042179763 0.00029586163757833189 1 2 718.50000000000011
decision_type=2 2 10 2 8 2 2 2 2 1 8 8 1 1 2
left_child=1 4 11 9 5 -1 10 -8 -7 -4 14 12 -3 -6 -2
right_child=6 2 3 -5 13 8 7 -9 -10 -11 -12 -13 -14 -15 -16
leaf_value=-6.3464418702632286e-06 3.1985675791679357e-06 -1.2866722952042309e-05 1.7014126361152434e-05 -5.4527431385021558e-05 1.7114803731215722e-05 -2.6038972768751859e-05 -8.9416892234847856e-06 1.829107017528061e-05 -7.3136102323779006e-05 -2.3450211038057141e-05 -1.7486088954110727e-07 1.7525462226191217e-06 -2.0729451053445803e-06 -1.2670524784165924e-05 -8.7329274466940237e-06
leaf_weight=1435 67448 4260 567 611 815 639 1924 4781 618 818 466367 35785 35467 1016 2971
leaf_count=1435 67448 4260 567 611 815 639 1924 4781 618 818 466367 35785 35467 1016 2971
internal_value=0 -2.17611e-06 -1.40223e-06 -2.15009e-05 -1.54376e-05 -2.63537e-05 3.2841e-07 1.04766e-05 -4.91941e-05 -6.93114e-06 2.01649e-07 -8.7096e-07 -3.23414e-06 6.11554e-07 2.69517e-06
internal_weight=0 82031 77508 1996 4523 2692 543491 6705 1257 1385 536786 75512 39727 1831 70419
internal_count=625522 82031 77508 1996 4523 2692 543491 6705 1257 1385 536786 75512 39727 1831 70419
cat_boundaries=0 1 2 3
cat_threshold=3745 662 1222
is_linear=0
shrinkage=0.1


Tree=3
num_leaves=16
num_cat=0
split_feature=1 13 3 3 6 16 15 10 4 11 9 11 10 16 14
split_gain=3.27161e-05 7.89922e-05 0.000118089 4.74036e-05 5.02262e-05 5.23027e-05 4.49201e-05 5.5765e-05 7.71933e-05 5.73075e-05 4.89515e-05 4.29101e-05 5.44113e-05 5.72163e-05 5.51077e-05
threshold=-0.0020131703663579521 79.270528495347563 0.0029462920503721128 0.002499684920559964 0.0068202980576451697 77.961124644323178 51.243583668956838 -0.0084096381478438436 -0.0054796576120222365 -0.60714285714284244 0.0027553291294430964 0.74999999999994083 0.0053259636957483378 90.355663029119057 85.513485400080583
decision_type=2 2 10 10 10 2 2 10 8 2 8 2 10 2 2
left_child=1 2 6 4 -2 -6 10 -8 -9 -10 -1 12 14 -14 -5
right_child=3 -3 -4 11 5 -7 7 8 9 -11 -12 -13 13 -15 -16
leaf_value=-1.4121446325065658e-06 2.9225929976869928e-07 -3.3432970861571334e-05 4.3203820202953264e-05 -9.2642115656964649e-06 4.2102630686713383e-05 6.7683808944105253e-06 -4.2316058118428506e-05 2.2141416967110942e-05 -8.3725217599980713e-06 -4.1245363216197938e-05 3.0496569710814766e-05 1.2239453985954336e-06 -2.2361575722975385e-05 -5.37241181023372e-06 2.3823838281598419e-06
leaf_weight=8672 566960 881 542 6971 544 1822 504 761 5165 591 509 13702 3394 4766 9738
leaf_count=8672 566960 881 542 6971 544 1822 504 761 5165 591 509 13702 3394 4766 9738
internal_value=0 -4.24732e-06 -2.7117e-06 1.23087e-07 3.52935e-07 1.48926e-05 -4.24769e-06 -1.02689e-05 -7.79047e-06 -1.17478e-05 3.56893e-07 -3.26957e-06 -5.74536e-06 -1.24387e-05 -2.47658e-06
internal_weight=0 17625 16744 607897 569326 2366 16202 7021 6517 5756 9181 38571 24869 8160 16709
internal_count=625522 17625 16744 607897 569326 2366 16202 7021 6517 5756 9181 38571 24869 8160 16709
is_linear=0
shrinkage=0.1


Tree=4
num_leaves=16
num_cat=2
split_feature=11 17 3 18 10 11 10 18 3 3 16 17 17 12 6
split_gain=3.07741e-05 4.45802e-05 0.000102787 0.000105739 8.58135e-05 8.23196e-05 5.71796e-05 4.30834e-05 3.59747e-05 3.40015e-05 4.96346e-05 0.00011553 4.81674e-05 0.000115476 4.51456e-05
threshold=0.062499999999949922 0.41370877726741179 -0.00081257194649658737 0 -0.0001802482390745874 0.74999999999994083 0.0064880670116586056 1 0.0029462920503721128 0.0049277863436285605 90.355663029119057 0.26403304325789595 0.24633525396527595 -210.21818883501504 0.0068202980576451697
decision_type=2 2 10 1 10 2 8 1 8 8 2 2 2 2 8
left_child=7 8 -3 5 -5 6 -4 -1 -2 12 11 -11 -9 -14 -13
right_child=1 2 3 4 -6 -7 -8 9 -10 10 -12 14 13 -15 -16
leaf_value=1.2855914718920893e-06 1.0017528580010094e-06 3.6604880215029273e-05 2.2950474875985789e-05 -5.0861242261172575e-05 -1.0381399211861096e-06 4.9699318980047901e-05 -2.0193987879494246e-05 -8.8868883775030392e-07 -3.3937021997816456e-06 -2.2046572116554762e-06 -1.6040388933866273e-05 2.0295821307154822e-05 -4.5520993445417006e-05 -4.2441490017728387e-06 6.2208389863371849e-05
leaf_weight=91441 236060 1142 699 508 1082 576 548 242038 20215 1525 632 516 695 27333 512
leaf_count=91441 236060 1142 699 508 1082 576 548 242038 20215 1525 632 516 695 27333 512
internal_value=0 8.29333e-07 1.06355e-05 1.94612e-06 -1.68505e-05 1.83322e-05 3.99044e-06 -5.93231e-07 6.55039e-07 -1.22196e-06 9.04983e-06 1.5261e-05 -1.34315e-06 -5.26768e-06 4.11706e-05
internal_weight=0 260830 4555 3413 1590 1823 1247 364692 256275 273251 3185 2553 270066 28028 1028
internal_count=625522 260830 4555 3413 1590 1823 1247 364692 256275 273251 3185 2553 270066 28028 1028
cat_boundaries=0 1 2
cat_threshold=3912 2100
is_linear=0
shrinkage=0.1


Tree=5
num_leaves=16
num_cat=3
split_feature=0 9 16 5 11 8 18 13 0 18 0 8 11 18 14
split_gain=3.40673e-05 7.19641e-05 0.000104876 5.99782e-05 7.95672e-05 5.36356e-05 4.42808e-05 4.04218e-05 6.17845e-05 0.0001024 5.82534e-05 3.78474e-05 3.08915e-05 4.97775e-05 2.97222e-05
threshold=338.50000000000006 -0.0060780760374353196 22.580276376610723 0.006325996942302071 0.60329142284994364 -0.0041095203900478041 0 28.393723495636674 718.50000000000011 1 378.50000000000006 0.00029586163757833189 1.0000000180025095e-35 2 5.6365420756039448
decision_type=2 8 2 10 2 8 1 2 2 1 2 10 2 1 2
left_child=1 2 12 11 6 7 -5 10 14 -10 -2 -3 13 -1 -9
right_child=5 3 -4 4 -6 -7 -8 8 9 -11 -12 -13 -14 -15 -16
leaf_value=6.9058130602277218e-06 -1.245735515170992e-05 -2.5728289069646043e-06 -4.8669779850658216e-05 1.5166796319464149e-05 -4.331437244399215e-05 2.5602327639977889e-08 -2.0803326675805321e-05 4.3526562411954069e-06 -4.9151725373566738e-05 1.1929828106929585e-05 3.3755479185759067e-06 2.0114669638668538e-06 1.4501987866979288e-05 -2.6523676742068014e-05 1.1844248554119425e-05
leaf_weight=765 3061 47901 775 663 779 508382 687 11473 503 587 9649 28859 549 1053 9836
leaf_count=765 3061 47901 775 663 779 508382 687 11473 503 587 9649 28859 549 1053 9836
internal_value=0 -1.89961e-06 -1.6741e-05 -1.30851e-06 -1.7865e-05 2.86665e-07 -3.17975e-06 4.06688e-06 6.62285e-06 -1.65988e-05 -4.37553e-07 -8.49298e-07 -6.28689e-06 -1.25647e-05 7.81069e-06
internal_weight=0 82031 3142 78889 2129 543491 1350 35109 22399 1090 12710 76760 2367 1818 21309
internal_count=625522 82031 3142 78889 2129 543491 1350 35109 22399 1090 12710 76760 2367 1818 21309
cat_boundaries=0 1 2 3
cat_threshold=163 194 3241
is_linear=0
shrinkage=0.1


Tree=6
num_leaves=16
num_cat=0
split_feature=0 17 2 6 11 8 13 15 5 10 7 5 6 14 2
split_gain=2.76012e-05 5.65694e-05 7.28299e-05 6.21459e-05 6.95191e-05 4.86378e-05 4.94471e-05 4.893e-05 5.33251e-05 4.56488e-05 4.47065e-05 4.41824e-05 3.851e-05 3.69227e-05 4.80389e-05
threshold=338.50000000000006 0.23172216189997644 0.0039985928012347136 0.0068202980576451697 -0.4326236559139971 -0.0026014982512850278 65.189681667961295 8.4914047642905235 -0.003771234585937588 -0.00033602957079581491 -0.0029996815915781512 -0.0011676223528205296 -0.0066516359144906936 87.159443154377854 0.0039985928012347136
decision_type=2 2 10 8 2 8 2 2 10 10 10 8 10 2 10
left_child=1 2 -1 5 -5 7 11 -3 12 -8 -2 -7 -9 -6 -15
right_child=10 3 -4 4 13 6 9 8 -10 -11 -12 -13 -14 14 -16
leaf_value=-3.4487892158469181e-07 3.0133126609582858e-06 3.5439504132558466e-06 -2.800351906316886e-05 3.5341914439710991e-05 -1.577384584431835e-05 1.9684213272469878e-05 -4.9659653471606059e-09 -2.9549450238249194e-05 -1.2599093344432201e-05 -3.3367635108293133e-05 -4.0606272276043995e-08 -7.7531226331769729e-06 -6.4023390011645328e-05 2.9372701841356834e-05 -1.0903575611825022e-05
leaf_weight=70801 53129 550 965 557 1254 910 685 871 1062 1022 490362 1653 516 581 604
leaf_count=70801 53129 550 965 557 1254 910 685 871 1062 1022 490362 1653 516 581 604
internal_value=0 -1.70996e-06 -7.1679e-07 -8.65351e-06 3.46623e-06 -1.36488e-05 -6.79354e-06 -2.34094e-05 -2.94626e-05 -1.99796e-05 2.5793e-07 1.98858e-06 -4.23747e-05 -3.81329e-06 8.8437e-06
internal_weight=0 82031 71766 10265 2996 7269 4270 2999 2449 1707 543491 2563 1387 2439 1185
internal_count=625522 82031 71766 10265 2996 7269 4270 2999 2449 1707 543491 2563 1387 2439 1185
is_linear=0
shrinkage=0.1


Tree=7
num_leaves=16
num_cat=0
split_feature=11 17 3 4 2 13 2 1 11 1 9 1 2 17 17
split_gain=2.50254e-05 3.66277e-05 8.58205e-05 8.43097e-05 6.04221e-05 3.45881e-05 2.75624e-05 3.65039e-05 3.89943e-05 3.35709e-05 2.60956e-05 3.16077e-05 2.90465e-05 7.00045e-05 5.66904e-05
threshold=0.062499999999949922 0.41370877726741179 0.0012087154748746667 0.0015261380501145896 0.0039985928012347136 50.033428486704992 0.0010599508201873944 0.001227307427998481 0.60329142284994364 0.0014054319963943131 0.0025035759901754777 4.4453372027963851e-05 0.0029364440368163662 0.31265655080172911 0.41370877726741179
decision_type=2 2 10 10 8 2 8 2 2 2 10 2 8 2 2
left_child=10 6 5 -4 -5 -3 7 -2 9 -9 12 -12 14 -14 -1
right_child=1 2 3 4 -6 -7 -8 8 -10 -11 11 -13 13 -15 -16
leaf_value=-2.0168560962039786e-07 8.8506026246994898e-07 3.9229901943253266e-05 -3.848257862652342e-05 2.7160360366993005e-05 -6.4745485030136668e-06 1.1529611636900145e-05 -1.054577730008405e-06 2.3382888771930921e-06 3.9164984074104929e-06 2.8454354960760071e-05 -2.6407276055883695e-06 -2.2990513960114467e-05 1.3981878520608638e-06 3.8791973120677546e-05 -1.2733063157275421e-05
leaf_weight=321799 172214 981 504 882 1354 834 72926 773 9007 1355 35569 780 2249 644 3651
leaf_count=321799 172214 981 504 882 1354 834 72926 773 9007 1355 35569 780 2249 644 3651
internal_value=0 7.47792e-07 9.63642e-06 -1.53515e-06 6.79289e-06 2.65015e-05 5.89807e-07 1.24385e-06 6.79291e-06 1.89676e-05 -5.3504e-07 -3.07741e-06 -2.53589e-07 9.72228e-06 -3.42267e-07
internal_weight=0 260830 4555 2740 2236 1815 256275 183349 11135 2128 364692 36349 328343 2893 325450
internal_count=625522 260830 4555 2740 2236 1815 256275 183349 11135 2128 364692 36349 328343 2893 325450
is_linear=0
shrinkage=0.1


Tree=8
num_leaves=16
num_cat=0
split_feature=11 17 3 6 11 7 9 12 10 3 3 17 17 10 16
split_gain=2.02706e-05 2.96684e-05 7.00539e-05 6.16184e-05 9.27931e-05 7.84325e-05 6.34755e-05 4.77202e-05 2.78601e-05 6.31858e-05 3.76995e-05 4.97709e-05 4.11219e-05 7.97962e-05 9.23822e-05
threshold=0.062499999999949922 0.41370877726741179 -0.00081257194649658737 0.0068202980576451697 0.80487804878039582 -0.0020133383436666814 0.003804981143168074 120.64851871437969 0.0064880670116586056 -0.0029071496413766713 0.0049277863436285605 0.26403304325789595 0.41370877726741179 -0.0084096381478438436 60.85338445655352
decision_type=2 2 10 10 2 10 8 2 10 10 8 2 2 8 2
left_child=8 -2 -3 4 5 -4 -7 -5 10 -10 12 -12 -1 -14 -15
right_child=1 2 3 7 -6 6 -8 -9 9 -11 11 -13 13 14 -16
leaf_value=-3.3894891692266488e-07 5.3082600689471589e-07 3.0111904776346872e-05 -5.3139613444290611e-05 4.1158561737141118e-05 2.791524659294416e-05 1.7463881962599556e-05 -3.1412412442030415e-05 2.5296346152771104e-06 2.481497676562499e-05 -9.1988808519629496e-06 2.0959633113521636e-06 2.8042427374649857e-05 -2.8278035239976958e-05 1.3478279695780034e-05 -2.6321589507252286e-05
leaf_weight=349505 256275 1142 516 543 510 562 504 778 593 6912 2433 1062 1554 1761 872
leaf_count=349505 256275 1142 516 543 510 562 504 778 593 6912 2433 1062 1554 1761 872
internal_value=0 6.73013e-07 8.67278e-06 1.49919e-06 -9.17802e-06 -2.1136e-05 -5.64461e-06 1.84081e-05 -4.81536e-07 -6.51131e-06 -3.54842e-07 9.98012e-06 -4.56967e-07 -1.03084e-05 2.97313e-07
internal_weight=0 260830 4555 3413 2092 1582 1066 1321 364692 7505 357187 3495 353692 4187 2633
internal_count=625522 260830 4555 3413 2092 1582 1066 1321 364692 7505 357187 3495 353692 4187 2633
is_linear=0
shrinkage=0.1


Tree=9
num_leaves=16
num_cat=5
split_feature=0 1 6 5 1 1 18 6 18 12 18 6 12 18 18
split_gain=2.29878e-05 5.27378e-05 8.56188e-05 5.12864e-05 6.56599e-05 5.09439e-05 4.69006e-05 4.49571e-05 4.05635e-05 4.0464e-05 3.67666e-05 3.42639e-05 3.17434e-05 4.95205e-05 4.92198e-05
threshold=338.50000000000006 -0.0020131703663579521 -8.6419219795741395e-05 0.006325996942302071 0.0027377882603067953 0.0027377882603067953 0 -0.0035509565211885303 1 -74.439926994234995 2 -0.002243247042179763 12.45193535763446 3 4
decision_type=2 2 10 10 2 2 1 10 1 2 1 8 2 1 1
left_child=1 2 7 12 10 11 -7 8 -1 -8 -5 -2 13 -3 -14
right_child=5 3 -4 4 -6 6 9 -9 -10 -11 -12 -13 14 -15 -16
leaf_value=-2.9526286216403647e-05 2.1832737967780977e-06 -1.0987405255189644e-05 1.5793888185698193e-05 1.6043989707302666e-05 -4.4117821609134959e-05 -9.3745628188640105e-06 3.9746430215133831e-05 -4.2582928487213966e-05 -9.4194277135330916e-07 1.0029517893196327e-05 -1.7090343311634388e-05 -1.8324542756950396e-07 1.2829609004619028e-05 -1.0746299399410942e-06 3.5576008124702592e-07
leaf_weight=901 70419 5866 778 522 611 1158 504 754 1104 5043 897 466367 3505 35456 31637
leaf_count=901 70419 5866 778 522 611 1158 504 754 1104 5043 897 466367 3505 35456 31637
internal_value=0 -1.5605e-06 -1.35051e-05 -1.02226e-06 -1.67101e-05 2.35415e-07 8.89807e-06 -2.17671e-05 -1.3939e-05 1.27067e-05 -4.90877e-06 1.2721e-07 -6.05775e-07 -2.48475e-06 1.60363e-06
internal_weight=0 82031 3537 78494 2030 543491 6705 2759 2005 5547 1419 536786 76464 41322 35142
internal_count=625522 82031 3537 78494 2030 543491 6705 2759 2005 5547 1419 536786 76464 41322 35142
cat_boundaries=0 1 2 3 4 5
cat_threshold=2220 2322 3233 218 194
is_linear=0
shrinkage=0.1


Tree=10
num_leaves=16
num_cat=4
split_feature=3 6 18 14 1 0 12 18 0 11 18 1 0 10 18
split_gain=2.14199e-05 6.02391e-05 6.85849e-05 5.52394e-05 3.77163e-05 6.64967e-05 7.12716e-05 4.25393e-05 6.22298e-05 3.51234e-05 5.82356e-05 3.35948e-05 3.30772e-05 7.40166e-05 3.46978e-05
threshold=0.002499684920559964 0.0068202980576451697 0 85.513485400080583 -0.0020131703663579521 346.50000000000006 1.0000000180025095e-35 1 710.50000000000011 -0.94117647058825249 2 -0.0027305702796561189 378.50000000000006 -0.0063789875310101265 3
decision_type=10 10 1 2 2 2 2 1 2 2 1 2 2 8 1
left_child=1 4 3 -3 5 9 7 11 12 -1 -11 -7 14 -14 -9
right_child=-2 2 -4 -5 -6 6 -8 8 -10 10 -12 -13 13 -15 -16
leaf_value=-1.8636050332755792e-06 -2.2584782897188743e-06 5.8912325514788472e-05 2.0741045507140462e-06 1.3035417038734666e-05 2.2030350898169223e-07 3.9336272632427109e-05 -1.3478461063310864e-05 -2.5638704134311595e-05 -3.1636836642051557e-05 -3.3138757563535517e-05 -4.9448479262240047e-06 8.1917706015825855e-06 2.6695747075504379e-05 -1.8527735786207572e-07 2.9293836003926934e-06
leaf_weight=1363 39357 508 1613 543 566960 533 3256 699 552 1727 1291 989 1425 3643 1063
leaf_count=1363 39357 508 1613 543 566960 533 3256 699 552 1727 1291 989 1425 3643 1063
internal_value=0 1.51477e-07 1.51546e-05 3.48781e-05 8.29789e-08 -4.62397e-06 -8.18228e-07 3.81135e-06 6.58594e-07 -1.51873e-05 -2.12045e-05 1.89738e-05 3.26967e-06 7.37302e-06 -8.5327e-06
internal_weight=0 586165 2664 1051 583501 16541 12160 8904 7382 4381 3018 1522 6830 5068 1762
internal_count=625522 586165 2664 1051 583501 16541 12160 8904 7382 4381 3018 1522 6830 5068 1762
cat_boundaries=0 1 2 3 4
cat_threshold=146 2588 1346 1026
is_linear=0
shrinkage=0.1


Tree=11
num_leaves=16
num_cat=0
split_feature=3 6 16 1 11 16 6 17 10 12 16 15 9 17 1
split_gain=1.73485e-05 4.88e-05 8.48625e-05 3.27681e-05 3.41923e-05 5.09081e-05 0.000129007 7.8702e-05 3.90102e-05 5.16806e-05 4.81698e-05 6.03646e-05 5.23319e-05 3.41922e-05 3.12492e-05
threshold=0.002499684920559964 0.0068202980576451697 80.952380952383791 -0.0020131703663579521 0.74999999999994083 80.952380952383791 0.0068202980576451697 0.35119800374852811 0.0053259636957483378 -25.608866665827247 86.441002248355332 75.456384848956134 0.0082874259212230034 0.41370877726741179 0.001227307427998481
decision_type=10 10 2 2 2 2 10 2 10 2 2 2 10 2 2
left_child=1 -1 -3 -2 8 6 -6 -7 9 14 11 12 -10 -11 -5
right_child=3 2 -4 4 5 7 -8 -9 10 13 -12 -13 -14 -15 -16
leaf_value=7.4576590727159827e-08 1.8180506280208666e-05 4.1760423470264172e-05 2.3118037094860845e-06 -9.3336784891439154e-06 3.7195963172281868e-07 4.6507389239127297e-06 -4.350839242819817e-05 4.3394393368163331e-05 -2.4889542014691337e-05 -9.683744066123265e-07 -5.4137300735305777e-06 -5.0312329861383463e-05 1.1932762850702338e-05 2.1359806004575819e-05 -3.767525041286529e-05
leaf_weight=583501 786 765 1899 1385 6736 5644 744 578 1218 14062 5795 582 565 721 541
leaf_count=583501 786 765 1899 1385 6736 5644 744 578 1218 14062 5795 582 565 721 541
internal_value=0 1.36228e-07 1.364e-05 -2.03263e-06 -2.44453e-06 1.56663e-06 -3.99261e-06 8.24988e-06 -4.65455e-06 -1.88679e-06 -1.0322e-05 -2.23489e-05 -1.32212e-05 1.20621e-07 -1.72946e-05
internal_weight=0 586165 2664 39357 38571 13702 7480 6222 24869 16709 8160 2365 1783 14783 1926
internal_count=625522 586165 2664 39357 38571 13702 7480 6222 24869 16709 8160 2365 1783 14783 1926
is_linear=0
shrinkage=0.1


Tree=12
num_leaves=16
num_cat=4
split_feature=11 18 3 3 1 9 3 10 18 6 18 1 18 13 9
split_gain=1.64111e-05 3.11264e-05 2.84191e-05 2.54283e-05 4.76631e-05 4.23599e-05 4.82682e-05 3.61423e-05 3.2208e-05 2.9388e-05 2.78894e-05 2.69037e-05 5.06405e-05 4.92457e-05 6.50052e-05
threshold=0.062499999999949922 0 -0.001171050768624393 0.0049277863436285605 -0.0016528790628883014 0.0061549582614642837 0.0019537249569832054 0.0064880670116586056 1 0.0035650587332134447 2 -0.0027305702796561189 3 68.500971817564348 -0.0060780760374353196
decision_type=2 1 10 8 2 8 10 10 1 10 1 2 1 2 10
left_child=1 2 -1 5 -5 11 8 10 9 -7 -6 12 -3 14 -14
right_child=-2 3 -4 4 7 6 -8 -9 -10 -11 -12 -13 13 -15 -16
leaf_value=4.217381312789979e-06 6.0545495687236785e-07 1.471274366511642e-05 1.4594010002498817e-07 3.5608977151031675e-05 2.0665274777605508e-05 -4.3893326200521686e-06 -2.0896682650016109e-05 -1.951995724972171e-05 -1.2572293617627113e-05 1.3613074568898551e-05 -2.4516070308206134e-06 -6.8501245550887937e-07 -2.1451113441045452e-05 -3.801304511038349e-05 2.0242199737712785e-06
leaf_weight=22858 260830 894 68583 520 994 2574 2164 582 2471 1400 1089 255085 1994 596 2888
leaf_count=22858 260830 894 68583 520 994 2574 2164 582 2471 1400 1089 255085 1994 596 2888
internal_value=0 -4.33385e-07 1.16357e-06 -9.678e-07 7.91512e-06 -1.0726e-06 -7.97446e-06 2.51145e-06 -3.63564e-06 1.94783e-06 8.66712e-06 -8.45338e-07 -7.2635e-06 -1.0857e-05 -7.56403e-06
internal_weight=0 364692 91441 273251 3185 270066 8609 2665 6445 3974 2083 261457 6372 5478 4882
internal_count=625522 364692 91441 273251 3185 270066 8609 2665 6445 3974 2083 261457 6372 5478 4882
cat_boundaries=0 1 2 3 4
cat_threshold=2100 1218 322 648
is_linear=0
shrinkage=0.1


Tree=13
num_leaves=16
num_cat=2
split_feature=8 2 17 18 9 15 2 14 18 2 15 7 17 15 1
split_gain=1.7021e-05 2.77232e-05 4.11085e-05 0.000101215 0.000102689 5.41276e-05 4.53706e-05 2.57972e-05 1.92082e-05 2.8886e-05 2.44475e-05 1.99201e-05 1.91678e-05 1.75655e-05 1.70568e-05
threshold=-0.0036060509467474296 0.0029364440368163662 0.41370877726741179 0 -0.0060780760374353196 26.47439546109241 -0.0017599994825188701 44.426502363593279 1 0.0011621656055924581 5.6445713178478112 -0.0054117829036524059 0.35119800374852811 20.359498052608568 -0.0014173188748866081
decision_type=8 10 2 1 10 2 10 2 1 10 2 10 2 2 2
left_child=1 2 8 6 5 -5 -4 -3 9 12 -10 -12 13 -1 -2
right_child=14 7 3 4 -6 -7 -8 -9 10 -11 11 -13 -14 -15 -16
leaf_value=-2.2734442589018105e-06 -2.8087637685579202e-06 2.1815986051041884e-06 -3.4415455368476187e-06 -2.2494612534980574e-05 1.6859378397930413e-05 -6.2221263158764636e-05 3.7029989344152881e-05 3.2521584712648649e-05 -1.9219007486780206e-06 -2.5261626817198018e-05 8.1910657681103944e-06 2.6613758051867477e-06 -1.5436053068839798e-05 8.5454549091423519e-06 -4.2939005867613555e-08
leaf_weight=5007 23236 562 615 1078 500 503 504 559 7630 508 9543 20529 791 2143 551814
leaf_count=5007 23236 562 615 1078 500 503 504 559 7630 508 9543 20529 791 2143 551814
internal_value=0 1.7606e-06 1.40737e-06 -9.5532e-06 -2.25331e-05 -3.51338e-05 1.46559e-05 1.7311e-05 2.16735e-06 -2.14128e-06 3.13265e-06 4.41616e-06 -6.64922e-07 9.69199e-07 -1.54697e-07
internal_weight=0 50472 49351 3200 2081 1581 1119 1121 46151 8449 37702 30072 7941 7150 575050
internal_count=625522 50472 49351 3200 2081 1581 1119 1121 46151 8449 37702 30072 7941 7150 575050
cat_boundaries=0 1 2
cat_threshold=3841 768
is_linear=0
shrinkage=0.1


Tree=14
num_leaves=16
num_cat=1
split_feature=0 5 2 8 18 14 6 8 5 12 12 4 16 5 0
split_gain=1.63324e-05 3.81912e-05 6.30787e-05 4.71223e-05 5.21791e-05 3.9077e-05 3.11571e-05 3.10971e-05 3.30575e-05 3.35098e-05 3.37997e-05 4.14514e-05 2.81132e-05 6.57666e-05 2.66574e-05
threshold=338.50000000000006 0.006325996942302071 0.0039985928012347136 -0.0019570324377474187 0 87.159443154377854 0.0068202980576451697 -0.0041095203900478041 0.0014332199458034769 -25.608866665827247 -59.227919315565615 0.00054464680051202763 12.564102564101034 -0.003771234585937588 402.50000000000006
decision_type=2 10 10 8 1 2 10 8 10 2 2 10 2 10 2
left_child=1 3 5 4 12 -3 -5 8 9 10 11 -2 -1 -14 -13
right_child=7 2 -4 6 -6 -7 -8 -9 -10 -11 -12 14 13 -15 -16
leaf_value=-5.7229088824058267e-06 2.5954651523406633e-06 -1.8687178533069034e-05 -3.4277154051739238e-05 -1.0549812501517782e-07 -2.5754670099093892e-06 1.6824662382433933e-05 2.2822792601326239e-05 -4.0641688880710457e-10 -1.8327868750379482e-05 -2.0991282048592777e-05 1.9732250827002564e-05 3.7473963241729216e-05 -4.5461690596344857e-05 -9.745570016999509e-06 7.2017065222355029e-06
leaf_weight=1366 31389 581 920 66513 9243 664 598 508382 707 549 1299 562 861 1285 603
leaf_count=1366 31389 581 920 66513 9243 664 598 508382 707 549 1299 562 861 1285 603
internal_value=0 -1.3154e-06 -1.44206e-05 -9.60144e-07 -6.53186e-06 2.5247e-07 9.88069e-08 1.98376e-07 3.07677e-06 3.51666e-06 3.91411e-06 3.28292e-06 -1.6889e-05 -2.40753e-05 2.18051e-05
internal_weight=0 82031 2165 79866 12755 1245 67111 543491 35109 34402 33853 32554 3512 2146 1165
internal_count=625522 82031 2165 79866 12755 1245 67111 543491 35109 34402 33853 32554 3512 2146 1165
cat_boundaries=0 1
cat_threshold=2198
is_linear=0
shrinkage=0.1


Tree=15
num_leaves=16
num_cat=1
split_feature=0 17 11 0 13 18 0 16 9 8 3 8 0 5 16
split_gain=1.57259e-05 3.58661e-05 9.34291e-05 0.000129261 0.000171173 0.000202084 0.000126657 7.57339e-05 7.46429e-05 6.85033e-05 5.09756e-05 4.4334e-05 4.68329e-05 2.84082e-05 2.54912e-05
threshold=543.50000000000011 0.26403304325789595 0.14269453882476893 718.50000000000011 55.883061036618997 0 631.50000000000011 66.457456569653289 0.0061549582614642837 -0.0017859423408380646 0.0049277863436285605 0.0023639191382306417 703.50000000000011 -0.003771234585937588 86.441002248355332
decision_type=2 2 2 2 2 1 2 2 10 10 10 10 2 10 2
left_child=-1 10 3 6 5 -5 9 -8 11 -3 13 12 -4 -2 -12
right_child=1 2 8 4 -6 -7 7 -9 -10 -11 14 -13 -14 -15 -16
leaf_value=-4.5869730400893494e-07 7.2180905479180618e-06 1.2207501121140274e-05 4.8654687091768191e-06 -9.0071169579743001e-05 1.2824463723390773e-05 -4.5169543083227754e-06 5.4773703201422722e-05 7.656973565481785e-06 4.5632694877380699e-05 -3.895614734020732e-05 -3.5024463139898003e-05 -1.1866211329302021e-05 4.1760334113119766e-05 3.0061017394548193e-07 -4.7508618221260033e-06
leaf_weight=340618 6070 542 812 536 855 573 760 619 884 506 598 605 597 270427 520
leaf_count=340618 6070 542 812 536 855 573 760 619 884 506 598 605 597 270427 520
internal_value=0 5.4811e-07 7.47248e-06 -1.72512e-06 -2.0798e-05 -4.67198e-05 1.37092e-05 3.36241e-05 2.14085e-05 -1.24956e-05 3.66305e-07 1.07759e-05 2.0498e-05 4.52471e-07 -2.09437e-05
internal_weight=0 284904 7289 4391 1964 1109 2427 1379 2898 1048 277615 2014 1409 276497 1118
internal_count=625522 284904 7289 4391 1964 1109 2427 1379 2898 1048 277615 2014 1409 276497 1118
cat_boundaries=0 1
cat_threshold=87
is_linear=0
shrinkage=0.1


Tree=16
num_leaves=16
num_cat=2
split_feature=2 10 16 0 18 2 15 0 0 3 6 18 11 15 15
split_gain=1.35373e-05 4.24314e-05 0.000176306 7.64529e-05 4.44456e-05 4.19499e-05 3.16991e-05 2.7116e-05 5.15076e-05 2.91307e-05 2.33051e-05 2.13157e-05 4.23755e-05 3.80936e-05 6.07782e-05
threshold=-0.002875617429842658 -0.0084096381478438436 24.166666666671528 378.50000000000006 0 -0.0039014784732848136 12.374512112081083 615.50000000000011 583.50000000000011 -0.0019295099692966942 0.0031148786138646138 1 -0.60714285714284244 18.908943422185342 38.444911297854247
decision_type=10 8 2 2 1 10 2 2 2 10 10 1 2 2 2
left_child=1 2 3 4 6 -5 -1 8 10 -9 11 -3 -13 -14 -15
right_child=-2 7 -4 5 -6 -7 -8 9 -10 -11 -12 12 13 14 -16
leaf_value=-7.517941994592548e-06 -8.8423341820116785e-08 7.2155724599587576e-06 -5.8320288436315445e-05 3.6571667494018221e-05 1.0565420288940155e-05 -1.1133473099794232e-07 -3.9290644035742459e-05 1.7977919623566172e-05 -2.6044209564451191e-05 -7.8266856375381042e-06 2.0846763252549328e-05 -7.6568686717330264e-06 -1.7459563439227017e-05 3.715721593126962e-05 3.4787588281204178e-06
leaf_weight=710 603839 6360 572 732 653 543 563 2400 596 535 773 3973 508 727 2038
leaf_count=710 603839 6360 572 732 653 543 563 2400 596 535 773 3973 508 727 2038
internal_value=0 2.4547e-06 -7.18333e-06 1.95455e-06 -1.06197e-05 2.0949e-05 -2.14017e-05 4.48509e-06 2.76248e-06 1.32742e-05 3.9565e-06 2.99691e-06 -7.14883e-07 7.70961e-06 1.23338e-05
internal_weight=0 21683 3773 3201 1926 1275 1273 17910 14975 2935 14379 13606 7246 3273 2765
internal_count=625522 21683 3773 3201 1926 1275 1273 17910 14975 2935 14379 13606 7246 3273 2765
cat_boundaries=0 1 2
cat_threshold=338 2452
is_linear=0
shrinkage=0.1


Tree=17
num_leaves=16
num_cat=1
split_feature=1 18 12 6 10 16 17 3 17 16 0 13 1 13 3
split_gain=1.33852e-05 3.51744e-05 3.89731e-05 8.82697e-05 4.22868e-05 3.50148e-05 4.33773e-05 2.75654e-05 3.1823e-05 4.39815e-05 4.34511e-05 3.33272e-05 3.1257e-05 6.78358e-05 4.51273e-05
threshold=0.001227307427998481 0 211.17183089117847 0.0050582852439771129 inf 95.793829264587274 0.19139671468433458 0.0049277863436285605 0.24633525396527595 89.032990661527336 394.50000000000006 54.172219535674849 0.0027377882603067953 65.189681667961295 0.00014358827126714771
decision_type=2 1 2 10 8 2 2 8 2 2 2 2 2 2 10
left_child=-1 7 4 -4 5 -3 -7 12 -9 10 11 -10 -2 14 -14
right_child=1 2 3 -5 -6 6 -8 8 9 -11 -12 -13 13 -15 -16
leaf_value=-1.2657424791377676e-07 4.176344220029935e-06 -2.3792315583453104e-07 2.6089469314489552e-06 -5.0009766307014692e-05 -2.2846925589510416e-05 -1.7930455005329081e-06 3.8993709106926035e-05 -2.0105358834067981e-05 2.2249116150358456e-05 2.1650094594782149e-05 -3.096734933388125e-05 -1.3553618852198982e-05 5.1000673498724591e-05 -9.8568835755350528e-06 1.658838359370013e-05
leaf_weight=582088 16581 17591 824 520 787 521 522 900 518 767 527 522 502 770 1582
leaf_count=582088 16581 17591 824 520 787 521 522 900 518 767 527 522 502 770 1582
internal_value=0 1.69323e-06 -1.28041e-06 -1.77495e-05 -1.41357e-07 8.17604e-07 1.86199e-05 4.41573e-06 -4.13078e-06 2.02908e-06 -7.57482e-06 4.2789e-06 5.84015e-06 1.55064e-05 2.48777e-05
internal_weight=0 43434 20765 1344 19421 18634 1043 22669 3234 2334 1567 1040 19435 2854 2084
internal_count=625522 43434 20765 1344 19421 18634 1043 22669 3234 2334 1567 1040 19435 2854 2084
cat_boundaries=0 1
cat_threshold=807
is_linear=0
shrinkage=0.1


Tree=18
num_leaves=16
num_cat=1
split_feature=0 17 12 18 0 3 17 0 0 1 10 10 15 13 9
split_gain=1.30224e-05 2.79918e-05 8.19917e-05 7.33584e-05 5.55725e-05 4.29335e-05 4.55233e-05 3.79213e-05 3.583e-05 8.701e-05 5.42874e-05 5.23568e-05 6.41282e-05 4.29705e-05 2.66917e-05
threshold=543.50000000000011 0.26403304325789595 148.42950910442394 0 607.50000000000011 0.0029462920503721128 0.23172216189997644 671.50000000000011 718.50000000000011 -0.00057468697680029812 0.001853847595174041 0.0010717184456807696 36.678535385587359 50.033428486704992 0.0050721289599269257
decision_type=2 2 2 1 2 10 2 2 2 2 10 10 2 2 10
left_child=-1 5 3 -3 -5 -2 7 -7 11 -10 13 12 -6 -11 -13
right_child=1 2 -4 4 8 6 -8 -9 9 10 -12 14 -14 -15 -16
leaf_value=-4.1748366111090467e-07 5.2306261779350993e-07 -2.7111127297196105e-05 4.1492704175279829e-05 -2.0310004878668731e-05 1.3206236269383161e-05 -1.201375886731424e-05 -3.3144852412598473e-05 5.0808098021066291e-06 -2.7232579372335345e-05 1.8223358098748427e-05 3.5572768040055068e-05 -1.1194611662533863e-05 5.4779560824597542e-05 -2.0925855536888289e-05 1.8200305536588697e-05
leaf_weight=340618 271606 696 617 663 881 3166 644 2199 733 603 694 639 641 524 598
leaf_count=340618 271606 696 617 663 881 3166 644 2199 733 603 694 639 641 524 598
internal_value=0 4.98702e-07 6.61591e-06 3.39065e-06 6.97675e-06 3.3809e-07 -8.02266e-06 -5.00706e-06 1.0395e-05 1.85965e-06 1.357e-05 1.82961e-05 3.07151e-05 2.08843e-08 3.0157e-06
internal_weight=0 284904 7289 6672 5976 277615 6009 5365 5313 2554 1821 2759 1522 1127 1237
internal_count=625522 284904 7289 6672 5976 277615 6009 5365 5313 2554 1821 2759 1522 1127 1237
cat_boundaries=0 1
cat_threshold=64
is_linear=0
shrinkage=0.1


Tree=19
num_leaves=16
num_cat=4
split_feature=11 18 2 17 8 0 13 18 15 4 18 10 18 17 0
split_gain=1.2007e-05 2.46731e-05 2.59779e-05 0.000104187 3.27573e-05 5.97507e-05 5.79598e-05 3.14097e-05 2.4272e-05 2.35695e-05 2.29835e-05 2.22921e-05 5.89709e-05 2.2069e-05 0.000162004
threshold=0.062499999999949922 0 0.0029364440368163662 0.35119800374852811 0.0078229747542636358 444.50000000000006 72.362317033482597 1 86.601307189540492 -0.0016570018452313204 2 inf 3 0.41370877726741179 703.50000000000011
decision_type=2 1 10 2 10 2 2 1 2 8 1 8 1 2 2
left_child=1 9 4 7 13 6 8 -4 -6 -1 -2 -12 -13 -3 -15
right_child=10 2 3 -5 5 -7 -8 -9 -10 -11 11 12 -14 14 -16
leaf_value=5.3100012539072309e-06 1.4110819887200979e-06 -6.5673875383521183e-07 1.2634172919206321e-05 3.9364037569612268e-05 2.6858620259396097e-05 -3.8955161086189603e-05 -2.5502150772628212e-05 -1.2477194966463746e-05 -2.9752531901145463e-06 4.7271507286108499e-07 -2.7634215384443994e-07 -3.394076701424158e-05 -2.9569388033287031e-08 -7.1102092547751564e-08 -5.7365189204447584e-05
leaf_weight=12297 136876 287247 790 800 522 629 705 1312 571 55688 121457 711 1786 3558 573
leaf_count=12297 136876 287247 790 800 522 629 705 1312 571 55688 121457 711 1786 3558 573
internal_value=0 -3.70736e-07 -7.64453e-07 8.65049e-06 -8.57473e-07 -1.24271e-05 -3.14666e-06 -3.03878e-06 1.12729e-05 1.34748e-06 5.17844e-07 -4.68588e-07 -9.82155e-06 -7.61106e-07 -8.01821e-06
internal_weight=0 364692 296707 2902 293805 2427 1798 2102 1093 67985 260830 123954 2497 291378 4131
internal_count=625522 364692 296707 2902 293805 2427 1798 2102 1093 67985 260830 123954 2497 291378 4131
cat_boundaries=0 1 2 3 4
cat_threshold=2096 193 1411 80
is_linear=0
shrinkage=0.1


Tree=20
num_leaves=16
num_cat=2
split_feature=2 10 16 0 4 5 8 18 15 14 0 6 3 18 0
split_gain=1.23846e-05 3.30297e-05 0.00013949 6.46655e-05 2.21803e-05 2.49556e-05 4.1134e-05 5.11517e-05 2.42808e-05 2.76258e-05 3.07809e-05 2.22406e-05 3.0771e-05 2.04998e-05 3.92402e-05
threshold=-0.002875617429842658 -0.0084096381478438436 24.166666666671528 494.50000000000006 -0.0054796576120222365 0.0037953194372675196 0.0023639191382306417 0 67.448611263479592 1.0000000180025095e-35 346.50000000000006 1.0000000180025095e-35 -0.0021691973969631402 1 378.50000000000006
decision_type=10 8 2 2 8 10 10 1 2 2 2 10 10 1 2
left_child=1 2 3 13 8 6 11 -8 9 10 -3 -6 -13 14 -1
right_child=-2 4 -4 -5 5 -7 7 -9 -10 -11 -12 12 -14 -15 -16
leaf_value=-1.7818558129498274e-05 -8.4564199937148765e-08 -2.0933504392993272e-05 -5.1641028723132517e-05 3.3879853848325098e-05 1.8734202331409153e-06 2.3698414816468395e-05 1.890333986555084e-06 -3.9350565545245943e-05 2.8407485057253208e-05 2.0589002743652679e-05 7.9686065862871884e-06 3.0048846832945582e-05 -1.0532977699569814e-06 1.2657764581398403e-05 1.1823025963053625e-05
leaf_weight=1478 603839 510 572 530 11368 530 703 519 669 1002 1328 693 588 553 640
leaf_count=1478 603839 510 572 530 11368 530 703 519 669 1002 1328 693 588 553 640
internal_value=0 2.34787e-06 -6.15561e-06 1.97237e-06 4.13926e-06 2.40213e-06 1.58842e-06 -1.59318e-05 1.12685e-05 7.23113e-06 -5.10216e-08 3.28101e-06 1.57725e-05 -4.35896e-06 -8.82006e-06
internal_weight=0 21683 3773 3201 17910 14401 13871 1222 3509 2840 1838 12649 1281 2671 2118
internal_count=625522 21683 3773 3201 17910 14401 13871 1222 3509 2840 1838 12649 1281 2671 2118
cat_boundaries=0 1 2
cat_threshold=1106 466
is_linear=0
shrinkage=0.1


Tree=21
num_leaves=16
num_cat=2
split_feature=3 2 14 13 6 5 12 6 8 18 15 8 2 18 7
split_gain=1.21349e-05 4.02418e-05 5.56758e-05 2.68678e-05 0.00017766 4.94362e-05 4.57949e-05 3.09633e-05 5.64389e-05 4.86504e-05 2.74707e-05 2.65208e-05 2.5778e-05 3.69471e-05 2.85707e-05
threshold=0.002499684920559964 0.0039985928012347136 87.159443154377854 47.549298959698085 0.0068202980576451697 0.006325996942302071 126.60894223889164 0.00013461214889887166 -0.00080733327749687989 0 55.026455026456055 0.00085802386440558831 0.0039985928012347136 1 -0.0016746738887944976
decision_type=10 10 2 2 10 8 2 10 8 1 2 8 10 1 8
left_child=1 -1 -3 4 5 12 -6 9 -9 11 -11 -5 14 -14 -2
right_child=3 2 -4 7 6 -7 -8 8 -10 10 -12 -13 13 -15 -16
leaf_value=7.19417925562286e-08 -2.2345230943908556e-05 2.5639006663568141e-06 4.3197759185676225e-05 -3.6185210001111247e-05 -2.4758048981200652e-05 2.3799371583702556e-05 -6.6914892878523007e-05 2.709358162626896e-05 5.852634419291871e-08 1.3477336289833606e-05 -1.5833356417715551e-05 -7.8512419793671619e-06 2.2250416815736303e-05 -1.1280831553685794e-05 -3.7174484930099414e-06
leaf_weight=584668 955 984 513 764 524 703 507 796 25815 887 500 582 806 544 5974
leaf_count=584668 955 984 513 764 524 703 507 796 25815 887 500 582 806 544 5974
internal_value=0 1.13868e-07 1.64885e-05 -1.70005e-06 -6.17288e-06 -1.65999e-06 -4.54889e-05 -1.73796e-07 8.67211e-07 -1.031e-05 2.89028e-06 -2.37573e-05 -3.82184e-06 8.81982e-06 -6.28485e-06
internal_weight=0 586165 1497 39357 10013 8982 1031 29344 26611 2733 1387 1346 8279 1350 6929
internal_count=625522 586165 1497 39357 10013 8982 1031 29344 26611 2733 1387 1346 8279 1350 6929
cat_boundaries=0 1 2
cat_threshold=2242 835
is_linear=0
shrinkage=0.1


Tree=22
num_leaves=16
num_cat=2
split_feature=8 18 15 3 1 13 14 10 15 14 5 18 13 3 14
split_gain=1.14434e-05 2.66496e-05 4.24825e-05 2.76184e-05 3.89866e-05 7.48935e-05 2.96851e-05 2.04402e-05 3.52372e-05 5.21608e-05 7.78002e-05 4.56747e-05 2.40574e-05 1.93895e-05 2.7804e-05
threshold=-0.0041095203900478041 0 62.249498961049902 0.0029462920503721128 0.0014054319963943131 29.815677660784377 28.820874446387773 -0.0084096381478438436 8.4914047642905235 1.8934428697330381 -0.0045886255654233868 1 18.874734340418083 -0.0047563263577729544 1.0000000180025095e-35
decision_type=8 1 2 10 2 2 2 10 2 2 10 1 2 10 2
left_child=1 -1 3 4 7 -6 -7 8 12 11 -11 -10 -3 14 -9
right_child=-2 2 -4 -5 5 6 -8 13 9 10 -12 -13 -14 -15 -16
leaf_value=4.9075529716765303e-06 -1.1247459229391581e-07 1.3689271375733067e-05 -2.5020635311755733e-05 -2.0548358886097957e-05 -1.4497247482907076e-05 1.499980153956732e-05 4.9203000389842262e-05 3.5242776292570029e-06 1.6711620030034822e-05 -5.1332025735585906e-05 -6.172367527925547e-06 -1.5951880116868945e-05 -4.7610597143481113e-06 4.4180975516550629e-07 3.1220443317985141e-05
leaf_weight=15344 585211 1206 681 619 523 508 507 1247 821 666 893 873 1707 14205 511
leaf_count=15344 585211 1206 681 619 523 508 507 1247 821 666 893 873 1707 14205 511
internal_value=0 1.62946e-06 -3.86975e-07 3.03614e-07 8.48989e-07 1.62443e-05 3.20846e-05 -2.21011e-07 -5.11111e-06 -1.22647e-05 -2.54644e-05 -1.16974e-07 2.87749e-06 1.66788e-06 1.15748e-05
internal_weight=0 40311 24967 24286 23667 1538 1015 22129 6166 3253 1559 1694 2913 15963 1758
internal_count=625522 40311 24967 24286 23667 1538 1015 22129 6166 3253 1559 1694 2913 15963 1758
cat_boundaries=0 1 2
cat_threshold=3101 642
is_linear=0
shrinkage=0.1


Tree=23
num_leaves=16
num_cat=2
split_feature=13 4 18 2 8 1 9 0 0 4 4 18 8 2 2
split_gain=1.10935e-05 3.25683e-05 5.47849e-05 2.81259e-05 2.6109e-05 4.26057e-05 6.1996e-05 4.95713e-05 3.85974e-05 3.6935e-05 3.17325e-05 6.39316e-05 4.3405e-05 3.2509e-05 2.83554e-05
threshold=28.393723495636674 0.0033899763625844241 0 0.0029364440368163662 -0.0041095203900478041 -0.0027305702796561189 -0.0080435902374634254 362.50000000000006 243.50000000000003 -0.0054796576120222365 -0.0054796576120222365 1 -0.0076384609294838915 -0.0020123086216314308 9.0444535074007973e-05
decision_type=2 8 1 10 8 2 8 2 2 10 10 1 10 10 10
left_child=1 3 -3 -1 5 6 7 -2 -7 -8 11 12 -10 -13 -12
right_child=4 2 -4 -5 -6 8 9 -9 10 -11 14 13 -14 -15 -16
leaf_value=-9.6824933133673711e-07 -5.0391260588410224e-05 1.0228089937694776e-05 -2.546290577670534e-05 1.7319599385647213e-05 1.0847447712011466e-08 -1.9930075257364211e-05 2.4211660401368227e-05 -5.9724084116169253e-06 4.5520350148406212e-05 -8.8855676667791012e-06 1.4406662582461836e-06 1.0580226764274137e-05 1.2275927655980772e-05 -2.0100709356595087e-05 1.0116084582892512e-05
leaf_weight=79182 505 635 1308 850 518443 621 558 500 790 852 13774 1013 781 524 5186
leaf_count=79182 505 635 1308 850 518443 621 558 500 790 852 13774 1013 781 524 5186
internal_value=0 -1.08459e-06 -1.3877e-05 -7.74019e-07 1.63357e-07 3.31296e-06 -9.31436e-06 -2.82923e-05 4.657e-06 4.21248e-06 5.34889e-06 1.47148e-05 2.881e-05 1.19585e-07 3.81359e-06
internal_weight=0 81975 1943 80032 543547 25104 2415 1005 22689 1410 22068 3108 1571 1537 18960
internal_count=625522 81975 1943 80032 543547 25104 2415 1005 22689 1410 22068 3108 1571 1537 18960
cat_boundaries=0 1 2
cat_threshold=389 3392
is_linear=0
shrinkage=0.1


Tree=24
num_leaves=16
num_cat=0
split_feature=7 6 17 13 15 2 4 13 16 17 14 2 16 6 14
split_gain=1.05407e-05 5.43921e-05 3.23158e-05 5.22047e-05 4.27422e-05 7.2784e-05 3.84332e-05 6.85697e-05 5.90308e-05 3.40742e-05 3.34509e-05 3.21651e-05 8.25775e-05 0.000112139 2.70644e-05
threshold=0.0033535776412603195 0.0068202980576451697 0.35119800374852811 75.471900022699046 85.300077585635208 -0.00044655068592291952 0.0041560077202393861 45.885240616877709 69.86149181527027 0.41370877726741179 90.499739880608999 0.0039985928012347136 80.952380952383791 0.0068202980576451697 30.479192788244074
decision_type=10 10 2 2 2 10 10 2 2 2 2 8 2 10 2
left_child=1 -1 11 4 5 -4 8 -8 -7 -9 -6 14 13 -13 -2
right_child=2 -3 3 -5 10 6 7 9 -10 -11 -12 12 -14 -15 -16
leaf_value=9.1059270635732302e-08 2.1230753542837298e-05 3.2795070577229872e-05 4.2578612923618562e-05 -1.2417806772199876e-05 -1.8728970197352477e-05 1.4756824656918374e-05 -1.3436499127262346e-05 1.0879765550204874e-05 -3.1616256094249861e-05 4.3902285858230384e-05 1.133090902375689e-05 -1.0444825214864775e-05 2.8679940427566123e-06 -6.472354345092491e-05 -1.8463190015462308e-06
leaf_weight=575659 515 509 782 1341 787 600 518 548 506 727 699 1284 2004 541 38502
leaf_count=575659 515 509 782 1341 787 600 518 548 506 727 699 1284 2004 541 38502
internal_value=0 1.19951e-07 -1.40277e-06 5.16288e-06 9.72563e-06 1.55044e-05 8.20119e-06 1.72443e-05 -6.45907e-06 2.97091e-05 -4.58909e-06 -2.40004e-06 -1.11463e-05 -2.65351e-05 -1.54172e-06
internal_weight=0 576168 49354 6508 5167 3681 2899 1793 1106 1275 1486 42846 3829 1825 39017
internal_count=625522 576168 49354 6508 5167 3681 2899 1793 1106 1275 1486 42846 3829 1825 39017
is_linear=0
shrinkage=0.1


Tree=25
num_leaves=16
num_cat=2
split_feature=0 9 0 0 3 1 15 2 9 3 10 18 3 18 5
split_gain=1.10466e-05 2.48034e-05 9.07395e-05 8.27911e-05 7.43625e-05 6.06911e-05 4.05496e-05 2.08619e-05 1.85761e-05 2.81102e-05 4.00181e-05 9.21737e-05 2.58059e-05 5.67426e-05 4.49398e-05
threshold=543.50000000000011 0.0082874259212230034 639.50000000000011 687.50000000000011 0.0049277863436285605 0.0027377882603067953 55.026455026456055 0.0029364440368163662 0.0061549582614642837 0.0049277863436285605 0.0022147125545003425 0 -0.0012853827363772938 1 1.0000000180025095e-35
decision_type=2 10 2 2 10 2 2 10 10 8 8 1 10 1 10
left_child=8 4 -3 -4 5 -2 -6 -7 9 -1 11 -11 13 -10 -14
right_child=1 2 3 -5 6 7 -8 -9 12 10 -12 -13 14 -15 -16
leaf_value=-3.5991123441126655e-07 4.0058995768557504e-07 -2.279410304257536e-05 5.0557251046495343e-05 2.6750104601374108e-06 -4.0656189440892652e-05 1.0310691515249865e-05 -5.9519444867057694e-06 3.7781066592141384e-05 -1.5365936868068465e-05 4.4249315237865477e-05 1.9719335136758502e-06 -4.7945901965967527e-06 -2.9395955918718956e-05 2.7451912406831978e-05 -3.7328943719427141e-06
leaf_weight=318943 280440 557 668 786 664 560 683 546 520 777 5115 750 720 740 13053
leaf_count=318943 280440 557 668 786 664 560 683 546 520 777 5115 750 720 740 13053
internal_value=0 4.59318e-07 1.15259e-05 2.46732e-05 3.80649e-07 4.92793e-07 -2.30593e-05 2.3872e-05 -3.84507e-07 -2.25822e-07 6.213e-06 2.04193e-05 -3.8213e-06 9.87697e-06 -5.07446e-06
internal_weight=0 284904 2011 1454 282893 281546 1347 1106 340618 325585 6642 1527 15033 1260 13773
internal_count=625522 284904 2011 1454 282893 281546 1347 1106 340618 325585 6642 1527 15033 1260 13773
cat_boundaries=0 1 2
cat_threshold=1857 841
is_linear=0
shrinkage=0.1


Tree=26
num_leaves=16
num_cat=2
split_feature=11 18 4 3 16 2 14 1 8 13 18 0 2 8 8
split_gain=1.00898e-05 1.71589e-05 2.8819e-05 2.18621e-05 2.01035e-05 2.37581e-05 2.73269e-05 2.32405e-05 2.25387e-05 4.37112e-05 2.18549e-05 1.96993e-05 1.78692e-05 2.25716e-05 1.77175e-05
threshold=0.20833333333344092 0 -0.0054796576120222365 -0.0047563263577729544 25.781249999999947 0.00057169331180084726 66.506567433353197 0.0020062887978035131 -0.00576416164387089 29.815677660784377 1 671.50000000000011 -0.0011438304644766915 -0.004743037955006745 -9.6348396693646241e-05
decision_type=2 1 8 10 2 10 2 2 10 2 1 2 10 10 8
left_child=-1 4 -3 -4 5 8 7 11 9 -2 -8 -7 14 -14 -6
right_child=1 2 3 -5 12 6 10 -9 -10 -11 -12 -13 13 -15 -16
leaf_value=-3.0859904250485939e-07 -7.5225185920089642e-06 2.1104864728978919e-05 -1.9441453719618245e-05 -2.1466521482492677e-07 1.3178181321567937e-06 -4.0142897008868665e-06 1.6192841821427501e-05 -2.5079763900272795e-05 1.0508800697139266e-07 3.1779404822492452e-05 -4.6233353475485037e-06 -2.2335155964563522e-05 2.0586535587415464e-05 1.8963811535661169e-06 2.0293792953103763e-05
leaf_weight=393380 500 632 594 134866 901 4134 869 794 12532 652 1178 684 652 72070 1084
leaf_count=393380 500 632 594 134866 901 4134 869 794 12532 652 1178 684 652 72070 1084
internal_value=0 5.22743e-07 -1.99563e-07 -2.98976e-07 1.54603e-06 -1.16051e-06 -5.62014e-06 -9.22766e-06 1.33557e-06 1.47213e-05 4.27014e-06 -6.61526e-06 2.31947e-06 2.06395e-06 1.16805e-05
internal_weight=0 232142 136092 135460 96050 21343 7659 5612 13684 1152 2047 4818 74707 72722 1985
internal_count=625522 232142 136092 135460 96050 21343 7659 5612 13684 1152 2047 4818 74707 72722 1985
cat_boundaries=0 1 2
cat_threshold=387 130
is_linear=0
shrinkage=0.1


Tree=27
num_leaves=16
num_cat=2
split_feature=0 8 16 17 1 6 18 17 0 4 14 16 4 18 17
split_gain=1.01355e-05 2.78572e-05 7.16208e-05 6.05614e-05 2.40396e-05 7.83918e-05 3.18104e-05 4.39491e-05 3.81722e-05 3.69482e-05 3.0274e-05 2.42009e-05 5.14926e-05 4.32022e-05 3.76144e-05
threshold=378.50000000000006 -0.00576416164387089 36.290687739463614 0.41370877726741179 -0.0016528790628883014 0.0041465731524554803 0 0.16446643272933953 338.50000000000006 -0.0041090745514968932 33.546678786111244 16.666666666660991 -0.0041090745514968932 1 0.31265655080172911
decision_type=2 10 2 2 2 10 1 2 2 10 2 2 8 1 2
left_child=4 2 3 -2 5 6 7 -1 -9 -10 -11 14 13 -13 -6
right_child=1 -3 -4 -5 11 -7 -8 8 9 10 -12 12 -14 -15 -16
leaf_value=6.9369862471538326e-06 5.0974408869050343e-06 9.5833657770181922e-08 -2.9763442940296589e-05 3.6580357243495486e-05 -1.8148420069428492e-06 2.216006954594399e-05 -2.3613877942368503e-06 -3.1125744764445466e-05 2.2143499319509149e-06 -3.5207360983161559e-05 -5.7859388516237597e-06 2.7737379868181678e-05 -8.3140384273314112e-08 2.4144799738859977e-06 -1.4347213123916488e-05
leaf_weight=855 9718 481620 556 652 19770 953 5170 1433 1186 764 645 1220 96746 1509 2725
leaf_count=855 9718 481620 556 652 19770 953 5170 1433 1186 764 645 1220 96746 1509 2725
internal_value=0 2.09106e-07 5.20216e-06 7.07689e-06 -7.74758e-07 -5.25074e-06 -7.84922e-06 -1.36269e-05 -1.80257e-05 -1.07916e-05 -2.17391e-05 -3.70866e-07 2.9898e-07 1.38456e-05 -3.33299e-06
internal_weight=0 492546 10926 10370 132976 11006 10053 4883 4028 2595 1409 121970 99475 2729 22495
internal_count=625522 492546 10926 10370 132976 11006 10053 4883 4028 2595 1409 121970 99475 2729 22495
cat_boundaries=0 1 2
cat_threshold=1314 806
is_linear=0
shrinkage=0.1


Tree=28
num_leaves=16
num_cat=0
split_feature=12 17 2 17 0 3 1 9 0 10 8 13 17 5 1
split_gain=9.91668e-06 2.77634e-05 1.5794e-05 1.43517e-05 2.67787e-05 2.16605e-05 1.29417e-05 1.84472e-05 1.26034e-05 2.45789e-05 2.0537e-05 1.2539e-05 3.07973e-05 6.2668e-05 5.26412e-05
threshold=-145.86590467310873 0.41370877726741179 0.00096971668709033853 0.19988738307678414 607.50000000000011 -1.0000000180025095e-35 -0.0027305702796561189 -0.002505384107567787 402.50000000000006 -0.0084096381478438436 -0.00576416164387089 28.393723495636674 0.28504862574823864 -0.0014019360241658283 0.0010920630970211456
decision_type=2 2 8 2 2 8 2 8 2 10 8 2 2 8 2
left_child=1 2 3 5 6 -1 -5 8 9 -8 -11 12 -2 -14 -15
right_child=11 -3 -4 4 -6 -7 7 -9 -10 10 -12 -13 13 14 -16
leaf_value=8.6104491893920113e-07 -8.2129410614608511e-07 -1.7519049443207777e-05 -1.3229517512569465e-05 -5.6513867068232039e-06 2.1771577134489351e-05 2.0106477857838091e-05 -1.4388981654857043e-06 -8.1742140091077052e-06 1.8387779681431907e-06 3.2367619354124753e-05 1.036163487988377e-05 4.9100291966846935e-08 1.9345761613869703e-07 -3.5680342326972139e-05 -1.9047646153624517e-07
leaf_weight=42326 61371 770 707 1219 931 593 817 795 1739 730 1012 507861 2796 1219 636
leaf_count=42326 61371 770 707 1219 931 593 817 795 1739 730 1012 507861 2796 1219 636
internal_value=0 1.32735e-06 1.61263e-06 1.82182e-06 5.93928e-06 1.12695e-06 3.60406e-06 5.81934e-06 8.40772e-06 1.28717e-05 1.95834e-05 -1.19436e-07 -1.41586e-06 -9.26136e-06 -2.35124e-05
internal_weight=0 51639 50869 50162 7243 42919 6312 5093 4298 2559 1742 573883 66022 4651 1855
internal_count=625522 51639 50869 50162 7243 42919 6312 5093 4298 2559 1742 573883 66022 4651 1855
is_linear=0
shrinkage=0.1


Tree=29
num_leaves=16
num_cat=1
split_feature=2 10 16 0 12 12 0 0 0 17 11 18 15 13 15
split_gain=9.59348e-06 2.18135e-05 0.000106063 4.38583e-05 2.19427e-05 2.76683e-05 1.99294e-05 3.10407e-05 2.56774e-05 2.16929e-05 7.63465e-05 9.96677e-05 4.38799e-05 5.34897e-05 3.97527e-05
threshold=-0.002875617429842658 -0.0084096381478438436 24.166666666671528 494.50000000000006 -183.6517372666417 -145.86590467310873 631.50000000000011 591.50000000000011 710.50000000000011 0.28504862574823864 -0.60714285714284244 0 38.444911297854247 48.389770204289654 36.678535385587359
decision_type=10 8 2 2 2 2 2 2 2 2 2 1 2 2 2
left_child=1 2 3 4 -1 -6 7 9 -8 -3 11 14 -12 -14 -11
right_child=-2 6 -4 -5 5 -7 8 -9 -10 10 12 -13 13 -15 -16
leaf_value=-1.844908984765804e-05 -7.4209388743923075e-08 3.0024710873978269e-07 -4.4506691778656688e-05 2.8521104828747794e-05 1.630306784918415e-05 -7.6233521307786303e-06 1.9782040772861132e-05 -1.7340055213563332e-05 -2.0057964818484155e-07 9.9969596232833028e-06 4.0638666420515322e-05 3.2220870510704651e-05 -1.1978429648166401e-05 2.449324295211828e-05 -2.2499569052787021e-05
leaf_weight=682 603839 9329 572 530 828 1161 1556 777 1096 502 768 587 610 1180 1505
leaf_count=682 603839 9329 572 530 828 1161 1556 777 1096 502 768 587 610 1180 1505
internal_value=0 2.06665e-06 -4.84381e-06 2.24372e-06 -2.97044e-06 2.33697e-06 3.52244e-06 2.13173e-06 1.15238e-05 3.17652e-06 8.38474e-06 -3.70375e-06 2.06433e-05 1.20643e-05 -1.43001e-05
internal_weight=0 21683 3773 3201 2671 1989 17910 15258 2652 14481 5152 2594 2558 1790 2007
internal_count=625522 21683 3773 3201 2671 1989 17910 15258 2652 14481 5152 2594 2558 1790 2007
cat_boundaries=0 1
cat_threshold=3395
is_linear=0
shrinkage=0.1


Tree=30
num_leaves=16
num_cat=1
split_feature=1 18 7 12 5 0 3 14 17 0 0 2 7 14 13
split_gain=9.00101e-06 2.72284e-05 5.62387e-05 4.0228e-05 4.3684e-05 3.50703e-05 2.43651e-05 2.29507e-05 3.01868e-05 2.07792e-05 2.36542e-05 2.22723e-05 1.85951e-05 1.8085e-05 2.25279e-05
threshold=0.001227307427998481 0 -0.0071587008213238592 211.17183089117847 0.0046368571331257833 583.50000000000011 -0.0035499007068416351 44.426502363593279 0.19988738307678414 243.50000000000003 305.50000000000006 -0.0011438304644766915 -0.0071587008213238592 77.591165215707875 28.393723495636674
decision_type=2 1 8 2 8 2 10 2 2 2 2 10 10 2 2
left_child=-1 3 -3 5 -5 12 -4 -7 -9 -8 -11 -12 -2 14 -13
right_child=1 2 6 4 -6 7 9 8 -10 10 11 13 -14 -15 -16
leaf_value=-1.0356760742980802e-07 -2.0240892316237606e-05 3.1387080149403935e-05 -1.6952055785954476e-05 -8.3782815473083962e-07 -4.090526127221441e-05 -9.5916252737000383e-06 2.0042775568863535e-05 5.868089081017799e-06 2.8909120329691866e-05 -1.5685542021791555e-05 2.1798483060222313e-05 -1.4077435956097251e-05 -2.3100142852203196e-06 4.7561821602338691e-06 9.799194565605071e-07
leaf_weight=582088 611 696 623 557 532 627 701 2381 747 689 621 1138 10825 14854 7832
leaf_count=582088 611 696 623 557 532 627 701 2381 747 689 621 1138 10825 14854 7832
internal_value=0 1.38874e-06 3.32671e-06 -1.84458e-06 -2.04116e-05 -5.14779e-07 2.58981e-06 7.87033e-06 1.13705e-05 3.06106e-06 2.58743e-06 3.10247e-06 -3.26802e-06 2.61513e-06 -9.30367e-07
internal_weight=0 43434 27154 16280 1089 15191 26458 3755 3128 25835 25134 24445 11436 23824 8970
internal_count=625522 43434 27154 16280 1089 15191 26458 3755 3128 25835 25134 24445 11436 23824 8970
cat_boundaries=0 1
cat_threshold=3224
is_linear=0
shrinkage=0.1


Tree=31
num_leaves=16
num_cat=0
split_feature=7 6 17 13 13 7 14 12 1 4 6 13 0 14 12
split_gain=9.43767e-06 4.32609e-05 2.39475e-05 4.37679e-05 3.85829e-05 8.41737e-05 5.84704e-05 4.23201e-05 4.0465e-05 3.54693e-05 2.61944e-05 9.70551e-05 5.23762e-05 2.0225e-05 2.00247e-05
threshold=0.0033535776412603195 0.0068202980576451697 0.35119800374852811 75.471900022699046 41.558207521421018 0.0073385130250985817 82.346444891418273 56.720913943140438 0.0027377882603067953 0.0041560077202393861 0.0068202980576451697 47.549298959698085 631.50000000000011 30.479192788244074 104.41281574781424
decision_type=10 10 2 2 2 10 2 2 2 8 10 2 2 2 2
left_child=1 -1 10 4 -4 7 -7 -6 -8 -9 13 -12 -13 -2 -5
right_child=2 -3 3 14 5 6 8 9 -10 -11 11 12 -14 -15 -16
leaf_value=8.7964913410543472e-08 1.8623224841433077e-05 2.9254228257242963e-05 -1.0728340972566867e-05 -2.6609527069140518e-05 2.1263662625097251e-05 4.9363594264426135e-05 2.2244133417915864e-06 -2.5189674564256147e-05 3.4796749615975897e-05 6.4132086346658429e-06 -4.1418419421018331e-05 -7.8832214243676758e-06 1.9188694512909066e-05 -1.4687817106390834e-06 -1.7081005312269262e-06
leaf_weight=575659 508 509 868 542 537 705 986 826 622 623 772 4328 856 36382 799
leaf_count=575659 508 509 868 542 537 705 986 826 622 623 772 4328 856 36382 799
internal_value=0 1.13731e-07 -1.32712e-06 4.32486e-06 8.50268e-06 1.23856e-05 2.53516e-05 -2.71534e-06 1.48239e-05 -1.1602e-05 -2.18561e-06 -8.33917e-06 -3.41301e-06 -1.1921e-06 -1.17727e-05
internal_weight=0 576168 49354 6508 5167 4299 2313 1986 1608 1449 42846 5956 5184 36890 1341
internal_count=625522 576168 49354 6508 5167 4299 2313 1986 1608 1449 42846 5956 5184 36890 1341
is_linear=0
shrinkage=0.1


Tree=32
num_leaves=16
num_cat=0
split_feature=3 6 16 1 11 16 6 17 3 10 16 15 12 17 16
split_gain=9.01867e-06 3.37745e-05 6.16187e-05 2.60633e-05 2.58856e-05 3.87247e-05 8.4584e-05 5.33758e-05 3.92333e-05 3.1658e-05 5.45039e-05 7.93209e-05 3.95987e-05 6.48172e-05 3.90982e-05
threshold=0.002499684920559964 0.0068202980576451697 79.487179487171787 -0.0020131703663579521 0.74999999999994083 80.952380952383791 0.0068202980576451697 0.26403304325789595 0.0049277863436285605 0.0064880670116586056 90.355663029119057 78.406827459664598 18.483277364077448 0.41370877726741179 51.382983822246125
decision_type=10 10 2 2 2 2 10 2 10 10 2 2 2 2 2
left_child=1 -1 -3 -2 9 6 -6 -7 -9 12 11 -11 -5 14 -14
right_child=3 2 -4 4 5 7 -8 8 -10 10 -12 -13 13 -15 -16
leaf_value=4.7142888203023029e-08 1.6561638488038502e-05 3.6906434929576419e-05 2.2880950700340231e-06 -1.0673896644552676e-05 3.4289528845838161e-07 2.5462795435016456e-06 -3.5188101752791356e-05 2.527088967863909e-06 3.7604991767126453e-05 -7.687936050081575e-06 -2.663391701553852e-06 -4.5809923425597484e-05 1.2272123141207233e-05 3.2385097849794106e-05 -2.8454803118632413e-06
leaf_weight=583501 786 696 1968 3897 6736 4844 744 501 877 1448 3849 876 1990 617 12192
leaf_count=583501 786 696 1968 3897 6736 4844 744 501 877 1448 3849 876 1990 617 12192
internal_value=0 9.84326e-08 1.13325e-05 -1.46533e-06 -1.83269e-06 1.65739e-06 -3.1912e-06 7.48631e-06 2.48517e-05 -3.75561e-06 -9.96485e-06 -2.20575e-05 -1.70545e-06 6.56195e-07 -7.24198e-07
internal_weight=0 586165 2664 39357 38571 13702 7480 6222 1378 24869 6173 2324 18696 14799 14182
internal_count=625522 586165 2664 39357 38571 13702 7480 6222 1378 24869 6173 2324 18696 14799 14182
is_linear=0
shrinkage=0.1


Tree=33
num_leaves=16
num_cat=3
split_feature=11 1 2 17 18 17 0 18 0 13 11 18 2 0 11
split_gain=7.96072e-06 2.23574e-05 2.39153e-05 0.0001002 3.53221e-05 2.23456e-05 0.000107867 0.000147267 0.000136773 4.17398e-05 5.94973e-05 3.54005e-05 2.97425e-05 5.70756e-05 6.13566e-05
threshold=0.062499999999949922 0.00010722902417836801 0.0029364440368163662 0.41370877726741179 0 0.31265655080172911 718.50000000000011 1 631.50000000000011 28.393723495636674 -0.55000000000009697 2 -0.0020123086216314308 427.50000000000006 -0.51724137931035064
decision_type=2 2 8 2 1 2 2 1 2 2 2 1 10 2 2
left_child=1 2 5 4 -4 -1 8 -8 9 10 -7 -12 13 14 -11
right_child=-2 -3 3 -5 -6 6 7 -9 -10 12 11 -13 -14 -15 -16
leaf_value=-1.8897808790825917e-07 4.2187010851030868e-07 -1.7192120463742169e-05 2.065270123870418e-05 4.7525857857929708e-05 -3.2164093836575026e-06 2.9141578149775107e-07 -1.6042410730819643e-06 -7.2869207087060482e-05 4.6449570014836298e-05 -8.4923802989683398e-07 -1.1214807715593601e-05 -4.6536510028659331e-05 -6.0209788302347002e-06 -2.5261608555459295e-05 2.2649425014783983e-05
leaf_weight=344086 260830 782 761 537 3157 1167 666 511 567 2988 526 668 5924 583 1769
leaf_count=344086 260830 782 761 537 3157 1167 666 511 567 2988 526 668 5924 583 1769
internal_value=0 -3.01658e-07 -2.65363e-07 7.01644e-06 1.46423e-06 -3.55612e-07 -4.08626e-06 -3.3177e-05 -1.67365e-06 -3.67628e-06 -1.57657e-05 -3.14597e-05 -1.14227e-06 4.27e-06 7.88928e-06
internal_weight=0 364692 363910 4455 3918 359455 15369 1177 14192 13625 2361 1194 11264 5340 4757
internal_count=625522 364692 363910 4455 3918 359455 15369 1177 14192 13625 2361 1194 11264 5340 4757
cat_boundaries=0 1 2 3
cat_threshold=80 1920 642
is_linear=0
shrinkage=0.1


Tree=34
num_leaves=16
num_cat=0
split_feature=9 2 11 12 9 5 12 4 15 15 9 17 0 0 13
split_gain=8.3641e-06 2.33609e-05 4.47764e-05 2.84512e-05 4.96023e-05 3.24779e-05 3.19642e-05 3.77591e-05 2.81247e-05 2.49025e-05 3.78057e-05 2.08991e-05 8.38557e-05 4.63887e-05 3.52002e-05
threshold=-0.0030581501278738594 0.0029364440368163662 0.4000000000001171 -25.608866665827247 -0.0043399329112591692 0.0025307133533086783 -54.043291245318294 0.0018370814903034829 20.359498052608568 45.660609288267651 -0.0038332572166725472 0.31265655080172911 710.50000000000011 338.50000000000006 28.393723495636674
decision_type=8 10 2 2 10 10 2 10 2 2 10 2 2 2 2
left_child=1 3 -3 5 -5 6 7 11 -8 10 -10 -1 13 -13 -15
right_child=-2 2 -4 4 -6 -7 8 -9 9 -11 -12 12 -14 14 -16
leaf_value=1.2454704830837889e-06 -1.3047607281145717e-07 3.5104255164731393e-05 -3.0339751774374853e-07 -3.3643892516951102e-05 1.7010271226295878e-06 -2.3627839850219476e-05 -2.0460140165322734e-06 2.5358462233036278e-05 4.2094801203183551e-05 3.2024741942436889e-06 7.0857113541100491e-06 -2.3358369384174055e-05 -4.3474129616858111e-05 -9.8124860464637769e-06 6.1912199616064595e-06
leaf_weight=55341 555020 581 927 653 1013 528 1017 620 709 689 546 861 510 1972 4535
leaf_count=55341 555020 581 927 653 1013 528 1017 620 709 689 546 861 510 1972 4535
internal_value=0 1.02584e-06 1.33384e-05 7.56723e-07 -1.21527e-05 1.07616e-06 1.27142e-06 8.00317e-07 1.14285e-05 1.84776e-05 2.68638e-05 5.59471e-07 -4.25951e-06 -1.54514e-06 1.34116e-06
internal_weight=0 70502 1508 68994 1666 67328 66800 63839 2961 1944 1255 63219 7878 7368 6507
internal_count=625522 70502 1508 68994 1666 67328 66800 63839 2961 1944 1255 63219 7878 7368 6507
is_linear=0
shrinkage=0.1


Tree=35
num_leaves=16
num_cat=0
split_feature=6 0 8 0 8 2 0 6 4 9 7 12 17 0 15
split_gain=8.41434e-06 2.54636e-05 2.4081e-05 3.02425e-05 2.37078e-05 3.12005e-05 1.97389e-05 3.08553e-05 1.5873e-05 3.47084e-05 2.00322e-05 1.96263e-05 1.8562e-05 3.81672e-05 4.23652e-05
threshold=-0.0011649201063521073 243.50000000000003 -0.00576416164387089 354.50000000000006 0.0078229747542636358 0.0039985928012347136 205.50000000000003 -0.0027657545070147722 0.0018370814903034829 -0.0038332572166725472 0.0016885175667765708 -19.2798879290584 0.31265655080172911 338.50000000000006 24.928417977110765
decision_type=8 2 8 2 8 10 2 10 10 10 8 2 2 2 2
left_child=1 6 3 -2 5 8 -1 -8 10 -10 12 -11 -3 14 -14
right_child=2 4 -4 -5 -6 -7 7 -9 9 11 -12 -13 13 -15 -16
leaf_value=-2.0917451607980924e-06 1.7400056232048372e-06 1.0796715600325582e-06 -1.7519807956794618e-07 -3.2868405587739762e-05 -1.572987202575833e-05 2.2498642197913595e-05 -3.4631895219055259e-05 -5.9261766600084836e-06 2.8544287479510811e-05 -1.407021257432922e-05 1.7115956589755485e-05 1.1668063913032048e-05 -2.6599855415345518e-06 -1.1910659369837705e-06 -4.117956380074282e-05
leaf_weight=6137 503 128913 472228 507 847 675 516 1365 660 543 751 652 619 10076 530
leaf_count=6137 503 128913 472228 507 847 675 516 1365 660 543 751 652 619 10076 530
internal_value=0 6.46415e-07 -2.08188e-07 -1.56327e-05 9.51263e-07 1.04978e-06 -4.83865e-06 -1.38008e-05 9.48352e-07 1.01384e-05 8.27353e-07 -2.72366e-08 7.40062e-07 -3.16017e-06 -2.04279e-05
internal_weight=0 152284 473238 1010 144266 143419 8018 1881 142744 1855 140889 1195 140138 11225 1149
internal_count=625522 152284 473238 1010 144266 143419 8018 1881 142744 1855 140889 1195 140138 11225 1149
is_linear=0
shrinkage=0.1


Tree=36
num_leaves=16
num_cat=3
split_feature=2 9 16 18 15 4 7 7 18 18 8 4 14 3 6
split_gain=9.04424e-06 1.679e-05 9.94735e-05 2.95589e-05 2.86853e-05 2.29272e-05 2.28122e-05 1.8227e-05 2.98333e-05 1.87255e-05 3.69178e-05 4.33276e-05 2.69928e-05 3.28387e-05 2.49664e-05
threshold=-0.002875617429842658 -0.0080435902374634254 27.442818921714327 0 20.359498052608568 -0.0054796576120222365 -0.0054117829036524059 -0.0054117829036524059 1 2 0.0021632792185625198 -0.003376986441300522 30.479192788244074 -0.0021691973969631402 -0.00020291693101187611
decision_type=10 8 2 1 2 8 8 8 1 1 8 10 2 10 10
left_child=1 2 3 4 -1 6 -3 8 -7 12 -11 -12 -9 14 -14
right_child=-2 5 -4 -5 -6 7 -8 9 -10 10 11 -13 13 -15 -16
leaf_value=-8.7391916345823725e-06 -7.217550871533404e-08 1.9480505063284242e-05 -4.380891660428373e-05 1.8518517474298046e-05 1.6234559803821758e-05 -2.2328755276799768e-05 2.894648302547951e-06 1.4789504711694508e-06 4.0347246727837259e-06 4.0526988219014396e-06 -1.4225144547467329e-07 -3.0491545321034876e-05 1.509740041067599e-05 6.2331089456738147e-07 4.2613489318298608e-05
leaf_weight=1981 603839 1586 539 845 599 782 1738 3604 936 4705 1176 784 961 945 502
leaf_count=1981 603839 1586 539 845 599 782 1738 3604 936 4705 1176 784 961 945 502
internal_value=0 2.0065e-06 -3.87677e-06 2.40744e-06 -2.92967e-06 3.32268e-06 1.08084e-05 1.59413e-06 -8.0719e-06 2.90408e-06 -7.49769e-07 -1.2282e-05 6.94449e-06 1.51535e-05 2.4539e-05
internal_weight=0 21683 3964 3425 2580 17719 3324 14395 1718 12677 6665 1960 6012 2408 1463
internal_count=625522 21683 3964 3425 2580 17719 3324 14395 1718 12677 6665 1960 6012 2408 1463
cat_boundaries=0 1 2 3
cat_threshold=1458 2818 2134
is_linear=0
shrinkage=0.1


Tree=37
num_leaves=16
num_cat=1
split_feature=3 14 1 1 11 15 17 8 16 16 18 14 5 10 11
split_gain=7.93e-06 2.33277e-05 4.64971e-05 3.37891e-05 3.14764e-05 4.80371e-05 3.79562e-05 2.32368e-05 5.92273e-05 7.33522e-05 5.13202e-05 4.52819e-05 3.89241e-05 3.66694e-05 3.38411e-05
threshold=0.002499684920559964 50.703058685942423 -0.0020131703663579521 -0.0011036483979833809 0.87096774193564508 38.444911297854247 0.28504862574823864 0.0040681421262644965 77.961124644323178 73.160173160173315 0 92.203892518600455 0.006325996942302071 -0.00079230161907051222 0.51396202531642776
decision_type=10 2 2 2 2 2 2 10 2 2 1 2 10 8 2
left_child=-1 4 -3 -4 5 6 -2 12 9 10 -9 -12 13 -5 -13
right_child=1 2 3 7 -6 -7 -8 8 -10 -11 11 14 -14 -15 -16
leaf_value=9.2152332730547365e-08 -9.7166369177172025e-06 2.7418778841207735e-05 -1.9732769972905913e-05 -9.7782251740993831e-06 1.2049167625375234e-05 8.0834579868614387e-07 -4.0559717761528384e-05 -3.4181460451180063e-05 -8.9892091005617385e-08 -4.0577697393854276e-05 2.2926605453725228e-05 1.1852511714453791e-05 2.0617538033037268e-05 2.7974948911000241e-06 -1.9023878069592778e-05
leaf_weight=586165 801 582 945 2769 581 1301 795 538 12676 836 621 529 1047 14257 1079
leaf_count=586165 801 582 945 2769 581 1301 795 538 12676 836 621 529 1047 14257 1079
internal_value=0 -1.3742e-06 -6.16194e-07 -1.07845e-06 -9.19373e-06 -1.3454e-05 -2.50802e-05 -5.65286e-07 -3.30568e-06 -1.46194e-05 -6.77658e-06 -8.64839e-09 1.90309e-06 7.5226e-07 -8.86616e-06
internal_weight=0 39357 35879 35297 3478 2897 1596 34352 16279 3603 2767 2229 18073 17026 1608
internal_count=625522 39357 35879 35297 3478 2897 1596 34352 16279 3603 2767 2229 18073 17026 1608
cat_boundaries=0 1
cat_threshold=2585
is_linear=0
shrinkage=0.1


Tree=38
num_leaves=16
num_cat=0
split_feature=1 11 11 7 15 0 0 15 15 16 0 1 13 12 6
split_gain=7.70062e-06 2.3727e-05 3.11449e-05 2.15137e-05 6.05279e-05 8.50825e-05 5.97701e-05 5.11306e-05 4.97867e-05 5.07959e-05 2.90483e-05 1.94491e-05 5.97518e-05 5.21512e-05 4.57996e-05
threshold=0.001227307427998481 0.3087327523601664 0.4000000000001171 0.0054541826727345652 56.878647388547861 370.50000000000006 639.50000000000011 38.444911297854247 70.782590462751173 87.722877701524808 354.50000000000006 0.0027377882603067953 73.844396873182802 -89.54547874150461 0.00083136453148513489
decision_type=2 2 2 8 2 2 2 2 2 2 2 2 2 2 10
left_child=-1 -2 -3 11 5 7 8 -5 -6 10 -10 -4 13 -13 -15
right_child=1 2 3 4 6 -7 -8 -9 9 -11 -12 12 -14 14 -16
leaf_value=-9.5995478957220479e-08 -2.0094445886609618e-05 1.9935869532208333e-05 1.2624836981146571e-06 -2.5801839980404649e-05 1.7349951403263683e-05 -5.144368908807126e-05 2.4182335293856234e-05 1.7378087851065624e-05 -3.8387082595969937e-05 -7.8632006202403649e-07 -8.7919711968090189e-06 4.0932521542649353e-05 -2.3841175116655051e-05 -6.5831497127716221e-06 1.5772385856711837e-05
leaf_weight=582088 513 901 28616 544 996 578 944 553 675 3410 652 538 528 1428 2558
leaf_count=582088 513 901 28616 544 996 578 944 553 675 3410 652 538 528 1428 2558
internal_value=0 1.28431e-06 1.53983e-06 1.14538e-06 -3.39762e-06 -2.03944e-05 8.66209e-07 -4.03475e-06 -2.97304e-06 -7.24615e-06 -2.3846e-05 2.27236e-06 7.99259e-06 1.17079e-05 7.76343e-06
internal_weight=0 43434 42921 42020 8352 1675 6677 1097 5733 4737 1327 33668 5052 4524 3986
internal_count=625522 43434 42921 42020 8352 1675 6677 1097 5733 4737 1327 33668 5052 4524 3986
is_linear=0
shrinkage=0.1


Tree=39
num_leaves=16
num_cat=1
split_feature=2 0 0 16 2 0 6 18 8 8 0 17 1 4 0
split_gain=7.33053e-06 1.7135e-05 5.32961e-05 4.06246e-05 3.51479e-05 3.32493e-05 1.74457e-05 1.7276e-05 2.77561e-05 5.44727e-05 3.88261e-05 2.27086e-05 2.21051e-05 2.35194e-05 4.02314e-05
threshold=-0.002875617429842658 631.50000000000011 710.50000000000011 24.166666666671528 -0.0039014784732848136 591.50000000000011 0.0035650587332134447 0 0.0023639191382306417 1.0000000180025095e-35 330.50000000000006 0.14920902519030188 0.00027381839913798173 1.0000000180025095e-35 346.50000000000006
decision_type=10 2 2 2 10 2 10 1 8 8 2 2 2 8 2
left_child=1 5 4 -4 -3 6 7 12 9 -9 11 -10 13 14 -1
right_child=-2 2 3 -5 -6 -7 -8 8 10 -11 -12 -13 -14 -15 -16
leaf_value=-1.802563386004467e-05 -6.5007051212971023e-08 4.1925936325717328e-05 1.5766543331633914e-05 -1.8828116033409816e-05 1.0850375975651348e-05 -1.821317628792857e-05 1.7252808392564532e-05 4.0238841130757586e-06 -9.4490633251313364e-06 3.3743233412455107e-05 -2.4362122377963271e-05 1.8336572344802942e-05 1.6463968956897897e-05 9.7584157753231505e-06 -8.4605317673756211e-07
leaf_weight=1975 603839 536 553 879 1134 889 685 6357 577 683 753 600 577 1085 4400
leaf_count=1975 603839 536 553 879 1134 889 685 6357 577 683 753 600 577 1085 4400
internal_value=0 1.8064e-06 8.68653e-06 -5.46859e-06 2.08243e-05 6.57801e-07 1.60604e-06 9.7583e-07 3.99016e-06 6.90717e-06 -6.62945e-06 4.71524e-06 -2.39042e-06 -3.85193e-06 -6.16835e-06
internal_weight=0 21683 3102 1432 1670 18581 17692 17007 8970 7040 1930 1177 8037 7460 6375
internal_count=625522 21683 3102 1432 1670 18581 17692 17007 8970 7040 1930 1177 8037 7460 6375
cat_boundaries=0 1
cat_threshold=1610
is_linear=0
shrinkage=0.1


Tree=40
num_leaves=16
num_cat=3
split_feature=7 2 18 14 9 6 5 18 4 17 18 9 5 2 2
split_gain=7.06953e-06 1.92877e-05 5.55716e-05 4.32162e-05 3.09677e-05 2.4877e-05 1.57365e-05 3.06095e-05 2.05697e-05 2.00135e-05 1.40659e-05 2.51818e-05 2.32367e-05 2.3477e-05 1.69247e-05
threshold=0.0026752756303803919 0.0039985928012347136 0 97.758655838090462 0.0050721289599269257 -0.00069279020404711112 -0.0016835281618043927 1 -0.00078383958443184454 0.35119800374852811 2 0.0082874259212230034 0.00075416073929912575 -0.00054674685620553765 -0.0012627667104611604
decision_type=10 10 1 2 8 8 10 1 10 2 1 10 10 10 10
left_child=1 -1 3 5 -4 -3 7 -2 9 -8 11 14 13 -12 -10
right_child=6 2 4 -5 -6 -7 8 -9 10 -11 12 -13 -14 -15 -16
leaf_value=7.2736381830972345e-08 4.0094762330387543e-06 2.5860751500456699e-05 6.1299055959161445e-06 4.0757079089225149e-05 -2.514046592343795e-05 -1.0349252470203506e-06 3.095767251417782e-06 -3.0020641729692525e-05 -2.0702119920373198e-05 2.3370112378757221e-05 -6.366746676512808e-06 8.5347892724711867e-06 -8.062464319058509e-07 1.3234685533533751e-05 -3.9938713159893152e-06
leaf_weight=552886 529 540 661 588 608 947 2191 520 630 626 829 1593 43960 2324 16090
leaf_count=552886 529 540 661 588 608 947 2191 520 630 626 829 1593 43960 2324 16090
internal_value=0 1.18532e-07 7.6903e-06 1.77218e-05 -8.78306e-06 8.73217e-06 -9.52611e-07 -1.31076e-05 -7.65771e-07 7.60118e-06 -1.12602e-06 -3.47693e-06 -2.1143e-07 8.08099e-06 -4.62343e-06
internal_weight=0 556230 3344 2075 1269 1487 69292 1049 68243 2817 65426 18313 47113 3153 16720
internal_count=625522 556230 3344 2075 1269 1487 69292 1049 68243 2817 65426 18313 47113 3153 16720
cat_boundaries=0 1 2 3
cat_threshold=1347 2714 2585
is_linear=0
shrinkage=0.1


Tree=41
num_leaves=16
num_cat=2
split_feature=0 3 2 18 8 0 0 10 15 8 16 11 18 2 16
split_gain=7.19707e-06 1.72136e-05 4.05976e-05 4.44462e-05 3.06653e-05 3.85509e-05 0.000129864 5.43952e-05 3.99551e-05 6.52328e-05 2.49655e-05 2.38224e-05 1.99679e-05 1.52397e-05 7.75971e-05
threshold=543.50000000000011 0.0029462920503721128 0.0029364440368163662 0 -0.0011132320452923448 631.50000000000011 647.50000000000011 0.0053259636957483378 73.932290694057016 0.0047657651765551376 91.650516310657679 0.37499999999977374 1 -0.0039014784732848136 24.166666666671528
decision_type=2 10 10 1 10 2 2 10 2 10 2 2 1 10 2
left_child=-1 2 13 -4 -3 7 -7 -6 9 11 -10 -8 -12 14 -2
right_child=1 4 3 -5 5 6 8 -9 10 -11 12 -13 -14 -15 -16
leaf_value=-3.1037399133251169e-07 3.6781364537639731e-05 -2.773703469966467e-05 -1.6249082057164471e-06 3.4745941245776633e-05 -2.0557069327609026e-06 4.2662463358623523e-05 1.2103668539774539e-05 -3.3107202539410428e-05 2.381428561564531e-05 -4.321720716722269e-05 -1.6222169788080857e-05 -1.2837793341035153e-05 9.2855650881810805e-06 3.5443195281945834e-07 -5.7000688113385721e-06
leaf_weight=340618 667 520 636 711 1666 695 621 853 582 547 513 999 733 273951 1210
leaf_count=340618 667 520 636 711 1666 695 621 853 582 547 513 999 733 273951 1210
internal_value=0 3.70734e-07 5.00533e-07 1.7819e-05 -4.28407e-06 -2.59236e-06 2.76693e-06 -1.25706e-05 -4.17359e-06 -1.33587e-05 6.71493e-06 -3.2769e-06 -1.27209e-06 4.15959e-07 9.39589e-06
internal_weight=0 284904 277175 1347 7729 7209 4690 2519 3995 2167 1828 1620 1246 275828 1877
internal_count=625522 284904 277175 1347 7729 7209 4690 2519 3995 2167 1828 1620 1246 275828 1877
cat_boundaries=0 1 2
cat_threshold=3912 147
is_linear=0
shrinkage=0.1


Tree=42
num_leaves=16
num_cat=1
split_feature=18 7 0 17 0 0 7 7 16 8 13 13 13 0 9
split_gain=7.09696e-06 2.34041e-05 3.47621e-05 3.02467e-05 5.04303e-05 2.31452e-05 2.45185e-05 7.35412e-05 3.78138e-05 2.08328e-05 2.02431e-05 4.07092e-05 1.69714e-05 1.21762e-05 4.36071e-05
threshold=0 0.0033535776412603195 718.50000000000011 0.28504862574823864 607.50000000000011 338.50000000000006 -0.00058508908179144548 0.00071497990114410836 45.588235294118554 0.0019779606280183608 46.705296977967329 36.733640976436 26.869179655444608 639.50000000000011 0.0061549582614642837
decision_type=1 8 2 2 2 2 10 10 2 8 2 2 2 2 10
left_child=1 3 13 -1 5 -5 8 -8 10 -9 11 12 -7 -3 -15
right_child=-2 2 -4 4 -6 6 7 9 -10 -11 -12 -13 -14 14 -16
leaf_value=4.6568911897502827e-07 -2.9784813820875281e-07 -3.0716115259143743e-06 -2.4942021209321316e-05 -1.4093392572540773e-05 2.8083010597038084e-05 -2.1625398362939273e-06 -3.3691956589706718e-05 2.595366327796444e-05 3.1243150870632867e-05 -2.4628589066151022e-06 1.8720240399559827e-05 -2.2794489940881809e-05 2.3598398352830167e-05 -4.118535299136905e-06 2.5789277238208193e-05
leaf_weight=248209 351134 16841 692 649 1000 515 547 513 725 519 743 566 508 1673 688
leaf_count=248209 351134 16841 692 649 1000 515 547 513 725 519 743 566 508 1673 688
internal_value=0 3.80936e-07 -2.9223e-06 6.39167e-07 7.4902e-06 3.59374e-06 6.06979e-06 -4.04908e-06 1.12964e-05 1.16628e-05 5.09508e-06 -1.2759e-06 1.06298e-05 -2.12875e-06 4.59666e-06
internal_weight=0 274388 19894 254494 6285 5285 4636 1579 3057 1032 2332 1589 1023 19202 2361
internal_count=625522 274388 19894 254494 6285 5285 4636 1579 3057 1032 2332 1589 1023 19202 2361
cat_boundaries=0 1
cat_threshold=3121
is_linear=0
shrinkage=0.1


Tree=43
num_leaves=16
num_cat=2
split_feature=1 13 4 0 18 15 14 8 0 10 18 11 17 17 15
split_gain=7.88849e-06 5.95232e-05 6.77633e-05 3.26523e-05 3.62747e-05 3.68788e-05 4.399e-05 3.2371e-05 2.51462e-05 3.06821e-05 2.25793e-05 2.01484e-05 5.68688e-05 2.15324e-05 3.24597e-05
threshold=-0.0020131703663579521 79.270528495347563 0.0041560077202393861 718.50000000000011 0 58.657576789970967 41.28787812633275 -0.0012298317586399985 370.50000000000006 -0.0053134781633543673 1 -0.80952380952376712 0.35119800374852811 0.31265655080172911 34.887914028688812
decision_type=2 2 8 2 1 2 2 10 2 10 1 2 2 2 2
left_child=1 2 3 4 11 6 8 -7 -6 -10 -9 13 -13 -1 -15
right_child=-2 -3 -4 -5 5 7 -8 10 9 -11 -12 12 -14 14 -16
leaf_value=3.2865452064107725e-06 6.0381685196254212e-08 -2.7420631188066269e-05 2.6241678344963224e-05 -2.4785606059076986e-05 -4.4142348384613445e-06 1.0549459572746812e-05 3.6033494951232836e-05 -1.6915664162185711e-06 2.5621091669064857e-05 2.1419983479252734e-06 -2.5136930248993543e-05 -2.0487664379673044e-05 3.7150019164288614e-06 6.3724318691251335e-06 -2.6227713113283398e-05
leaf_weight=3207 607897 881 881 618 1453 830 555 819 992 1268 831 2425 1619 536 710
leaf_count=3207 607897 881 881 618 1453 830 555 819 992 1268 831 2425 1619 536 710
internal_value=0 -2.08566e-06 -7.52641e-07 -2.25185e-06 -1.33838e-06 4.13295e-06 9.77434e-06 -5.55904e-06 5.84926e-06 1.24479e-05 -1.36621e-05 -5.68169e-06 -1.07982e-05 -1.04786e-06 -1.22039e-05
internal_weight=0 17625 16744 15863 15245 6748 4268 2480 3713 2260 1650 8497 4044 4453 1246
internal_count=625522 17625 16744 15863 15245 6748 4268 2480 3713 2260 1650 8497 4044 4453 1246
cat_boundaries=0 1 2
cat_threshold=1826 148
is_linear=0
shrinkage=0.1


Tree=44
num_leaves=16
num_cat=0
split_feature=11 1 16 2 17 5 3 0 2 17 12 0 10 2 7
split_gain=6.60818e-06 1.80649e-05 2.63028e-05 1.78017e-05 8.36171e-05 2.27421e-05 4.45417e-05 2.24285e-05 2.3063e-05 1.62524e-05 5.54648e-05 5.80815e-05 5.68772e-05 5.43047e-05 3.02542e-05
threshold=0.062499999999949922 9.0983464433036523e-05 47.477934406057102 0.0029364440368163662 0.41370877726741179 0.006325996942302071 0.0049277863436285605 378.50000000000006 0.00034055569424973347 0.31265655080172911 -183.6517372666417 338.50000000000006 -0.0021881582029675824 -0.0023518660625619354 0.0054541826727345652
decision_type=2 2 2 8 2 10 10 2 10 2 2 2 10 8 10
left_child=1 3 -3 5 -5 6 9 8 -7 -1 -11 12 13 -12 -13
right_child=-2 2 -4 4 -6 7 -8 -9 -10 10 11 14 -14 -15 -16
leaf_value=-1.6518686945892794e-07 3.8420918854607975e-07 2.4880250867713115e-06 -2.745029532980889e-05 9.9426731746858866e-07 4.3294114357109573e-05 1.1306667716909701e-05 2.4561100985101555e-05 -2.2762324858974953e-05 -1.6313989503886971e-05 -2.9855869163613801e-05 1.3091746895781319e-05 -1.1026058142207272e-06 -4.5075302280071035e-05 -3.0308464203851419e-05 1.7490957378748067e-05
leaf_weight=342235 260830 580 594 3897 531 635 722 888 577 763 638 10582 570 526 954
leaf_count=342235 260830 580 594 3897 531 635 722 888 577 763 638 10582 570 526 954
internal_value=0 -2.74995e-07 -1.26596e-05 -2.34999e-07 6.06681e-06 -3.12707e-07 -2.5167e-07 -1.06888e-05 -1.84277e-06 -3.01955e-07 -3.63743e-06 -2.12992e-06 -1.91941e-05 -6.52038e-06 4.35038e-07
internal_weight=0 364692 1174 363518 4428 359090 356990 2100 1212 356268 14033 13270 1734 1164 11536
internal_count=625522 364692 1174 363518 4428 359090 356990 2100 1212 356268 14033 13270 1734 1164 11536
is_linear=0
shrinkage=0.1


Tree=45
num_leaves=16
num_cat=2
split_feature=2 1 18 18 1 8 10 14 17 10 0 13 6 1 0
split_gain=6.7457e-06 1.77094e-05 6.73207e-05 2.34887e-05 3.40923e-05 2.25385e-05 2.21134e-05 2.53722e-05 2.19468e-05 3.22967e-05 2.78167e-05 2.70312e-05 1.80479e-05 1.60195e-05 2.61122e-05
threshold=-0.002875617429842658 0.00030258987651432539 0 1 -0.0027305702796561189 0.0025907132539464421 0.0087084568520019463 61.744421269031768 0.41370877726741179 -0.0035826183300783905 330.50000000000006 34.645583559354769 -0.0066516359144906936 -0.0027305702796561189 346.50000000000006
decision_type=8 2 1 1 2 8 8 2 2 10 2 2 10 2 2
left_child=1 3 -3 6 12 -6 7 8 10 11 -1 -10 -5 -12 -15
right_child=-2 2 -4 4 5 -7 -8 -9 9 -11 13 -13 -14 14 -16
leaf_value=-1.5821003768876121e-05 -6.036582604076848e-08 -8.565514583018105e-06 3.7957980155506931e-05 4.6436479348304865e-06 4.8213396874332857e-06 -1.2875799001850476e-05 1.3576100019933928e-05 -2.4783215903153181e-05 -5.5198679273820217e-06 8.3942054734789123e-06 -5.0285839932915262e-06 -3.6386956397804723e-05 2.7173261489134191e-05 2.647563321442441e-05 2.7519400064293033e-06
leaf_weight=976 605147 659 577 562 4436 859 894 500 539 516 2318 599 968 507 5465
leaf_count=976 605147 659 577 562 4436 859 894 500 539 516 2318 599 968 507 5465
internal_value=0 1.78956e-06 1.33908e-05 1.04036e-06 5.74113e-06 1.95036e-06 -1.56842e-06 -2.75536e-06 -1.74676e-06 -1.23577e-05 1.47306e-07 -2.17671e-05 1.88977e-05 2.02729e-06 4.76599e-06
internal_weight=0 20375 1236 19139 6825 5295 12314 11420 10920 1654 9266 1138 1530 8290 5972
internal_count=625522 20375 1236 19139 6825 5295 12314 11420 10920 1654 9266 1138 1530 8290 5972
cat_boundaries=0 1 2
cat_threshold=3312 1858
is_linear=0
shrinkage=0.1


Tree=46
num_leaves=16
num_cat=3
split_feature=8 6 18 0 5 0 0 17 18 5 2 18 8 16 15
split_gain=6.61753e-06 3.41004e-05 2.75142e-05 5.29134e-05 3.7129e-05 3.22876e-05 3.18467e-05 4.81779e-05 3.06485e-05 2.14193e-05 4.60353e-05 4.71056e-05 2.58653e-05 2.01137e-05 2.00593e-05
threshold=-0.00576416164387089 -1.0000000180025095e-35 0 718.50000000000011 -8.1116158472172004e-05 607.50000000000011 378.50000000000006 0.28504862574823864 1 -0.0061310886775156606 -0.0039014784732848136 2 -0.0023588527448694658 12.564102564101034 11.095442994192384
decision_type=8 10 1 2 10 2 2 2 1 8 10 1 8 2 2
left_child=1 2 5 4 6 13 8 -8 14 10 -2 -12 -13 -1 -4
right_child=9 -3 3 -5 -6 -7 7 -9 -10 -11 11 12 -14 -15 -16
leaf_value=-2.3490006298610997e-07 9.8223236197221271e-06 -2.2898366473991117e-05 -2.6677181657806811e-06 -2.6598915376114787e-05 2.7462134130805044e-05 3.083604246057803e-05 7.1255756925845812e-07 1.8319740455080787e-05 1.3713888907572382e-06 -1.5595011960204515e-08 -3.0679932437739138e-05 -1.4866714400273784e-05 1.4873067373473038e-05 1.7386404772867082e-05 -2.0029858566237156e-05
leaf_weight=1839 998 545 1191 679 549 640 6120 2083 4121 601956 1102 675 516 1000 1508
leaf_count=1839 998 545 1191 679 549 640 6120 2083 4121 601956 1102 675 516 1000 1508
internal_value=0 1.77705e-06 2.45866e-06 7.26883e-07 1.91886e-06 1.05158e-05 9.85409e-07 5.18358e-06 -4.06409e-06 -5.95814e-08 -8.10512e-06 -1.59078e-05 -1.96547e-06 5.97197e-06 -1.23227e-05
internal_weight=0 20275 19730 16251 15572 3479 15023 8203 6820 605247 3291 2293 1191 2839 2699
internal_count=625522 20275 19730 16251 15572 3479 15023 8203 6820 605247 3291 2293 1191 2839 2699
cat_boundaries=0 1 2 3
cat_threshold=1548 66 460
is_linear=0
shrinkage=0.1


Tree=47
num_leaves=16
num_cat=2
split_feature=12 17 11 16 2 10 5 18 1 17 17 12 11 10 18
split_gain=6.23812e-06 1.43703e-05 5.6971e-05 1.154e-05 1.95701e-05 3.83571e-05 2.54113e-05 1.76006e-05 2.4603e-05 3.52077e-05 2.08972e-05 9.31983e-05 1.8913e-05 1.60427e-05 4.87617e-05
threshold=-145.86590467310873 0.35119800374852811 -0.40000000000010533 34.456518709840687 0.0039985928012347136 -0.0032222566974686169 0.0037953194372675196 0 -0.0027305702796561189 0.28504862574823864 0.41370877726741179 -79.557742707797601 -0.80952380952376712 -0.0040220533644472192 1
decision_type=2 2 2 2 10 8 10 1 2 2 2 2 2 8 1
left_child=1 -1 -3 4 6 -6 7 -2 9 -9 -10 -12 -11 14 -5
right_child=3 2 -4 13 5 -7 -8 8 10 12 11 -13 -14 -15 -16
leaf_value=1.3455325795785792e-06 4.5204199431434488e-07 8.0606609117239717e-06 -3.0798387001041414e-05 -1.303965506647047e-05 3.0148622717331496e-05 -2.0524568645558015e-06 -2.0714022938707539e-05 -3.4046468069757005e-05 -1.5842669802438145e-06 -1.6028376497576174e-05 -8.8000661017460492e-06 3.716822489477787e-05 1.0853430074391633e-05 1.5251827549731417e-07 1.5267687078892317e-05
leaf_weight=50095 70017 888 656 834 603 957 642 562 104617 541 1131 723 507 390560 2189
leaf_count=50095 70017 888 656 834 603 957 642 562 104617 541 1131 723 507 390560 2189
internal_value=0 1.05267e-06 -8.4494e-06 -9.48214e-08 -7.57361e-07 1.03945e-05 -8.54691e-07 -7.83103e-07 -1.58315e-06 -1.38527e-05 -1.39777e-06 9.12608e-06 -3.02353e-06 2.08687e-07 7.46549e-06
internal_weight=0 51639 1544 573883 180300 1560 178740 178098 108081 1610 106471 1854 1048 393583 3023
internal_count=625522 51639 1544 573883 180300 1560 178740 178098 108081 1610 106471 1854 1048 393583 3023
cat_boundaries=0 1 2
cat_threshold=2620 3
is_linear=0
shrinkage=0.1


Tree=48
num_leaves=16
num_cat=2
split_feature=3 8 18 1 1 7 18 11 17 13 15 3 7 3 16
split_gain=6.37627e-06 2.07441e-05 3.86708e-05 3.16815e-05 3.2703e-05 3.04363e-05 2.16497e-05 2.46588e-05 4.22543e-05 2.45372e-05 2.36679e-05 2.0399e-05 2.01838e-05 6.59736e-05 3.16683e-05
threshold=0.002499684920559964 -0.0026014982512850278 0 -0.0020131703663579521 -0.00098978677170813412 -0.0029996815915781512 1 0.87096774193564508 0.35119800374852811 67.359016298281446 84.012800531152251 0.0035930229944985963 0.0073385130250985817 -0.0012853827363772938 80.952380952383791
decision_type=10 8 1 2 2 10 1 2 2 2 2 10 10 8 2
left_child=12 2 5 -3 11 -2 -6 -8 9 -9 -11 -5 -1 -14 -15
right_child=1 3 -4 4 6 -7 7 8 -10 10 -12 -13 13 14 -16
leaf_value=3.9552811369243988e-08 1.8749724575467479e-05 2.0431619453318848e-05 -2.6314949534164267e-05 -3.0190516186277729e-05 -5.233734823297468e-06 -1.490557787131847e-05 -9.2977045429779587e-07 -1.482671687781302e-06 2.8864469992339531e-05 2.3447826043380024e-05 2.3409013697234531e-06 -4.6376594495108992e-06 3.9567167485617988e-05 2.3140995652396513e-05 -4.2023267910993645e-06
leaf_weight=583020 531 696 903 605 7694 544 21003 3866 723 967 1179 646 549 533 2063
leaf_count=583020 531 696 903 605 7694 544 21003 3866 723 967 1179 646 549 533 2063
internal_value=0 -1.23222e-06 -1.12124e-05 -7.04098e-07 -1.10511e-06 1.70274e-06 -5.44076e-07 7.58361e-07 6.0239e-06 3.27711e-06 1.18518e-05 -1.69954e-05 8.26511e-08 8.07222e-06 1.41169e-06
internal_weight=0 39357 1978 37379 36683 1075 35432 27738 6735 6012 2146 1251 586165 3145 2596
internal_count=625522 39357 1978 37379 36683 1075 35432 27738 6735 6012 2146 1251 586165 3145 2596
cat_boundaries=0 1 2
cat_threshold=3908 3592
is_linear=0
shrinkage=0.1


Tree=49
num_leaves=16
num_cat=1
split_feature=1 16 6 12 5 18 16 10 10 3 4 16 17 9 8
split_gain=6.63811e-06 3.25922e-05 8.66844e-05 4.21558e-05 3.81066e-05 3.3116e-05 2.20928e-05 0.000133285 2.61517e-05 3.18232e-05 2.61199e-05 3.21092e-05 2.33451e-05 2.06498e-05 3.635e-05
threshold=-0.0020131703663579521 82.362511791628989 0.0031148786138646138 80.353688736008721 0.00053825610935942525 0 24.166666666671528 -0.0084096381478438436 -0.0084096381478438436 -0.0029071496413766713 -0.0054796576120222365 45.588235294118554 0.24633525396527595 -0.00084900498307777228 -0.00045863749423474815
decision_type=2 2 10 2 10 1 2 10 10 8 10 2 2 8 10
left_child=1 2 3 6 -3 -6 8 -8 9 -1 11 -9 -10 -12 -15
right_child=-2 4 -4 -5 5 -7 7 10 12 -11 13 -13 -14 14 -16
leaf_value=4.884934145957232e-06 5.5347542074937111e-08 -3.784757098454295e-05 3.1766421220536472e-05 -2.8075099699507074e-05 -2.1152457867045165e-05 1.2699814218294804e-05 -4.0893215768851933e-05 -2.2655485259372385e-06 3.9038922015262963e-06 3.0879682087182227e-05 -7.2660375123151751e-06 3.2540541912990756e-05 -1.3113932444200228e-05 2.1446256155502938e-05 -3.5982339676514914e-06
leaf_weight=2000 607897 515 790 605 596 544 897 553 2244 616 3789 509 1258 840 1869
leaf_count=2000 607897 515 790 605 596 544 897 553 2244 616 3789 509 1258 840 1869
internal_value=0 -1.91328e-06 -5.28954e-07 -2.20967e-06 -1.52714e-05 -5.07254e-06 -1.13602e-06 -4.44746e-06 3.44144e-06 1.1006e-05 -1.23145e-07 1.44165e-05 -2.20931e-06 -2.49942e-06 4.1675e-06
internal_weight=0 17625 15970 15180 1655 1140 14575 8457 6118 2616 7560 1062 3502 6498 2709
internal_count=625522 17625 15970 15180 1655 1140 14575 8457 6118 2616 7560 1062 3502 6498 2709
cat_boundaries=0 1
cat_threshold=2139
is_linear=0
shrinkage=0.1


Tree=50
num_leaves=16
num_cat=0
split_feature=13 4 2 14 4 16 8 5 14 7 11 8 11 3 0
split_gain=5.96393e-06 2.20556e-05 1.88144e-05 1.66993e-05 6.78392e-05 3.95178e-05 3.18057e-05 1.9594e-05 3.45309e-05 1.8312e-05 2.00259e-05 1.60724e-05 3.25815e-05 2.81128e-05 2.73842e-05
threshold=28.393723495636674 0.0033899763625844241 0.0029364440368163662 11.101431017144954 -0.003376986441300522 11.268680665492871 -0.0032072153303761004 -0.0061310886775156606 1.0000000180025095e-35 -0.0071587008213238592 -0.37427466150866445 -0.0041095203900478041 -0.75000000000007494 0.002499684920559964 679.50000000000011
decision_type=2 8 8 2 8 2 8 8 2 10 2 8 2 10 2
left_child=1 2 3 7 5 -5 -7 8 -1 10 -9 12 14 -14 -2
right_child=11 -3 -4 4 -6 6 -8 9 -10 -11 -12 -13 13 -15 -16
leaf_value=3.4647138145203903e-06 -1.3995703477892346e-06 -1.1322461356223398e-05 1.4258835793418042e-05 -5.2938195408170854e-06 -1.1086868554005264e-06 -5.1087350131588687e-05 -1.622308306956106e-05 -3.9126030748885974e-07 3.1598052689737649e-05 7.8824393061739494e-07 -2.6542272764861127e-05 1.3222165743369822e-10 5.5481868842182558e-06 -1.3433600628666362e-05 -2.3483319002565078e-05
leaf_weight=2140 5861 1943 850 966 44111 514 533 667 548 29181 522 518443 17806 816 621
leaf_count=2140 5861 1943 850 966 44111 514 533 667 548 29181 522 518443 17806 816 621
internal_value=0 -7.95224e-07 -5.39646e-07 -6.98505e-07 -1.92795e-06 -1.98806e-05 -3.33389e-05 1.01688e-06 9.20023e-06 2.92582e-07 -1.18722e-05 1.1979e-07 2.59095e-06 4.71642e-06 -3.51528e-06
internal_weight=0 81975 80032 79182 46124 2013 1047 33058 2688 30370 1189 543547 25104 18622 6482
internal_count=625522 81975 80032 79182 46124 2013 1047 33058 2688 30370 1189 543547 25104 18622 6482
is_linear=0
shrinkage=0.1


Tree=51
num_leaves=16
num_cat=2
split_feature=15 2 18 9 1 3 0 17 0 17 18 2 3 4 17
split_gain=6.30619e-06 1.46784e-05 2.02019e-05 1.21616e-05 2.2877e-05 3.64724e-05 2.68151e-05 0.000109027 2.99443e-05 4.00716e-05 1.90627e-05 1.76003e-05 1.85035e-05 2.1353e-05 5.27751e-05
threshold=5.6445713178478112 0.00096971668709033853 0 -0.0030581501278738594 0.0027377882603067953 0.0014477811663798914 718.50000000000011 0.31265655080172911 703.50000000000011 0.18394100769572783 1 0.0029364440368163662 -6.8490805189724821e-05 0.00048443171244416666 0.35119800374852811
decision_type=2 8 1 8 2 10 2 2 2 2 1 10 10 10 2
left_child=1 -1 -3 4 6 -6 8 10 11 -10 -8 12 -2 14 -14
right_child=3 2 -4 -5 5 -7 7 -9 9 -11 -12 -13 13 -15 -16
leaf_value=-1.0906042191242988e-06 1.8340176607023329e-06 -2.6740935389642365e-05 5.912730037899954e-07 -8.8394702492979868e-08 3.5438493679223906e-05 -2.4204646933425982e-06 1.4808325562916799e-05 -4.6236986967445423e-05 4.4410222101409685e-06 3.3476558878461565e-05 -6.7448620641685723e-06 1.5075560165684683e-05 -3.6823969715879745e-06 2.8486500653073293e-06 -3.6501064126316767e-05
leaf_weight=19707 41436 530 550 545951 503 515 791 595 1679 663 834 887 6205 4144 532
leaf_count=19707 41436 530 550 545951 503 515 791 595 1679 663 834 887 6205 4144 532
internal_value=0 -1.71268e-06 -1.30639e-05 5.8757e-08 1.42542e-06 1.62859e-05 1.16353e-06 -9.6136e-06 1.59426e-06 1.26607e-05 3.79619e-06 1.10712e-06 8.70297e-07 -2.79965e-06 -6.27399e-06
internal_weight=0 20787 1080 604735 58784 1018 57766 2220 55546 2342 1625 53204 52317 10881 6737
internal_count=625522 20787 1080 604735 58784 1018 57766 2220 55546 2342 1625 53204 52317 10881 6737
cat_boundaries=0 1 2
cat_threshold=1480 270
is_linear=0
shrinkage=0.1


Tree=52
num_leaves=16
num_cat=0
split_feature=0 17 2 3 5 17 15 6 16 16 9 1 9 6 9
split_gain=5.52834e-06 2.31489e-05 7.71656e-05 5.20605e-05 7.21815e-05 5.14199e-05 0.0001202 4.39484e-05 4.03682e-05 3.15957e-05 6.19312e-05 3.43126e-05 3.28527e-05 1.39998e-05 1.27268e-05
threshold=543.50000000000011 0.26403304325789595 0.0023921655340319874 0.0029462920503721128 0.006325996942302071 0.41370877726741179 51.243583668956838 0.0068202980576451697 92.941176470589781 43.707733082735849 0.00063693714806212231 -0.00012894188934442494 -0.0038332572166725472 -0.0066516359144906936 0.0061549582614642837
decision_type=2 2 10 10 10 2 2 10 2 2 10 2 10 10 10
left_child=14 7 5 -4 -5 9 -7 13 -9 12 -11 -12 -3 -2 -1
right_child=1 2 3 4 -6 6 -8 8 -10 10 11 -13 -14 -15 -16
leaf_value=-1.4067139398013679e-07 1.2543769775047188e-05 8.0038647008199829e-06 5.1293103205554683e-05 -1.2571096844520434e-05 3.7716858345886761e-05 9.4296675373132395e-06 -5.1418694941388738e-05 -4.0278747108862795e-05 -4.8974876774276195e-07 3.6973848174501987e-05 -1.3721117402617714e-05 1.5065464568102643e-05 -1.8551205642677507e-05 2.1408758216033862e-07 -3.1167087308392905e-06
leaf_weight=325585 924 1018 514 562 580 749 573 514 506 752 737 945 859 275671 15033
leaf_count=325585 924 1018 514 562 580 749 573 514 506 752 737 945 859 275671 15033
internal_value=0 3.24929e-07 5.88785e-06 2.48644e-05 1.29692e-05 3.09088e-07 -1.69441e-05 1.7887e-07 -2.05403e-05 5.5999e-06 1.31178e-05 2.45208e-06 -4.14894e-06 2.55276e-07 -2.72017e-07
internal_weight=0 284904 7289 1656 1142 5633 1322 277615 1020 4311 2434 1682 1877 276595 340618
internal_count=625522 284904 7289 1656 1142 5633 1322 277615 1020 4311 2434 1682 1877 276595 340618
is_linear=0
shrinkage=0.1


Tree=53
num_leaves=16
num_cat=1
split_feature=18 3 7 15 17 13 17 0 7 15 0 10 17 15 7
split_gain=5.76803e-06 2.28192e-05 3.87297e-05 2.82708e-05 3.92598e-05 3.18303e-05 6.40103e-05 3.07858e-05 2.75134e-05 4.59195e-05 3.0072e-05 2.12083e-05 2.10263e-05 2.02614e-05 5.37578e-05
threshold=0 0.0029462920503721128 -0.0018358958353216768 45.660609288267651 0.35119800374852811 46.705296977967329 0.23172216189997644 671.50000000000011 0.0073385130250985817 82.631136142401246 362.50000000000006 -0.00059565687378920751 0.24633525396527595 78.406827459664598 0.0073385130250985817
decision_type=1 10 8 2 2 2 2 2 10 2 2 10 2 2 8
left_child=1 8 -3 4 11 6 -5 13 -1 -10 -11 -4 -13 14 -7
right_child=-2 2 3 5 -6 7 -8 -9 9 10 -12 12 -14 -15 -16
leaf_value=4.0145808572898873e-07 -3.1656749582877494e-07 -2.5083111965847489e-05 -1.099674805008732e-05 3.3011807027283237e-06 2.7635313406492933e-05 -5.7232669746471482e-06 -4.1891168299947447e-05 1.2687966951136723e-05 3.775798094175742e-05 1.9732846879980548e-05 -1.1137643966616401e-05 -1.2613112123273593e-07 2.1621315463330038e-05 -9.8484809912811141e-06 2.5771091933603641e-05
leaf_weight=309164 299861 791 1078 607 636 2750 648 1094 523 568 710 1534 626 4257 675
leaf_count=309164 299861 791 1078 607 636 2750 648 1094 523 568 710 1534 626 4257 675
internal_value=0 2.91267e-07 -3.55928e-06 -2.33488e-06 4.92076e-06 -5.13703e-06 -2.00332e-05 -3.00682e-06 4.7325e-07 1.27973e-05 2.58257e-06 4.59223e-07 6.1766e-06 -5.24193e-06 4.8365e-07
internal_weight=0 325661 14696 13905 3874 10031 1255 8776 310965 1801 1278 3238 2160 7682 3425
internal_count=625522 325661 14696 13905 3874 10031 1255 8776 310965 1801 1278 3238 2160 7682 3425
cat_boundaries=0 1
cat_threshold=3123
is_linear=0
shrinkage=0.1


Tree=54
num_leaves=16
num_cat=1
split_feature=15 6 14 4 8 7 4 18 6 9 15 13 14 14 8
split_gain=5.2988e-06 1.4536e-05 1.09662e-05 2.51391e-05 1.02176e-05 1.77583e-05 2.14292e-05 1.58291e-05 3.55454e-05 2.54528e-05 4.85912e-05 9.87795e-05 2.0803e-05 4.95055e-05 2.05686e-05
threshold=5.6445713178478112 0.00013461214889887166 27.242550943911855 -0.00095099408684540243 -0.0036060509467474296 8.5710000568339786e-05 0.0025439267878464293 0 -0.0066516359144906936 -0.0080435902374634254 26.47439546109241 45.014212174262596 22.504057040711569 11.101431017144954 -0.0076384609294838915
decision_type=2 8 2 10 8 10 10 1 10 8 2 2 2 2 10
left_child=1 2 -1 -4 5 6 7 8 -2 10 12 -12 13 -9 -11
right_child=4 -3 3 -5 -6 -7 -8 9 -10 14 11 -13 -14 -15 -16
leaf_value=-1.065500981165612e-06 1.8857303060204752e-05 1.5171633650486178e-05 -2.1487747831424125e-05 -1.1621951414987115e-06 -5.7317653451995901e-08 -1.554802832256268e-05 1.7593090832939646e-05 1.3818824344072838e-06 2.4479713291070791e-06 1.2704926101784958e-05 -5.4757601227169434e-05 5.3122523027919986e-06 1.2912217155071331e-05 -2.826197183912237e-05 8.6965108269706567e-07
leaf_weight=17525 1523 506 907 1849 563513 597 844 2804 9908 1577 548 547 844 705 21325
leaf_count=17525 1523 506 907 1849 563513 597 844 2804 9908 1577 548 547 844 705 21325
internal_value=0 -1.56994e-06 -1.98763e-06 -7.85134e-06 5.38566e-08 1.57363e-06 1.82524e-06 1.49071e-06 4.6302e-06 2.23118e-07 -5.92022e-06 -2.47501e-05 -1.18355e-06 -4.57392e-06 1.68461e-06
internal_weight=0 20787 20281 2756 604735 41222 40625 39781 11431 28350 5448 1095 4353 3509 22902
internal_count=625522 20787 20281 2756 604735 41222 40625 39781 11431 28350 5448 1095 4353 3509 22902
cat_boundaries=0 1
cat_threshold=3128
is_linear=0
shrinkage=0.1


Tree=55
num_leaves=16
num_cat=3
split_feature=11 1 1 1 18 4 17 17 18 17 10 2 14 18 4
split_gain=5.66243e-06 1.40256e-05 4.52843e-05 2.04588e-05 1.29188e-05 1.50526e-05 1.79512e-05 1.53039e-05 1.28704e-05 2.3095e-05 3.84998e-05 2.07642e-05 3.58575e-05 2.81476e-05 2.64756e-05
threshold=0.20833333333344092 0.00067977872867519562 0.00052431163298183325 0.00044073126309440719 0 -0.0016570018452313204 0.31265655080172911 0.15409314436175783 1 0.41370877726741179 0.0015570791557047994 0.0023921655340319874 45.972291633683938 2 0.0056426278165159225
decision_type=2 2 2 2 1 10 2 2 1 2 8 8 2 1 10
left_child=1 2 3 4 5 6 7 -1 -2 11 -11 -10 -13 14 -14
right_child=8 -3 -4 -5 -6 -7 -8 -9 9 10 -12 12 13 -15 -16
leaf_value=2.2608664811780384e-06 1.2778030045667143e-06 -1.5920039384195381e-05 2.8838078689469556e-05 -1.8792798639171653e-05 -4.9261234296111742e-07 2.9684997507158167e-07 -1.1189590227238987e-05 9.4696252771183856e-06 -1.428835309671295e-08 3.3497134895722252e-05 -9.0915922688820015e-07 -2.4340408799723227e-05 -5.5039864302637316e-06 1.9361523501934923e-06 -2.7016427019517199e-05
leaf_weight=8095 96050 569 536 594 319681 58541 735 4629 124783 539 820 855 3235 5165 695
leaf_count=8095 96050 569 536 594 319681 58541 735 4629 124783 539 820 855 3235 5165 695
internal_value=0 -2.31221e-07 -2.08495e-07 -2.48184e-07 -2.20061e-07 9.90004e-07 4.00567e-06 4.88342e-06 3.91566e-07 -2.33992e-07 1.27369e-05 -3.64842e-07 -4.76113e-06 -2.92053e-06 -9.28472e-06
internal_weight=0 393380 392811 392275 391681 72000 13459 12724 232142 136092 1359 134733 9950 9095 3930
internal_count=625522 393380 392811 392275 391681 72000 13459 12724 232142 136092 1359 134733 9950 9095 3930
cat_boundaries=0 1 2 3
cat_threshold=2096 387 3592
is_linear=0
shrinkage=0.1


Tree=56
num_leaves=16
num_cat=1
split_feature=1 11 11 18 0 10 6 0 5 6 0 0 1 14 0
split_gain=5.38563e-06 1.87152e-05 2.43436e-05 2.43967e-05 4.72599e-05 3.06538e-05 5.39652e-05 2.89494e-05 2.7279e-05 2.01089e-05 2.46938e-05 3.61752e-05 5.3923e-05 2.46902e-05 1.99788e-05
threshold=0.001227307427998481 0.3087327523601664 0.4000000000001171 0 346.50000000000006 0.0087084568520019463 0.0068202980576451697 354.50000000000006 -0.0025223202574810584 -0.0035509565211885303 243.50000000000003 330.50000000000006 0.0020062887978035131 33.546678786111244 338.50000000000006
decision_type=2 2 2 1 2 10 8 2 10 8 2 2 2 2 2
left_child=-1 -2 -3 9 8 6 7 -6 -5 13 -11 12 -12 -4 -13
right_child=1 2 3 4 5 -7 -8 -9 -10 10 11 14 -14 -15 -16
