tree
version=v3
num_class=1
num_tree_per_iteration=1
label_index=0
max_feature_idx=18
objective=regression
feature_names=minute ret1min ret2min ret3min ret4min ret5min ret6min ret7min ret8min ret9min ret10min BOP CCI MFI STOCHRSI slowd slowk NATR stock_id
feature_infos=[0:958] [-0.03548053737512924:0.10273967684021534] [-0.098299253669228426:0.14901256732495516] [-0.098299253669228426:0.15235999726314509] [-0.10447761194029848:0.14948722093503597] [-0.16766084954082627:0.1487609536151866] [-0.16766084954082627:0.15185223863935104] [-0.16766084954082627:0.14898072812831153] [-0.16885995290206401:0.15047906667385713] [-0.1683761157620447:0.15134833684134796] [-0.16636563203378996:0.14994986937288224] [-1:1] [-466.66666666675019:466.66666666703634] [-3.4751314842420425e-11:100.00000000001144] [0:100.00000000000001] [-2.1440627051561023e-12:100.00000000000269] [-1.4637180356658064e-12:100.0000000000028] [0.0061670933959557979:3.0887678887774559] -1:0:8:10:1:7:9:5:2:3:4:6:11
tree_sizes=1722 1739 1728 1748 1735 1734 1733 1706 1700 1759 1755 1740 1701 1781 1725 1749 1733 1715 1732 1719 1732 1727 1766 1752 1724 1734 1748 1736 1721 1719 1702 1718 1737 1724 1730 1744 1757 1733 1700 1709 1794 1738 1731 1720 1742 1722 1723 1692 1735 1734 1768 1726 1713 1726 1733 1729 1748 1725 1703 1734 1714 1697 1710 1729 1750 1739 1744 1753 1744 1720 1759 1689 1708 1740 1693 1710 1759 1733 1718 1667 1718 1731 1706 1726 1692 1744 1722 1743 1755 1784 1711 1690 1731 1724 1704 1720 1748 1728 1741 1706 1739 1729 1745 1742 1755 1700 1737 1712 1712 1736 1745 1704 1684 1758 1732 1731 1707 1737 1757 1763 1767 1733 1746 1741 1745 1740 1720 1719 1736 1739 1735 1697 1742 1742 1734 1750 1735 1720 1750 1743 1738 1733 1742 1704 1708 1693 1720 1727 1749 1749 1725 1720 1697 1714 1752 1741 1729 1743 1754 1752 1718 1741 1707 1709 1716 1683 1702 1722 1731 1720 1677 1738 1717 1718 1727 1690 1712 1726 1723 1745 1724 1744 1734 1747 1726 1738 1745 1693 1711 1716 1727 1715 1751 1755 1714 1740 1734 1733 1706 1715 1719 1752 1744 1747 1711 1698 1712 1780 1737 1734 1751 1721 1730 1708 1712 1695 1749 1738 1729 1711 1746 1731 1726 1708 1760 1745 1733 1716 1726 1721 1729 1720 1711 1720 1722 1743 1748 1736 1737 1686 1706 1726 1730 1747 1700 1698 1740 1726 1714 1737

Tree=0
num_leaves=16
num_cat=4
split_feature=1 18 15 11 1 18 17 8 11 18 3 4 14 18 12
split_gain=6.17109e-05 9.31465e-05 0.000104268 8.30139e-05 5.56081e-05 0.000103993 9.07832e-05 0.000104005 9.62284e-05 5.94474e-05 4.99182e-05 4.55945e-05 4.50105e-05 7.22155e-05 4.4866e-05
threshold=-0.001588686652733595 0 49.978275747275994 -0.39999999999988523 0.0030679233801140797 1 0.25808142322934752 0.0065957161872312051 0.80533943101505201 2 0.0016542944696787967 -0.0045679547913319843 99.999999999999915 3 -113.59543271105019
decision_type=2 1 2 2 2 1 2 8 2 1 8 10 2 1 2
left_child=1 3 10 14 11 -6 7 -7 12 -10 -3 -2 13 -8 -1
right_child=4 2 -4 -5 5 6 8 -9 9 -11 -12 -13 -14 -15 -16
leaf_value=-8.6280414385172999e-06 7.1113273174765914e-07 1.6681157093726635e-06 -1.2059205967326656e-05 2.5159808802382792e-05 -1.9348610450027995e-05 5.4089639371066763e-06 1.0982039674830926e-05 -4.4200855881527547e-05 1.7510204204739388e-05 4.9397731947791766e-05 3.3803637813402728e-05 -4.8499775082078825e-06 1.7627892436868517e-05 -3.613918091074068e-05 -1.9174346017569235e-05
leaf_weight=6466 15139 8943 8092 525 1618 1483 687 591 1668 942 511 563797 943 601 10724
leaf_count=6466 15139 8943 8092 525 1618 1483 687 591 1668 942 511 563797 943 601 10724
internal_value=-4.83032e-06 -8.8936e-06 -3.72749e-06 -1.40059e-05 -4.58644e-06 3.42741e-06 8.75798e-06 -8.72768e-06 1.62773e-05 2.93124e-05 3.40508e-06 -4.70456e-06 1.02786e-06 -1.11257e-05 -1.52074e-05
internal_weight=0 35261 17546 17715 587469 8533 6915 2074 4841 2610 9454 578936 2231 1288 17190
internal_count=622730 35261 17546 17715 587469 8533 6915 2074 4841 2610 9454 578936 2231 1288 17190
cat_boundaries=0 1 2 3 4
cat_threshold=1826 2728 86 321
is_linear=0
shrinkage=1


Tree=1
num_leaves=16
num_cat=0
split_feature=1 3 10 0 14 8 16 1 17 5 0 9 8 12 14
split_gain=4.99878e-05 7.57671e-05 6.62044e-05 6.3925e-05 6.06729e-05 4.69694e-05 4.59732e-05 4.51297e-05 6.6197e-05 0.000137344 6.33416e-05 7.77605e-05 5.79177e-05 5.12982e-05 5.10412e-05
threshold=-0.001588686652733595 0.0040713598564943174 -0.0015447420951059663 373.50000000000006 61.825592536386004 -0.0083586548816433331 23.460521637714081 0.0018605546420609189 0.24548386544711054 0.007031448090682014 630.50000000000011 0.0068705582717154554 0.0010969160639421329 -78.083454523602384 77.600361622623822
decision_type=2 10 10 2 2 10 2 2 2 8 2 10 10 2 2
left_child=1 2 3 4 6 -5 -1 -2 9 -9 13 12 -12 -10 -15
right_child=7 -3 -4 5 -6 -7 -8 8 10 -11 11 -13 -14 14 -16
leaf_value=-3.3369953136892127e-06 3.1989777627424557e-08 2.8796449620672999e-05 -9.7284153916292095e-06 1.82294167118938e-05 2.3936958230921923e-05 9.7950249007403664e-07 -1.9814520176887862e-05 2.1389694881903034e-06 2.3479000797901442e-05 -3.6465472991193708e-05 3.1376003643765112e-05 5.4604129034018368e-05 -1.2233992965645383e-05 -5.3721545507206697e-06 9.2509673201942019e-06
leaf_weight=3727 561738 705 13673 1825 542 11686 3103 11103 1527 1005 669 636 559 3793 6439
leaf_count=3727 561738 705 13673 1825 542 11686 3103 11103 1527 1005 669 636 559 3793 6439
internal_value=0 -3.65695e-06 -4.31905e-06 -7.77305e-07 -8.26745e-06 3.30954e-06 -1.08231e-05 2.19576e-07 4.31479e-06 -1.06531e-06 9.09659e-06 2.62232e-05 1.15242e-05 6.38174e-06 3.83018e-06
internal_weight=0 35261 34556 20883 7372 13511 6830 587469 25731 12108 13623 1864 1228 11759 10232
internal_count=622730 35261 34556 20883 7372 13511 6830 587469 25731 12108 13623 1864 1228 11759 10232
is_linear=0
shrinkage=0.1


Tree=2
num_leaves=16
num_cat=2
split_feature=11 17 18 5 6 2 0 6 1 18 2 14 13 5 17
split_gain=5.02754e-05 7.026e-05 8.03321e-05 0.000100931 0.000123809 6.38276e-05 5.09405e-05 5.09973e-05 5.70423e-05 8.46866e-05 7.16475e-05 6.65823e-05 5.34894e-05 4.73825e-05 0.000121809
threshold=0.16666666666682586 0.44125505592418962 0 0.007031448090682014 -0.0014933661633756976 0.0033248913054131361 373.50000000000006 0.0077211766300030469 -0.0022154832473494919 1 -0.0010999258299665968 38.048866944497298 24.762262877882268 0.007031448090682014 0.31409284279060307
decision_type=2 2 1 8 10 8 2 8 2 1 10 2 2 10 2
left_child=6 -2 3 4 -3 -4 7 8 9 10 11 -1 -11 14 -9
right_child=1 2 5 -5 -6 -7 -8 13 -10 12 -12 -13 -14 -15 -16
leaf_value=-2.4279153310391538e-05 9.1681261312633175e-07 4.7962087754919934e-05 1.5963578839624096e-05 6.03278825328074e-05 -1.059564836721352e-05 -2.1560992978566844e-05 -1.1014446635329689e-07 2.7546783207211912e-06 -2.8176244551522074e-06 2.8722090506838813e-05 -5.4381569537023703e-05 1.1837212558088103e-05 -6.2538008176895348e-06 -1.2219086229561802e-05 4.2765028978975721e-05
leaf_weight=2391 234603 608 993 652 889 834 302583 4593 68211 533 600 649 2434 1245 912
leaf_count=2391 234603 608 993 652 889 834 302583 4593 68211 533 600 649 2434 1245 912
internal_value=0 1.14022e-06 1.43222e-05 2.73623e-05 1.31873e-05 -1.15952e-06 -7.0803e-07 -2.92594e-06 -3.67697e-06 -1.2549e-05 -2.27392e-05 -1.65688e-05 2.92654e-08 5.39869e-06 9.3831e-06
internal_weight=0 238579 3976 2149 1497 1827 384151 81568 74818 6607 3640 3040 2967 6750 5505
internal_count=622730 238579 3976 2149 1497 1827 384151 81568 74818 6607 3640 3040 2967 6750 5505
cat_boundaries=0 1 2
cat_threshold=3904 1283
is_linear=0
shrinkage=0.1


Tree=3
num_leaves=16
num_cat=0
split_feature=11 7 3 9 2 5 7 3 15 1 7 1 8 5 3
split_gain=4.07231e-05 4.41401e-05 5.24397e-05 3.03545e-05 3.46225e-05 3.26934e-05 4.58681e-05 3.61133e-05 2.82232e-05 3.31008e-05 3.05638e-05 4.01591e-05 2.46946e-05 3.7682e-05 2.42943e-05
threshold=0.16666666666682586 -0.0078400119088969916 -0.0028109337989124512 0.0068705582717154554 0.0044347827878489241 0.007031448090682014 0.006160225335519077 0.0055080821537779609 83.369002153410307 -0.0022154832473494919 0.0082429265193766383 -0.00020779576004631425 0.0054259285993127912 0.0019717572393603837 -0.0039631096950102354
decision_type=2 8 10 10 8 10 8 10 2 2 8 2 10 10 8
left_child=3 2 -2 4 5 7 -7 -1 10 -10 11 -5 -11 -14 -3
right_child=1 14 -4 8 -6 6 -8 -9 9 12 -12 -13 13 -15 -16
leaf_value=-5.7794412023861433e-07 3.6866622254810235e-05 -1.1377035173645163e-05 2.2662748902500411e-06 -2.0365911551608866e-05 1.1205764826926569e-05 3.7652804799701858e-06 -3.5807560795010667e-05 2.0934342194701096e-05 -3.1602589968051619e-05 9.24893251394381e-06 1.9492899202196083e-05 1.1451821252752749e-05 -3.2003341861306412e-05 -6.5638287735448504e-06 9.9096130755935605e-07
leaf_weight=371582 748 1599 1057 831 2507 552 624 782 655 734 734 759 691 3700 235175
leaf_count=371582 748 1599 1057 831 2507 552 624 782 655 734 734 759 691 3700 235175
internal_value=0 1.0262e-06 1.66048e-05 -6.37227e-07 -5.06733e-07 -5.85341e-07 -1.72326e-05 -5.32766e-07 -6.69247e-06 -1.04345e-05 2.61431e-06 -5.17745e-06 -7.72912e-06 -1.05672e-05 9.07437e-07
internal_weight=0 238579 1805 384151 376047 373540 1176 372364 8104 5780 2324 1590 5125 4391 236774
internal_count=622730 238579 1805 384151 376047 373540 1176 372364 8104 5780 2324 1590 5125 4391 236774
is_linear=0
shrinkage=0.1


Tree=4
num_leaves=16
num_cat=2
split_feature=11 17 7 5 8 18 7 3 17 14 5 6 10 18 15
split_gain=3.30512e-05 5.0127e-05 9.24369e-05 0.000145217 0.00010172 9.01984e-05 6.63949e-05 3.65533e-05 5.24374e-05 4.06263e-05 3.93663e-05 4.94741e-05 3.75174e-05 6.59694e-05 3.51464e-05
threshold=0.20000000000023013 0.44125505592418962 -0.006006130669265696 0.007031448090682014 0.0054259285993127912 0 0.00023959798957129411 0.0028602923557415898 0.27277331749524142 12.60448184779616 -0.00123831765386867 0.00043693107937103909 0.0035851357920957398 1 87.416915494949237
decision_type=2 2 8 8 10 1 10 10 2 2 8 10 8 1 2
left_child=-1 7 -3 4 6 -5 -4 8 -2 -10 -11 -12 -13 -14 -15
right_child=1 2 3 5 -6 -7 -8 -9 9 10 11 12 13 14 -16
leaf_value=-5.6027830418744619e-07 8.0136533497008047e-07 4.7914435466130578e-05 -1.6144446386060877e-05 5.7743242364096687e-05 -4.5637831299891937e-05 2.0936862031917145e-06 2.6885303449740624e-05 -2.8745356157271955e-06 2.5786977520051646e-05 -2.8933636547828264e-06 2.2362721954980245e-05 -4.8061991309668219e-06 -1.0534010958809175e-05 3.4838154075652567e-05 4.6346029728952366e-06
leaf_weight=391268 191237 612 781 655 591 531 663 24717 1123 3498 2239 2314 813 1093 595
leaf_count=391268 191237 612 781 655 591 531 663 24717 1123 3498 2239 2314 813 1093 595
internal_value=0 9.47253e-07 1.2288e-05 5.51882e-06 -1.06908e-05 3.33322e-05 3.61229e-06 7.56289e-07 1.19857e-06 7.70472e-06 5.78031e-06 1.00815e-05 4.37064e-06 1.28613e-05 2.40493e-05
internal_weight=0 231462 3833 3221 2035 1186 1444 227629 202912 11675 10552 7054 4815 2501 1688
internal_count=622730 231462 3833 3221 2035 1186 1444 227629 202912 11675 10552 7054 4815 2501 1688
cat_boundaries=0 1 2
cat_threshold=3393 1542
is_linear=0
shrinkage=0.1


Tree=5
num_leaves=16
num_cat=2
split_feature=0 8 0 18 17 0 4 9 11 18 12 12 4 0 11
split_gain=3.33806e-05 5.25354e-05 7.83186e-05 0.00011807 6.95932e-05 4.69779e-05 4.64158e-05 4.50486e-05 3.66173e-05 5.201e-05 0.000147699 7.02417e-05 4.17153e-05 5.28979e-05 5.38007e-05
threshold=373.50000000000006 -0.0053082231836335527 716.50000000000011 0 0.44125505592418962 694.50000000000011 -0.0060768633162330823 -0.0019057544698430349 -0.60052890724071339 1 -36.87790821057488 -125.35703201171107 -0.0045679547913319843 312.50000000000006 0.66666666666650476
decision_type=2 10 2 1 2 2 10 10 2 1 2 2 10 2 2
left_child=8 2 4 -4 5 -2 7 -3 9 10 11 -1 13 -10 -15
right_child=1 6 3 -5 -6 -7 -8 -9 12 -11 -12 -13 -14 14 -16
leaf_value=-1.7397823826511308e-05 4.622163809881391e-06 -3.7229918978280492e-06 -4.8123105733934933e-05 6.8145538912119959e-06 3.7976097951318718e-05 2.5127902261919036e-05 2.101202343663052e-07 -3.9748836110914702e-05 -3.8013826191116308e-06 -3.481069634760668e-06 1.1517033985286367e-05 -6.8285812086619617e-05 -1.1917127191860968e-06 1.6227005690125416e-05 -1.462583205402764e-05
leaf_weight=505 16382 900 653 954 709 1199 477633 565 3279 26048 816 586 87288 4568 645
leaf_count=505 16382 900 653 954 709 1199 477633 565 3279 26048 816 586 87288 4568 645
internal_value=0 3.64711e-07 5.39967e-06 -1.57663e-05 7.25936e-06 6.02063e-06 1.55608e-07 -1.76169e-05 -1.47015e-06 -4.65438e-06 -2.05548e-05 -4.47309e-05 -5.40777e-07 6.15009e-06 1.24096e-05
internal_weight=0 498995 19897 1607 18290 17581 479098 1465 123735 27955 1907 1091 95780 8492 5213
internal_count=622730 498995 19897 1607 18290 17581 479098 1465 123735 27955 1907 1091 95780 8492 5213
cat_boundaries=0 1 2
cat_threshold=1232 2
is_linear=0
shrinkage=0.1


Tree=6
num_leaves=16
num_cat=0
split_feature=0 2 17 0 17 4 4 2 3 0 6 0 10 3 15
split_gain=2.89097e-05 5.83871e-05 8.86316e-05 8.40491e-05 6.79851e-05 0.000192491 5.67436e-05 4.53376e-05 4.16956e-05 4.29251e-05 4.2474e-05 3.45797e-05 0.000173583 3.61649e-05 2.92554e-05
threshold=614.50000000000011 0.0027246165142013061 0.25808142322934752 654.50000000000011 0.44125505592418962 -0.00025552376629328627 -0.0037874997399484629 0.0044347827878489241 0.0033331096124116226 702.50000000000011 0.0035835497809475485 598.50000000000011 0.0051310024866035872 -0.0039631096950102354 59.142064661299564
decision_type=2 10 2 2 2 10 10 10 10 2 10 2 10 10 2
left_child=11 4 8 -4 6 -6 14 -5 10 -10 -3 -1 13 -13 -2
right_child=1 2 3 7 5 -7 -8 -9 9 -11 -12 12 -14 -15 -16
leaf_value=-2.597443390310555e-07 7.7187104328740618e-06 3.8347358035074696e-06 5.6228069684106803e-05 -4.0883129747556662e-06 -4.8521676879632312e-05 2.2278927079791766e-05 5.6943289759177482e-07 3.0458022897340815e-05 3.0016901875425514e-06 -2.5575685760807523e-05 3.7864722988146268e-05 -2.7579759445650296e-05 -5.3353395387318063e-05 -1.9926366867151733e-06 2.7557572841269131e-05
leaf_weight=407637 4410 1369 670 737 949 645 181649 784 1477 816 501 569 702 18921 894
leaf_count=407637 4410 1369 670 737 949 645 181649 784 1477 816 501 569 702 18921 894
internal_value=0 1.00953e-06 1.04379e-05 2.67179e-05 6.91794e-07 -1.98727e-05 8.67132e-07 1.37186e-05 1.86974e-06 -7.16802e-06 1.29519e-05 -4.59836e-07 -4.49929e-06 -2.73964e-06 1.10626e-05
internal_weight=0 194901 6354 2191 188547 1594 186953 1521 4163 2293 1870 427829 20192 19490 5304
internal_count=622730 194901 6354 2191 188547 1594 186953 1521 4163 2293 1870 427829 20192 19490 5304
is_linear=0
shrinkage=0.1


Tree=7
num_leaves=16
num_cat=0
split_feature=1 13 17 5 0 15 9 13 7 9 7 3 2 0 1
split_gain=3.18071e-05 0.000168004 6.44448e-05 7.68825e-05 6.53724e-05 4.85918e-05 3.56318e-05 4.6132e-05 4.27679e-05 3.24382e-05 4.29112e-05 2.86612e-05 5.46058e-05 4.54676e-05 4.50964e-05
threshold=0.0030679233801140797 81.316426983961932 0.25808142322934752 0.0013853116696161962 630.50000000000011 60.941189817519465 -0.0039501485830383811 56.209858785529185 0.0082429265193766383 0.0048696560390480989 0.002127454711564503 0.0022358449696494591 0.0044347827878489241 312.50000000000006 -0.001588686652733595
decision_type=2 2 2 8 2 2 10 2 10 10 8 10 8 2 2
left_child=11 2 3 -2 6 -5 -4 9 -9 10 -8 12 14 -14 -1
right_child=1 -3 4 5 -6 -7 7 8 -10 -11 -12 -13 13 -15 -16
leaf_value=-3.5034546534897842e-06 3.0129036986855448e-05 -3.3003545724428621e-05 -4.9238818836016602e-06 -2.7753758071064919e-05 4.4207750613237038e-05 5.7489748931586118e-06 2.0996045972216282e-05 -8.1038032926689975e-06 2.4110556412965827e-05 1.1031375736230325e-05 5.9576461196859152e-05 -2.3337879274233716e-06 3.2292084423129264e-06 3.3101741042820735e-05 2.890185251143319e-07
leaf_weight=33338 540 975 922 984 766 773 647 998 702 706 520 51854 1161 908 526936
leaf_count=33338 540 975 922 984 766 773 647 998 702 706 520 51854 1161 908 526936
internal_value=0 6.06342e-06 1.11032e-05 -2.8716e-06 1.72047e-05 -1.30141e-05 1.2603e-05 1.71258e-05 5.19883e-06 2.79511e-05 3.8187e-05 -8.41988e-08 1.23237e-07 1.6339e-05 6.33549e-08
internal_weight=0 8533 7558 2297 5261 1757 4495 3573 1700 1873 1167 614197 562343 2069 560274
internal_count=622730 8533 7558 2297 5261 1757 4495 3573 1700 1873 1167 614197 562343 2069 560274
is_linear=0
shrinkage=0.1


Tree=8
num_leaves=16
num_cat=0
split_feature=11 17 16 16 3 3 13 17 4 14 2 15 13 13 10
split_gain=2.49022e-05 3.9013e-05 7.06831e-05 0.000156144 5.46663e-05 0.0001098 3.46938e-05 2.82232e-05 6.77244e-05 0.000102545 7.09404e-05 6.47137e-05 0.000116587 4.67674e-05 4.16768e-05
threshold=0.16666666666682586 0.44125505592418962 23.460521637714081 38.726398366228871 0.0040713598564943174 0.00053918277536157977 57.93663030750411 0.44125505592418962 -0.00044802867383525452 76.000478225336124 0.00065762147148129568 24.162862546624194 41.857284576038687 61.607143494744271 -0.0016910827810324156
decision_type=2 2 2 2 10 8 2 2 8 2 8 2 2 2 8
left_child=7 -2 -3 -4 5 -5 -6 -1 11 10 -10 -9 -13 14 -14
right_child=1 2 3 4 6 -7 -8 8 9 -11 -12 12 13 -15 -16
leaf_value=-3.8927326317216868e-07 6.3598626219741486e-07 3.4960233941187268e-05 -4.2993246045495786e-05 3.1476652991302586e-05 4.8428649367201136e-05 -3.0225500094317661e-05 1.5164152092907126e-05 1.7713978607556347e-06 6.3766234542511527e-06 -1.9184137758701708e-05 5.2722611402227418e-05 -6.1027219872906093e-05 -1.877910729986324e-05 -3.3200388075090903e-05 2.1200657184490136e-05
leaf_weight=378033 234603 918 588 540 519 619 792 1335 944 987 508 671 519 630 524
leaf_count=378033 234603 918 588 540 519 619 792 1335 944 987 508 671 519 630 524
internal_value=0 8.0246e-07 1.06252e-05 3.3199e-06 1.43451e-05 -1.4773e-06 2.83329e-05 -4.98315e-07 -7.23603e-06 5.68589e-06 2.25913e-05 -1.58026e-05 -2.58117e-05 -1.16877e-05 1.3066e-06
internal_weight=0 238579 3976 3058 2470 1159 1311 384151 6118 2439 1452 3679 2344 1673 1043
internal_count=622730 238579 3976 3058 2470 1159 1311 384151 6118 2439 1452 3679 2344 1673 1043
is_linear=0
shrinkage=0.1


Tree=9
num_leaves=16
num_cat=3
split_feature=0 1 18 5 9 3 9 1 12 18 3 4 13 18 5
split_gain=2.53325e-05 7.24852e-05 5.95917e-05 5.52305e-05 8.37217e-05 5.08162e-05 3.7257e-05 3.81308e-05 4.30995e-05 3.52891e-05 3.36069e-05 3.13981e-05 3.10122e-05 3.09032e-05 5.00873e-05
threshold=373.50000000000006 0.0030679233801140797 0 0.0012678414010890429 0.0091970762966943082 0.0055080821537779609 -0.0039501485830383811 -0.0018355577718609515 1.0000000180025095e-35 1 0.0025055966682022706 -0.0060768633162330823 27.904237283575025 2 0.00054678706649691222
decision_type=2 2 1 10 10 10 8 2 2 1 10 10 2 1 8
left_child=13 6 -3 -4 5 -5 10 8 9 -8 12 -9 -2 14 -1
right_child=1 2 3 4 -6 -7 7 11 -10 -11 -12 -13 -14 -15 -16
leaf_value=-7.0396374925857872e-06 -3.7538777500607948e-08 -4.8748771523585184e-06 4.4509108249372137e-05 1.3674508377844924e-05 4.5771907326303614e-05 -2.2503177834940809e-05 -6.6379817782308423e-06 -2.1985588849794053e-05 -1.3038840123790537e-05 9.2185409885564142e-06 -1.7066665596383458e-05 1.1104525850770551e-07 5.5710271959124156e-06 -2.5379648120149262e-07 3.8685884782872879e-07
leaf_weight=20279 15970 1321 734 1266 595 560 3451 644 4771 2351 816 440752 25764 87009 16447
leaf_count=20279 15970 1321 734 1266 595 560 3451 644 4771 2351 816 440752 25764 87009 16447
internal_value=0 3.17636e-07 1.29861e-05 2.04152e-05 1.31947e-05 2.57949e-06 2.02972e-07 -6.3351e-08 -5.99805e-06 -2.0839e-07 3.03187e-06 7.88061e-08 3.42484e-06 -1.2808e-06 -3.71282e-06
internal_weight=0 498995 4476 3155 2421 1826 494519 451969 10573 5802 42550 441396 41734 123735 36726
internal_count=622730 498995 4476 3155 2421 1826 494519 451969 10573 5802 42550 441396 41734 123735 36726
cat_boundaries=0 1 2 3
cat_threshold=2280 1410 1114
is_linear=0
shrinkage=0.1


Tree=10
num_leaves=16
num_cat=2
split_feature=4 0 0 18 6 0 18 1 5 1 11 5 1 0 11
split_gain=2.22803e-05 6.93514e-05 0.000115727 9.08308e-05 6.01499e-05 3.22955e-05 3.16316e-05 4.44122e-05 3.84111e-05 5.19639e-05 3.17185e-05 2.93513e-05 5.81996e-05 3.96275e-05 3.28312e-05
threshold=-0.0045679547913319843 716.50000000000011 702.50000000000011 0 -0.00055069741705848763 406.50000000000006 1 0.0010120389339184357 -0.0067649461241117695 -0.0029845974221401335 0.4285714285714432 0.00054678706649691222 -0.001588686652733595 341.50000000000006 -0.71999999999990394
decision_type=10 2 2 1 10 2 1 2 10 2 2 10 2 2 2
left_child=1 2 4 -3 -1 6 7 8 -2 -10 -9 -8 13 -13 -15
right_child=5 3 -4 -5 -6 -7 11 10 9 -11 -12 12 -14 14 -16
leaf_value=4.1354209222334488e-06 2.054775736282086e-05 -5.2483529354646514e-05 5.0408545342786326e-05 3.4627185519892989e-06 -2.2417872002471735e-05 3.0466398228078091e-07 -5.3556671806469995e-06 -1.2930017289176636e-05 -2.4149294408267539e-05 -1.0172592870734636e-06 7.0198975704435782e-06 3.5042925001120711e-05 -2.1498084080187734e-06 -8.3624891328415085e-06 2.3742162043987851e-05
leaf_weight=21704 813 500 529 678 888 448275 30606 861 983 80377 10713 689 23813 744 557
leaf_count=21704 813 500 529 678 888 448275 30606 861 983 80377 10713 689 23813 744 557
internal_value=0 2.96843e-06 4.17431e-06 -2.06997e-05 3.09172e-06 -1.20506e-07 -1.38981e-06 -2.63727e-07 -1.08062e-06 -1.29674e-06 5.53581e-06 -3.26063e-06 -7.76891e-07 1.56519e-05 5.38255e-06
internal_weight=0 24299 23121 1178 22592 598431 150156 93747 82173 81360 11574 56409 25803 1990 1301
internal_count=622730 24299 23121 1178 22592 598431 150156 93747 82173 81360 11574 56409 25803 1990 1301
cat_boundaries=0 1 2
cat_threshold=1232 2853
is_linear=0
shrinkage=0.1


Tree=11
num_leaves=16
num_cat=0
split_feature=1 13 17 5 12 17 5 4 3 13 9 3 2 4 1
split_gain=2.00386e-05 6.10633e-05 4.08623e-05 7.54248e-05 3.61763e-05 6.00269e-05 5.55412e-05 6.56239e-05 4.83653e-05 3.3888e-05 5.55432e-05 2.59965e-05 5.01947e-05 3.24603e-05 3.00605e-05
threshold=0.0018605546420609189 89.403905786534537 0.24548386544711054 0.007031448090682014 -78.083454523602384 0.34147623396930704 -8.762322032151991e-05 0.00094136835703007027 0.00081001141381065189 36.191902317661864 0.0012101602000365033 0.0022358449696494591 0.0044347827878489241 -0.0018931030813617575 -0.001588686652733595
decision_type=2 2 2 8 2 2 8 10 10 2 10 10 10 10 2
left_child=11 2 3 -2 5 -4 7 8 -6 10 -8 12 14 -13 -1
right_child=1 -3 4 -5 6 -7 9 -9 -10 -11 -12 13 -14 -15 -16
leaf_value=-2.871578113536743e-06 1.6500316176253523e-06 -2.1788616690445338e-05 8.239641813301321e-07 -2.9224549928370348e-05 -1.4378881418874887e-05 3.8175803215745942e-05 1.0991811702113468e-05 -4.0876296200003428e-05 2.5125264491102577e-05 1.0794469111670156e-05 -3.1909177126542711e-05 1.7902606398819168e-05 2.6489279302962973e-05 -2.8553064531823399e-06 2.1895416703540218e-07
leaf_weight=33501 10768 977 797 854 776 935 723 513 516 8354 518 767 718 42269 519744
leaf_count=33501 10768 977 797 854 776 935 723 513 516 8354 518 767 718 42269 519744
internal_value=0 2.73233e-06 3.70013e-06 -6.18674e-07 7.52233e-06 2.09879e-05 5.47651e-06 -1.06166e-05 1.39832e-06 8.50392e-06 -6.91529e-06 -1.17824e-07 6.61031e-08 -2.48535e-06 3.18112e-08
internal_weight=0 25731 24754 11622 13132 1732 11400 1805 1292 9595 1241 596999 553963 43036 553245
internal_count=622730 25731 24754 11622 13132 1732 11400 1805 1292 9595 1241 596999 553963 43036 553245
is_linear=0
shrinkage=0.1


Tree=12
num_leaves=16
num_cat=4
split_feature=6 8 18 1 1 18 11 16 3 13 13 18 1 18 4
split_gain=1.85504e-05 4.23069e-05 4.2434e-05 4.3128e-05 3.85749e-05 9.04736e-05 6.57262e-05 4.60932e-05 4.15172e-05 4.00318e-05 3.75738e-05 8.80967e-05 3.59879e-05 9.39893e-05 4.29044e-05
threshold=0.0077211766300030469 0.0065957161872312051 0 0.0010120389339184357 0.0030679233801140797 1 0.83606557377054325 40.523597877769625 0.0025055966682022706 56.209858785529185 89.403905786534537 2 -0.0012443648241754477 3 0.0062751573299112415
decision_type=8 8 1 2 2 1 2 2 10 2 2 1 2 1 8
left_child=1 4 3 -3 -1 9 8 -8 -7 -6 12 -12 13 -2 -14
right_child=10 2 -4 -5 5 6 7 -9 -10 -11 11 -13 14 -15 -16
leaf_value=-3.5063726563270366e-08 3.8171104765398475e-05 -9.7883749766673349e-06 -3.5248732068749968e-06 -4.4947998664087537e-05 4.427308971624511e-06 2.6667748390576182e-05 5.9783727492467465e-05 2.2021138184219091e-05 -1.0991688744747587e-05 -2.2418685088795828e-05 -4.2134223285489856e-05 9.0079306650062642e-06 -3.8278693700659355e-06 -1.071898100869448e-05 7.885446134848421e-06
leaf_weight=587951 981 1109 12244 509 1582 509 541 803 689 856 569 802 5293 650 7642
leaf_count=587951 981 1109 12244 509 1582 509 541 803 689 856 569 802 5293 650 7642
internal_value=0 -8.85033e-08 -5.54953e-06 -2.0721e-05 3.91689e-08 8.80325e-06 2.1954e-05 3.72217e-05 5.00886e-06 -4.9781e-06 3.36772e-06 -1.2459e-05 4.85739e-06 1.88553e-05 3.09236e-06
internal_weight=0 606793 13862 1618 592931 4980 2542 1344 1198 2438 15937 1371 14566 1631 12935
internal_count=622730 606793 13862 1618 592931 4980 2542 1344 1198 2438 15937 1371 14566 1631 12935
cat_boundaries=0 1 2 3 4
cat_threshold=1032 2282 1315 462
is_linear=0
shrinkage=0.1


Tree=13
num_leaves=16
num_cat=1
split_feature=11 1 18 7 8 1 2 5 10 10 17 2 3 5 17
split_gain=1.7115e-05 5.4682e-05 3.22348e-05 4.54454e-05 6.39533e-05 4.35284e-05 5.87171e-05 5.75065e-05 4.46301e-05 3.89448e-05 3.25312e-05 3.70691e-05 3.82595e-05 3.83587e-05 3.49581e-05
threshold=0.099157931516425754 0.00027665053233538744 0 -0.002107975526333405 -0.0045834525696569197 -0.0022154832473494919 -0.0010029435128287021 0.00054678706649691222 0.00058378013010562679 -0.0093484192898088941 0.3784941039568907 0.00078759168834308124 -0.00027728798135751015 -0.0042195873318726087 0.34147623396930704
decision_type=2 2 1 10 8 2 10 8 8 8 2 10 8 8 2
left_child=1 2 5 -4 -5 6 7 9 -8 -1 14 12 13 -12 -7
right_child=-2 -3 3 4 -6 10 8 -9 -10 -11 11 -13 -14 -15 -16
leaf_value=6.6545924970081874e-06 6.3329634384389131e-07 -3.1856049330497526e-05 2.4604193957724664e-06 -3.1135448383008978e-05 -4.6540355896898993e-07 -1.4911122732255553e-06 -5.1508451078357645e-05 1.9289601893354691e-05 -1.0264250967237686e-05 -1.3889244593497336e-05 -5.4095221061123064e-06 2.3789237915781167e-05 -1.717540720147231e-05 2.3496366655961492e-05 -1.4785084609700517e-05
leaf_weight=1176 253188 553 64388 682 219011 71915 537 797 513 4285 901 1039 775 936 2034
leaf_count=1176 253188 553 64388 682 219011 71915 537 797 513 4285 901 1039 775 936 2034
internal_value=0 -4.33999e-07 -3.86907e-07 1.2411e-07 -5.60614e-07 -2.09641e-06 -9.47474e-06 -5.8031e-06 -3.13577e-05 -9.46523e-06 -1.40182e-06 7.81285e-06 1.45776e-06 9.31879e-06 -1.85677e-06
internal_weight=0 369542 368989 284081 219693 84908 7308 6258 1050 5461 77600 3651 2612 1837 73949
internal_count=622730 369542 368989 284081 219693 84908 7308 6258 1050 5461 77600 3651 2612 1837 73949
cat_boundaries=0 1
cat_threshold=258
is_linear=0
shrinkage=0.1


Tree=14
num_leaves=16
num_cat=3
split_feature=0 2 18 10 4 0 0 18 0 10 3 2 3 15 18
split_gain=1.99649e-05 4.01496e-05 4.04204e-05 4.88576e-05 5.83373e-05 5.92674e-05 0.000119271 4.62476e-05 2.9668e-05 0.000138632 2.93339e-05 2.6802e-05 6.16744e-05 3.58027e-05 5.62058e-05
threshold=614.50000000000011 0.0027246165142013061 0 0.0096482875123862239 0.0021180856977160993 702.50000000000011 725.50000000000011 1 598.50000000000011 0.0051310024866035872 -0.0039631096950102354 -0.0032262534109416259 -0.0052562244991577458 22.640887116434715 2
decision_type=2 8 1 10 10 2 2 1 2 10 10 10 10 2 1
left_child=8 11 -3 4 7 -6 -7 -4 -1 10 -10 13 -13 -2 -15
right_child=1 2 3 -5 5 6 -8 -9 9 -11 -12 12 -14 14 -16
leaf_value=-1.9688674862872965e-07 2.4825968452438757e-05 -1.0258066274920585e-05 8.8094327458106787e-06 3.5223510581400711e-05 1.1706478935082087e-05 -4.6649417854496284e-05 1.4203350893144069e-05 4.8009139864007014e-05 -2.492274859877588e-05 -4.7783382194504099e-05 -1.8784980046040167e-06 -3.4493974382334417e-05 5.0061695578171655e-07 -2.4357534321511879e-05 1.0383896169280137e-05
leaf_weight=407637 1029 955 685 777 2098 630 659 550 569 702 18921 505 184268 583 2162
leaf_count=407637 1029 955 685 777 2098 630 659 550 569 702 18921 505 184268 583 2162
internal_value=0 8.38848e-07 8.65728e-06 1.19999e-05 8.12175e-06 1.33778e-06 -1.55385e-05 2.67269e-05 -3.82224e-07 -4.12381e-06 -2.55126e-06 5.75368e-07 4.04974e-07 8.91779e-06 2.95439e-06
internal_weight=0 194901 6354 5399 4622 3387 1289 1235 427829 20192 19490 188547 184773 3774 2745
internal_count=622730 194901 6354 5399 4622 3387 1289 1235 427829 20192 19490 188547 184773 3774 2745
cat_boundaries=0 1 2 3
cat_threshold=2569 194 84
is_linear=0
shrinkage=0.1


Tree=15
num_leaves=16
num_cat=1
split_feature=0 1 13 16 3 18 8 0 9 17 0 16 1 9 5
split_gain=1.73057e-05 4.66723e-05 5.04546e-05 6.94129e-05 6.54805e-05 8.40319e-05 3.19052e-05 8.38892e-05 0.000102449 6.44478e-05 3.20549e-05 2.76249e-05 2.44163e-05 2.86818e-05 4.78207e-05
threshold=373.50000000000006 0.0030679233801140797 35.144488469142082 83.11180497648337 0.0055080821537779609 0 -0.0053082231836335527 716.50000000000011 -0.008977553714527851 0.44125505592418962 694.50000000000011 91.269841269840626 -0.00012009487592556932 0.0042698633589493004 -0.00066086365462275632
decision_type=2 2 2 2 10 1 10 2 10 2 2 2 2 10 10
left_child=12 6 -3 4 5 -4 7 9 -9 10 -2 -5 -1 -14 -15
right_child=1 2 3 11 -6 -7 -8 8 -10 -11 -12 -13 13 14 -16
leaf_value=-2.9558863149776421e-06 3.7214857996423675e-06 3.7543562851345341e-05 -1.9636835806730276e-05 4.365949669200401e-05 -2.8606021919264001e-05 2.2257451940307295e-05 7.081851674941537e-09 -5.0035679067661563e-05 2.5370728937869381e-06 3.7048112935510582e-05 2.0684066958987095e-05 1.2488517258924988e-05 7.1255663709722953e-07 2.157221481215693e-05 -6.6688208743267732e-06
leaf_weight=43813 16262 595 753 531 706 1279 474863 612 940 646 1196 612 69561 639 9722
leaf_count=43813 16262 595 753 531 706 1279 474863 612 940 646 1196 612 69561 639 9722
internal_value=0 2.62511e-07 1.0428e-05 6.27087e-06 -2.36994e-06 6.74555e-06 1.70501e-07 4.11849e-06 -1.81939e-05 6.03127e-06 4.88355e-06 2.69695e-05 -1.05863e-06 -1.85616e-08 -4.92709e-06
internal_weight=0 498995 4476 3881 2738 2032 494519 19656 1552 18104 17458 1143 123735 79922 10361
internal_count=622730 498995 4476 3881 2738 2032 494519 19656 1552 18104 17458 1143 123735 79922 10361
cat_boundaries=0 1
cat_threshold=3264
is_linear=0
shrinkage=0.1


Tree=16
num_leaves=16
num_cat=0
split_feature=0 2 9 8 6 0 0 9 3 9 15 2 8 0 10
split_gain=1.54435e-05 3.12797e-05 4.91798e-05 5.81855e-05 5.8055e-05 5.74214e-05 3.1024e-05 2.47874e-05 6.16063e-05 5.55523e-05 4.68066e-05 3.17302e-05 3.49559e-05 2.45417e-05 0.000112514
threshold=614.50000000000011 0.0027246165142013061 0.0091970762966943082 0.0046910829734877488 0.0040740340039321374 702.50000000000011 654.50000000000011 -0.0039501485830383811 -0.0052562244991577458 -0.008977553714527851 40.877637520278292 -0.0022989525477577484 -0.0063776555155716222 598.50000000000011 0.0051310024866035872
decision_type=2 10 10 10 10 2 2 10 10 10 2 10 10 2 10
left_child=13 7 3 4 -3 6 -5 8 9 -2 11 12 -10 -1 -15
right_child=1 2 -4 5 -6 -7 -8 -9 10 -11 -12 -13 -14 14 -16
leaf_value=-1.6754703860014197e-07 -4.199705873018109e-05 4.6365748917596355e-06 2.9102088455559128e-05 -1.5497272192988022e-05 3.5331267565011215e-05 -3.5468684831835127e-05 1.8104938472170403e-05 1.8989547139294807e-07 3.3422029779228582e-05 3.1902793163246759e-06 3.153850302776693e-05 2.6302013105619709e-06 6.7441660469761924e-06 -2.3224357008578503e-06 -4.3071571875501565e-05
leaf_weight=407637 514 2934 914 512 780 621 593 175286 756 578 715 9296 1402 19490 702
leaf_count=407637 514 2934 914 512 780 621 593 175286 756 578 715 9296 1402 19490 702
internal_value=0 7.37827e-07 7.63881e-06 4.03266e-06 1.1083e-05 -1.11381e-05 2.53541e-06 5.05265e-07 4.67387e-06 -1.80792e-05 6.71565e-06 5.16612e-06 1.60901e-05 -3.36113e-07 -3.73913e-06
internal_weight=0 194901 6354 5440 3714 1726 1105 188547 13261 1092 12169 11454 2158 427829 20192
internal_count=622730 194901 6354 5440 3714 1726 1105 188547 13261 1092 12169 11454 2158 427829 20192
is_linear=0
shrinkage=0.1


Tree=17
num_leaves=16
num_cat=1
split_feature=6 0 0 1 9 18 3 14 13 0 11 0 15 16 5
split_gain=1.37217e-05 3.62636e-05 9.92968e-05 9.9104e-05 3.53694e-05 3.07164e-05 2.66124e-05 5.93296e-05 3.57338e-05 4.09143e-05 2.91219e-05 3.8184e-05 2.76042e-05 2.45552e-05 4.62634e-05
threshold=0.0077211766300030469 638.50000000000011 518.50000000000011 0.0010120389339184357 0.0042698633589493004 0 0.002002698637133316 95.989180850136094 52.830338167927685 349.50000000000006 0.099157931516425754 312.50000000000006 81.971095437704903 95.492741059239663 0.007031448090682014
decision_type=8 2 2 2 8 1 10 2 2 2 2 2 2 2 10
left_child=-1 2 4 -3 -2 6 7 10 -8 12 11 -6 -10 14 -7
right_child=1 3 -4 -5 5 13 8 -9 9 -11 -12 -13 -14 -15 -16
leaf_value=-7.6067695479547063e-08 2.5442692613682527e-05 -8.4341502476493212e-06 -3.4366534941049447e-05 4.1485314478318969e-05 -1.5977095473650589e-06 -1.6253505090783887e-06 1.7279087943900932e-05 3.5635781075273246e-05 -1.6636706851912957e-06 5.8635660441759746e-06 -1.3397004625054999e-05 2.592426445622441e-05 -2.8601470341584656e-05 1.2736845746496004e-05 -2.7233572921367606e-05
leaf_weight=606793 682 774 740 818 1098 3388 1010 840 703 1847 642 932 829 743 891
leaf_count=606793 682 774 740 818 1098 3388 1010 840 703 1847 642 932 829 743 891
internal_value=0 2.89649e-06 1.30738e-06 1.72154e-05 3.24775e-06 2.07643e-06 5.95905e-06 1.24545e-05 7.75053e-07 -4.15809e-06 5.16701e-06 1.1038e-05 -1.62403e-05 -4.03584e-06 -6.95765e-06
internal_weight=0 15937 14345 1592 13605 12923 7901 3512 4389 3379 2672 2030 1532 5022 4279
internal_count=622730 15937 14345 1592 13605 12923 7901 3512 4389 3379 2672 2030 1532 5022 4279
cat_boundaries=0 1
cat_threshold=2387
is_linear=0
shrinkage=0.1


Tree=18
num_leaves=16
num_cat=2
split_feature=0 1 17 14 18 13 5 8 0 9 8 1 0 18 1
split_gain=1.39291e-05 3.42452e-05 4.10871e-05 4.4432e-05 4.8011e-05 4.1987e-05 4.19416e-05 2.45308e-05 3.16224e-05 9.45479e-05 4.18814e-05 6.92152e-05 3.45575e-05 2.76236e-05 2.31865e-05
threshold=373.50000000000006 0.0030679233801140797 0.24548386544711054 77.600361622623822 0 63.568991002878967 0.0043236280162413107 -0.0040697418238825325 716.50000000000011 -0.008977553714527851 -0.0083586548816433331 -0.0029845974221401335 614.50000000000011 1 -0.0018355577718609515
decision_type=2 2 2 2 1 2 10 8 2 10 10 2 2 1 2
left_child=-1 7 6 -4 -5 -6 -3 8 10 -10 11 -2 -13 -12 -9
right_child=1 2 3 4 5 -7 -8 14 9 -11 13 12 -14 -15 -16
leaf_value=-9.497523031334407e-07 4.2651652744630491e-05 9.1341460416681565e-06 -1.3060754501776571e-06 4.8365568832157791e-05 2.7887164635760105e-05 -8.0795737625801312e-06 -2.4829220899654301e-05 -4.5961650931359653e-06 -4.1965201161682034e-05 3.0845589208183814e-06 -4.7895219999901844e-06 2.3350456895639581e-06 2.6866145393190288e-05 3.5042652317563278e-06 7.0747218531110544e-08
leaf_weight=123735 656 909 1004 585 845 527 606 10905 622 1856 4800 2837 720 24361 447762
leaf_count=123735 656 909 1004 585 845 527 606 10905 622 1856 4800 2837 720 24361 447762
internal_value=0 2.35516e-07 8.94311e-06 1.57963e-05 2.45704e-05 1.39701e-05 -4.4512e-06 1.56701e-07 2.67586e-06 -8.22333e-06 3.48512e-06 1.2805e-05 7.30058e-06 2.13864e-06 -4.02106e-08
internal_weight=0 498995 4476 2961 1957 1372 1515 494519 35852 2478 33374 4213 3557 29161 458667
internal_count=622730 498995 4476 2961 1957 1372 1515 494519 35852 2478 33374 4213 3557 29161 458667
cat_boundaries=0 1 2
cat_threshold=22 256
is_linear=0
shrinkage=0.1


Tree=19
num_leaves=16
num_cat=2
split_feature=4 6 1 0 17 1 0 18 6 11 13 2 1 17 18
split_gain=1.49392e-05 5.38126e-05 3.44948e-05 5.51695e-05 4.80662e-05 4.46189e-05 3.37792e-05 2.54171e-05 3.83523e-05 3.3672e-05 2.74874e-05 3.16838e-05 2.78686e-05 2.28061e-05 3.38305e-05
threshold=-0.0045679547913319843 -0.00038452911245306915 0.00027665053233538744 716.50000000000011 0.44125505592418962 0.0018605546420609189 662.50000000000011 0 -0.0055758875322564619 -0.57370752115373891 24.762262877882268 -0.0022989525477577484 -0.0012443648241754477 0.27277331749524142 1
decision_type=10 10 2 2 2 2 2 1 10 2 2 10 2 2 1
left_child=1 2 3 6 5 13 7 8 10 -10 -1 12 -12 14 -4
right_child=-2 -3 4 -5 -6 -7 -8 -9 9 -11 11 -13 -14 -15 -16
leaf_value=-2.7564926837761442e-05 -9.8615803152741244e-08 -2.0950814181383521e-05 -1.3288855427177171e-05 -2.1389187645209099e-05 4.0377195713655009e-05 -1.2342198971409361e-05 1.9029492980376624e-05 3.8200708989788755e-06 -5.9531466930009729e-06 2.9235030333493018e-05 -8.8039214626468458e-06 -2.4577437028198768e-05 2.1740939998889238e-05 2.668493131801704e-05 2.1855204943803922e-05
leaf_weight=797 598431 946 506 976 530 806 1228 14069 592 503 725 579 508 958 576
leaf_count=797 598431 946 506 976 530 806 1228 14069 592 503 725 579 508 958 576
internal_value=0 2.43076e-06 3.37791e-06 1.79797e-06 1.2727e-05 7.57781e-06 2.989e-06 1.8807e-06 -5.48117e-06 1.02109e-05 -1.20882e-05 -5.28078e-06 3.78066e-06 1.54482e-05 5.49917e-06
internal_weight=0 24299 23353 19977 3376 2846 19001 17773 3704 1095 2609 1812 1233 2040 1082
internal_count=622730 24299 23353 19977 3376 2846 19001 17773 3704 1095 2609 1812 1233 2040 1082
cat_boundaries=0 1 2
cat_threshold=514 460
is_linear=0
shrinkage=0.1


Tree=20
num_leaves=16
num_cat=3
split_feature=3 2 18 11 5 18 8 0 5 4 0 3 18 0 6
split_gain=1.37059e-05 4.36143e-05 4.90544e-05 2.80891e-05 5.32814e-05 5.6738e-05 4.33886e-05 4.27445e-05 5.33829e-05 3.83811e-05 3.66379e-05 3.28938e-05 3.16556e-05 3.29192e-05 3.02079e-05
threshold=0.0022358449696494591 0.0044347827878489241 0 0.77777777777768053 0.00054678706649691222 1 -0.0053082231836335527 630.50000000000011 0.007031448090682014 -0.0025611770442036104 678.50000000000011 0.0040713598564943174 2 702.50000000000011 0.00036221572751915515
decision_type=10 10 1 2 8 1 8 2 10 10 2 10 1 2 8
left_child=1 -1 -3 6 5 -5 -2 9 10 -8 -9 -12 -6 -14 -11
right_child=3 2 -4 4 12 -7 7 8 -10 14 11 -13 13 -15 -16
leaf_value=1.1011463805178108e-07 -2.5053376713896401e-05 3.7644965579841487e-05 -3.2605466879767815e-06 4.5547329503196209e-05 8.8041175777531341e-06 4.4784359986146907e-06 2.3264613361776381e-05 -7.6277327786321203e-06 2.5799626958260622e-05 -1.3116232943126427e-05 1.9128727739145192e-06 2.2036332535440926e-05 -6.0787566154400866e-07 -1.9880812538438964e-05 -3.4602659180175585e-06
leaf_weight=563633 868 644 536 540 3399 889 501 2983 979 3692 3444 1063 12146 956 26457
leaf_count=563633 868 644 536 540 3399 889 501 2983 979 3692 3444 1063 12146 956 26457
internal_value=0 1.50322e-07 1.93555e-05 -1.46496e-06 1.82382e-06 2.03479e-05 -2.93964e-06 -2.44896e-06 3.83952e-06 -4.18655e-06 9.69163e-07 6.6591e-06 2.19618e-07 -2.01261e-06 -4.64272e-06
internal_weight=0 564813 1180 57917 17930 1429 39987 39119 8469 30650 7490 4507 16501 13102 30149
internal_count=622730 564813 1180 57917 17930 1429 39987 39119 8469 30650 7490 4507 16501 13102 30149
cat_boundaries=0 1 2 3
cat_threshold=2370 1075 260
is_linear=0
shrinkage=0.1


Tree=21
num_leaves=16
num_cat=2
split_feature=13 2 6 12 17 18 13 17 4 18 3 17 3 15 9
split_gain=1.17367e-05 6.00806e-05 1.70446e-05 1.75781e-05 1.87774e-05 1.81204e-05 1.64129e-05 4.73849e-05 5.89298e-05 7.5069e-05 6.14549e-05 6.74155e-05 4.59172e-05 2.94364e-05 2.61896e-05
threshold=10.696177060621585 -0.0032262534109416259 -0.0073719378412187 -168.39087467203015 0.19426243114549624 0 27.904237283575025 0.29118980789628535 0.00085772629999514305 1 -0.0052562244991577458 0.34147623396930704 0.0022358449696494591 7.0707070707074307 -0.0029607583689266188
decision_type=2 8 10 2 2 1 2 2 8 1 10 2 8 2 10
left_child=1 -1 -3 -4 -5 -6 7 -2 9 13 -11 -12 -10 -9 -8
right_child=6 2 3 4 5 -7 14 8 12 10 11 -13 -14 -15 -16
leaf_value=2.7956671971642512e-05 -7.2844191779349167e-07 -1.4081116144855819e-05 1.7630941178293046e-05 -1.3256083399939448e-06 2.5646499008233143e-05 2.0784461900796341e-06 1.9748435808858404e-06 5.8259038315494572e-07 -5.0777770922067772e-05 -1.9388094944648509e-05 -2.7563088494082466e-06 3.7654429621119519e-05 -1.2116573608952883e-05 -2.5733603887975381e-05 -1.3050483632264788e-07
leaf_weight=905 65938 696 679 6634 537 828 67512 589 559 605 809 843 682 1527 473387
leaf_count=905 65938 696 679 6634 537 828 67512 589 559 605 809 843 682 1527 473387
internal_value=0 3.3513e-06 9.7581e-07 2.18342e-06 8.72145e-07 1.15534e-05 -5.60093e-08 -1.47933e-06 -1.02988e-05 -4.84085e-06 7.8443e-06 1.78649e-05 -2.95312e-05 -1.83218e-05 1.32273e-07
internal_weight=0 10279 9374 8678 7999 1365 612451 71552 5614 4373 2257 1652 1241 2116 540899
internal_count=622730 10279 9374 8678 7999 1365 612451 71552 5614 4373 2257 1652 1241 2116 540899
cat_boundaries=0 1 2
cat_threshold=1201 258
is_linear=0
shrinkage=0.1


Tree=22
num_leaves=16
num_cat=1
split_feature=11 18 17 1 15 17 4 15 3 15 1 13 8 11 8
split_gain=1.24666e-05 2.85477e-05 8.47379e-05 5.2138e-05 4.93101e-05 3.7315e-05 8.36589e-05 8.77972e-05 4.45764e-05 3.72831e-05 3.48263e-05 3.97744e-05 3.00032e-05 7.92967e-05 4.39895e-05
threshold=0.058187414500695138 0 0.44125505592418962 9.717386025709375e-05 39.061319453886718 0.3784941039568907 0.00077613448072777491 87.416915494949237 0.0007367817542989209 60.941189817519465 -0.0010117409887015481 42.749732650660498 -0.0083586548816433331 -0.57370752115373891 -0.0036428856526471982
decision_type=2 1 2 2 2 2 10 2 8 2 2 2 10 2 10
left_child=1 2 -1 5 -4 10 8 9 12 -8 11 -3 -7 14 -14
right_child=-2 3 4 -5 -6 6 7 -9 -10 -11 -12 -13 13 -15 -16
leaf_value=1.0021213327671067e-06 5.2760891766072984e-07 -2.9528649960977732e-07 -2.9701583671494058e-06 -2.758280017243689e-05 -3.8709096419674353e-05 1.3051344856628938e-05 1.9143535412554786e-05 -1.2775933803850214e-05 -2.8895457334992654e-05 4.7968665348002461e-05 -6.2438768969256667e-07 -6.5880693339685865e-06 -4.1227573177154818e-05 1.0074297571338529e-05 -6.6171088381796267e-06
leaf_weight=138181 260646 17688 708 740 849 1637 991 571 518 820 172666 23243 609 1938 925
leaf_count=138181 260646 17688 708 740 849 1637 991 571 518 820 172666 23243 609 1938 925
internal_value=0 -3.79362e-07 7.40671e-07 -1.08325e-06 -2.24579e-05 -9.94814e-07 5.70649e-06 2.1415e-05 -9.43171e-07 3.21952e-05 -1.24609e-06 -3.86869e-06 1.8909e-06 -3.37109e-06 -2.03575e-05
internal_weight=0 362084 139738 222346 1557 221606 8009 2382 5627 1811 213597 40931 5109 3472 1534
internal_count=622730 362084 139738 222346 1557 221606 8009 2382 5627 1811 213597 40931 5109 3472 1534
cat_boundaries=0 1
cat_threshold=2676
is_linear=0
shrinkage=0.1


Tree=23
num_leaves=16
num_cat=1
split_feature=0 14 2 0 16 18 7 10 6 13 1 8 4 2 5
split_gain=1.17372e-05 2.35603e-05 3.98724e-05 7.39638e-05 4.38351e-05 5.15795e-05 6.55686e-05 3.92932e-05 2.6842e-05 2.87496e-05 2.57611e-05 7.00423e-05 5.83174e-05 2.76332e-05 5.39164e-05
threshold=406.50000000000006 90.654662651631796 0.0027246165142013061 389.50000000000006 72.195320317152508 0 0.0011301171270959867 0.0059794308217490108 8.8032043834451748e-05 57.93663030750411 0.0011201933755473628 0.0054259285993127912 0.00024121753313821606 0.00059748492671063424 -0.0013542114368417233
decision_type=2 2 10 2 2 1 10 10 10 2 2 8 10 8 8
left_child=1 2 10 4 5 6 -4 -6 9 -7 -1 13 -13 -12 -15
right_child=-2 -3 3 -5 7 8 -8 -9 -10 -11 11 12 -14 14 -16
leaf_value=-1.3306871510841372e-06 2.6132811034893856e-07 1.6764811950222224e-06 -2.6923767447018868e-06 -4.3594967738717005e-05 -5.4122821377670084e-06 1.0868805000327495e-05 3.7282062962132761e-05 -4.0466581830883971e-05 -1.9852054983582068e-05 -1.8847990031290592e-05 1.4081144942445291e-05 -4.176091541192254e-05 2.5327717338632142e-06 -1.5056720977240008e-05 9.1122442743242553e-06
leaf_weight=116954 457319 32835 1082 565 677 891 661 606 1320 513 3548 566 626 1284 3283
leaf_count=116954 457319 32835 1082 565 677 891 661 606 1320 513 3548 566 626 1284 3283
internal_value=0 -7.21644e-07 -1.31559e-06 -9.07005e-06 -5.6776e-06 -9.98284e-07 1.23961e-05 -2.19695e-05 -9.57923e-06 1.07453e-08 -9.27743e-07 4.13575e-06 -1.84993e-05 7.46058e-06 2.3172e-06
internal_weight=0 165411 132576 6315 5750 4467 1743 1283 2724 1404 126261 9307 1192 8115 4567
internal_count=622730 165411 132576 6315 5750 4467 1743 1283 2724 1404 126261 9307 1192 8115 4567
cat_boundaries=0 1
cat_threshold=259
is_linear=0
shrinkage=0.1


Tree=24
num_leaves=16
num_cat=0
split_feature=4 6 1 16 17 12 13 14 10 1 16 4 12 17 3
split_gain=1.21857e-05 4.2822e-05 2.76587e-05 4.59148e-05 3.51657e-05 4.14192e-05 7.31056e-05 1.9379e-05 4.36057e-05 1.86268e-05 1.91329e-05 2.36023e-05 2.21299e-05 2.12219e-05 1.75729e-05
threshold=-0.0045679547913319843 -0.00046498596141392173 0.00024270469501963546 7.3010963512171694 0.44125505592418962 -78.083454523602384 40.064842750175949 42.860142421051307 -0.00078807025053273516 7.085163809550378e-05 2.7777777777794035 -0.0060768633162330823 -168.39087467203015 0.099354531592007009 -0.0039631096950102354
decision_type=10 10 2 2 2 2 2 2 8 2 2 8 2 2 8
left_child=1 2 4 -4 9 6 -6 8 -5 10 11 12 -1 -12 -15
right_child=-2 -3 3 7 5 -7 -8 -9 -10 -11 13 -13 -14 14 -16
leaf_value=-1.8686766557720628e-06 -8.8931925277363636e-08 -1.8249646715994163e-05 3.4023655305871757e-05 9.0857487060094033e-06 -1.3752048243216035e-06 1.2396372604503561e-05 -4.8079107931801881e-05 1.7911732921051515e-05 -2.5084538722891352e-05 -1.5290723941116422e-05 -1.3377877388399152e-05 4.8988933791472902e-06 -3.1192422609324484e-05 2.5005413863509766e-06 9.4765325350854502e-06
leaf_weight=527 598431 983 708 1373 826 536 564 859 513 540 616 1095 503 8209 6447
leaf_count=527 598431 983 708 1373 826 536 564 859 513 540 616 1095 503 8209 6447
internal_value=0 2.19548e-06 3.05744e-06 1.13181e-05 1.62141e-06 -1.12191e-05 -2.03256e-05 5.46176e-06 -2.08714e-07 3.00017e-06 3.56792e-06 -5.32249e-06 -1.61889e-05 4.80496e-06 5.5692e-06
internal_weight=0 24299 23316 3453 19863 1926 1390 2745 1886 17937 17397 2125 1030 15272 14656
internal_count=622730 24299 23316 3453 19863 1926 1390 2745 1886 17937 17397 2125 1030 15272 14656
is_linear=0
shrinkage=0.1


Tree=25
num_leaves=16
num_cat=2
split_feature=3 5 10 15 1 18 14 15 11 18 0 10 3 6 10
split_gain=1.134e-05 4.00468e-05 5.62027e-05 3.72903e-05 2.70143e-05 4.45793e-05 2.99601e-05 4.7758e-05 4.17463e-05 3.33639e-05 2.81327e-05 5.98772e-05 5.88018e-05 3.04156e-05 2.98965e-05
threshold=0.0022358449696494591 0.0052337217246493104 0.0018777888456557037 87.416915494949237 -0.0018355577718609515 0 46.057624799860612 49.978275747275994 0.80533943101505201 1 716.50000000000011 0.0032396260844483886 0.0033331096124116226 0.0015142581461339291 -0.0031227601884200591
decision_type=10 10 10 2 2 1 2 2 2 1 2 10 10 10 8
left_child=1 -1 -3 -4 5 -2 7 8 9 -6 14 13 -13 -12 -8
right_child=4 2 3 -5 6 -7 10 -9 -10 -11 11 12 -14 -15 -16
leaf_value=6.2892863883296041e-08 -1.0802394515924055e-05 -1.0726070167814815e-05 2.6852215402267634e-05 5.5805289500698213e-06 -3.6903643385343946e-05 2.6798474364297934e-05 1.0768102898346212e-05 8.2460127172446297e-06 6.8268483498485275e-06 -1.231250284104764e-05 1.1126060357787409e-05 4.9908056942173481e-05 7.8181631807456531e-06 -2.0471662915004755e-05 -2.0541014517197491e-06
leaf_weight=560491 501 1025 1628 1669 960 829 1890 1052 604 1364 527 514 937 722 48017
leaf_count=560491 501 1025 1628 1669 960 829 1890 1052 604 1364 527 514 937 722 48017
internal_value=0 1.36835e-07 9.72584e-06 1.60841e-05 -1.33243e-06 1.27548e-05 -1.66354e-06 -1.00291e-05 -1.65951e-05 -2.26824e-05 -1.03064e-06 8.91158e-06 2.2728e-05 -7.1394e-06 -1.56852e-06
internal_weight=0 564813 4322 3297 57917 1330 56587 3980 2928 2324 52607 2700 1451 1249 49907
internal_count=622730 564813 4322 3297 57917 1330 56587 3980 2928 2324 52607 2700 1451 1249 49907
cat_boundaries=0 1 2
cat_threshold=566 1376
is_linear=0
shrinkage=0.1


Tree=26
num_leaves=16
num_cat=0
split_feature=0 0 5 8 5 1 5 0 2 15 4 10 5 0 6
split_gain=1.02853e-05 2.36194e-05 9.55822e-05 3.3359e-05 3.40543e-05 2.71554e-05 3.57054e-05 2.86068e-05 4.39193e-05 2.46197e-05 5.11978e-05 4.53844e-05 3.58868e-05 2.91622e-05 4.98625e-05
threshold=614.50000000000011 654.50000000000011 0.007031448090682014 -0.0063776555155716222 -0.0042195873318726087 0.00050060338794077907 0.0043236280162413107 622.50000000000011 0.0014754083013577282 55.43717007190758 0.0046837104341243005 0.0032396260844483886 -0.002590673575129598 716.50000000000011 0.00215222842703422
decision_type=2 2 10 10 10 2 10 2 10 2 10 10 10 2 10
left_child=-1 2 3 -2 -5 6 -6 8 -7 10 11 -3 -11 -14 -15
right_child=1 9 -4 4 5 7 -8 -9 -10 12 -12 -13 13 14 -16
leaf_value=-2.7418903629996808e-07 2.0846156615776039e-05 -1.1748895459034378e-06 4.2613074437750079e-05 -1.7152702825707058e-05 1.1284429680922968e-06 6.2742626177659901e-06 -2.4424666530444277e-05 9.0987232653092329e-06 -2.4510012175753821e-05 1.5305406805457532e-05 -2.6707949283986521e-05 2.5900039009940934e-05 -9.5193522634469141e-07 1.683344941343404e-06 1.3762226798703625e-05
leaf_weight=427829 921 79106 586 946 37110 1391 555 8420 695 1808 780 624 34042 23930 3987
leaf_count=427829 921 79106 586 946 37110 1391 555 8420 695 1808 780 624 34042 23930 3987
internal_value=0 6.02237e-07 2.46068e-06 1.99045e-06 1.63688e-06 2.00588e-06 7.51914e-07 6.50146e-06 -3.98224e-06 -4.98524e-08 -1.21241e-06 -9.6299e-07 1.41796e-06 1.01271e-06 3.40841e-06
internal_weight=0 194901 50624 50038 49117 48171 37665 10506 2086 144277 80510 79730 63767 61959 27917
internal_count=622730 194901 50624 50038 49117 48171 37665 10506 2086 144277 80510 79730 63767 61959 27917
is_linear=0
shrinkage=0.1


Tree=27
num_leaves=16
num_cat=2
split_feature=7 0 3 0 1 18 13 4 1 18 12 1 3 11 3
split_gain=1.02989e-05 4.06439e-05 4.31748e-05 4.76978e-05 3.24723e-05 4.39661e-05 4.82711e-05 3.7018e-05 5.23598e-05 3.19453e-05 3.18019e-05 3.01264e-05 2.99881e-05 3.4566e-05 3.40642e-05
threshold=-0.0078400119088969916 716.50000000000011 0.0055080821537779609 373.50000000000006 -0.0022154832473494919 0 78.767933765465429 0.00085772629999514305 -0.0029845974221401335 1 -168.39087467203015 -0.0029845974221401335 -7.0232131783420901e-05 -0.63360635033665658 -0.0017994049373196706
decision_type=10 2 10 2 2 1 2 10 2 1 2 2 10 2 10
left_child=1 2 3 9 5 -2 7 12 -9 10 -1 -5 13 14 -7
right_child=4 -3 -4 11 -6 6 -8 8 -10 -11 -12 -13 -14 -15 -16
leaf_value=1.0268880030164472e-05 -1.2617531386325065e-05 -2.0629836613600088e-05 2.7305951290246517e-05 3.0515781409448857e-05 4.3403360663551116e-08 -5.8797844744675387e-06 -2.8780346880827487e-05 3.9995922799984476e-05 -1.0987495798591332e-06 2.7446423608596468e-06 -1.2276905187130081e-05 7.7286323082711817e-06 -2.4125331377779916e-05 2.2015708982118546e-05 1.2093886831916439e-05
leaf_weight=770 4762 738 720 695 590486 5046 580 551 709 8287 3337 3512 550 654 1333
leaf_count=770 4762 738 720 695 590486 5046 580 551 709 8287 3337 3512 550 654 1333
internal_value=0 2.3533e-06 3.33255e-06 2.2928e-06 -7.01779e-08 -4.79828e-06 -8.32478e-07 9.99643e-07 1.6872e-05 -8.30135e-07 -8.03036e-06 1.14931e-05 -1.63773e-06 1.20863e-07 -2.12388e-06
internal_weight=0 18059 17321 16601 604671 14185 9423 8843 1260 12394 4107 4207 7583 7033 6379
internal_count=622730 18059 17321 16601 604671 14185 9423 8843 1260 12394 4107 4207 7583 7033 6379
cat_boundaries=0 1 2
cat_threshold=1792 538
is_linear=0
shrinkage=0.1


Tree=28
num_leaves=16
num_cat=0
split_feature=9 0 0 17 17 6 16 1 16 1 13 6 17 10 7
split_gain=1.07405e-05 3.75182e-05 7.31979e-05 7.50186e-05 6.9853e-05 3.24316e-05 4.02371e-05 3.13288e-05 2.9179e-05 2.39496e-05 3.71179e-05 3.69769e-05 3.02753e-05 6.85684e-05 7.5587e-05
threshold=0.0042698633589493004 638.50000000000011 598.50000000000011 0.24548386544711054 0.3784941039568907 0.0077211766300030469 66.862694239030915 0.00041646015167107203 89.958592132505657 0.0018605546420609189 74.850549060419482 0.00085719382542903688 0.20787279614307239 0.0024601308080649535 0.002127454711564503
decision_type=10 2 2 2 2 10 2 2 2 2 2 10 2 8 10
left_child=5 2 -2 8 -3 9 -7 -6 -4 -1 12 -12 -11 -14 -15
right_child=1 4 3 -5 7 6 -8 -9 -10 10 11 -13 13 14 -16
leaf_value=-2.4757422815376395e-08 -1.6281575385434477e-06 1.2353870605238773e-06 -2.124136743022001e-05 -4.7785836956035324e-05 1.127511352514996e-05 -6.2632321690519652e-06 2.8979322233459698e-05 4.6499386538379636e-05 2.0809642787517691e-06 -4.4006574018506193e-07 -3.3298859115443572e-05 2.1863990483710367e-06 4.0355275323831664e-06 6.9245184125825637e-06 4.4587628917770468e-05
leaf_weight=556021 36181 9321 1048 663 504 525 846 506 1099 5712 514 685 6964 1142 999
leaf_count=556021 36181 9321 1048 663 504 525 846 506 1099 5712 514 685 6964 1142 999
internal_value=0 -1.41596e-06 -2.83564e-06 -1.83829e-05 3.94215e-06 1.21877e-07 1.54838e-05 2.89221e-05 -9.3032e-06 8.50592e-08 3.89752e-06 -1.30258e-05 5.26696e-06 8.84725e-06 2.44983e-05
internal_weight=0 49322 38991 2810 10331 573408 1371 1010 2147 572037 16016 1199 14817 9105 2141
internal_count=622730 49322 38991 2810 10331 573408 1371 1010 2147 572037 16016 1199 14817 9105 2141
is_linear=0
shrinkage=0.1


Tree=29
num_leaves=16
num_cat=3
split_feature=3 2 18 1 17 11 17 18 1 17 17 7 16 0 18
split_gain=1.06771e-05 3.60087e-05 0.00011333 2.21432e-05 4.35209e-05 2.62505e-05 3.1785e-05 4.95411e-05 4.08684e-05 3.82987e-05 3.76984e-05 2.79779e-05 9.57781e-05 2.61727e-05 4.22155e-05
threshold=0.0022358449696494591 0.0044347827878489241 0 -0.0018355577718609515 0.34147623396930704 0.74999999999993106 0.25808142322934752 1 0.0030679233801140797 0.3784941039568907 0.44125505592418962 0.0050836296519378718 77.083333333331652 678.50000000000011 2
decision_type=10 8 1 2 2 2 2 1 2 2 2 10 2 2 1
left_child=1 -1 -3 4 -2 13 11 8 -8 -10 -9 -7 -13 -5 -15
right_child=3 2 -4 5 -6 6 7 10 9 -11 -12 12 -14 14 -16
leaf_value=7.9574368172666998e-08 -7.0688710619734231e-06 4.5289068364005523e-05 -1.5938824611848572e-06 -4.1899851781260147e-06 2.9120313088449263e-05 1.4247533168538767e-06 2.9657978753329666e-06 5.0651852300795044e-06 1.6954758023615364e-05 5.3182714961276611e-05 -2.4475365993113835e-05 -4.6563925658377404e-05 -1.5192270508109382e-06 -1.2785814106189314e-05 8.8978852895884442e-06
leaf_weight=562327 649 719 1767 32192 681 10862 799 2708 695 503 514 565 2869 1175 3705
leaf_count=562327 649 719 1767 32192 681 10862 799 2708 695 503 514 565 2869 1175 3705
internal_value=0 1.32664e-07 1.21414e-05 -1.29302e-06 1.14611e-05 -1.59278e-06 1.3758e-06 8.05524e-06 2.03807e-05 3.21657e-05 3.51542e-07 -1.06265e-06 -8.93048e-06 -3.15547e-06 3.66895e-06
internal_weight=0 564813 2486 57917 1330 56587 19515 5219 1997 1198 3222 14296 3434 37072 4880
internal_count=622730 564813 2486 57917 1330 56587 19515 5219 1997 1198 3222 14296 3434 37072 4880
cat_boundaries=0 1 2 3
cat_threshold=2368 1297 1608
is_linear=0
shrinkage=0.1


Tree=30
num_leaves=16
num_cat=4
split_feature=2 5 14 18 18 5 13 13 18 17 0 18 17 0 3
split_gain=9.77565e-06 3.41749e-05 5.43307e-05 5.4462e-05 3.22019e-05 2.94637e-05 3.09938e-05 3.82026e-05 5.23337e-05 5.52855e-05 3.52744e-05 3.37269e-05 4.0495e-05 3.10787e-05 2.83505e-05
threshold=-0.0026666684833765992 -0.0067649461241117695 10.972238356853431 0 1 0.0037140391616738992 76.665590553945265 64.582069724879275 2 0.25808142322934752 312.50000000000006 3 0.3784941039568907 357.50000000000006 -7.0232131783420901e-05
decision_type=10 8 2 1 1 10 2 2 1 2 2 1 2 2 10
left_child=5 2 3 -2 -4 6 7 10 -9 -10 -1 12 -12 -11 -13
right_child=1 -3 4 -5 -6 -7 -8 8 9 13 11 14 -14 -15 -16
leaf_value=-9.3303364820232174e-06 1.8375932768949803e-05 -2.697469167103969e-08 -3.4178176725952798e-05 -1.1939675588450406e-05 -6.7943539329146311e-06 2.0389909429400978e-05 1.4788307494784597e-05 1.236120442249026e-05 -1.8064130821273021e-06 -5.1577661797070905e-05 7.0958002865365711e-06 2.2615460553627943e-07 3.6527850954059466e-05 -1.8454037079803068e-05 2.4301945687723317e-05
leaf_weight=2609 1004 587087 995 1416 781 823 1595 760 1083 514 4709 17701 519 631 503
leaf_count=2609 1004 587087 995 1416 781 823 1595 760 1083 514 4709 17701 519 631 503
internal_value=0 -9.12468e-08 -9.08393e-06 6.6414e-07 -2.23668e-05 1.71816e-06 1.21637e-06 4.70655e-07 -1.02388e-05 -1.7923e-05 1.69948e-06 2.92758e-06 9.99849e-06 -3.33235e-05 8.9091e-07
internal_weight=0 591283 4196 2420 1776 31447 30624 29029 2988 2228 26041 23432 5228 1145 18204
internal_count=622730 591283 4196 2420 1776 31447 30624 29029 2988 2228 26041 23432 5228 1145 18204
cat_boundaries=0 1 2 3 4
cat_threshold=1440 899 81 2696
is_linear=0
shrinkage=0.1


Tree=31
num_leaves=16
num_cat=0
split_feature=4 8 0 2 2 4 0 0 17 14 8 0 4 8 12
split_gain=9.40743e-06 3.85291e-05 2.63729e-05 3.78462e-05 5.14259e-05 3.75838e-05 3.73834e-05 6.41088e-05 3.05407e-05 2.88444e-05 2.63806e-05 3.07771e-05 8.17998e-05 3.85868e-05 2.91386e-05
threshold=-0.0045679547913319843 0.0019115168122028072 312.50000000000006 0.0044347827878489241 0.0014754083013577282 -0.0060768633162330823 716.50000000000011 702.50000000000011 0.27277331749524142 41.207260900089047 -0.0083586548816433331 478.50000000000006 -0.0060768633162330823 -0.0014331728326194557 -92.694284587349202
decision_type=10 10 2 8 8 8 2 2 2 2 8 2 10 10 2
left_child=1 2 5 4 6 -1 7 9 -8 10 -4 13 -13 14 -12
right_child=-2 -3 3 -5 -6 -7 8 -9 -10 -11 11 12 -14 -15 -16
leaf_value=-2.25462741526213e-05 -7.824259659144798e-08 -1.9764889888888732e-05 9.5067289297223719e-06 2.8790562924556131e-05 -2.5763216440398723e-05 4.5515328335231885e-07 3.4054718851731494e-06 4.0157602713655001e-05 -3.0856815008622301e-05 1.9101708478952743e-05 4.8965421223396405e-06 -3.145951403671479e-05 2.5101503117233441e-06 2.6627126741086126e-05 -1.2609492522527476e-05
leaf_weight=908 598431 792 4648 607 585 3264 511 517 530 1235 5400 996 2459 693 1154
leaf_count=908 598431 792 4648 607 585 3264 511 517 530 1235 5400 996 2459 693 1154
internal_value=0 1.92893e-06 2.65984e-06 4.21573e-06 3.41923e-06 -4.55091e-06 4.36018e-06 5.4801e-06 -1.40383e-05 4.39911e-06 3.2162e-06 4.84148e-07 -7.28255e-06 4.18691e-06 1.81416e-06
internal_weight=0 24299 23507 19335 18728 4172 18143 17102 1041 16585 15350 10702 3455 7247 6554
internal_count=622730 24299 23507 19335 18728 4172 18143 17102 1041 16585 15350 10702 3455 7247 6554
is_linear=0
shrinkage=0.1


Tree=32
num_leaves=16
num_cat=0
split_feature=1 11 10 14 8 0 12 7 5 12 0 10 9 6 5
split_gain=9.73687e-06 5.73575e-05 4.06521e-05 3.74673e-05 4.44762e-05 3.57497e-05 3.51254e-05 2.78822e-05 2.59257e-05 5.65242e-05 3.64556e-05 2.48476e-05 2.44269e-05 3.21351e-05 2.4912e-05
threshold=-0.001588686652733595 -0.39999999999988523 -0.00019630796425695871 38.048866944497298 -0.0063776555155716222 373.50000000000006 -139.01792864805356 -0.00098601035563689022 -0.00066086365462275632 47.188058416886115 381.50000000000006 -0.0052293762127342261 -0.0035706333374613815 -0.00081675309944478902 0.00054678706649691222
decision_type=2 2 10 2 10 2 2 10 10 2 2 8 8 8 10
left_child=1 2 3 5 -5 6 -1 -8 9 -4 -10 -7 -6 -14 -15
right_child=-2 -3 8 4 12 11 7 -9 10 -11 -12 -13 13 14 -16
leaf_value=1.1015498813052054e-06 9.6945234906977483e-08 2.4188181228147252e-05 -7.9999409748497062e-06 3.2789129032289154e-05 -1.2757410691655854e-05 6.4420691215740882e-06 -1.7734027674303424e-05 6.1235051033720824e-06 7.16220442285489e-06 -3.7902462073083454e-05 -8.978121884433452e-06 -2.1822296325999026e-06 2.3196624879038626e-05 -1.4740318340397342e-05 1.2144562201373674e-05
leaf_weight=2573 587469 841 3372 662 665 5436 3182 579 2141 778 4040 8667 944 662 719
leaf_count=2573 587469 841 3372 662 665 5436 3182 579 2141 778 4040 8667 944 662 719
internal_value=0 -1.61394e-06 -2.24437e-06 6.22747e-09 9.33576e-06 -1.66092e-06 -7.90178e-06 -1.40612e-05 -7.49214e-06 -1.36058e-05 -3.38737e-06 1.14201e-06 4.14307e-06 8.97697e-06 -7.43049e-07
internal_weight=0 35261 34420 24089 3652 20437 6334 3761 10331 4150 6181 14103 2990 2325 1381
internal_count=622730 35261 34420 24089 3652 20437 6334 3761 10331 4150 6181 14103 2990 2325 1381
is_linear=0
shrinkage=0.1


Tree=33
num_leaves=16
num_cat=3
split_feature=0 14 2 0 3 0 0 18 13 10 3 18 18 14 10
split_gain=9.05414e-06 1.92465e-05 3.38994e-05 5.97137e-05 4.59632e-05 5.10886e-05 4.84044e-05 5.90721e-05 4.4853e-05 4.2085e-05 4.06664e-05 3.06928e-05 2.54045e-05 2.93496e-05 3.53892e-05
threshold=406.50000000000006 90.654662651631796 0.0027246165142013061 389.50000000000006 0.00036510785928456363 332.50000000000006 341.50000000000006 0 57.93663030750411 0.0020590758683779469 0.0055080821537779609 1 2 83.974234237452649 0.0059794308217490108
decision_type=2 2 10 2 8 2 2 1 2 8 10 1 1 2 10
left_child=1 2 10 4 -4 8 -7 -8 -6 11 12 -9 13 14 -1
right_child=-2 -3 3 -5 5 6 7 9 -10 -11 -12 -13 -14 -15 -16
leaf_value=-4.3419027055214757e-06 2.293849197668637e-07 1.5335388989894743e-06 1.5387046458587245e-05 -3.9342159191064075e-05 2.4749819169189932e-05 -3.4363787670029857e-05 2.0497759615263835e-05 1.1268539942408865e-05 -1.0772663708102679e-05 -3.6082626187185279e-05 2.3450422625354283e-05 -2.0749540130153054e-05 -2.9800729212655829e-07 -2.0052021152513166e-05 1.2174098860825702e-05
leaf_weight=19082 457319 32835 907 565 703 993 549 579 719 699 687 601 104009 1091 1392
leaf_count=19082 457319 32835 907 565 703 993 549 579 719 699 687 601 104009 1091 1392
internal_value=0 -6.33955e-07 -1.17078e-06 -8.32086e-06 -5.27268e-06 -9.14185e-06 -1.57637e-05 -8.15663e-06 6.78873e-06 -1.65498e-05 -8.13161e-07 -5.11932e-06 -9.45905e-07 -4.06872e-06 -3.219e-06
internal_weight=0 165411 132576 6315 5750 4843 3421 2428 1422 1879 126261 1180 125574 21565 20474
internal_count=622730 165411 132576 6315 5750 4843 3421 2428 1422 1879 126261 1180 125574 21565 20474
cat_boundaries=0 1 2 3
cat_threshold=257 1090 82
is_linear=0
shrinkage=0.1


Tree=34
num_leaves=16
num_cat=2
split_feature=13 2 18 17 13 17 4 18 0 12 0 15 10 5 4
split_gain=8.97391e-06 4.63058e-05 1.51864e-05 1.62228e-05 1.45941e-05 4.08706e-05 4.87486e-05 6.0906e-05 5.18024e-05 3.76129e-05 2.88585e-05 2.25263e-05 2.23056e-05 6.70672e-05 5.92775e-05
threshold=10.696177060621585 -0.0032262534109416259 0 0.20069374339594079 27.904237283575025 0.29118980789628535 0.00085772629999514305 1 349.50000000000006 -119.33015946378661 349.50000000000006 7.0707070707074307 -0.0037679721754412805 0.0043236280162413107 0.0025981413305075089
decision_type=2 8 1 2 2 2 8 1 2 2 2 2 8 10 10
left_child=1 -1 3 -3 5 -2 7 11 -9 -10 -8 -7 13 14 -6
right_child=4 2 -4 -5 12 6 10 8 9 -11 -12 -13 -14 -15 -16
leaf_value=2.4531630192013739e-05 -6.938825635920665e-07 2.5780701402412812e-06 -2.3335607639003736e-06 1.9316959548099288e-05 2.1054808132470649e-06 -2.2620709608222007e-07 -4.3781712104885096e-05 2.6876042543573819e-05 -2.4051067329028665e-05 8.8612846031499023e-06 -1.3155802293196374e-05 -2.3247293806064584e-05 -6.0972221888578662e-08 -3.2914379848802135e-05 2.4407560244117603e-05
leaf_weight=905 65938 2875 5774 725 41530 589 564 821 588 848 677 1527 497608 534 1227
leaf_count=905 65938 2875 5774 725 41530 589 564 821 588 848 677 1527 497608 534 1227
internal_value=0 2.9303e-06 8.4483e-07 5.93262e-06 -4.91055e-08 -1.39125e-06 -9.58205e-06 -4.61795e-06 6.80969e-06 -4.61536e-06 -2.70744e-05 -1.676e-05 1.28438e-07 2.30562e-06 2.74548e-06
internal_weight=0 10279 9374 3600 612451 71552 5614 4373 2257 1436 1241 2116 540899 43291 42757
internal_count=622730 10279 9374 3600 612451 71552 5614 4373 2257 1436 1241 2116 540899 43291 42757
cat_boundaries=0 1 2
cat_threshold=1212 258
is_linear=0
shrinkage=0.1


Tree=35
num_leaves=16
num_cat=0
split_feature=1 15 6 17 3 0 4 3 17 15 11 8 17 4 0
split_gain=8.86614e-06 2.64591e-05 6.67526e-05 6.27545e-05 2.96969e-05 2.81938e-05 3.48956e-05 4.10377e-05 3.68767e-05 4.32218e-05 3.29785e-05 3.18072e-05 3.09558e-05 8.55525e-05 4.01223e-05
threshold=-0.00049949182731562336 83.369002153410307 0.0077211766300030469 0.44125505592418962 0.0040713598564943174 373.50000000000006 0.0033276797502173054 0.002002698637133316 0.44125505592418962 22.640887116434715 -0.30303030303030171 -0.0045834525696569197 0.3784941039568907 1.0000000180025095e-35 630.50000000000011
decision_type=2 2 10 2 10 2 10 10 2 2 2 8 2 10 2
left_child=1 2 4 -3 5 6 7 8 10 -10 -1 -11 -7 14 -14
right_child=-2 3 -4 -5 -6 12 -8 -9 9 11 -12 -13 13 -15 -16
leaf_value=-3.3532893983499661e-06 2.0463335159506117e-07 -3.0397854769674606e-06 3.5507612315008339e-05 -3.4606243882860454e-05 1.6805709569965599e-05 5.4431861470859282e-08 -2.5839565222608973e-05 1.9850915217247506e-05 2.6731475415724747e-06 -4.7992859461583625e-05 1.3675704472052389e-05 -1.4210255779325964e-05 1.1836992920644481e-05 4.8352097149472685e-05 -1.9045959262332319e-05
leaf_weight=20511 481268 19327 523 651 1007 92551 676 774 678 503 1204 625 1313 500 619
leaf_count=20511 481268 19327 523 651 1007 92551 676 774 678 503 1204 625 1313 500 619
internal_value=0 -6.95908e-07 -1.41303e-07 -4.06841e-06 -2.95438e-07 -4.39e-07 -3.42902e-06 -2.80546e-06 -3.55101e-06 -1.7281e-05 -2.40911e-06 -2.92747e-05 3.47076e-07 1.14838e-05 1.9423e-06
internal_weight=0 141462 121484 19978 120961 119954 24971 24295 23521 1806 21715 1128 94983 2432 1932
internal_count=622730 141462 121484 19978 120961 119954 24971 24295 23521 1806 21715 1128 94983 2432 1932
is_linear=0
shrinkage=0.1


Tree=36
num_leaves=16
num_cat=1
split_feature=3 5 10 15 7 14 18 5 2 8 9 6 15 9 9
split_gain=9.21573e-06 3.11084e-05 4.54179e-05 2.88016e-05 2.51712e-05 2.02706e-05 2.80556e-05 4.55242e-05 3.39442e-05 3.41406e-05 3.0482e-05 2.21263e-05 6.35198e-05 6.56597e-05 5.45699e-05
threshold=0.0022358449696494591 0.0052337217246493104 0.0018777888456557037 87.416915494949237 0.006160225335519077 50.772507345754725 0 -0.0017719218240804799 0.00065762147148129568 0.00078204270451076596 -0.0022745541204961524 0.0047214898766463351 62.698412698414053 0.0021367521367522406 0.0048696560390480989
decision_type=10 10 10 2 10 2 1 10 10 8 8 10 2 10 8
left_child=1 -1 -3 4 -4 6 8 -8 -2 10 -10 -7 14 -14 -13
right_child=5 2 3 -5 -6 11 7 -9 9 -11 -12 12 13 -15 -16
leaf_value=5.8073996057357074e-08 -3.5301340826516667e-05 -9.8105830299418158e-06 1.1273529512621693e-05 5.059417963827028e-06 3.6142502011984331e-05 9.243540961939387e-07 2.6277746136466515e-05 -6.15299508584324e-06 -3.8265431194358238e-06 1.1828837157981886e-05 -3.6175361613762411e-05 -3.5448849015391076e-06 3.448882034786467e-05 -1.3928294300187642e-06 -2.5499712567237137e-05
leaf_weight=560491 620 1025 811 1669 817 33862 521 2558 674 578 513 2466 530 13502 2093
leaf_count=560491 620 1025 811 1669 817 33862 521 2558 674 578 513 2466 530 13502 2093
internal_value=0 1.23243e-07 8.57464e-06 1.42904e-05 2.37538e-05 -1.20128e-06 -6.99771e-06 -6.6321e-07 -1.51093e-05 -8.10197e-06 -1.78071e-05 -5.97468e-07 -3.36934e-06 -3.75505e-08 -1.36242e-05
internal_weight=0 564813 4322 3297 1628 57917 5464 3079 2385 1765 1187 52453 18591 14032 4559
internal_count=622730 564813 4322 3297 1628 57917 5464 3079 2385 1765 1187 52453 18591 14032 4559
cat_boundaries=0 1
cat_threshold=1634
is_linear=0
shrinkage=0.1


Tree=37
num_leaves=16
num_cat=2
split_feature=11 3 17 8 17 11 5 8 3 8 1 18 5 18 16
split_gain=8.12029e-06 2.05054e-05 6.23257e-05 3.95421e-05 3.81977e-05 3.20777e-05 2.62859e-05 2.74098e-05 2.27761e-05 2.26333e-05 3.0668e-05 2.07531e-05 1.95513e-05 0.000100505 8.12689e-05
threshold=0.20000000000023013 -0.00094483482985224787 0.27277331749524142 0.0054259285993127912 0.44125505592418962 0.57352941176469496 -0.0042195873318726087 -0.0053082231836335527 -0.0039631096950102354 -0.0063776555155716222 0.00084108336291277574 0 0.007031448090682014 1 89.958592132505657
decision_type=2 10 2 8 2 2 8 8 8 8 2 1 10 1 2
left_child=12 2 8 4 5 9 7 -3 -2 -4 -11 -7 -1 14 -14
right_child=1 6 3 -5 -6 11 -8 -9 -10 10 -12 -13 13 -15 -16
leaf_value=-2.113100147776889e-07 -1.6349223423674403e-05 -2.8815974122304526e-05 3.8974272903267201e-05 -1.140515733924177e-05 3.7937484047735419e-05 -1.3361719387843191e-05 2.3213681088276422e-07 -4.8679787488210769e-07 1.4369739058521508e-06 3.0374481498420864e-05 1.2936176340537466e-06 1.0999992272901853e-05 -5.639376096764747e-05 4.5027900341665372e-06 -3.2498476824510414e-06
leaf_weight=387848 747 638 509 558 717 578 204768 735 19896 664 799 853 624 2262 534
leaf_count=387848 747 638 509 558 717 578 204768 735 19896 664 799 853 624 2262 534
internal_value=0 4.69548e-07 3.15512e-06 1.35771e-05 1.69606e-05 1.25408e-05 1.3967e-07 -1.36507e-05 7.93352e-07 2.08114e-05 1.44923e-05 1.14347e-06 -2.77689e-07 -7.80549e-06 -3.1614e-05
internal_weight=0 231462 25321 4678 4120 3403 206141 1373 20643 1972 1463 1431 391268 3420 1158
internal_count=622730 231462 25321 4678 4120 3403 206141 1373 20643 1972 1463 1431 391268 3420 1158
cat_boundaries=0 1 2
cat_threshold=208 1656
is_linear=0
shrinkage=0.1


Tree=38
num_leaves=16
num_cat=0
split_feature=4 6 13 16 13 11 17 13 13 1 16 15 0 12 15
split_gain=7.68218e-06 3.13276e-05 1.96466e-05 5.98745e-05 2.79968e-05 2.27013e-05 3.46126e-05 2.43233e-05 4.30693e-05 3.37847e-05 2.39762e-05 2.36285e-05 5.21004e-05 4.66961e-05 2.11849e-05
threshold=-0.0045679547913319843 0.00051568153697878494 18.403208110300291 21.957185652039154 10.696177060621585 -0.90697674418606333 0.34147623396930704 49.509089954834231 47.03015753146731 0.0015953160431460003 57.575757575757727 22.640887116434715 590.50000000000011 -210.31193709419907 7.0707070707074307
decision_type=10 10 2 2 2 2 2 2 2 2 2 2 2 2 2
left_child=1 2 3 4 14 6 -4 8 9 10 11 13 -13 -7 -1
right_child=-2 -3 5 -5 -6 7 -8 -9 -10 -11 -12 12 -14 -15 -16
leaf_value=-3.9114163726398396e-07 -7.0725912622609469e-08 -2.0708301505719377e-05 1.0027796050429181e-06 -3.2459135064978972e-05 -6.861622004132522e-06 -2.2934436860104238e-05 -2.3955792601358786e-05 2.6911868448407923e-07 3.0325683241244406e-05 3.0740861345265966e-05 -1.5899459306170572e-05 1.8791322964347194e-05 -1.1624804839934617e-05 5.4376265996035879e-06 2.7971429343207414e-05
leaf_weight=507 598431 606 2924 635 1520 670 686 6615 800 528 531 2694 712 4323 548
leaf_count=507 598431 606 2924 635 1520 670 686 6615 800 528 531 2694 712 4323 548
internal_value=0 1.74308e-06 2.31732e-06 -4.95675e-06 1.82539e-06 3.45728e-06 -3.74004e-06 4.99716e-06 8.0461e-06 6.16159e-06 4.7083e-06 6.01116e-06 1.2433e-05 1.63044e-06 1.43413e-05
internal_weight=0 24299 23693 3210 2575 20483 3610 16873 10258 9458 8930 8399 3406 4993 1055
internal_count=622730 24299 23693 3210 2575 20483 3610 16873 10258 9458 8930 8399 3406 4993 1055
is_linear=0
shrinkage=0.1


Tree=39
num_leaves=16
num_cat=4
split_feature=2 4 18 6 11 1 1 18 18 0 8 18 4 3 17
split_gain=8.31984e-06 2.56474e-05 4.2144e-05 2.49236e-05 4.80197e-05 4.55708e-05 3.92725e-05 3.93821e-05 3.55057e-05 3.23219e-05 3.22291e-05 3.61837e-05 3.38213e-05 3.20724e-05 2.42386e-05
threshold=-0.0026666684833765992 0.0016062143981571133 0 -0.0046247839243499502 0.3666666666666093 0.00041646015167107203 -0.00033934003075414271 1 2 662.50000000000011 -0.0022580754425883249 3 -0.0045679547913319843 -0.0039631096950102354 0.31409284279060307
decision_type=10 8 1 8 2 2 2 1 1 2 8 1 10 10 2
left_child=1 3 14 5 10 6 7 -1 -8 -9 -5 13 -13 -12 -3
right_child=-2 2 -4 4 -6 -7 8 9 -10 -11 11 12 -14 -15 -16
leaf_value=1.8090778694536448e-07 -8.4250496896820938e-08 1.2433808801427306e-05 -1.3273332065852114e-06 -5.5383100001937146e-06 -2.8350401104548736e-05 3.1866764073215779e-05 -2.4243500357603327e-05 9.6637575783591866e-06 6.7267539737005262e-06 3.7053356317992878e-05 3.7097307204297097e-05 -1.6686817287423074e-05 3.1076937847781296e-06 7.251752652565195e-06 3.8746702121504659e-05
leaf_weight=5924 591283 923 1538 7486 655 567 925 3077 611 501 528 1008 6008 1132 564
leaf_count=5924 591283 923 1538 7486 655 567 925 3077 611 501 528 1008 6008 1132 564
internal_value=0 1.58499e-06 1.03388e-05 6.53314e-07 -1.80664e-06 4.21807e-06 2.79781e-06 5.19602e-06 -1.2038e-05 1.34613e-05 -7.30894e-07 3.41714e-06 2.63409e-07 1.66445e-05 2.22642e-05
internal_weight=0 31447 3025 28422 16817 11605 11038 9502 1536 3578 16162 8676 7016 1660 1487
internal_count=622730 31447 3025 28422 16817 11605 11038 9502 1536 3578 16162 8676 7016 1660 1487
cat_boundaries=0 1 2 3 4
cat_threshold=2134 370 406 2624
is_linear=0
shrinkage=0.1


Tree=40
num_leaves=16
num_cat=1
split_feature=2 3 3 4 8 7 15 8 17 18 17 3 17 2 9
split_gain=7.82597e-06 2.95029e-05 2.90239e-05 2.24635e-05 3.81828e-05 2.12997e-05 1.98575e-05 3.32233e-05 3.48771e-05 3.30186e-05 4.7875e-05 2.31766e-05 2.83749e-05 2.1933e-05 2.20178e-05
threshold=0.00065762147148129568 -0.0039631096950102354 -0.0022019886197827683 7.7266319093216587e-05 0.0088518599113821556 0.006160225335519077 32.20549657787722 -0.0018876351044436743 0.29118980789628535 0 0.21577330343165999 -0.00011764013922249682 0.27277331749524142 0.0020366699949337934 0.0013372098914382626
decision_type=10 8 10 8 10 10 2 8 2 1 2 10 2 10 8
left_child=3 -2 -3 4 5 -1 9 8 -8 10 -4 12 -11 -12 -15
right_child=1 2 6 -5 -6 -7 7 -9 -10 11 13 -13 -14 14 -16
leaf_value=-2.9575870504278809e-07 -2.3227748996497033e-05 1.2288546548153181e-05 -1.6919835025936428e-06 1.1579693155848004e-06 -2.6921076928594298e-05 1.7966917948797344e-05 2.3399584771112951e-06 -2.0194823553476854e-07 2.6091188572111723e-05 2.4379256880590958e-06 -2.2463109938054928e-05 -1.9056488802902082e-06 2.4533165382163561e-05 -3.4585987805990577e-06 -2.7001012323567146e-05
leaf_weight=296887 574 1751 6503 162136 538 640 1672 110275 981 4108 2133 31488 677 1862 505
leaf_count=296887 574 1751 6503 162136 538 640 1672 110275 981 4108 2133 31488 677 1862 505
internal_value=0 -5.96514e-07 -5.16304e-07 2.10684e-07 -3.04603e-07 -2.56474e-07 -6.56259e-07 6.40942e-08 1.11225e-05 -2.37696e-06 -7.17263e-06 -9.20021e-07 5.56404e-06 -1.51087e-05 -8.48138e-06
internal_weight=0 162529 161955 460201 298065 297527 160204 112928 2653 47276 11003 36273 4785 4500 2367
internal_count=622730 162529 161955 460201 298065 297527 160204 112928 2653 47276 11003 36273 4785 4500 2367
cat_boundaries=0 1
cat_threshold=320
is_linear=0
shrinkage=0.1


Tree=41
num_leaves=16
num_cat=2
split_feature=0 2 5 18 0 0 4 0 5 10 7 11 9 15 18
split_gain=7.40976e-06 2.09587e-05 4.05865e-05 3.08027e-05 3.7572e-05 3.2749e-05 2.71595e-05 2.27733e-05 7.89366e-05 2.43733e-05 2.23229e-05 3.38634e-05 6.1879e-05 2.64959e-05 2.63586e-05
threshold=614.50000000000011 -0.0032262534109416259 -0.0067649461241117695 0 716.50000000000011 694.50000000000011 -0.0045679547913319843 654.50000000000011 0.007031448090682014 0.0026866710660354847 0.006160225335519077 0.099157931516425754 0.0091970762966943082 89.99501286194463 1
decision_type=2 10 10 1 2 2 10 2 10 10 10 2 10 2 1
left_child=-1 3 -3 5 -5 -2 -4 8 9 -8 -9 13 14 -12 -13
right_child=1 2 6 4 -6 -7 7 10 -10 -11 11 12 -14 -15 -16
leaf_value=-2.3281331103020387e-07 4.0321632426370073e-06 -2.2125574241442438e-05 1.4046420764229069e-05 1.0533287639590339e-05 -1.4748960874507516e-05 3.735015799132426e-05 2.6722917177449063e-06 -1.1603888179110478e-07 3.8814239997634367e-05 -3.7675650305811787e-06 -3.8760054564096576e-05 -4.8098568867852135e-07 2.40951538966566e-05 -7.1812337548791908e-06 -3.1543667589062352e-05
leaf_weight=427829 567 799 1460 1691 901 615 41785 136857 582 6839 539 597 643 524 502
leaf_count=427829 567 799 1460 1691 901 615 41785 136857 582 6839 539 597 643 524 502
internal_value=0 5.11079e-07 3.6536e-07 7.89072e-06 1.73827e-06 2.11884e-05 4.59777e-07 3.54749e-07 2.20472e-06 1.76652e-06 -2.97035e-07 -9.1279e-06 -5.44852e-07 -2.31934e-05 -1.49612e-05
internal_weight=0 194901 191127 3774 2592 1182 190328 188868 49206 48624 139662 2805 1742 1063 1099
internal_count=622730 194901 191127 3774 2592 1182 190328 188868 49206 48624 139662 2805 1742 1063 1099
cat_boundaries=0 1 2
cat_threshold=2849 2266
is_linear=0
shrinkage=0.1


Tree=42
num_leaves=16
num_cat=1
split_feature=13 12 17 6 10 3 6 7 8 13 17 0 6 18 0
split_gain=7.21333e-06 3.93858e-05 5.7756e-05 3.88023e-05 2.13585e-05 1.86129e-05 1.2383e-05 1.54146e-05 1.15355e-05 1.11629e-05 3.34355e-05 4.76597e-05 4.59621e-05 3.86749e-05 3.27396e-05
threshold=10.696177060621585 -139.01792864805356 0.20787279614307239 -0.0073719378412187 0.0024601308080649535 -0.001136501052882821 -0.0035321901459911538 -0.0034102877345108524 -0.0040697418238825325 27.904237283575025 0.29118980789628535 654.50000000000011 0.00215222842703422 0 349.50000000000006
decision_type=2 2 2 10 8 8 8 10 8 2 2 2 10 1 2
left_child=1 2 5 -3 6 8 -5 -8 -1 10 -2 12 13 -12 -15
right_child=9 3 -4 4 -6 -7 7 -9 -10 -11 11 -13 -14 14 -16
leaf_value=8.5737367499612274e-06 -5.8719591085373822e-07 -2.4381260330935539e-05 4.3503775179964828e-05 9.7437507192631378e-06 1.949016645380038e-05 2.1387625363025934e-05 -1.7681470126262866e-05 -4.107606688832292e-07 -9.8815844358104656e-06 1.1114110061822741e-07 -1.7883207111043703e-05 1.8596756687642852e-05 -3.8045974273006136e-05 1.460616639708468e-05 -9.5097463738200043e-06
leaf_weight=687 65938 641 515 1030 592 543 576 5027 668 540899 2148 577 587 981 1321
leaf_count=687 65938 641 515 1030 592 543 576 5027 668 540899 2148 577 587 981 1321
internal_value=0 2.62707e-06 1.38032e-05 -8.01369e-07 1.29063e-06 5.74433e-06 -3.33689e-07 -2.18623e-06 -5.24532e-07 -4.41354e-08 -1.21795e-06 -8.62635e-06 -1.17448e-05 -8.27544e-06 7.63959e-07
internal_weight=0 10279 2413 7866 7225 1898 6633 5603 1355 612451 71552 5614 5037 4450 2302
internal_count=622730 10279 2413 7866 7225 1898 6633 5603 1355 612451 71552 5614 5037 4450 2302
cat_boundaries=0 1
cat_threshold=258
is_linear=0
shrinkage=0.1


Tree=43
num_leaves=16
num_cat=2
split_feature=1 13 2 18 4 0 6 10 8 17 0 0 14 18 4
split_gain=7.94749e-06 5.64149e-05 3.58383e-05 6.54656e-05 3.46106e-05 2.95567e-05 4.06757e-05 3.19068e-05 2.92572e-05 2.89789e-05 2.72533e-05 2.23794e-05 2.21001e-05 3.5679e-05 4.4693e-05
threshold=-0.0022154832473494919 10.696177060621585 -0.0010029435128287021 0 0.0013465812784447808 373.50000000000006 0.0028710244503376008 1.0000000180025095e-35 -0.0015780436188126965 0.1879857301323398 381.50000000000006 494.50000000000006 36.473821396434722 1 -0.0045679547913319843
decision_type=2 2 10 1 10 2 8 10 8 2 2 2 2 1 10
left_child=1 -1 4 8 5 6 9 -7 -4 -3 -10 -9 13 -11 -15
right_child=-2 2 3 -5 -6 7 -8 11 10 12 -12 -13 -14 14 -16
leaf_value=2.6791138850163919e-05 6.1256864126613598e-08 1.0374488420242009e-05 -4.4493624322070871e-05 6.2621086824391727e-06 1.7993697754883961e-05 4.3851891247877524e-06 1.5491799297179009e-05 1.0630100766909035e-06 -8.7889876043006485e-08 2.039595113939666e-06 -3.2061843062972254e-05 -2.1362301300362559e-05 -7.5841126190545905e-07 -1.297126470480935e-05 -4.0307450338514898e-05
leaf_weight=652 604905 529 573 1005 880 6642 628 850 520 676 547 934 908 1475 1006
leaf_count=652 604905 529 573 1005 880 6642 628 850 520 676 547 934 908 1475 1006
internal_value=0 -2.08117e-06 -3.17736e-06 -1.38837e-05 -1.22814e-06 -2.46753e-06 -8.37886e-06 1.19601e-06 -2.61081e-05 -1.1642e-05 -1.64794e-05 -1.06776e-05 -1.45071e-05 -1.84614e-05 -2.3959e-05
internal_weight=0 17825 17173 2645 14528 13648 5222 8426 1640 4594 1067 1784 4065 3157 2481
internal_count=622730 17825 17173 2645 14528 13648 5222 8426 1640 4594 1067 1784 4065 3157 2481
cat_boundaries=0 1 2
cat_threshold=914 77
is_linear=0
shrinkage=0.1


Tree=44
num_leaves=16
num_cat=0
split_feature=1 9 0 4 7 17 15 17 11 1 15 5 10 5 9
split_gain=7.07382e-06 2.2903e-05 3.85461e-05 3.23677e-05 3.93327e-05 3.39753e-05 8.08828e-05 3.27974e-05 2.71119e-05 2.59213e-05 1.50745e-05 5.41015e-05 2.23733e-05 5.59183e-05 2.5508e-05
threshold=-0.00049949182731562336 -0.0029607583689266188 248.50000000000003 0.00048940782853901254 -0.0038042334934443307 0.44125505592418962 24.162862546624194 0.3784941039568907 -0.63360635033665658 -0.0029845974221401335 39.061319453886718 0.007031448090682014 -0.0028625085005091195 0.0015133804691109811 -0.0015958810260139897
decision_type=2 8 2 10 10 2 2 2 2 2 2 10 8 10 10
left_child=1 2 -1 5 -5 7 -7 -4 -6 -9 11 -2 13 14 -12
right_child=10 -3 3 4 8 6 -8 9 -10 -11 12 -13 -14 -15 -16
leaf_value=-1.6833261224544711e-05 -3.940726794682628e-07 -1.4172858250156734e-06 1.309242157919972e-06 3.7569522836737418e-05 2.0284436379923771e-05 8.0403399794475462e-06 -3.3470994873722605e-05 -1.0451042681192675e-06 -6.9691463396602854e-06 2.5746274036373872e-05 7.1728960480192374e-06 -2.753940819076476e-05 5.3828598283116725e-07 3.9345697825774552e-05 -1.672522674891211e-05
leaf_weight=1125 193745 101702 33187 534 690 981 900 564 775 1004 2992 737 282769 500 525
leaf_count=1125 193745 101702 33187 534 690 981 900 564 775 1004 2992 737 282769 500 525
internal_value=0 -6.21705e-07 1.41331e-06 1.94463e-06 1.43358e-05 1.26852e-06 -1.18215e-05 1.97697e-06 5.86701e-06 1.61096e-05 1.8268e-07 -4.96941e-07 6.4356e-07 8.05412e-06 3.6055e-06
internal_weight=0 141462 39760 38635 1999 36636 1881 34755 1465 1568 481268 194482 286786 4017 3517
internal_count=622730 141462 39760 38635 1999 36636 1881 34755 1465 1568 481268 194482 286786 4017 3517
is_linear=0
shrinkage=0.1


Tree=45
num_leaves=16
num_cat=4
split_feature=2 1 18 3 4 8 18 15 18 17 5 13 18 5 7
split_gain=7.19799e-06 3.30065e-05 5.33337e-05 2.68235e-05 2.40161e-05 5.326e-05 2.73424e-05 3.02032e-05 2.06715e-05 2.04825e-05 5.7827e-05 2.40039e-05 2.20586e-05 2.17173e-05 1.95914e-05
threshold=-0.0010029435128287021 -0.0022154832473494919 0 0.00036510785928456363 0.00077613448072777491 -0.0029709237692964181 1 86.097340127326689 2 0.44125505592418962 -0.0021278742365859467 30.545088013949336 3 0.0026305612668287019 0.0082429265193766383
decision_type=10 2 1 8 8 8 1 2 1 2 10 2 1 10 10
left_child=4 2 -2 -4 8 -6 7 -7 9 13 11 -11 -13 -1 -8
right_child=1 -3 3 -5 5 6 14 -9 -10 10 -12 12 -14 -15 -16
leaf_value=-8.1748316420034799e-07 -2.2197356870209657e-05 -1.0813350480625102e-07 -9.3973238876225393e-06 2.3083652611639279e-05 2.9829963405402552e-05 -1.8296802537650436e-07 7.059073916401728e-06 -2.7132299926662184e-05 1.745815392140595e-06 -1.9225302023275963e-05 -3.6320897215158469e-05 1.8886659028274672e-05 -6.2459026387817151e-06 1.8564381234807104e-05 -1.2799069144815769e-05
leaf_weight=57379 1662 498296 507 510 805 1798 7933 541 49645 534 621 655 730 584 530
leaf_count=57379 1662 498296 507 510 805 1798 7933 541 49645 534 621 655 730 584 530
internal_value=0 -1.6765e-07 -1.12377e-05 6.82397e-06 6.89594e-07 5.01608e-06 3.16687e-06 -6.38891e-06 2.33683e-07 -1.0072e-06 -9.79682e-06 -1.21347e-06 5.73116e-06 -6.22203e-07 5.80858e-06
internal_weight=0 500975 2679 1017 121755 11607 10802 2339 110148 60503 2540 1919 1385 57963 8463
internal_count=622730 500975 2679 1017 121755 11607 10802 2339 110148 60503 2540 1919 1385 57963 8463
cat_boundaries=0 1 2 3 4
cat_threshold=914 1065 1414 1026
is_linear=0
shrinkage=0.1


Tree=46
num_leaves=16
num_cat=3
split_feature=1 13 1 18 2 8 8 4 17 6 18 6 15 18 5
split_gain=6.82802e-06 2.84286e-05 6.64693e-05 3.35784e-05 2.20064e-05 4.76133e-05 4.50773e-05 4.26614e-05 3.17718e-05 3.39366e-05 4.41859e-05 8.60816e-05 4.76252e-05 3.84323e-05 3.58904e-05
threshold=0.0015953160431460003 81.316426983961932 0.0030679233801140797 0 0.00065762147148129568 -0.0083586548816433331 -0.0040697418238825325 -0.0023052534182517732 0.34147623396930704 0.0077211766300030469 1 0.0047214898766463351 33.900142100514337 2 0.0026305612668287019
decision_type=2 2 2 1 10 10 8 10 2 10 1 10 2 1 10
left_child=-1 4 3 -3 6 -6 -2 -8 -7 10 12 14 -10 -11 -12
right_child=1 2 -4 -5 5 8 7 -9 9 13 11 -13 -14 -15 -16
leaf_value=-7.9925794830086972e-08 2.6422233639291896e-05 2.1108566730484798e-05 -2.9363754468086442e-05 -7.0355312733833367e-06 -2.1357387018999333e-05 8.3703042528004961e-08 -1.6562970918124936e-05 8.6749388298944396e-06 -5.354211192357881e-06 -1.6064989373496328e-06 -3.4502216080641924e-06 -3.7035986239370566e-05 3.3766539334984762e-05 3.1638404446726982e-05 2.7752666986922315e-05
leaf_weight=588488 1076 646 975 1190 914 20216 847 3201 516 519 1122 612 784 1075 549
leaf_count=588488 1076 646 975 1190 914 20216 847 3201 516 519 1122 612 784 1075 549
internal_value=0 1.37268e-06 -8.26221e-06 2.94367e-06 2.23437e-06 1.06658e-06 8.22989e-06 3.39418e-06 1.87371e-06 8.86364e-06 3.46336e-06 -4.92846e-06 1.80994e-05 2.10024e-05 6.80136e-06
internal_weight=0 34242 2811 1836 31431 26307 5124 4048 25393 5177 3583 2283 1300 1594 1671
internal_count=622730 34242 2811 1836 31431 26307 5124 4048 25393 5177 3583 2283 1300 1594 1671
cat_boundaries=0 1 2 3
cat_threshold=2581 2305 2304
is_linear=0
shrinkage=0.1


Tree=47
num_leaves=16
num_cat=4
split_feature=7 16 15 1 1 5 18 15 18 13 13 11 18 18 1
split_gain=6.36993e-06 4.66301e-05 9.87565e-05 3.87388e-05 4.36291e-05 5.51871e-05 5.66792e-05 2.62242e-05 2.88396e-05 2.4594e-05 2.22397e-05 2.05967e-05 2.02117e-05 1.87765e-05 1.69678e-05
threshold=-0.0078400119088969916 23.460521637714081 49.978275747275994 0.0012437781172678355 -0.00033934003075414271 -0.0067649461241117695 0 17.128510720518133 1 36.191902317661864 47.03015753146731 -0.51109218247185717 2 3 -0.0022154832473494919
decision_type=8 2 2 2 2 10 1 2 1 2 2 2 1 1 2
left_child=1 3 10 4 7 6 -6 9 -9 11 -3 12 -1 -7 -2
right_child=14 2 -4 -5 5 13 -8 8 -10 -11 -12 -13 -14 -15 -16
leaf_value=1.4656407500320485e-05 -3.3815194804954402e-06 -4.6951096079389119e-05 1.5354110217506229e-05 2.6647934946790808e-05 -6.6183991633536079e-07 -6.2289962180847342e-06 -4.5106342067073632e-05 3.3987774864176659e-05 3.7973317214460258e-06 -8.1675468946658926e-06 -1.766142354862429e-05 2.2783434411137716e-05 -5.5421310424621238e-06 1.7561050017397962e-05 4.1601669174404217e-08
leaf_weight=922 14840 515 754 791 568 621 582 724 576 1100 522 822 1051 696 597646
leaf_count=922 14840 515 754 791 568 621 582 724 576 1100 522 822 1051 696 597646
internal_value=0 2.47306e-06 -1.21843e-05 5.57863e-06 3.4035e-06 -7.54677e-06 -2.35526e-05 8.60356e-06 2.09017e-05 4.49891e-06 -3.22074e-05 9.48392e-06 3.94302e-06 6.42946e-06 -4.13376e-08
internal_weight=0 10244 1791 8453 7662 2467 1150 5195 1300 3895 1037 2795 1973 1317 612486
internal_count=622730 10244 1791 8453 7662 2467 1150 5195 1300 3895 1037 2795 1973 1317 612486
cat_boundaries=0 1 2 3 4
cat_threshold=3472 3480 3269 992
is_linear=0
shrinkage=0.1


Tree=48
num_leaves=16
num_cat=2
split_feature=9 10 3 18 7 1 8 15 11 15 18 5 3 17 13
split_gain=6.20148e-06 2.62968e-05 2.6206e-05 0.000104076 4.30981e-05 4.34939e-05 3.6053e-05 2.09092e-05 8.76679e-05 9.30974e-05 7.42291e-05 2.95691e-05 3.47075e-05 9.61684e-05 2.43296e-05
threshold=0.0042698633589493004 0.0072606141737451288 0.0055080821537779609 0 -0.0030733384993875119 0.0022731927103532006 0.0041117899994836957 57.302583400337809 0.60000000000034981 51.762540622695859 1 0.00027516940148808461 -0.00027728798135751015 0.31409284279060307 65.628354035334681
decision_type=10 10 10 1 10 2 8 2 2 2 1 10 10 2 2
left_child=1 2 -1 4 -4 -6 -5 8 -2 10 -10 12 14 -14 -9
right_child=7 -3 3 6 5 -7 -8 11 9 -11 -12 -13 13 -15 -16
leaf_value=1.3005335298047644e-08 5.660904469696806e-06 1.696731870965689e-05 4.9417851088467495e-05 -2.2949135297638669e-05 2.6100300323621484e-07 3.6855399968364823e-05 7.9721111664110604e-06 6.8832908519001332e-06 1.7131225343435195e-05 -5.8554749949714067e-05 -2.8249462192363863e-05 4.3478039242204351e-07 -4.234482108729213e-06 -5.3976215009759718e-05 -1.2217382199421366e-05
leaf_weight=569071 2289 922 516 922 785 554 638 1657 598 538 881 40327 1374 542 1116
leaf_count=569071 2289 922 516 922 785 554 638 1657 598 538 881 40327 1374 542 1116
internal_value=0 9.25943e-08 6.54172e-08 8.79927e-06 2.47305e-05 1.54016e-05 -1.02375e-05 -1.07595e-06 -7.73319e-06 -2.29335e-05 -9.97599e-06 -4.39152e-07 -7.95527e-06 -1.83055e-05 -8.03817e-07
internal_weight=0 573408 572486 3415 1855 1339 1560 49322 4306 2017 1479 45016 4689 1916 2773
internal_count=622730 573408 572486 3415 1855 1339 1560 49322 4306 2017 1479 45016 4689 1916 2773
cat_boundaries=0 1 2
cat_threshold=1876 3619
is_linear=0
shrinkage=0.1


Tree=49
num_leaves=16
num_cat=3
split_feature=2 5 14 18 3 18 5 10 4 6 2 4 3 17 18
split_gain=6.34267e-06 2.67581e-05 4.588e-05 5.01927e-05 3.50337e-05 2.07481e-05 2.04003e-05 2.03289e-05 1.96871e-05 2.373e-05 2.69168e-05 2.97545e-05 3.03906e-05 2.02554e-05 1.99195e-05
threshold=-0.0026666684833765992 -0.0067649461241117695 1.9305304847204396 0 -0.0039631096950102354 1 0.0043236280162413107 -0.0071768836264758376 -0.0037874997399484629 -0.0025765304051617029 -0.001613112710255493 -0.0060768633162330823 -0.0017994049373196706 0.31409284279060307 2
decision_type=10 8 2 1 10 1 10 10 8 10 10 10 10 2 1
left_child=6 2 5 -4 -5 -2 -1 -6 9 10 13 -12 -13 -3 -11
right_child=1 8 3 4 7 -7 -8 -9 -10 14 11 12 -14 -15 -16
leaf_value=1.014152911467319e-06 1.8043188044109594e-05 -1.9590478382350185e-06 7.3549689308693705e-06 -4.5553932391522452e-05 -2.7409264847230021e-05 -4.4496755248898273e-06 1.8929446242370849e-05 -2.1858412379762003e-06 -1.0347131199228292e-07 2.5000186614909633e-05 2.4791905531941789e-05 8.2321461848300391e-06 -8.5727591966571418e-06 -2.324356878641078e-05 6.4390186098676673e-06
leaf_weight=30798 682 3677 651 574 697 1002 649 590 574197 821 733 3639 1528 509 1983
leaf_count=30798 682 3677 651 574 697 1002 649 590 574197 821 733 3639 1528 509 1983
internal_value=0 -7.35799e-08 -8.03084e-06 -1.65924e-05 -2.48754e-05 4.74039e-06 1.38389e-06 -1.58461e-05 -1.67081e-08 3.84824e-06 1.58593e-06 5.9373e-06 3.26255e-06 -4.54716e-06 1.19858e-05
internal_weight=0 591283 4196 2512 1861 1684 31447 1287 587087 12890 10086 5900 5167 4186 2804
internal_count=622730 591283 4196 2512 1861 1684 31447 1287 587087 12890 10086 5900 5167 4186 2804
cat_boundaries=0 1 2 3
cat_threshold=3124 1440 58
is_linear=0
shrinkage=0.1


Tree=50
num_leaves=16
num_cat=0
split_feature=11 13 7 3 5 0 2 10 2 6 6 3 3 10 8
split_gain=6.42968e-06 1.52378e-05 3.86354e-05 2.08871e-05 4.47504e-05 2.21887e-05 2.75482e-05 2.61784e-05 2.01684e-05 3.67329e-05 3.09402e-05 4.17814e-05 2.11417e-05 1.88896e-05 1.77072e-05
threshold=0.058187414500695138 27.904237283575025 -0.0078400119088969916 -0.00094483482985224787 -0.0042195873318726087 709.50000000000011 0.0013407107901369788 -0.0011391920767185868 0.00048864766772882551 -0.0046247839243499502 0.0035835497809475485 0.0033331096124116226 -0.00078261531624457248 -0.0012677216933970057 -0.0040697418238825325
decision_type=2 2 8 10 8 2 10 8 8 8 10 10 10 10 8
left_child=-1 8 -3 5 -5 6 7 -4 -2 -10 11 12 -11 -7 -6
right_child=1 2 3 4 14 13 -8 -9 9 10 -12 -13 -14 -15 -16
leaf_value=-2.7252270041343414e-07 1.9195609939143366e-07 1.7391994856951533e-05 6.695851995945117e-06 -2.0931592775905232e-05 7.1747249569456704e-06 -2.3546449450056475e-05 1.840653688240282e-05 -2.2921916016000554e-07 -3.1692333416994989e-05 -2.11135899066121e-05 -2.6315058432138005e-05 2.5192655659481591e-05 -2.7550750688515428e-06 2.2731118149059858e-06 1.9156509919272797e-07
leaf_weight=362084 16819 1368 10690 996 3697 554 1253 11155 509 686 586 510 7329 580 203914
leaf_count=362084 16819 1368 10690 996 3697 554 1253 11155 509 686 586 510 7329 580 203914
internal_value=0 3.78827e-07 6.35724e-07 5.37275e-07 2.1447e-07 3.31623e-06 3.98671e-06 3.15961e-06 -1.89686e-06 -5.54882e-06 -4.08827e-06 -2.56042e-06 -4.32637e-06 -1.03407e-05 3.15917e-07
internal_weight=0 260646 234207 232839 208607 24232 23098 21845 26439 9620 9111 8525 8015 1134 207611
internal_count=622730 260646 234207 232839 208607 24232 23098 21845 26439 9620 9111 8525 8015 1134 207611
is_linear=0
shrinkage=0.1


Tree=51
num_leaves=16
num_cat=3
split_feature=0 14 2 0 16 17 18 3 0 9 9 11 7 18 18
split_gain=6.30415e-06 1.58571e-05 2.60106e-05 4.87175e-05 3.53029e-05 6.34616e-05 3.25822e-05 3.13277e-05 2.95754e-05 4.0532e-05 2.58468e-05 2.10387e-05 2.08085e-05 2.33891e-05 1.97075e-05
threshold=406.50000000000006 90.654662651631796 0.0027246165142013061 389.50000000000006 72.195320317152508 0.44125505592418962 0 0.0055080821537779609 332.50000000000006 0.0028155584655585879 -0.00439585535324477 0.60000000000034981 -0.0012157973498973516 1 2
decision_type=2 2 10 2 2 2 1 10 2 8 10 2 8 1 1
left_child=1 2 7 4 5 8 -6 14 9 -4 -10 -12 -3 -14 -1
right_child=-2 12 3 -5 6 -7 -8 -9 10 -11 11 -13 13 -15 -16
leaf_value=4.6491191586142924e-07 1.914453169050486e-07 -1.6179246193788878e-05 2.4918631744021398e-05 -3.5299162949081015e-05 -1.7070545827994499e-06 2.4847531905238375e-05 -3.3760068462453407e-05 2.0593175667255381e-05 -3.083760108331492e-05 -1.0572813168200891e-05 -1.8913095903048469e-05 3.0400964557141638e-06 4.5711244637380186e-06 -8.2225433632626386e-07 -2.0412558781429051e-06
leaf_weight=61225 457319 657 610 565 596 818 687 687 586 681 779 993 15627 16551 64349
leaf_count=61225 457319 657 610 565 596 818 687 687 586 681 779 993 15627 16551 64349
internal_value=0 -5.28951e-07 -1.01622e-06 -7.27934e-06 -4.52609e-06 -3.26787e-07 -1.91467e-05 -7.02963e-07 -5.97014e-06 6.19696e-06 -1.26316e-05 -6.61088e-06 1.43845e-06 1.79816e-06 -8.19471e-07
internal_weight=0 165411 132576 6315 5750 4467 1283 126261 3649 1291 2358 1772 32835 32178 125574
internal_count=622730 165411 132576 6315 5750 4467 1283 126261 3649 1291 2358 1772 32835 32178 125574
cat_boundaries=0 1 2 3
cat_threshold=3157 882 2725
is_linear=0
shrinkage=0.1


Tree=52
num_leaves=16
num_cat=0
split_feature=3 2 17 11 5 8 8 17 13 17 16 16 10 13 16
split_gain=6.50563e-06 2.88535e-05 3.54535e-05 1.85028e-05 4.36369e-05 5.24217e-05 3.28958e-05 3.15095e-05 4.11945e-05 5.19048e-05 3.64322e-05 5.39664e-05 4.00476e-05 4.10351e-05 2.95838e-05
threshold=0.0022358449696494591 0.0044347827878489241 0.34147623396930704 0.77777777777768053 0.00054678706649691222 0.00068663044696115627 -0.0053082231836335527 0.25808142322934752 47.03015753146731 0.21577330343165999 92.598937809319651 87.297446704537847 0.0039856684020647135 41.857284576038687 66.862694239030915
decision_type=10 10 2 2 8 8 8 2 2 2 2 2 8 2 2
left_child=1 -1 -3 6 5 -5 -2 8 9 -6 11 12 13 -9 -14
right_child=3 2 -4 4 7 -7 -8 10 -10 -11 -12 -13 14 -15 -16
leaf_value=7.0827395581488733e-08 -2.1461242475130594e-05 -1.1618589492830481e-07 3.4691703122532349e-05 4.2642773511049487e-06 -6.5190996965077595e-06 4.4331576532250881e-05 -1.7789494923422767e-06 -2.1458848995344888e-06 8.9773728354164478e-07 -4.1400098410870121e-05 -1.066060847621259e-05 4.2637651064109138e-05 1.3025157005254146e-05 3.298565562790169e-05 -1.6457255492879029e-05
leaf_weight=563633 868 643 537 924 2418 505 39119 549 9392 518 857 503 565 843 856
leaf_count=563633 868 643 537 924 2418 505 39119 549 9392 518 857 503 565 843 856
internal_value=0 1.03531e-07 1.57244e-05 -1.00933e-06 1.6599e-06 1.84238e-05 -2.20619e-06 2.08129e-07 -2.33427e-06 -1.26732e-05 7.71896e-06 1.2469e-05 7.07452e-06 1.91299e-05 -4.73483e-06
internal_weight=0 564813 1180 57917 17930 1429 39987 16501 12328 2936 4173 3316 2813 1392 1421
internal_count=622730 564813 1180 57917 17930 1429 39987 16501 12328 2936 4173 3316 2813 1392 1421
is_linear=0
shrinkage=0.1


Tree=53
num_leaves=16
num_cat=4
split_feature=2 1 3 18 9 8 18 10 18 18 0 3 3 9 17
split_gain=5.81647e-06 2.44419e-05 4.92204e-05 3.81391e-05 3.43984e-05 1.97637e-05 3.35784e-05 2.34375e-05 4.19801e-05 2.23074e-05 2.86364e-05 1.87881e-05 1.72108e-05 1.87385e-05 1.53726e-05
threshold=-0.0010029435128287021 -0.0022154832473494919 0.0028602923557415898 0 -0.00085733141403715452 0.0065957161872312051 1 0.0072606141737451288 2 3 716.50000000000011 -0.00078261531624457248 0.00088972919142937823 0.0023397149679895706 0.3784941039568907
decision_type=10 2 8 1 8 10 1 10 1 1 2 10 10 8 2
left_child=5 2 3 4 -2 7 11 9 -9 10 14 -7 -11 -14 -1
right_child=1 -3 -4 -5 -6 6 -8 8 -10 12 -12 -13 13 -15 -16
leaf_value=2.5952300962568869e-06 -4.7067091958433762e-05 -9.9423917784176704e-08 1.7457718429999931e-05 -1.1832912354484987e-06 -1.3086815835412195e-05 1.586399337522699e-05 -2.2774292748495241e-05 3.4622145425860903e-05 -3.405926369626511e-06 -5.2680372702390322e-07 -1.8836965218411183e-05 -1.0156349982912494e-05 1.5151985726724852e-05 -4.080195002563098e-06 1.2720970313230086e-05
leaf_weight=35213 541 498296 535 940 663 553 949 550 606 78929 609 557 1442 781 1566
leaf_count=35213 541 498296 535 940 663 553 949 550 606 78929 609 557 1442 781 1566
internal_value=0 -1.5064e-07 -9.67678e-06 -1.64478e-05 -2.81218e-05 6.19959e-07 -9.09415e-06 7.8706e-07 1.49571e-05 6.48875e-07 2.66953e-06 2.78188e-06 -2.82368e-07 8.3952e-06 3.02637e-06
internal_weight=0 500975 2679 2144 1204 121755 2059 119696 1156 118540 37388 1110 81152 2223 36779
internal_count=622730 500975 2679 2144 1204 121755 2059 119696 1156 118540 37388 1110 81152 2223 36779
cat_boundaries=0 1 2 3 4
cat_threshold=2434 2854 1158 2672
is_linear=0
shrinkage=0.1


Tree=54
num_leaves=16
num_cat=2
split_feature=10 6 18 18 7 16 0 3 5 10 0 0 9 15 9
split_gain=5.98868e-06 2.54206e-05 5.1215e-05 2.04059e-05 3.76235e-05 2.64958e-05 5.02432e-05 2.69555e-05 3.20289e-05 2.51394e-05 6.67305e-05 3.2564e-05 2.43422e-05 2.2869e-05 2.09411e-05
threshold=0.0059794308217490108 -0.0039910107036434375 0 1 -0.00025042650819806495 88.636201966093751 248.50000000000003 0.00016396138959340337 0.0016514305225223682 0.0072606141737451288 716.50000000000011 686.50000000000011 -0.006827480178066391 86.097340127326689 0.0068705582717154554
decision_type=8 8 1 1 8 2 2 10 10 8 2 2 10 2 10
left_child=-1 2 -2 5 12 6 -3 8 -8 -6 11 -11 -5 -7 -9
right_child=1 3 -4 4 9 13 7 14 -10 10 -12 -13 -14 -15 -16
leaf_value=8.2334293174256997e-08 9.050776238010877e-06 6.7410693164105863e-06 -2.9082158512632965e-05 1.9234882334653428e-06 -5.4814094151454928e-06 1.5750339240136101e-05 -1.1245289067553616e-05 -1.0861785517956884e-05 1.5595608633687786e-05 1.535518846715224e-06 3.2624028893101695e-05 -2.3935723244272242e-05 3.0914348228959302e-05 -1.4783304594762394e-06 -2.6711215776362526e-05
leaf_weight=581757 579 1789 883 509 5993 893 1669 1801 606 17212 684 517 672 5614 1552
leaf_count=581757 579 1789 883 509 5993 893 1669 1801 606 17212 684 517 672 5614 1552
internal_value=0 -1.16849e-06 -1.41173e-05 -6.89353e-07 9.87336e-07 -3.76847e-06 -7.85703e-06 -1.24974e-05 -4.09558e-06 1.44199e-07 1.9752e-06 7.92745e-07 1.84196e-05 8.86077e-07 -1.8198e-05
internal_weight=0 40973 1462 39511 25587 13924 7417 5628 2275 24406 18413 17729 1181 6507 3353
internal_count=622730 40973 1462 39511 25587 13924 7417 5628 2275 24406 18413 17729 1181 6507 3353
cat_boundaries=0 1 2
cat_threshold=3331 1292
is_linear=0
shrinkage=0.1


Tree=55
num_leaves=16
num_cat=2
split_feature=0 17 12 14 0 18 13 16 16 5 10 1 10 2 18
split_gain=5.67759e-06 2.42997e-05 5.02814e-05 5.26547e-05 7.88092e-05 6.03659e-05 5.59433e-05 5.31e-05 7.00491e-05 5.09018e-05 5.32279e-05 3.86341e-05 3.12053e-05 2.36761e-05 4.18508e-05
threshold=614.50000000000011 0.1879857301323398 -184.29304902450772 33.286743970125322 654.50000000000011 0 41.857284576038687 38.726398366228871 44.287708147486832 0.007031448090682014 0.0035851357920957398 0.0015953160431460003 0.0026866710660354847 -0.0012072434607645619 1
decision_type=2 2 2 2 2 1 2 2 2 10 10 2 10 10 1
left_child=-1 -2 -3 12 9 6 -6 11 -9 10 -5 -7 13 -4 -15
right_child=1 2 3 4 5 7 -8 8 -10 -11 -12 -13 -14 14 -16
leaf_value=-2.0380025214298543e-07 -2.3121036519598207e-08 -1.9873304137171025e-05 1.3715530214191596e-05 1.6677929476187179e-05 -4.8394412493204081e-05 -6.359170720259257e-06 -9.3502026238645493e-06 3.7432434490626369e-05 1.0665143027333491e-06 4.0869091479283463e-05 -5.8378468929089008e-06 -3.4775932505102817e-05 3.0544826785577065e-05 2.1430186912073712e-05 -1.5768744553103642e-06
leaf_weight=427829 165515 923 4237 2751 503 2409 1357 565 8473 530 1698 597 679 998 3666
leaf_count=427829 165515 923 4237 2751 503 2409 1357 565 8473 530 1698 597 679 998 3666
internal_value=0 4.47363e-07 3.09734e-06 3.84223e-06 7.78677e-07 -3.08725e-06 -1.98025e-05 -4.89014e-07 3.33989e-06 1.15744e-05 8.08459e-06 -1.20028e-05 9.88076e-06 8.30443e-06 3.38873e-06
internal_weight=0 194901 29386 28463 18883 13904 1860 12044 9038 4979 4449 3006 9580 8901 4664
internal_count=622730 194901 29386 28463 18883 13904 1860 12044 9038 4979 4449 3006 9580 8901 4664
cat_boundaries=0 1 2
cat_threshold=632 3092
is_linear=0
shrinkage=0.1


Tree=56
num_leaves=16
num_cat=2
split_feature=11 18 5 9 3 15 9 6 1 5 9 13 18 10 4
split_gain=5.51381e-06 1.77111e-05 2.40608e-05 4.67321e-05 2.53494e-05 2.10039e-05 3.32774e-05 4.13248e-05 1.8214e-05 0.000177496 4.68646e-05 0.000100083 6.66543e-05 2.9287e-05 2.32385e-05
threshold=0.20000000000023013 0 -0.0050927957469441001 -0.008977553714527851 -0.0032724529467086923 32.20549657787722 -0.006827480178066391 -0.0046247839243499502 0.0030679233801140797 0.0015133804691109811 0.0091970762966943082 70.374530101048109 1 0.0044819620408246283 0.0062751573299112415
decision_type=2 1 8 8 10 2 10 8 2 8 10 2 1 8 8
left_child=-1 2 4 -4 -2 6 -5 -8 14 -10 12 -12 13 -11 -7
right_child=1 -3 3 5 -6 8 7 -9 9 10 11 -13 -14 -15 -16
